0.1703903
0.25518855
-0.27839103
0.41067842
-0.09404589
-0.33024052
0.33787704
-0.101926416
-0.22579439
-0.027809273
-0.12850313
-0.14243361
-0.27617112
0.21675679
0.006841312
0.08334605
0.09859456
-0.02443061
-0.20530035
-0.23863941
-0.021932324
-0.29582208
0.14190573
0.2489533
0.17996457
0.20388903
0.28614247
0.030310797
-0.04131879
-0.2719808
0.12862888
0.074358754
0.26296413
0.23197998
0.14562206
0.1763394
0.24984351
0.02446584
0.110911734
-0.3240235
-0.26357433
0.10300786
-0.14786197
0.11876453
-0.2798134
0.24952188
0.21836308
0.0808353
0.079591826
-0.30344188
-0.20179547
-0.20206457
-0.27589157
-0.01827736
-0.08390439
0.29032913
0.3694627
0.022888817
0.2613586
0.15624051
0.2448651
0.16035321
-0.30886945
0.005690226
0.06958162
-0.24297263
-0.28301054
0.14912778
0.10521018
-0.23201562
0.18147488
-0.20194961
0.15335521
0.09707797
-0.0013533825
0.083491094
-0.33589292
-0.40060896
-0.15661733
-0.36937425
-0.36038393
-0.18458205
0.10714389
0.2957471
-0.30182981
-0.1619518
0.27987295
-0.071658924
-0.21554942
0.10877715
0.08168626
-0.19919589
-0.17221712
-0.3273844
-0.28624874
-0.016449453
-0.08226931
-0.17222443
-0.25191575
0.093578756
0.217822
0.2047801
0.2955098
0.3159296
-0.07921376
0.30234265
-0.038703155
0.24778071
-0.1944196
-0.16720402
0.23801155
0.048629865
0.121829085
0.10530477
0.2444964
0.16375509
0.124067746
0.06044463
0.059603408
0.16942567
0.04036939
0.26487562
-0.10301494
-0.09156653
-0.3040269
-0.14342315
-0.23522209
-0.23518738
-0.17488027
-0.2728187
-0.03898113
-0.094398506
-0.14542757
-0.2598678
-0.024654398
-0.023527341
-0.018395716
-0.098572396
0.2308124
0.45399386
0.31055748
0.3338138
0.48823705
0.20939817
0.14495614
0.2458795
-0.09853671
-0.24396513
-0.1908389
0.30114564
-0.19685064
-0.35281122
0.10078007
0.18083097
0.17704278
0.26074356
0.024271188
0.1754238
0.24394791
0.061031148
-0.19335243
-0.11980679
-0.1609127
0.036639687
-0.2974405
0.20225708
0.26314542
0.30586383
0.1392237
0.35853848
-0.16477665
0.208649
0.2758471
0.12286624
-0.014372352
0.4275359
0.43392673
0.05226062
0.16127343
0.021975197
-0.36911246
-0.08548786
0.2693562
-0.16078697
-0.29331708
0.28950977
0.3145556
-0.2139108
0.20454207
-0.16977333
0.016753431
0.10797557
-0.17447586
-0.24298693
-0.16697173
0.15875691
-0.18455487
-0.16689089
-0.23772024
-0.044043664
-0.19804685
-0.22479194
-0.22955813
0.08049856
-0.116013385
-0.23576319
-0.037187565
0.1789972
-0.10678474
0.2363988
0.006817475
0.29150468
-0.20916453
0.29905832
0.053040102
-0.13894045
0.084476635
0.17710619
-0.13350913
0.31034476
0.479075
0.2511197
0.2662246
0.35543615
0.29799217
-0.23036979
-0.04460475
0.0132189
0.2989221
0.25626558
0.10158258
-0.10987756
0.29424194
-0.26989666
-0.16339241
0.06912347
0.03153441
-0.15761381
-0.3251234
0.014348352
-0.08857442
0.14440337
-0.26253247
-0.08375974
0.21850498
0.24770948
0.17573774
0.23366833
-0.17043923
-0.23161298
0.03953198
0.23784645
0.16374847
-0.08231097
-0.112586066
-0.11305213
-0.037671626
-0.07732437
0.20321395
-0.05101432
-0.28837577
-0.10964896
-0.24437732
0.28873837
-0.0034762295
-0.14822835
0.32148874
0.27544495
-0.015617635
-0.2773338
0.16017562
0.10875379
-0.18358901
0.3955582
0.0764456
-0.19661674
-0.122746624
0.2905658
0.21817614
0.08232392
-0.20634183
0.03965913
0.25118497
0.04674881
0.09114475
0.3502332
-0.020094668
-0.07827403
-0.2300069
-0.030055383
-0.105704285
-0.32436845
-0.28164136
-0.10376908
0.0027890392
0.08267104
-0.065404795
-0.08754971
-0.22712328
-0.026539417
-0.26419976
-0.10337433
-0.20865144
0.24318191
-0.25414276
0.14650133
0.10103991
0.076643944
0.2543658
0.115070395
0.42376912
0.14079335
0.32723355
0.37543088
-0.03591441
0.012372074
0.20441452
0.3370125
0.132419
0.14226966
0.23820864
-0.21282478
-0.016510755
0.1459143
-0.06889216
-0.24136111
-0.12526597
-0.19313873
-0.21396317
-0.28027278
0.22872867
0.27170527
0.33657402
0.17215419
-0.018283578
-0.270311
-0.029835012
-0.11726658
-0.3154627
-0.20245075
-0.2993638
-0.039303932
0.06977715
0.148784
0.319991
-0.045397174
0.32733524
0.27979183
-0.26499867
-0.029678104
-0.1028847
0.25617936
-0.10223252
-0.27128017
-0.022818709
0.10787091
-0.28106225
0.03442635
-0.19946775
0.21279375
0.059264496
0.18386887
0.18855964
0.17623994
0.14774394
0.15703395
0.0063298405
0.16201848
-0.019405449
-0.17294942
-0.052532926
0.12092421
0.24542017
0.20975138
-0.13785961
-0.026714459
-0.31181455
-0.22812577
0.09631961
-0.077315606
-0.13659652
0.24349952
0.21613503
0.29198962
0.1349638
0.17450489
0.30344942
0.35122117
0.32419437
-0.023497371
0.07676536
0.19947866
0.3247975
0.05636958
0.20459911
-0.014364244
0.2680598
0.029684125
0.032214276
0.09073356
0.2231621
0.22945146
0.02078569
-0.27783337
-0.2759712
0.14543293
0.0022740045
-0.039702047
-0.1175264
0.2229922
0.24807419
0.103608154
-0.06654267
0.16349627
0.013299735
-0.07097442
0.13369372
-0.09723469
-0.16383357
-0.23738648
-0.07516613
-0.3328764
-0.13566738
-0.16909471
-0.16049615
0.2558309
0.16954596
0.20162578
-0.15305367
-0.27745578
0.24935944
0.32500798
-0.042556368
-0.24570167
-0.1505005
0.028389594
-0.10795679
0.21880825
-0.12368394
-0.08792131
-0.3061064
-0.35159147
-0.23197982
-0.09493423
0.17540687
-0.044855323
0.21459551
0.04608004
0.13320228
-0.13396434
-0.01528936
-0.19385602
-0.33815354
-0.24536349
-0.11285419
-0.26772496
-0.032213107
0.019827906
-0.37162104
-0.044255085
-0.17684144
-0.2875357
0.25631335
-0.29471537
-0.24822591
0.29885665
0.35758916
0.1957096
0.19309287
0.06986842
0.20712264
-0.08070013
0.16551551
0.019507855
0.26875544
-0.020564396
-0.2386108
-0.17467265
-0.219446
0.14098868
-0.15189418
0.030236278
-0.21869394
-0.12000264
-0.09454162
0.1873634
0.011089724
-0.062006842
0.22788443
0.03950412
0.1689551
0.3144996
-0.22517313
0.096168235
-0.1347343
0.09008972
-0.16663098
0.028952077
-0.26160026
0.015702182
-0.24624601
0.18295315
-0.3625321
-0.17093538
-0.2720097
0.065951094
0.17831476
0.22138086
-0.14694326
0.14650555
-0.26416883
0.091383606
-0.2083965
-0.3076766
-0.26180416
0.3282811
0.010495148
-0.019407831
0.31816056
-0.0316259
0.23025404
-0.15143104
-0.14369087
-0.105775304
0.023680829
-0.25108194
-0.08331264
-0.26474628
0.25134015
-0.17906041
0.0026860796
-0.14788567
-0.22472905
0.050349753
-0.23653248
-0.26905409
-0.18465947
-0.17391166
-0.161385
-0.0975167
0.028976042
0.19942832
0.10246288
0.2445089
0.17936444
0.2293145
-0.33202913
-0.10036664
-0.20597902
-0.010097581
0.21736382
0.11491539
0.08821781
0.065746225
0.26150358
-0.0077847475
-0.23555511
0.17515539
-0.08053268
-0.32766578
-0.2354453
-0.2558072
-0.19882475
0.0026534905
-0.16660443
0.23135526
0.14996722
0.038069256
-0.22441068
-0.08690602
0.042726886
-0.27653602
0.12892266
-0.09899392
0.11183325
0.25883245
