-0.26482207
0.039035555
-0.10648955
0.11480061
-0.2645968
0.1215831
-0.040697042
0.35897356
-0.1631621
0.048830383
-0.26258227
0.01574849
0.25415748
0.010439347
-0.35222894
0.043304276
-0.21479706
0.3110447
-0.26066288
0.029357828
0.35823053
0.07554656
0.2527539
0.14926529
0.18150164
-0.10203164
0.14304288
0.07779742
-0.114499725
0.019798687
0.098375805
0.12154914
-0.17946711
-0.40951252
0.33304963
-0.18941838
-0.26183882
0.15108232
-0.07882752
0.06667423
0.288405
-0.19661368
0.15487024
-0.34562933
-0.27453044
0.04067237
0.2019441
0.33522877
0.121602744
0.07043046
-0.3145996
0.13605995
-0.26043043
0.21532083
-0.31545573
0.25861818
0.053365897
-0.29427296
-0.3354061
0.14793271
-0.16252796
-0.008790834
0.050614834
0.31875026
-0.09928631
0.046640947
-0.1412487
-0.29249635
0.1702534
0.13125476
0.06954398
-0.2811749
-0.06937073
0.1185132
0.017185971
0.20130284
0.36791745
-0.07963651
-0.008377098
-0.1860168
0.094033055
0.055762086
0.20342916
-0.2008853
-0.022182826
0.2567067
0.28373113
0.031163204
-0.31728408
-0.37661958
0.31282297
0.050705355
-0.2578793
0.35512453
0.10565795
0.028590491
-0.29153696
0.23870201
0.22317556
0.09223584
-0.050045118
0.17557946
-0.22170427
0.39498404
-0.03939295
0.11622288
-0.21720408
-0.152595
-0.3104311
0.23667616
-0.06406595
0.19466157
-0.036574442
-0.30297068
-0.20755026
-0.0037611746
0.2707556
0.0754175
0.16141802
0.15475903
0.27167794
-0.11745762
-0.39195114
-0.18270549
0.29293576
0.33917692
-0.22566514
-0.19027565
-0.054294012
0.19502334
-0.15292048
0.03859691
-0.31907347
0.10385644
0.32747775
-0.0110087395
0.04470238
0.33300814
0.015637893
-0.27612403
-0.008526923
-0.12777588
-0.119163655
-0.19552055
0.2773428
0.039439864
0.1933044
-0.10119131
-0.02154476
-0.23474751
-0.010336458
0.044838298
-0.25946945
-0.107654616
0.26156867
-0.08408088
-0.10918923
-0.16915794
0.39817962
0.22282092
0.29890776
0.16282341
0.11828518
0.13973936
0.17212418
-0.06873254
0.021105682
-0.23512888
-0.21235578
0.35878745
0.23538724
0.12404294
0.09355956
-0.16741024
-0.05119949
-0.33462754
0.36705372
0.17300695
0.34245783
-0.34057108
-0.14277191
0.14979629
0.035357043
-0.13214317
-0.22154039
0.012580508
0.13725542
-0.053302377
-0.36829293
0.02672892
0.25537017
0.24496694
-0.31124964
-0.28732574
-0.2072552
0.07461288
-0.1812367
0.17780665
0.2778339
-0.31010303
0.16627125
0.088363975
0.15137115
-0.22839878
0.17314988
-0.061044842
0.039913375
0.09022866
0.32124436
-0.033049032
0.17027022
-0.1967096
-0.22526191
-0.15894632
-0.012266382
0.20888048
0.031617705
-0.063330635
0.23123392
-0.2849257
-0.23770738
0.26226464
-0.06396061
0.09075795
-0.19894266
0.03362608
-0.23094535
-0.18157256
0.08204197
-0.29466066
-0.010800659
-0.04145378
0.336173
-0.009683837
0.16988221
-0.26551148
0.19155961
-0.0067403014
0.09655494
0.030305296
-0.049614176
-0.07573212
-0.20744087
-0.25851738
-0.18076843
-0.1137326
0.18582177
0.15582336
0.04379043
0.19886997
-0.23634219
-0.020446878
-0.24046339
0.4006462
-0.19575591
-0.1249483
-0.13124053
-0.13286908
0.10393361
0.044540852
0.21254435
0.16376802
-0.08042508
0.18446209
-0.11117127
-0.05915068
0.060999446
-0.29828328
0.407212
-0.3497517
-0.26287273
0.1581512
0.21356934
0.032683764
-0.06738683
-0.27543333
-0.3178774
0.1813335
-0.13111185
0.1920221
-0.020655073
0.26567686
0.024848435
-0.057142764
0.29616526
-0.14098199
-0.043498896
0.101797305
-0.18636745
0.23143727
-0.0018217417
0.2584891
-0.28531128
-0.039706517
-0.12134393
0.08376354
-0.34049666
0.036902033
0.071575105
-0.12924024
0.10322954
-0.21745865
-0.092065126
-0.23202777
0.2196542
-0.09817286
0.24619791
0.13234647
-0.057479173
-0.24131428
0.12504439
0.08607382
-0.089014865
0.11738294
0.22592172
0.27214646
0.12155112
-0.081705555
-0.031845406
0.13862589
-0.19757384
0.30163553
0.20217784
-0.3108146
-0.32541883
-0.056490023
0.26681262
-0.30982718
0.26087734
-0.2763051
0.2805112
-0.17960687
0.09322857
0.29262576
0.023500046
0.1627263
-0.011400866
-0.32431203
0.22131304
0.2918512
0.1924518
0.16610354
-0.08020136
-0.11381266
0.33308268
0.1419916
-0.046201564
0.16121663
-0.17468339
0.29016057
0.22450295
0.06297716
-0.23661731
0.28927124
0.07479311
-0.21881957
0.23224221
-0.2522019
-0.005753648
0.29815334
-0.24559288
-0.1523565
-0.24997418
-0.22718224
-0.025428465
0.3723452
-0.26034945
0.1091842
0.3070356
0.15666918
-0.21782131
-0.17415904
0.020422343
-0.13853686
-0.17623784
-0.13383079
-0.023362791
-0.056940105
-0.20761596
0.08148267
-0.19428834
-0.093035966
0.043106984
-0.28789893
-0.22606963
-0.17286761
0.19822082
-0.20171842
0.23658496
-0.123765506
0.06697663
-0.3025281
0.29900664
0.09171949
0.18187585
-0.27972943
0.37114915
0.3621394
-0.28739175
-0.11582522
0.1926559
0.05635355
-0.17556782
-0.13082832
-0.40366066
0.16698337
-0.14444558
0.06451093
-0.11713394
-0.17852987
-0.11692836
-0.17781484
-0.31605732
0.271766
-0.06615763
-0.16405882
-0.038554497
-0.15147512
0.16789196
0.17923184
0.16903877
0.07271157
-0.011085698
0.15367678
-0.057825606
0.18795
-0.30543622
-0.28411695
-0.28041717
0.18664633
0.28061143
-0.17450254
0.23392679
-0.2777749
-0.08399633
-0.13482545
-0.20395978
-0.015686825
-0.12802592
-0.11552143
0.13475667
-0.26541883
0.077583715
0.25650588
-0.22467405
0.2121659
0.26212302
-0.19620737
0.0045827767
0.1209878
0.282554
0.07475302
0.027973324
0.0824374
-0.19797096
0.032257654
0.26153907
-0.35648215
0.19435908
-0.21100503
0.35837185
0.029995684
-0.16092777
-0.11010684
-0.025920147
0.17628461
-0.31853545
0.12753628
-0.17069001
0.31155026
-0.20705886
0.01082656
-0.009616143
-0.023798192
0.098010845
-0.18152118
-0.13734302
0.14290698
-0.3251975
0.37001815
-0.10392172
-0.19977686
-0.11940554
0.3169326
-0.24052647
0.1383444
-0.21574177
0.054636776
-0.2048735
-0.03054303
-0.08504834
0.17273998
0.28977013
0.018828005
0.2547376
0.37999827
-0.14729737
-0.2720476
0.18391618
-0.010926562
0.16560578
-0.048350893
-0.24638005
-0.317869
-0.30870464
0.24305393
-0.33569407
0.13047013
-0.14335755
0.3123328
-0.13361473
0.26721907
0.18406716
0.040683046
0.033842545
0.3693868
-0.15833154
0.045852117
0.19379507
0.08672746
-0.08401336
-0.34848297
-0.09694076
0.28673336
-0.24416347
0.0835212
-0.18766217
-0.23628646
-0.25939575
0.16856031
0.2106971
0.15839964
0.16448241
0.099424414
-0.1071149
0.23534496
0.11561614
0.11893242
0.23045518
0.27029592
-0.14497028
0.13374525
0.25638467
0.1877722
-0.3261172
-0.31068832
0.36372095
0.26052812
0.24651754
-0.2609658
0.17971222
-0.16765408
0.06385198
-0.017322145
0.18391071
0.31991968
0.3411153
-0.3339812
0.09983168
-0.2262116
-0.26170278
-0.284174
0.2565261
0.33721802
-0.336834
0.17261407
0.150712
0.10164828
-0.010426142
-0.08982165
0.23842709
-0.20774372
0.31679687
0.23256378
-0.20260742
0.20163
-0.1568619
0.13333309
0.30731052
0.0917642
0.45622513
0.08362155
-0.039092503
0.24261618
0.056146175
-0.07030813
0.038998853
0.17240728
-0.017521339
-0.024225233
-0.12562393
-0.08168765
0.3205327
0.3471408
0.0639371
-0.1397008
0.0032366342
-0.26265824
0.29268363
0.20053473
0.20961791
-0.010878158
-0.28229636
-0.23689643
-0.29780102
0.2912122
-0.2614996
0.044616416
0.008981046
-0.111236356
-0.07561147
0.1595615
0.10924928
0.20248458
0.044339143
0.33714363
-0.3429371
-0.22377601
0.1458763
0.15445335
0.35209185
-0.30169708
-0.30969295
-0.05245623
0.29289284
-0.13812114
-0.29822892
-0.07930242
-0.23707893
0.0581961
-0.11364928
0.21158288
0.25656807
0.33555806
0.18792553
-0.08698476
-0.25912458
-0.16395518
0.057765603
-0.28759298
0.33766988
0.21322522
-0.24303545
0.029029034
0.03503433
-0.02626911
0.18619372
0.091433264
0.20919523
-0.24021176
0.13834812
0.05612333
-0.18639648
-0.19047917
0.2821196
-0.05609169
0.16767082
0.20248574
-0.1873812
0.29433322
-0.16555357
0.31751812
0.18439242
0.3597755
-0.28253484
0.058713954
-0.30281827
0.08767394
-0.15831849
0.24134108
0.03112392
0.34382915
-0.16387983
0.30978093
0.1003968
0.13308947
0.13193657
0.26117766
-0.3216453
0.15067816
-0.03688708
0.34524497
0.12713712
-0.045382123
0.09704726
0.26281744
0.14599282
-0.022744427
0.18893953
0.30167726
-0.33539924
0.054003667
-0.15855965
-0.26128593
-0.102433406
0.2108433
-0.064608425
-0.04285491
-0.22643663
0.12807174
-0.037879236
-0.31851962
-0.17998464
-0.05301542
-0.06611628
0.18226735
0.28415337
0.25882217
-0.20676707
0.26397425
0.14650816
0.070868775
0.41672733
0.25535646
-0.0001008267
-0.07609304
0.34571245
0.09260342
0.059731424
-0.24125935
-0.056177936
0.18776208
0.17668682
0.15869893
-0.2030829
-0.24784097
0.05605224
0.14963798
0.24642642
0.15829037
-0.005457372
-0.1537774
0.1440275
0.25942975
0.07001612
-0.056965582
0.030968253
-0.3071573
0.35675848
-0.3383241
0.024912536
0.17333199
-0.050390497
0.13311526
-0.39179146
0.24907516
-0.19702315
0.05375538
0.05830014
0.012328652
0.13945241
0.0519306
0.31688568
-0.39000174
-0.058023486
-0.2867503
-0.23811293
0.29738483
0.008535589
-0.1440618
-0.41445345
0.2904253
0.15542743
-0.2799298
0.23804906
0.26325187
0.2566342
0.21347229
-0.092111334
0.08028616
0.022224206
0.10730871
0.13675892
-0.08293099
0.19730349
-0.2777938
0.18071333
0.25537392
-0.23771656
0.15153567
0.09233385
0.24863812
-0.24803488
-0.08559535
0.06037601
0.11703161
-0.0070473976
-0.07838555
-0.29705766
-0.43105513
0.282604
0.1127446
0.2930553
-0.27764675
0.28677118
-0.220703
-0.27400193
0.12644576
0.2707645
-0.09646388
-0.11319273
-0.22612594
-0.02682013
0.23827976
-0.17984445
-0.25829673
-0.247694
0.2965937
-0.15329623
-0.2502013
0.32056078
-0.25325668
0.1686483
0.039346434
-0.02219461
0.3249335
-0.1098808
0.28711483
-0.33929005
0.31328547
0.30783165
-0.13970654
-0.14437705
-0.113241345
-0.28815496
-0.20655316
0.28751594
0.31576225
0.3230598
0.18319008
-0.0024130237
-0.21213907
0.10586767
-0.14985451
-0.17165145
-0.3204966
-0.35412893
-0.30144182
0.25340533
-0.12432555
-0.21209301
0.12770762
0.0064094663
-0.30752435
-0.18759032
-0.06916833
-0.06482735
-0.34438753
0.36215836
0.36109826
-0.30147338
-0.08282251
-0.10490395
0.17172408
0.25328523
-0.09132458
0.14445749
-0.1866119
0.2818059
0.044015806
-0.019784862
0.044773057
0.06915448
0.13167104
0.06773985
0.27570292
0.039061837
0.29712942
-0.04100494
-0.25124365
0.34986952
-0.2616986
0.29797572
0.31172493
-0.10224872
0.25087294
-0.045663256
-0.0064472244
-0.3338362
0.09133417
0.010740091
0.32685348
-0.19624774
-0.1010824
0.0947922
-0.18434572
-0.20210704
-0.17271265
0.1200009
0.34848905
-0.068715796
-0.012355666
-0.28315577
-0.13616621
-0.07990517
0.14684524
0.2548265
-0.3175605
-0.24315684
0.031293932
0.188836
-0.24354203
-0.22640367
0.23377703
-0.058049414
0.33579198
0.24446557
0.35714385
0.19417697
0.25383604
0.06131761
0.2000551
0.28666767
0.26416314
0.08598702
0.009545831
-0.08827148
-0.12948883
-0.18503857
0.2793145
0.21014813
-0.03561761
0.092550166
-0.22379518
0.10562413
-0.29617423
0.059002366
0.13654967
0.29416412
0.29210797
-0.2623199
-0.1709287
0.22154838
0.27590948
-0.039935805
-0.09390785
0.29280478
0.27056116
0.073715284
-0.42984688
-0.22254398
0.29650992
-0.39037484
0.06737317
0.074076325
-0.07167191
0.031054964
0.29387265
-0.15193912
0.25348988
0.2895169
-0.22282411
-0.098621026
0.08805881
-0.2525777
0.16685969
-0.37211597
0.24804693
-0.17552312
0.30215228
-0.25835863
-0.12178352
0.21144809
0.08067407
0.022184968
0.36813608
-0.20602515
0.29885158
0.27631018
0.27882338
-0.22388424
0.09655609
-0.11081385
-0.23180602
-0.016365781
0.2370788
0.12622952
-0.19623059
-0.022144513
-0.21431518
0.29529104
-0.14523363
-0.4142949
0.076949805
0.043066446
-0.09494206
0.32295805
0.0811731
0.13422737
0.0013978154
-0.020405615
-0.12345528
0.10870162
-0.11754736
-0.33079904
-0.32852986
-0.099318385
0.26748016
-0.11467154
0.07776316
0.26253366
0.10529728
-0.011218208
-0.11014302
-0.14558394
0.18904081
-0.17180398
-0.039766286
0.14955457
0.10334886
-0.17089562
-0.16232027
-0.20700364
0.28540516
0.057674166
-0.31459957
-0.28991017
0.22138716
-0.26505944
0.23905742
0.24374093
-0.0117599135
0.0325341
0.18800703
-0.29166973
-0.10887855
0.29128546
-0.08624575
-0.16696832
-0.15032995
0.353629
0.20459527
-0.38657874
-0.27352014
0.15930308
-0.24375354
0.14166605
0.29528493
0.13759586
-0.11439522
-0.2441546
-0.12784816
-0.19246705
0.3099386
-0.17949419
0.30298516
-0.2916207
0.12409435
-0.25817204
-0.1317566
0.2928545
0.0060141683
-0.1794108
-0.08137556
-0.0909913
-0.006105841
-0.25213888
0.12490437
0.2502619
0.4391573
0.2854538
0.013585078
-0.25495616
0.31734398
0.33774048
-0.261186
-0.32307783
0.1949284
-0.07384848
-0.2552351
0.23577994
-0.0032229538
-0.33034897
0.09881592
-0.15415263
-0.25133047
0.07671506
-0.26813978
-0.12755604
0.07603777
-0.088777594
-0.007804369
0.30874407
0.056205675
-0.045319714
0.14728332
0.3439232
0.027137708
-0.31111288
0.31525823
-0.32019275
0.10871637
-0.25885922
0.023489282
-0.06618905
-0.14776735
0.10487177
0.24110681
0.18091445
0.064861976
-0.27267426
0.15549456
0.07119682
-0.22840607
0.23455983
-0.3208163
-0.27916095
-0.13137713
0.009404501
0.11074941
-0.18302292
-0.2534081
0.340441
0.060572464
0.040829264
0.33203855
0.046473283
-0.1629138
-0.16436873
-0.17951904
-0.33561504
0.13617674
0.25707388
0.005651099
-0.23448856
0.27222994
-0.040415693
-0.15785986
-0.34690386
0.085013494
0.29575065
0.074839294
-0.04961892
0.044241566
0.039158512
0.12633221
-0.0052697845
0.1801548
-0.0753684
0.3561828
-0.14436892
-0.14478646
-0.34303012
0.21219277
0.2247386
-0.17275101
-0.1767933
0.21440022
0.2552832
0.06712952
0.16765828
0.061567165
-0.28379962
-0.27619004
-0.2092101
-0.18537784
-0.1503248
-0.3200474
-0.24850589
0.38434508
-0.15639488
-0.2549554
0.25161797
-0.29901043
0.11876223
-0.32353866
0.32142416
0.22069249
-0.17815566
-0.2588954
0.06925038
0.29993412
0.008447902
0.16843182
-0.19635019
0.09145869
0.30626377
0.27812696
0.29056385
0.08008427
0.27372968
-0.19619559
0.04863589
0.29690385
-0.28263983
0.19577082
-0.056471847
-0.23080939
0.19373402
-0.1824037
-0.039358653
-0.16859868
-0.23998392
-0.2885665
-0.09985269
0.22244166
0.013683265
0.39888194
-0.22889042
0.09089705
0.06695507
0.31337097
0.18075934
-0.10589274
0.2178417
-0.17266637
0.23149984
-0.025721554
-0.12737973
-0.2574456
-0.16100635
-0.07361942
0.23364505
-0.10761817
0.19878659
-0.215848
0.15774181
-0.028708508
0.1734683
0.14269456
-0.27009818
0.34046575
0.14156777
-0.22305487
-0.22423369
0.05177476
-0.1922134
-0.06546059
0.30012026
0.27526054
0.20813231
-0.3801046
0.049955074
0.17150095
0.04901026
-0.060730767
0.22858147
0.26707587
0.0012046709
0.025683152
-0.006186301
-0.07176433
-0.08840775
0.37910524
-0.16898963
0.2920883
0.22079964
0.1652478
0.18788221
0.1948319
-0.29859933
0.14693108
-0.19577688
-0.054522317
-0.12930676
0.22400081
-0.044433035
-0.3571526
-0.31938714
0.22863598
-0.23776092
0.22433132
-0.07324542
-0.14687166
0.15652043
-0.062650874
0.17030686
-0.08978917
0.0351316
0.022565085
-0.12569335
0.037460707
-0.37957898
0.14538823
0.16843785
-0.1668389
-0.13152613
0.1339949
0.23241907
-0.05862647
-0.30428332
-0.03145105
-0.010350838
0.30528387
0.08951787
0.09363158
0.18062736
-0.17468949
0.26899546
-0.059715778
-0.2491666
0.31302264
0.20911263
-0.29561144
-0.029337212
-0.011507408
-0.049865674
-0.2901382
0.34994853
-0.23601681
0.01993326
-0.34019673
-0.17189702
-0.22385156
-0.04548266
-0.20536971
0.07117896
0.3312826
0.25929704
-0.060870342
-0.18695316
-0.07381367
-0.25746676
0.21752676
-0.33589903
-0.26854083
-0.29462928
-0.016120909
0.12057335
-0.28425482
0.26838234
0.3148742
0.19724117
0.030884083
-0.076274335
0.044492234
-0.11100349
0.053887006
0.35664132
-0.22139949
0.10553475
0.09065775
-0.015061481
-0.117432855
0.085839726
0.14776011
-0.04925418
-0.29640406
-0.20438421
0.27868226
0.08325537
-0.30472037
-0.2167371
0.039314777
0.35902438
-0.14397706
0.07100537
-0.18867593
0.1033988
0.26322928
-0.13975434
0.08114655
0.39908102
0.28945103
-0.07657527
-0.19970581
0.021773223
-0.36481535
-0.1630919
0.24603358
0.027027095
-0.28745866
-0.070650525
0.16961578
-0.220491
-0.041133113
-0.0011874832
-0.061749894
0.24336794
-0.32335818
0.22334999
0.18803833
-0.35346448
0.049142823
-0.2402971
0.28779912
0.23089287
-0.020378623
-0.19801927
-0.3194717
0.3701008
0.21808515
-0.36200416
0.157327
-0.21691
0.10630901
-0.18512689
-0.08577652
-0.3404208
-0.25866804
-0.17627639
-0.28104362
0.18719427
0.15814547
0.10582246
-0.074918196
0.008955193
0.17765468
0.089528106
-0.10637382
-0.20302054
0.22348487
0.15362306
-0.1121577
-0.2968342
-0.15849252
0.07801037
-0.17703004
0.039358154
0.12765989
-0.23049772
-0.10466611
0.08774275
0.38625672
-0.030366542
0.2855972
-0.2693117
0.0077481973
-0.0029454702
-0.19272117
-0.04538463
-0.024266604
-0.09572244
0.19260149
0.2781418
-0.281795
-0.17846785
-0.17227452
0.2659363
0.038967904
0.093885966
0.2721549
-0.17353667
-0.22691283
0.010396132
0.24867125
-0.37746695
-0.1980406
0.32405376
0.11987615
0.20845835
0.29852453
-0.27379405
-0.28410205
0.05575756
-0.16181818
0.2719229
0.30222005
-0.03146711
-0.346068
0.04854181
-0.0044101924
-0.24616495
-0.033758223
0.41196868
0.24128939
-0.1562237
0.14820272
-0.04932812
-0.25756365
-0.18139338
-0.1471557
0.08563386
0.08921277
0.18577531
0.17840375
-0.3190469
0.25661448
-0.2687049
-0.07425735
-0.2773698
-0.008050139
0.18153486
-0.10782563
0.10534896
0.3179975
-0.19890165
0.074137405
-0.17485134
0.17424245
0.2599258
0.37436515
-0.1130671
0.05195276
-0.20214172
0.06859075
0.2024735
0.0432067
-0.16483462
-0.251769
0.27010703
-0.22063671
-0.1650357
-0.380098
-0.3258468
-0.28183946
-0.26039594
-0.14829578
0.18018672
0.21547168
0.3867696
0.367405
-0.12733267
-0.33450347
-0.08945479
0.3553304
-0.2961642
0.28042555
-0.022948848
0.302456
-0.06828383
-0.23555644
0.122508645
-0.055010024
-0.041276883
-0.25667664
0.28402922
-0.020427851
0.15841761
-0.286613
0.141525
-0.14428368
0.21134512
0.30354613
-0.14713426
0.06842276
0.059320442
0.12201692
0.028162144
-0.08726271
-0.055445302
0.16933319
0.016579293
-0.11255916
-0.16181919
0.30957013
0.032517213
0.12496544
-0.19724704
0.22671954
-0.041970525
-0.012721973
0.28298804
-0.23181888
-0.063441105
0.22853157
0.20961535
0.051592503
0.25458488
0.13505696
0.021046534
-0.18575001
-0.3286257
0.22226562
-0.12530196
0.1495174
0.33153245
-0.3851927
-0.1486762
0.09367779
0.27386048
-0.019242844
0.35435075
-0.053329527
0.34130812
0.11046019
0.21056472
-0.28943622
0.225428
0.25241446
0.25003707
0.21122417
-0.35063803
-0.032490447
-0.030283257
0.30031168
0.17502788
0.11451973
-0.13757248
-0.35794753
-0.028972657
-0.027782246
0.10249509
0.13880612
-0.24144101
-0.019902898
-0.252797
0.17663577
0.03191533
0.30337775
-0.06213175
0.11673213
0.2375965
0.32301793
0.099871464
0.09036133
0.19233346
0.091006845
0.29103917
-0.2645139
-0.27232718
0.29794586
-0.08635488
-0.2635613
-0.23964058
0.008596777
0.2616851
0.0006732759
0.021397268
-0.082853325
-0.069298506
-0.1785088
-0.10706134
-0.22037804
-0.20739597
0.10302185
-0.23957635
0.1858608
0.38620818
0.27563184
0.23061666
0.29260802
0.15707447
-0.15192525
0.0981005
-0.009672863
-0.08885522
0.25127155
-0.32897377
-0.1955999
-0.17536116
0.062074084
-0.17419887
-0.02130564
-0.27721605
-0.13820592
0.34385803
-0.11964493
-0.34144333
-0.34410834
0.19982286
0.3245354
0.121784054
-0.26712134
0.04102279
0.3498162
-0.26442268
0.012583536
0.19780791
-0.087938525
0.27366492
-0.07748894
0.23965502
-0.3044314
0.0799693
0.16142237
0.15196903
-0.27795258
0.009550295
-0.058721177
0.09144678
0.15543853
-0.3352469
-0.28790465
-0.0083396435
0.29759392
-0.26839828
-0.005095591
0.022878362
0.009843711
-0.011316961
-0.19294272
-0.054787304
0.13662218
0.044794466
0.25370327
-0.1734682
-0.16764788
-0.22521739
-0.28184718
0.24422893
0.22697508
0.24010079
-0.08545815
-0.31320494
0.18572463
0.16027986
0.09998301
-0.25584668
0.30660605
-0.28098136
0.26117843
0.07522252
0.18893532
-0.095367536
0.046642825
0.2745032
-0.36677226
-0.12711278
-0.116235375
-0.13604183
0.27259094
0.11213845
-0.026804134
0.29172537
-0.00063019333
0.2372039
0.12316009
0.1506494
0.35822374
-0.22220233
-0.20248003
0.10008098
-0.3603164
-0.25965747
0.14244695
-0.2841187
0.15512556
0.35940665
0.24160707
-0.39494348
-0.30700025
0.21566506
-0.110047996
-0.09356049
-0.053287845
0.30149588
0.05264373
0.028175034
-0.09531229
-0.050122503
0.040360127
0.17280592
-0.28041905
0.17916924
0.054186765
-0.20761397
0.10723934
0.27934548
-0.14765836
-0.36300388
-0.050766326
-0.15465903
0.15633254
0.030921116
0.26613858
-0.0629353
-0.23248644
0.4299526
0.008268135
-0.0119799655
0.025692131
-0.27927434
0.15303919
-0.15085755
-0.25998926
-0.14771608
-0.10295487
0.10003433
0.0028483823
-0.05618051
0.015537309
-0.38744393
0.23676404
-0.26539004
-0.17449765
-0.26809612
-0.06416226
0.22612603
0.1637802
0.17513776
0.19046405
0.2031452
-0.22696279
-0.14114851
-0.06133658
0.20546368
0.26586863
-0.3259448
-0.09361732
0.1015737
0.36607733
-0.16257642
0.12261461
-0.14501208
0.20467858
-0.13439429
0.41049024
0.023765499
-0.0723953
-0.11150134
-0.32026932
0.21889003
0.25101694
0.008852985
0.14036423
-0.044164516
0.16728261
0.2050482
0.1625351
0.05909212
-0.022325177
0.12742257
-0.009994702
-0.24103299
0.07201144
0.3052834
0.02735204
-0.16754504
-0.30761823
0.25974607
0.056936894
0.036822602
-0.09511933
-0.14752366
0.25897062
-0.19011097
-0.3723425
0.11671585
-0.028155038
-0.120643735
-0.39746547
-0.1614869
-0.10177994
0.14821075
-0.057683166
0.3309362
0.1747755
0.07199477
0.18817501
0.041710813
-0.16380857
0.18808
0.3605133
0.11657635
0.31433588
-0.27631348
-0.07910199
-0.13857868
-0.32229453
0.30201992
-0.06907991
0.26646748
-0.37647393
0.058375962
0.22372364
0.09715
0.28843045
0.08612038
0.35775262
0.067252494
0.06725405
-0.36573076
0.049783446
-0.21710406
0.11195388
0.11716058
-0.0455184
0.13094568
0.02875018
-0.2751793
-0.2989453
-0.05199018
-0.07482988
0.22799912
0.11227451
0.22596033
-0.15055466
0.23102765
-0.2843759
-0.2620438
0.18972184
0.13595083
-0.3201006
-0.23339218
0.19001974
0.2717365
-0.056142014
0.0957134
0.020996068
0.25412178
0.3194003
-0.28301823
-0.078973256
0.04016194
0.20425327
0.0119843185
-0.048580103
0.19532041
-0.2765725
0.26443627
0.23313682
-0.36742294
-0.10943837
0.12778638
-0.051731795
0.43269768
-0.13688874
-0.16232958
-0.09189305
-0.34236515
-0.060690764
0.20813328
0.32936022
0.016263174
-0.013809771
-0.11425607
-0.015403676
0.38917917
-0.13690747
-0.28680384
0.23024225
0.28271458
-0.2355557
-0.16842113
-0.3711429
-0.0040036533
0.31462777
-0.33087587
0.003449887
0.09244852
0.018211825
0.14882289
0.18637064
0.0988978
-0.2928102
-0.085969776
-0.19101244
-0.041581735
0.24198343
-0.3074172
-0.23674683
0.12975374
-0.08968788
0.2500282
0.047530122
-0.13807394
-0.14881252
-0.2021015
0.31216517
0.15095748
-0.15349935
0.011023667
-0.13503289
0.092493236
-0.124689214
-0.01297538
-0.21112363
0.13579313
-0.3153298
0.3124574
0.38828006
0.11110942
0.1569536
-0.29070392
-0.30351856
0.30218947
0.2308118
-0.18926975
0.189761
0.35245982
-0.031298097
0.071987644
0.1056155
0.265663
-0.18640101
-0.2094803
-0.12689365
0.22443448
0.017697794
-0.2993554
0.12095461
-0.10867247
-0.24595213
0.17544337
0.2684081
-0.2214517
-0.22269039
-0.21343282
0.1368339
-0.2599479
0.08392335
0.35356694
-0.23874503
0.21629617
-0.18122232
-0.056423526
0.05296181
0.071084455
-0.0053588324
-0.20814052
0.029226245
-0.2165943
0.018002855
0.3445938
0.1728942
-0.1754197
0.29337135
-0.10440454
-0.073752984
-0.14568295
-0.3228378
0.16576813
0.28624433
-0.23827393
-0.30029598
0.3626416
0.048477028
-0.29769728
0.17599966
0.34444985
-0.19021961
-0.34675142
0.14731671
0.19954602
-0.11878282
0.11252739
0.06811464
0.055883363
-0.28496736
0.0051325085
-0.16424751
0.26988915
-0.051293977
0.08053477
0.1693313
0.10921816
0.108149745
0.07676124
-0.3307265
-0.23472191
0.19162029
-0.17268486
0.17889842
0.024409652
-0.18684803
0.1336465
-0.018012647
0.2540828
0.044391036
-0.40759033
0.20145732
-0.2029437
-0.30900797
0.16249055
-0.14032096
0.01882311
-0.041627344
0.3128885
-0.17249094
0.32638374
-0.35004106
0.29432324
-0.19915448
-0.20743038
-0.27009866
0.037787445
0.28670612
0.22786757
0.17979404
-0.38451654
0.26188907
0.12926292
-0.06403168
0.15672667
-0.12795025
0.14725801
-0.1290214
-0.24998134
-0.35899517
0.010189741
0.11030465
0.01605422
-0.043589104
-0.17377757
-0.1330597
0.20995042
-0.050708897
-0.08819726
0.19783701
-0.3025209
0.1506515
0.25926784
-0.10513228
0.09361482
-0.28662196
0.14958094
-0.323275
-0.1667762
0.08664035
0.246585
-0.16711509
0.37256938
-0.09542919
-0.16175607
0.14452934
-0.23073584
-0.02492375
-0.0005646921
0.020333873
0.27031833
0.22962368
-0.2589196
0.35017866
0.33546394
0.37062296
-0.18182597
0.04763217
-0.121156074
0.21663989
-0.15339045
0.029168569
-0.36489618
-0.07046894
0.16816
0.04631015
-0.292151
0.19851871
0.14780179
0.3260073
-0.119034745
-0.3285943
0.253212
0.0172709
-0.16740917
-0.11161459
0.034071747
-0.015813388
-0.2244706
-0.23207498
0.2804982
-0.13746242
0.21558008
0.29869017
-0.18475154
-0.0104161985
0.27908117
-0.21899453
0.10981026
-0.38003793
0.19412471
0.24560496
0.14262223
0.104817666
-0.20606746
-0.20568666
-0.20296314
0.05799778
-0.058760755
-0.11559763
0.34193712
-0.074263856
-0.3003307
0.17399855
0.3625533
0.00021795603
0.063767225
0.01995929
-0.27348298
-0.35430434
0.3109268
-0.102748364
-0.29102683
-0.14247656
-0.2856377
0.36101723
-0.027811449
0.14655118
-0.3651567
0.20484233
-0.14090163
0.32952237
0.24911647
0.25232723
-0.2715247
0.09762444
0.14929749
0.28664652
-0.17348123
0.19242334
-0.06410563
0.18934838
-0.22464718
0.23432878
0.14013882
0.17482889
-0.099328205
-0.051230863
-0.12521823
-0.23777771
-0.13277628
-0.2568963
-0.39077163
-0.14721136
0.16408792
-0.080195546
0.2491399
-0.2821633
-0.055288803
0.29410055
-0.2644344
0.06783471
-0.2441247
-0.011500006
0.25369805
-0.15982644
0.2430754
0.1892605
0.13395695
-0.34704897
-0.13534829
-0.00020916472
0.041757286
-0.22162737
0.29873616
-0.17726788
-0.12135633
0.2566062
0.22103055
0.2044362
0.036431585
0.1155321
-0.17019594
-0.04479381
0.15177004
-0.08992879
-0.3197062
-0.26263106
-0.2613371
0.3395369
-0.059694383
0.39103815
0.28741205
-0.24939184
-0.31025615
0.08179493
0.2710502
0.32536918
0.053477652
0.12937827
0.0064421855
-0.18508683
-0.1657779
-0.22921148
0.013072981
-0.19348076
-0.24870788
0.21094416
-0.14292118
0.23268613
-0.28676987
-0.2747234
0.3380213
-0.1938605
0.012618129
0.19623598
-0.22482729
-0.115296945
-0.28393227
-0.27323535
0.09227549
-0.05853306
0.11162695
-0.032380834
-0.28580105
-0.087237865
0.007200359
0.10316732
0.22158492
0.18353823
0.04872805
0.1761046
-0.15711044
0.060529973
0.049952183
-0.08714319
-0.030298067
-0.045784786
0.13978685
-0.18389934
-0.17770241
0.12292135
0.023595516
-0.20137705
0.06052249
-0.1853605
0.025916468
0.07551366
-0.08763569
0.10097324
-0.17371167
-0.010014548
0.042364642
-0.04726725
-0.1153413
-0.2792158
0.11574043
0.32577515
-0.19111474
-0.27918383
0.297382
-0.2647304
-0.3179315
0.10302031
-0.24543689
-0.023693752
-0.05140937
0.21427639
-0.024281073
-0.16203685
-0.0005220367
-0.06551572
-0.26277617
0.15540524
-0.16320707
-0.053790163
-0.20076066
-0.10540068
0.37886417
0.30803302
-0.31859058
-0.22784229
-0.07439126
0.29594192
-0.27664402
0.12639408
0.26656753
-0.3021663
0.0604463
0.034688007
0.10724236
-0.29937506
-0.17623933
-0.089209415
0.17607383
-0.22995637
-0.22161265
-0.2422859
0.2920687
-0.30529022
0.0014923187
0.2043336
-0.21574213
0.053533178
-0.1786852
0.35969788
0.21090615
-0.25961405
-0.35860908
0.080657914
-0.19063963
-0.3237924
0.27976474
0.3379902
-0.1632617
0.032485753
-0.24367306
0.23671168
0.09243355
-0.2699692
-0.29110345
-0.056241326
0.052767143
0.4017885
0.007990519
-0.2650342
-0.29878137
0.2680942
0.30994052
0.14690398
-0.05481923
0.13848892
0.18218893
-0.11434795
-0.043783236
-0.3433696
0.007229899
0.18887603
-0.19041964
-0.22189906
-0.26461545
0.25580093
0.11548468
-0.040551987
0.087397754
-0.2001682
0.10137166
0.19422019
-0.034220472
-0.31877515
0.20632765
-0.10897928
0.06341371
-0.32477129
-0.30086932
-0.088451676
0.33976075
0.15377726
0.34572345
0.27471343
0.17687304
-0.33631727
0.15504964
0.11256294
0.1941764
0.01773737
0.2858036
0.11282563
-0.029547589
0.21131158
0.17500545
0.3138866
0.19132745
0.24921864
0.054862797
0.2395489
0.20103185
0.07571489
-0.25291625
0.2886075
0.32127303
-0.20788738
0.23630473
0.11262495
0.2533364
0.051708862
0.12570237
-0.08569229
-0.010800364
-0.13604718
0.07484857
-0.24737696
0.021082764
0.026862707
-0.24666178
-0.22708662
0.086074546
0.32930404
0.15078703
0.124844626
0.04241163
0.02304944
-0.18777695
0.051650282
0.19864464
-0.22537172
-0.0014923962
-0.30665123
0.13879503
-0.25918585
-0.1907769
0.36476785
-0.28855702
-0.2112184
0.33425885
-0.26098374
-0.1936006
-0.32811436
-0.1758535
-0.11304782
0.24191022
0.21554947
-0.042299494
-0.04416159
0.16440399
-0.016522864
0.21406065
-0.17165676
0.18164106
-0.02414354
0.16535208
-0.22597136
0.10641546
-0.26298338
-0.25454798
-0.18787663
0.22105742
0.2586658
-0.23394224
0.106869
0.11880642
-0.30949432
-0.3361162
0.19755702
0.11190452
-0.28773108
-0.26196343
0.008940331
-0.29101986
0.20598702
-0.12438944
0.024586368
0.17829262
0.124502555
-0.058873918
-0.05815001
-0.05984122
-0.2979656
-0.08783235
-0.10178452
0.25670892
0.0101393415
-0.029590558
0.14139134
0.2699996
0.34437725
-0.09271182
-0.009045951
-0.1347905
0.20754185
-0.1876138
-0.2676361
0.25913593
0.014946436
-0.118515804
-0.017065415
0.2882539
0.34379846
-0.11082489
-0.26311415
-0.24882635
0.31957132
-0.17078754
0.114148505
0.29847747
0.18746805
-0.24981228
0.15491346
0.058428947
0.26970458
-0.2871039
-0.16324717
0.22314848
0.11251033
-0.26463518
0.23549996
-0.3339411
0.29554185
-0.20154339
-0.09676591
0.40977535
0.0026273879
0.07327216
0.22864667
0.12828724
-0.17838971
-0.18389478
0.24340181
-0.35629496
-0.006360479
-0.2568679
0.15603225
-0.119573474
-0.097051464
0.18814045
-0.122938454
0.13591461
0.10932111
0.03770522
0.25113195
-0.42434028
-0.05732737
-0.053853035
0.2752384
0.21638021
-0.24088556
-0.15834051
-0.25190604
-0.012497649
0.30560285
-0.1338342
-0.14034478
0.023527797
0.17617412
0.10946984
-0.16667283
-0.0050296998
0.17933029
-0.09065187
-0.22862309
-0.09629117
-0.29133597
0.10018844
-0.25232247
0.31316862
0.39036232
0.03412557
0.022917567
-0.328556
0.1803007
-0.3170031
0.10062787
-0.045365397
-0.14741158
-0.16957873
0.16575187
-0.16999966
0.15592602
0.21605775
0.27529985
0.18868926
-0.23093185
0.12051825
-0.25176775
0.026793463
-0.16693254
-0.25640002
0.072834454
-0.37285897
-0.031849682
-0.14254034
-0.00857327
-0.20151211
0.194077
-0.269076
0.25057474
0.3269804
-0.31091732
0.14673176
-0.00023350153
0.15720706
-0.007867677
-0.19436704
0.3239343
0.33231863
0.13799983
-0.15159665
-0.08759485
-0.33822474
-0.23382363
0.181343
0.086783834
0.16012464
-0.02110846
-0.17728807
0.17205514
-0.2661935
-0.0040341765
0.18086997
0.3310323
-0.07317065
-0.37194622
-0.28513768
0.09341823
0.32316104
-0.21434353
-0.009346409
-0.07805047
0.23852488
0.039183952
0.29467502
-0.38251615
-0.3902531
-0.040223297
0.29948384
0.15102477
-0.19362254
-0.08571451
0.19632599
0.029565407
0.17787088
-0.03639188
-0.18226899
0.22386014
-0.05497839
-0.3497937
0.12602976
0.31159705
-0.23660877
-0.051807236
0.06856366
-0.17603348
-0.25531578
0.082687005
0.1959029
-0.026453326
0.22888213
0.2928742
0.30862242
0.10956018
0.28455812
-0.25352576
-0.090532534
-0.24775396
0.090014294
0.34346622
0.14924715
-0.3653082
0.29481158
-0.08723291
0.013676094
-0.099586025
-0.27040404
0.17172736
-0.13377137
0.13683532
0.3356692
-0.014565983
0.12017455
0.20558672
0.14145565
-0.20343305
-0.011237556
0.3451784
-0.34722605
-0.0857954
0.2132668
0.096279964
-0.30095854
0.15080492
-0.24445109
0.16684191
-0.17395923
-0.13619272
0.0074065486
0.014492769
-0.2042092
-0.14466593
0.036108173
-0.054485872
-0.38075942
0.03131201
0.077965684
0.3454019
-0.07044538
0.094781525
0.064551175
-0.034193445
-0.14689144
-0.12912162
0.16702181
-0.30408263
0.02679026
0.08494411
0.32992196
0.2905196
0.00042727913
-0.18832296
0.19145936
-0.109356344
0.13873823
-0.05469197
0.2881205
0.025243616
0.37070042
0.040180605
-0.030186571
0.3449264
0.17668623
0.16486381
-0.3844743
-0.19271383
0.17742278
-0.020684151
0.104522765
-0.18611819
0.12169437
-0.15678947
0.307125
0.15369415
0.22777878
0.0077108867
-0.042682867
0.048010014
0.00088226
0.117909536
-0.24534239
-0.0947548
-0.2676195
-0.2283969
0.039694875
-0.002849863
0.24975194
-0.22658274
-0.21375492
0.16233805
-0.25495487
0.018007519
0.31326616
-0.14930636
-0.026936693
-0.04025198
-0.25416633
0.07100588
-0.18196563
-0.3695312
-0.07524504
-0.05560586
-0.010576952
-0.23197924
0.012610102
0.15630719
-0.13655986
-0.010043682
-0.20305762
0.270816
-0.27645245
-0.111172415
-0.06884682
-0.086749
0.14601037
-0.14530683
-0.2514173
-0.0527648
0.029092958
0.05650708
-0.19038036
0.32708228
0.16449851
0.06221708
-0.20972905
-0.13823143
-0.17398024
-0.215099
0.070275865
-0.14182621
-0.0294179
-0.23846297
-0.06262949
-0.270506
0.20474254
0.16187806
0.31845748
0.30028263
-0.13405842
-0.23060082
-0.30599564
-0.3182881
-0.26110104
0.2543266
0.19970728
-0.32687542
0.19196767
0.19689351
0.19944382
-0.15124626
-0.26974657
0.1839458
-0.36649972
0.018751962
-0.119807504
-0.09978885
0.21122769
0.307387
0.030529646
0.25187743
-0.081344545
-0.123179324
0.097986825
-0.18866949
0.20853183
0.2353935
0.10191232
-0.20080273
-0.24948907
0.14082603
-0.015408008
-0.19523932
-0.20422256
-0.31618658
-0.3131096
-0.092550814
0.054454647
0.15595146
-0.18667881
0.19603689
-0.1737253
-0.11167199
0.029121092
-0.08407316
0.19961523
0.2642306
-0.34320906
-0.076830216
0.1931322
-0.22339356
0.044029646
0.27929786
0.19498633
0.18795711
0.07716823
0.12014669
-0.19327697
0.11204443
-0.043854833
0.32926634
0.21495835
0.2838525
0.013499349
0.14475667
0.037394088
-0.35196966
0.2017667
0.2748224
-0.27983144
0.13074288
0.105167165
-0.22855133
0.15067674
-0.19286095
0.2885027
-0.19847243
-0.0651831
0.19939756
0.3676775
0.3603487
-0.1717026
-0.13731599
0.24821906
-0.14957659
0.29802567
0.06721057
-0.36895666
0.058113564
0.00049476605
0.33106384
-0.100035086
-0.28005347
0.12955251
0.005361863
-0.123539224
-0.068274416
0.30780184
0.24575262
0.199377
0.27583787
0.06194989
-0.119912036
0.32264975
0.2687426
-0.25453284
-0.34407547
0.13840668
-0.40990475
0.1656792
0.12060647
-0.14418778
-0.32161275
-0.21490104
0.22508416
0.29740292
0.1154865
-0.30243725
0.17423604
0.1975033
0.04575132
0.17020641
0.010513498
-0.07758613
0.29602343
-0.27887318
-0.31420395
0.18006687
0.03285326
0.16079628
0.26345813
-0.06398471
0.2791237
-0.23257677
-0.033392113
0.09013314
0.2982502
-0.29196346
0.085960194
0.28418434
0.14594464
0.23231497
0.28438774
0.3477695
0.26998857
0.0022909187
-0.074875556
0.09353827
0.16232866
0.14765139
-0.088618964
-0.19706945
-0.13768469
0.0730258
-0.033023797
0.22806548
-0.0933952
0.12182436
-0.18691617
0.29638115
-0.16843863
0.311435
-0.3345423
0.11766385
0.3077
-0.27302507
-0.31038147
-0.24567606
0.0064283614
-0.14179079
-0.2987706
-0.31790447
0.020212209
-0.3465252
0.05796403
0.3222258
0.13979343
0.07899431
0.18570723
0.08127368
0.0600407
0.26501855
-0.16178818
-0.12187206
0.3130462
-0.03180704
-0.19025676
0.011510446
-0.26424715
-0.13158168
0.12475475
0.288958
0.29437518
0.03028712
-0.2016875
0.2170387
0.29826295
0.1710695
-0.068730064
0.058397494
0.27491668
-0.2852221
0.24370286
0.32420105
-0.05564291
-0.24552916
-0.2963919
0.28645602
-0.27053118
0.10470159
0.16029623
0.010391784
0.3309518
-0.24253376
-0.024932941
-0.37355036
0.17198345
-0.12866688
-0.23309113
0.18511675
0.21210586
0.22690916
-0.19602485
-0.20055036
0.22267106
-0.18397859
0.23434228
0.046349943
0.094281495
-0.044292327
-0.27878085
0.17635399
0.038447924
0.23343226
0.22133599
0.079495564
0.28798947
0.26973814
-0.13635555
-0.25429973
0.3352631
-0.15752691
-0.22308072
-0.14413105
0.079076625
0.16098723
0.31255367
-0.08205778
0.11541808
0.18775938
0.1947812
0.07033582
0.11591336
-0.16332676
-0.3512617
-0.27141163
0.26947466
-0.03390804
-0.21885864
-0.093200974
0.24784651
-0.15617207
-0.32833892
0.13233264
0.11267012
0.13369969
-0.2796575
0.0694984
-0.16052297
-0.30480996
0.14334965
0.27457622
-0.10025639
-0.068121895
-0.12840016
0.30195126
0.32004339
-0.12467016
-0.18301257
-0.053344492
-0.032914508
0.2885565
-0.21660046
-0.409707
-0.023956433
0.08696538
-0.1561323
-0.18537688
-0.25298846
-0.107712775
0.25331798
0.38136426
-0.19515963
-0.3596685
0.40738627
0.29398942
-0.0557751
-0.3531018
-0.11403535
-0.28080124
0.20914152
0.20454112
0.15961938
-0.05304642
-0.008362372
0.32124594
0.0009281337
-0.10642327
0.27142718
-0.065104835
0.31221014
0.10238982
-0.16723274
0.028463282
-0.3346245
-0.2579265
0.07477866
0.08076654
0.17344505
0.16006123
-0.04150648
0.14353184
-0.2400478
-0.2695588
0.18945064
0.13002974
0.063102596
0.2587606
0.098925576
-0.21618512
-0.29068702
-0.11750919
0.27514544
-0.17500922
0.009251138
0.33097887
-0.34130734
-0.22388619
0.033015877
0.06976774
0.280902
-0.38886732
0.2684415
-0.10788636
0.030236844
-0.058571152
0.1785043
0.1515592
-0.2437402
-0.23389651
0.034136537
0.019358417
-0.02033304
-0.11326588
-0.2219436
-0.11220668
0.1582512
0.04831284
-0.14601871
0.29248887
-0.18324362
0.13679904
-0.06619424
-0.11464692
0.031927884
-0.17674303
0.009434551
0.18345802
-0.29973704
-0.183333
-0.036950365
0.12589097
-0.17130227
0.15158461
-0.11051007
0.029008124
0.011839951
0.27595893
0.36350247
0.11462859
-0.07262563
-0.19084646
0.28465948
-0.29878995
-0.06543645
-0.006124187
-0.20388584
0.0020459346
0.14943397
-0.30099198
-0.10079627
0.24896227
0.3036705
0.1968347
-0.16261372
-0.21317051
-0.07345231
-0.061397504
0.21046352
0.08592103
-0.012464418
0.37705475
0.31759438
0.20321207
-0.13607007
0.11067989
0.22585516
0.25245783
0.040444925
0.028434439
-0.16216941
0.3437934
-0.023005206
-0.08275711
-0.005426466
0.26779112
-0.15137577
-0.37757632
0.0024686228
-0.013893309
-0.153014
-0.09529973
-0.4121551
0.1976015
0.2811106
0.06829817
0.2673867
-0.3039981
-0.33033562
0.0022617332
-0.10483307
-0.2867844
-0.15748613
-0.06939273
0.2364398
0.032480422
-0.29907095
-0.20869268
-0.32562497
-0.11396648
0.34782326
0.34695926
0.25549176
-0.044500563
-0.029931534
0.041549474
-0.13239865
-0.041177135
0.2572453
0.30642533
0.1191768
0.20891471
0.29418987
0.30619183
-0.1823326
-0.09895551
-0.021885123
0.1051403
-0.22597834
-0.029279837
-0.21209992
0.16035913
0.13643552
0.17101415
0.00802103
0.30748054
0.10920418
-0.1093912
-0.11052067
-0.2586003
0.29778385
-0.23964328
-0.06556329
-0.13743381
-0.1943981
-0.150279
0.010134846
0.10673245
0.19345626
-0.2826771
0.034977186
-0.014716288
0.1303877
0.41644663
-0.33364
0.14619692
0.14895691
-0.3264803
-0.26484925
0.3084031
-0.14786874
-0.21276534
0.17834003
-0.29897356
-0.24393259
0.13917042
0.36445135
-0.063742414
-0.26921088
0.18981928
0.28497005
-0.22386049
0.042673033
-0.0812392
-0.027473314
0.06176595
0.055193707
0.22226582
0.122034326
-0.21609831
-0.27829063
-0.2185006
-0.1242354
0.046418753
-0.36545342
0.34163564
-0.10076285
-0.098756835
-0.03927955
0.3051143
0.33567995
0.20919007
-0.42718387
0.0723162
-0.20302516
0.19899599
-0.30693617
0.10384662
0.21753645
-0.30658522
-0.2363755
0.2705557
-0.17076084
-0.07598577
0.025762476
0.31265193
-0.05216317
-0.08820051
-0.02407572
-0.0075753615
0.14056613
0.18419798
-0.24976002
-0.27475291
-0.18271044
0.3021173
-0.11962921
0.2969909
-0.20985161
-0.35610127
-0.0063421796
0.28892195
-0.2831675
-0.42104903
-0.07773455
0.0019600803
0.0069141216
0.098174915
0.28488305
-0.21027604
-0.0765591
0.22979945
0.18821898
-0.08429987
-0.424244
-0.3592456
-0.3217646
-0.23662691
-0.24206226
-0.02940674
0.11100652
0.28230843
-0.30598092
0.1559116
0.11975882
-0.15842524
0.21128426
-0.23864223
0.21171576
-0.10123478
-0.40699786
-0.054473024
-0.068557955
0.33835167
0.15424623
-0.27763516
-0.36323544
-0.09959093
0.2697691
0.12525186
-0.2391068
0.28576797
0.19724306
-0.20873545
-0.027279187
0.17797367
0.06929262
0.060819205
-0.005046918
-0.111086905
0.2380772
-0.20999005
-0.054604813
-0.18776909
0.14863168
-0.14373133
-0.21075678
-0.06707655
0.27815285
-0.07898169
-0.20299837
0.0912857
-0.083244264
-0.16714108
0.089615494
0.06156364
-0.20792161
-0.21701129
0.16822481
-0.17962672
-0.3547164
-0.14447318
-0.24806315
0.016624743
-0.008830347
0.42437902
0.0341573
-0.25182986
0.10580771
0.050688073
-0.073180355
0.0371749
-0.2562183
-0.27894616
0.35756615
-0.24861099
-0.22415394
-0.15268627
0.1781603
0.020188844
0.04051499
0.03266461
-0.0019989524
-0.37492183
0.11034017
-0.09785399
0.19865017
0.36564785
-0.37895164
0.03473737
0.019649569
-0.23677808
0.28168792
0.22059552
-0.06432543
-0.00826107
0.2968738
0.28709877
0.08516936
-0.20959567
-0.22819702
0.1377303
0.35159653
0.06601057
-0.008815071
0.19025551
0.09583329
-0.26069692
0.038118295
0.21767418
-0.10450853
0.23165394
-0.0051306933
0.23010166
-0.041951902
0.308465
0.17913826
0.108949155
0.014028419
0.092023335
0.018206595
-0.09642397
0.2412227
0.049928747
0.08782514
0.13664491
0.18987395
0.33305538
0.056316003
0.15656246
0.011471021
-0.09548666
-0.0035195819
-0.2967318
-0.113523506
0.0551163
0.21830587
-0.117586546
0.3158459
-0.19888331
0.17735945
0.17983137
-0.15074138
0.14435641
0.2469828
0.13841984
0.24318923
-0.20332156
-0.25036237
-0.010556167
0.2788722
0.42744607
-0.06308561
-0.22924224
0.32657975
0.10819062
-0.21372211
0.08186907
-0.18651758
-0.24499664
-0.10860665
0.13901076
0.09988373
-0.17586826
0.37437865
0.19910257
-0.14389366
-0.2934449
-0.087275654
-0.035608444
-0.12993887
0.103438824
-0.12733045
-0.30283484
0.24931024
-0.2960589
0.06982111
-0.04842757
0.20242853
0.25470933
-0.28994724
0.28776237
0.19037424
-0.19409102
0.10285664
0.17138459
-0.019516775
-0.30148968
0.062204834
0.18712595
-0.32558012
-0.027531883
-0.0073456345
-0.2994344
-0.15736423
0.27274874
0.07301778
-0.1841454
-0.16273473
0.17637382
0.13097656
0.10556763
-0.10434576
-0.14175719
0.33697152
0.08784498
-0.28194115
-0.291057
0.22639808
0.06921039
-0.3346756
-0.4014928
0.33275813
0.11190501
0.13471097
-0.1438735
-0.012756841
0.3061776
-0.10995359
0.19894457
-0.22405612
-0.12769862
0.20546451
-0.30529314
-0.04303927
-0.07701614
-0.0071615595
-0.00670581
-0.31110907
-0.29402518
0.16650592
0.13788716
0.22710274
-0.20062204
-0.24111551
0.27632406
-0.033704773
-0.03220533
-0.25023255
0.20105204
0.26892924
-0.14206928
0.077626444
-0.2578175
0.19284485
0.06498794
-0.34450543
-0.29364043
-0.21401656
0.2951359
0.34508175
0.17466973
0.12297585
0.16809897
0.049857505
-0.014260709
-0.20321786
0.24579076
-0.3771835
0.33538723
-0.07038584
-0.15504217
-0.258984
0.21913053
0.2440254
-0.24733014
-0.06995399
0.003755953
-0.16538082
0.13227524
-0.2251481
-0.2211672
0.12894031
-0.14381802
0.34064814
0.10979007
0.011279214
-0.068044655
-0.2863155
0.22147475
0.32783547
-0.12714054
-0.21487837
0.11604989
-0.25256243
0.26354262
0.30547872
0.011593208
0.014680825
0.155509
0.28493986
-0.30818868
-0.00861581
0.18748094
0.2393606
0.27889493
0.011455488
0.09423975
0.32294706
0.15110913
-0.26120842
-0.32373267
0.14007556
0.35456893
-0.17270933
-0.048988797
-0.3108575
0.036116503
0.24786805
-0.06346926
0.011949243
-0.24709234
-0.26416886
0.075769134
-0.086119734
-0.057479586
0.05566686
0.23054466
-0.044097237
0.1829947
0.17109768
0.18847662
-0.14915752
0.16141504
0.013201323
-0.23351784
0.12559138
-0.032352094
-0.29122856
-0.015880352
0.27373537
-0.0031880983
-0.045197763
0.163159
0.26401845
-0.10334959
-0.19771354
0.22757974
-0.16449308
0.03924013
-0.2438107
0.28968707
0.15652822
-0.20135614
0.06268256
-0.0031604718
-0.11092037
-0.17882276
-0.3784963
-0.16564436
-0.005391903
0.27346778
0.1697726
0.344322
-0.2831522
-0.28735793
-0.08342328
-0.08107107
-0.16165043
-0.26351956
0.15511338
-0.006637539
-0.23292786
-0.07986179
0.14192943
-0.31651723
0.24147688
-0.096001044
-0.041467257
0.25984174
-0.19970791
0.32859012
-0.041801162
-0.30699304
-0.13536984
0.2854205
0.05821448
0.23355855
0.096848726
0.16112192
-0.010321717
-0.032643452
-0.21443173
-0.40504196
-0.2553313
-0.16905865
-0.004577067
-0.048301682
0.05279973
-0.032357
-0.13923846
0.2632641
0.27046695
-0.04570274
-0.31518438
0.027416201
-0.28728625
0.12974861
-0.08447909
-0.13939828
0.18376201
-0.27421677
0.014586942
0.13049088
0.014322678
-0.2559893
-0.2215253
-0.029281447
-0.05755518
0.040378787
-0.28298816
0.35363913
0.19011799
-0.32680216
0.18412688
0.105229944
0.027622657
0.17241774
0.16249345
0.1960922
-8.877649e-05
0.076255985
0.18430999
0.085128434
-0.15198821
0.027178511
-0.16446966
0.007085534
0.06544243
-0.32449344
-0.1473641
0.27345
-0.37787262
0.23406596
-0.31107795
-0.013303239
-0.08045784
0.03307586
0.24922471
-0.29440156
0.17761075
0.16216028
-0.18639208
0.053971566
-0.17159952
0.36410904
-0.24434151
0.057247072
0.3243167
-0.16969104
-0.03638005
0.1220396
-0.37294394
0.23118153
0.09756998
0.15667821
0.10101325
0.08100817
0.19388196
-0.1421501
-0.23478414
-0.14369985
-0.113888815
-0.11757806
0.042745054
-0.0012822412
0.16819668
0.12609436
0.03068796
0.28823316
0.105101764
-0.25732872
-0.32239634
0.26295623
0.13089487
0.25740263
-0.28814808
-0.04035623
0.28308794
-0.20224734
0.20083831
0.2444672
-0.22873951
0.26950347
-0.20610617
-0.019998588
-0.10815665
0.16117847
-0.07571376
-0.29332203
-0.2311278
-0.2343579
0.17388344
0.2858529
0.15866126
0.0639905
0.23729093
-0.20713192
0.07488896
0.29511866
0.021927366
0.20558883
-0.12641528
-0.06456282
-0.3026773
-0.29851848
-0.13135548
0.090015724
0.26121527
0.26453266
-0.15899307
-0.10572675
0.286489
-0.25853387
0.114430204
-0.17982358
-0.2837598
0.06033651
-0.18380173
0.24168682
-0.28849363
-0.38318285
-0.0107651595
0.2623469
-0.047402337
0.13735245
-0.24730581
0.1259956
0.14831483
0.1263419
-0.28335303
0.30308142
-0.036505897
-0.2772375
-0.30145022
0.10670287
0.26724777
0.2133449
0.14706734
0.2634967
0.25193223
-0.2089744
0.32475853
-0.104481585
-0.28280342
0.1506111
-0.0018975463
-0.02381295
0.036153864
0.2294482
-0.095626555
0.26318857
0.3410737
0.11598738
-0.15904237
-0.2120301
-0.3280386
0.14725289
-0.12966989
-0.20029259
0.36058736
0.03475237
-0.44715482
0.042758092
0.16829596
0.09345835
-0.13132584
0.16326885
0.016411798
-0.021748329
0.31456017
0.254687
-0.27790716
-0.09773772
0.2246708
-0.13095501
-0.008577087
0.08942062
0.023605796
-0.36656383
-0.35444814
0.36450192
0.02976744
0.3854075
-0.12214406
0.07782472
0.08173834
0.2117688
-1.906031e-05
0.13658755
0.18210648
-0.024610689
-0.31703556
0.14716192
0.1531897
0.3035202
-0.08326706
0.23992352
0.03204779
0.07809307
0.2017113
-0.19043428
0.40177053
-0.1564756
-0.30316094
0.33332002
-0.20602973
0.22236729
-0.19978209
0.065404646
0.2712104
-0.075880595
-0.0742549
0.41106462
-0.32465222
0.08190074
-0.23578452
0.10432665
0.03454025
-0.31984767
-0.07493604
-0.03904123
0.12977
-0.1583506
-0.25004953
0.18481869
0.21687491
-0.24822071
-0.24108194
-0.2905429
0.07298444
0.04362281
0.014014002
0.15877156
-0.06826573
0.33174092
-0.048450343
-0.2504646
-0.3215624
0.12120595
-0.15961362
0.25219473
0.17904222
-0.0579876
0.06437223
0.06134211
-0.32035068
-0.050933804
0.11607299
-0.3025313
0.09944009
0.053574387
0.26908582
-0.19381471
-0.18060768
0.006341582
-0.17081897
0.42201957
-0.06702531
0.109338045
-0.08396542
-0.37776533
0.04633597
-0.13800678
0.027195292
-0.33229572
0.09420159
-0.1099492
-0.32362786
-0.15724222
-0.023034222
0.26227576
0.10426622
-0.30771303
0.07182068
0.07594117
0.18151385
0.014293573
-0.055379648
-0.12513332
-0.20218459
0.12946354
-0.051261265
0.06301066
-0.045315113
0.093708
-0.28498316
-0.26609877
-0.27538452
0.15930165
-0.2230914
0.12869649
-0.01184864
0.024831634
0.30250847
-0.09453349
-0.10439981
-0.31322598
0.05951174
0.23989686
-0.10158716
0.1421022
-0.09503869
-0.078293115
-0.056169327
-0.14817375
0.23100123
0.36519384
-0.047958076
0.2029765
-0.27477247
-0.28132385
-0.16364844
0.27489075
-0.0060763014
-0.06556222
-0.2568838
-0.15384239
-0.27159974
-0.08463796
-0.11940034
0.32058915
0.19570196
-0.21971676
-0.043655217
-0.1579448
0.115216665
0.13957489
-0.23028395
0.02059313
0.33386916
-0.1215672
0.1676221
0.38596278
0.11627831
0.056364518
-0.26216954
0.014520038
-0.36073235
-0.12893055
0.100881204
0.18239006
-0.03550653
0.26558343
-0.02452307
0.056573913
0.033874225
-0.3215542
-0.24110854
0.25856048
0.12946205
0.10727123
0.059658363
-0.19092606
0.3395874
0.10198419
-0.1238611
-0.011668958
0.21597454
0.32047424
-0.30635548
0.27976313
-0.11372485
0.15655239
0.23366356
0.039028242
0.20291
0.13928406
-0.30795878
-0.15890786
0.17119355
0.24163151
-0.21745686
0.258623
0.31332043
-0.0058528846
0.2526947
0.32641023
0.08265431
-0.23726544
-0.25269094
0.033849195
-0.07585535
0.19357924
-0.0912721
-0.175614
0.1237282
-0.14548254
0.0018934946
0.062493347
-0.29020542
-0.17206469
-0.05019095
0.22130895
-0.119754136
-0.20294587
-0.3351427
0.28490987
-0.029708644
0.09599355
0.16984788
-0.20354079
-0.10942754
-0.06377094
-0.19488116
0.37126458
0.11524174
-0.22618589
0.27935725
0.16040084
0.20001733
-0.14180408
-0.29856598
-0.3206833
0.3534186
0.11242475
0.1917298
-0.066031136
-0.2543845
-0.1564794
0.32809034
0.08875145
0.09049842
-0.1438708
0.028991291
-0.07843343
0.1137368
-0.24916351
-0.25346807
-0.07566753
0.3147043
-0.008164538
0.16587341
-0.033840265
-0.2570377
0.130636
0.0813882
-0.19835226
-0.26048335
-0.04465376
-0.20547451
-0.12958416
-0.17145154
0.20263311
0.17840649
-0.24823682
-0.1726174
-0.2640238
0.16209847
-0.19258547
0.3479473
-0.26495782
-0.21516128
-0.009387536
-0.005839432
-0.016300874
0.27796462
0.20262676
-0.12259785
0.041015163
0.104837954
-0.24505027
-0.25741208
0.30620462
-0.056486055
-0.06673271
0.24858713
-0.34158763
0.089219496
-0.035567574
0.092462294
0.08571701
0.32939965
0.22045667
0.013266826
0.36794606
-0.04436825
-0.09363268
-0.10600065
-0.25586584
0.19033916
-0.2806279
0.20567827
0.030871458
-0.16081885
-0.00785363
-0.1504556
-0.2687327
-0.21155438
0.3335716
-0.06031197
0.33588356
0.23424156
-0.14005436
-0.10150884
0.15404059
-0.050509434
0.029771067
-0.07085845
0.26052612
-0.17986609
0.13350424
0.04768241
-0.033950917
-0.057154443
0.12980753
-0.24260628
0.33786818
-0.22387958
-0.13183393
0.21187024
-0.089187734
0.09084626
0.17205665
-0.14099132
-0.28770417
0.20860496
0.24038635
0.13213234
0.025376722
-0.16648944
-0.02968116
-0.029811056
0.061196852
0.109212875
-0.13676186
0.23525538
0.28076312
0.3239639
-0.07608928
-0.32040495
0.39778078
0.08012703
-0.030198192
-0.21863103
0.23984507
0.2463838
-0.008025028
-0.33896714
-0.07671937
-0.209178
0.21770868
-0.22192012
-0.15174195
0.05819568
0.11907148
0.19347614
0.03817245
0.13171548
-0.40417644
-0.19116043
0.19611499
-0.03205728
0.16564366
-0.17163123
-0.2085679
-0.01832061
-0.11346811
-0.1103658
-0.39861143
-0.26100856
0.07361862
-0.27750945
0.31547686
-0.07722666
-0.16934744
-0.18173757
0.35276198
-0.05082
-0.31262434
0.25697002
0.035830926
-0.21566674
0.14072268
0.23259948
0.29738414
-0.21431728
0.23563021
0.24074604
-0.3066342
-0.20537144
-0.046769947
-0.28078786
0.002312588
-0.10133952
-0.0055604824
-0.27780303
0.24842912
0.008328405
-0.28818008
0.018362517
0.34866676
-0.14332436
0.3273242
0.07165751
-0.09102291
0.08453423
-0.2865053
0.1324349
0.3041941
-0.27222303
0.19377974
-0.28901613
0.020381471
-0.011531553
0.33360672
-0.22173066
-0.27309042
-0.3162958
-0.26170564
-0.27643043
0.0406101
0.35617957
-0.021772254
0.12867136
0.27510256
0.29923266
-0.23418102
0.06284246
-0.24396724
0.108107805
0.37310484
0.040316183
-0.22902769
0.2788415
0.118384376
0.011278384
0.2667498
-0.1996515
-0.2560996
0.19527052
0.03639572
-0.03906642
-0.11547057
0.2188203
0.032961227
0.23378462
-0.07242988
-0.16926436
-0.21715568
-0.05966234
0.26564065
0.31926534
-0.07487882
0.19997014
-0.019957993
-0.16283835
0.05905766
0.002726247
0.0070015793
0.22013474
0.18602327
-0.12825751
-0.31186602
-0.08932795
-0.13446401
0.31843993
-0.12632918
0.34340346
-0.0856936
-0.36320055
-0.19615269
0.18116035
0.26035056
-0.16127895
0.20811927
0.11538468
0.29860225
-0.16589864
-0.35347626
-0.3137735
0.104209386
-0.13326229
-0.022361608
0.19380817
-0.12730242
-0.0149612045
-0.15430874
0.07733327
0.023168255
0.2897468
0.050697405
0.098625526
-0.101091035
0.26111096
-0.24253
0.18721259
0.0725822
0.12934181
0.38565633
-0.012848155
0.03392067
-0.008155418
0.0031009545
0.12577873
-0.31488365
-0.11822319
0.22585963
-0.37571526
0.123415984
-0.14926688
0.12077228
0.050743066
0.18937571
0.31361398
0.09723706
0.28257316
0.30940416
-0.019304972
0.17190292
-0.09114406
0.21622302
-0.051228274
0.25588936
0.29564968
-0.19591329
0.3112811
-0.30415368
0.20100002
-0.055949464
0.19943489
0.10827891
-0.18261693
-0.16696301
0.044318136
-0.043206915
0.21274701
-0.11355712
0.32812792
-0.042848926
-0.25734198
-0.24150334
-0.0023074325
0.10518167
-0.2899819
0.0729553
-0.19680314
-0.16193317
-0.056309294
0.25731355
0.00053805765
0.18907548
0.2566633
0.09718076
-0.17517047
-0.2743026
0.2596025
-0.26794785
-0.13646598
0.2277202
0.31704134
-0.34104148
-0.31926662
-0.27417067
-0.19139846
-0.25164816
0.294272
-0.0408859
0.32257733
-0.16287594
0.07825143
-0.25504008
0.20338283
-0.28328964
-0.40747902
0.26703084
-0.28046492
0.11593569
0.144675
0.2591302
-0.28165832
-0.17905377
0.26987162
-0.2205227
-0.028099472
-0.051373795
0.22136107
-0.20461105
0.22753572
-0.19027911
-0.0020101774
-0.11913701
-0.2069385
-0.14709906
0.22983633
0.2495271
-0.08661004
0.13246502
0.16963282
-0.1215654
-0.32870358
0.12084758
0.11088492
-0.19495693
0.22731283
0.0448545
-0.16267554
0.20275712
0.06671105
-0.28615087
0.17954499
-0.29631963
-0.14928758
-0.031096984
0.30174235
0.07366697
0.13598834
-0.22091806
-0.015048311
0.27412784
0.16720115
-0.20018873
0.03538075
-0.23343135
-0.10959694
0.1670056
0.25564
-0.16559494
-0.29450098
-0.35892344
-0.12140292
-0.2780906
0.1350137
