0.39004254
0.004834782
-0.29209608
0.32012516
0.24438319
-0.008290788
0.2734379
-0.033040863
-0.028935866
-0.24462497
0.24958816
0.20295091
-0.18355401
0.116303615
-0.008212043
-0.21363173
-0.13922873
0.16393892
-0.29473397
0.043721933
0.18081439
0.054637905
-0.13159657
-0.19695328
-0.1201512
0.27975336
0.03455355
0.22541316
0.22114885
-0.10120642
-0.15002479
-0.16267441
-0.15072063
-0.10762505
-0.14459418
0.12570685
-0.16216554
-0.24286537
0.028093053
0.10798276
-0.31884557
-0.19127509
-0.15711775
-0.1322529
-0.117283136
-0.043753907
0.1259036
-0.3361437
-0.11187262
-0.11026584
-0.36221844
0.19334882
-0.11052003
-0.02472518
-0.24592486
0.08598103
0.38483158
0.10673269
0.13014938
0.30011615
-0.26946035
-0.087989025
-0.2679809
-0.006559379
-0.0127021205
-0.28968185
-0.18276623
-0.014013868
-0.10983674
0.20738183
0.1294451
0.27632126
0.3036046
0.14484291
-0.016599644
0.07108299
0.17490515
0.003007978
-0.28006968
0.23242784
0.41540834
0.23850983
0.073493935
-0.08463731
0.21935542
0.18201639
0.32878646
0.25036687
0.08782173
-0.01470213
-0.3015146
0.045468364
-0.24903691
0.105521634
-0.2571318
0.13573124
-0.092635356
-0.11992842
0.31468835
0.017893838
-0.09383472
0.090920135
0.08066745
0.013033029
-0.36282846
0.07948076
-0.092645116
-0.23453933
0.18440077
-0.16870493
0.21441269
0.2556936
0.020392375
-0.22674002
-0.14577976
0.17802389
0.05836808
0.23858055
0.16888101
-0.06699279
-0.06332645
-0.26027226
-0.22807702
-0.27979803
-0.1139536
-0.30992392
0.0063478583
-0.12578367
-0.2049816
-0.2732309
-0.4111831
-0.21815261
-0.29688862
-0.36585918
-0.10763464
-0.16349043
0.07919558
0.1691354
0.13470405
-0.19321132
-0.3124841
0.20354958
-0.2139996
-0.33392328
-0.22709511
0.1253175
0.10843535
0.21537931
-0.32592455
-0.3863111
0.2778947
0.011558511
-0.2408937
-0.16305348
-0.35658482
-0.22121733
0.21778668
-0.2312136
0.01825025
-0.17034028
0.080193244
-0.19024523
-0.232599
-0.043491233
-0.2417935
0.040050384
-0.41084117
-0.3453819
0.0030971316
-0.35315055
-0.41612557
-0.018692924
0.040737875
0.33336234
-0.1443036
-0.033922255
-0.30151737
-0.07409198
0.122442834
-0.41237542
-0.31774598
-0.06511476
0.06468311
-0.08417196
-0.26386067
0.013471908
0.26832962
-0.2912287
-0.16580494
-0.25003254
-0.22929154
-0.18586467
-0.3970459
-0.14040431
0.23816012
-0.30607617
0.05085653
0.19246736
-0.19466205
-0.22976562
-0.1371338
-0.088919744
-0.21277125
-0.15762115
-0.15828559
-0.029456133
-0.034266956
0.06575982
0.21532059
0.20240274
0.09141617
0.08215214
0.06287568
0.12747648
0.11419686
0.23100108
0.11071873
0.196615
-0.011552941
-0.05757363
0.13319606
-0.02374338
-0.22564064
0.22465216
0.26018256
-0.08587218
0.075263694
0.20720333
-0.24915592
0.016184716
0.14042644
-0.26867312
-0.28594032
-0.0819778
0.25498205
-0.053542618
0.042494953
-0.10705964
0.3555101
0.13618316
0.1428083
0.17879844
0.27902156
-0.1469155
-0.06923352
-0.10712553
0.30791822
-0.22260505
-0.3204387
0.3929109
0.0828345
-0.22573122
0.4213994
0.40056553
-0.08308046
0.17206062
0.035262145
-0.18698387
-0.32053632
-0.06915554
0.26377177
-0.25105408
-0.3252539
-0.15693046
-0.36969253
-0.078795925
0.10417309
-0.22818822
-0.06587222
0.30417454
-0.15879875
-0.19191447
-0.20787516
0.2656611
0.17153637
0.089845784
-0.2344438
-0.069896124
0.17070581
-0.15249842
-0.09811364
0.12068172
0.15211168
-0.052546643
-0.30674195
-0.02823613
0.22899362
-0.048008155
-0.23745075
-0.18347159
0.0023766723
0.312599
0.22118942
-0.042685863
0.21484588
0.016283797
-0.14473282
0.13177034
0.22517201
-0.081472956
-0.07339705
0.22982365
-0.105744496
0.18670374
-0.23415488
-0.30968025
-0.15358798
-0.064019725
-0.19855623
0.18232937
0.026085997
0.23236184
-0.028673075
-0.11513495
0.06770025
-0.10102343
-0.3747744
-0.1666306
0.109161556
-0.38416582
-0.02586866
-0.1471196
0.21605176
-0.12440989
-0.22568212
-0.35479164
-0.08478284
-0.12033714
-0.34470817
-0.021078158
0.13486977
0.27474567
0.19626038
-0.26708207
-0.2631387
0.12989148
0.09812601
-0.08871038
-0.25437826
0.3214956
0.1730325
0.1494008
-0.06814958
-0.3003381
0.03961768
0.26300448
0.13504533
0.020559791
-0.05592865
0.11174287
-0.19716035
0.13022037
0.28623843
-0.06264416
0.22322913
0.25843152
0.20059623
0.39710072
0.0052313553
0.17451537
-0.012410231
0.13224311
0.20685777
0.15744722
-0.057422914
-0.041123606
-0.3521917
-0.09535583
0.053682007
0.29073894
0.2641484
-0.03338887
0.18920419
-0.066427715
0.0636787
0.044864908
0.06033777
-0.05301934
0.33425847
0.19544943
-0.30211246
0.15823822
0.17389327
-0.13358818
0.09766974
-0.2377685
0.18264256
0.30088964
0.29049835
0.016689043
0.033750895
0.05598059
0.1149939
0.22968188
-0.07414358
-0.22299609
-0.21989399
0.266505
0.06920955
0.07007314
-0.14788921
-0.22956306
0.0795347
-0.18127452
0.062222034
0.026896533
-0.06987811
-0.2113957
-0.08509044
-0.20038265
-0.03899131
-0.10328942
0.18901289
0.29914954
0.031999152
0.2082841
0.39149994
0.34846517
0.31555748
0.21434017
-0.07559696
0.24929444
0.057502296
-0.004603055
0.022424845
-0.23609422
0.19864646
0.15702768
0.24213998
-0.07156457
-0.33510816
0.013631615
-0.1531573
-0.12146601
-0.050697226
-0.16588739
0.050642904
0.20613097
-0.0733404
-0.092897505
-0.043489765
0.09652235
-0.3676235
-0.18304804
-0.16003336
-0.34296182
-0.15881875
0.012237823
-0.04180871
0.15228657
-0.3135321
-0.04633989
-0.17825076
-0.1228761
-0.21851034
0.2654646
0.18395163
0.29894844
0.27375364
-0.2150195
-0.2231512
-0.24629468
-0.39571095
-0.3608223
0.22406034
-0.284958
0.13393565
0.20002042
-0.21340722
0.24858412
0.21131894
-0.027470568
-0.03706574
0.2476227
-0.016776348
0.15687855
0.10786882
-0.19020624
0.18358497
-0.17003143
0.14439915
0.17164347
0.3420959
0.029000256
0.26634955
0.24755235
-0.09856453
-0.19109657
-0.12655787
0.1985693
0.17188634
-0.28694165
-0.12389854
0.31950703
-0.2361466
-0.2705988
-0.086081505
0.064329796
-0.04432083
-0.1750461
-0.30866653
-0.24950257
-0.035826012
0.030949095
-0.31129324
0.04570045
0.2068974
0.011431091
-0.07858521
0.1747231
-0.14010292
0.23540126
0.0761746
-0.104270145
0.13760304
0.09334225
0.036264088
0.17020322
0.17999819
-0.21940646
0.15736768
-0.0070943716
0.25769433
-0.29610407
-0.2467134
0.015752088
0.17018148
-0.019472132
-0.12110183
0.29357818
0.21940373
-0.07811908
-0.19452196
0.2648759
0.13037014
0.31593764
0.111140095
-0.000706223
0.18999724
0.16899234
-0.0831619
-0.34461376
-0.34551665
-0.2262408
-0.03862068
0.1663567
-0.02658974
0.28712422
0.05352996
-0.042993456
0.15981473
-0.29575008
-0.097934455
-0.23792887
-0.40936878
0.040552516
-0.20348665
-0.058009233
0.008217452
-0.26750383
-0.22618832
-0.35045215
-0.075665385
0.07654739
0.0097368155
-0.13678664
-0.16528183
0.10260866
-0.1818203
-0.094944745
-0.22588916
-0.3510317
-0.03631083
-0.0957835
-0.024374705
-0.19925931
-0.11244775
0.13116252
-0.01270501
-0.27518198
-0.31953967
-0.009869418
0.21727885
-0.3617251
-0.28531432
0.17015685
-0.16532755
-0.16992843
0.06740391
0.20950675
0.22529644
0.24830417
0.04953585
0.030474693
-0.20393874
-0.22067285
0.15474473
-0.3134214
-0.16983451
-0.07152199
-0.08145651
-0.059886202
0.10333806
-0.20959249
-0.31213114
-0.06792679
-0.24606358
-0.4056497
-0.2218872
-0.27600062
-0.15450849
-0.120819345
0.17319849
0.0050956756
-0.2595046
-0.019248351
-0.09277663
-0.029734386
0.12887125
0.2574482
0.29939085
-0.102684
0.29382306
0.01784503
0.13626382
0.06481838
0.09381615
0.27304673
0.088643864
0.10296342
0.22061841
0.24597934
-0.24112217
-0.11447506
-0.005721359
-0.2416357
-0.3319318
-0.2611135
0.06770966
-0.16145478
0.11911036
-0.072075814
0.3009344
0.044765003
0.007267864
0.24645536
0.23321934
-0.018698307
-0.10372899
0.028125482
0.18982065
0.15145247
0.24304171
0.106310226
0.013247066
0.18802606
0.3700373
0.26520273
0.027078161
-0.113135
0.025682513
-0.28416723
0.040493134
-0.29605764
-0.11001759
-0.30495888
0.004364142
0.25337774
-0.23848635
0.2804147
0.3832717
-0.18114421
0.22156285
0.06509111
-0.17296147
-0.108900994
0.11356807
0.22478645
0.2343917
0.38694122
0.19450368
0.410185
0.32661584
-0.03788745
0.047546785
-0.32399088
-0.21599714
-0.31228733
-0.32912305
-0.084884025
-0.12886706
0.16415572
-0.08865498
0.15157814
0.007646477
-0.053511225
0.22003014
-0.054746132
0.24643365
0.28913963
0.3469771
-0.12778646
-0.14943673
0.4114333
0.3335082
0.21172306
0.40528998
0.2717249
0.22974183
-0.012396476
0.010062982
-0.056643452
-0.14605007
0.3070005
0.21238959
0.3211499
0.15252924
0.3744149
-0.18051338
-0.27577502
0.0062503424
-0.15939438
0.063543595
-0.1595645
-0.3422026
-0.16592953
-0.015415044
-0.107347
-0.019093418
0.034468345
-0.34312007
0.14818472
-0.14651734
-0.041889023
-0.1767144
-0.10127698
0.26990235
0.21351163
-0.2955932
-0.078666456
-0.19016017
-0.15557323
-0.14150637
0.16484053
-0.298003
-0.1304995
0.315766
-0.078399435
-0.30387405
-0.3219205
-0.21636403
-0.12403693
-0.06517893
-0.028076101
0.04630018
-0.12635073
0.069250375
-0.06860953
-0.18807982
-0.2902783
-0.030232301
0.354415
-0.003444553
0.34946904
0.3357469
0.08365778
-0.08968358
0.16354685
-0.10291144
0.22927137
-0.12558773
0.19013552
-0.08819621
-0.07756257
0.0024473025
-0.21343577
0.013215981
0.114228465
-0.112406984
0.26580748
0.071052015
-0.16885307
0.11586159
-0.2454178
0.1049231
-0.1211335
-0.33279568
-0.3533318
0.18580821
-0.3188244
-0.15468861
-0.13741474
0.19246443
-0.07500367
-0.022367883
0.26621652
0.15691783
-0.20195092
-0.05485381
-0.300111
0.11419239
0.0972211
-0.2551709
-0.17641796
0.11973599
-0.33963883
-0.4309682
-0.2184168
-0.27900922
-0.31472102
0.07554196
0.1791951
-0.20377888
0.19268632
0.111267336
-0.088956684
-0.09158237
0.29333416
0.10690746
0.0451261
0.06230589
0.09925144
-0.041513108
-0.23979294
0.29330888
-0.36674035
0.07027691
0.37620685
-0.034981675
-0.13825837
-0.13246064
-0.043981824
-0.16908877
0.2469441
-0.25876278
0.19179212
0.14818454
-0.15432625
-0.18611388
0.25284365
-0.2185165
-0.34770334
-0.08148393
0.03699218
-0.066339344
0.12483491
-0.30886742
0.011614689
0.23593923
-0.27092326
-0.11824461
-0.01221072
0.22646561
-0.15296297
0.007788794
-0.034421526
-0.35795853
-0.24533455
0.025736455
-0.44106543
-0.31686586
-0.27776214
0.03673077
0.06495861
0.001438281
-0.29481882
-0.08986198
-0.25234863
-0.49052212
-0.41038755
-0.36052707
-0.41951314
-0.344409
-0.33528814
-0.2729697
-0.09874904
-0.3513745
-0.18337719
0.11003052
0.05633894
0.12596972
-0.035782598
0.19320223
0.40587968
0.017550247
-0.09676099
-0.001875106
0.26247063
-0.17407875
-0.19701341
0.030408094
0.10757126
0.27586976
-0.0053791404
-0.14607774
-0.23199198
-0.26162243
-0.18150252
-0.3436382
-0.18939973
-0.2400638
0.29154179
0.19513878
0.15349607
0.065608084
-0.06883944
0.16756059
0.03940773
-0.16703844
0.11525858
0.36240667
0.3031112
0.22139966
0.3674431
0.0102058435
0.25006312
-0.05623434
-0.25085828
-0.15471779
0.006597341
-0.22224586
0.161159
-0.25795683
-0.23786171
0.15311497
-0.21631917
-0.08856551
0.24476731
0.017508049
0.18858784
0.3735861
0.26649258
0.07542613
0.115849406
0.33199012
0.22011377
-0.09128579
-0.17288889
-0.0097949095
-0.03238363
0.20621338
-0.15209079
-0.11449767
0.078322455
0.1471154
0.18995653
0.14086139
0.14290504
0.33146262
0.27779472
-0.10466688
-0.039104503
0.14276361
-0.017928842
-0.17629218
-0.13737057
-0.1816739
0.24062096
0.18695544
-0.036034886
0.25895426
0.03194392
0.30092344
-0.31123668
-0.003867984
0.11814695
-0.3114527
-0.20890497
0.041274127
0.012924493
-0.32372397
-0.033563826
0.21516666
-0.24363819
0.17030497
-0.18006223
0.22741081
0.25108042
-0.0137226395
-0.18304646
-0.022864087
0.11010463
0.26568907
0.05659871
-0.059653934
-0.02302121
0.39901176
-0.15569276
-0.018101737
-0.20462331
0.18761447
-0.0114586875
-0.17973873
0.24175048
-0.13917884
0.21059224
0.095888905
-0.20352395
0.017835397
0.22066398
0.20142889
0.06289649
0.26935536
-0.0032503481
0.35338703
-0.004073477
0.38418758
0.08155939
-0.32097036
-0.13109583
0.38168997
-0.19037992
0.20177464
0.1712669
0.076254
0.23594382
-0.2972915
0.4200521
-0.10649367
-0.10407901
-0.06716284
0.31229958
0.08460145
-0.19534726
0.045719836
-0.052490734
0.31015655
-0.022115508
-0.20046845
0.16484208
0.06423768
0.12782082
0.071733564
0.20599376
-0.14614508
0.17914863
-0.008597486
0.03683368
-0.001188737
0.16496563
0.4391529
0.16655388
0.4424994
0.20348105
0.10346569
0.04614171
0.3433595
0.035865605
0.18023652
0.17786811
0.11248672
-0.06090696
-0.07511844
-0.24120785
0.27829656
0.044162482
-0.21033193
0.28662646
-0.016758827
-0.19546618
0.2173263
0.0010756776
0.2028038
0.10071813
0.04400074
0.164455
0.45031074
0.20675455
-0.07378231
0.10064661
0.2485386
0.15067396
0.09558164
-0.03971377
-0.071978986
-0.17466809
0.0048525934
0.14567523
0.123332016
0.011386995
-0.14530125
0.057883646
-0.12426721
0.11987109
0.013726226
0.20863864
0.43161985
0.36774284
-0.16669233
-0.09087508
0.032651924
0.27957398
0.19647245
-0.32264596
-0.16607228
0.081177115
-0.30286905
-0.27755827
-0.16055217
0.19387414
-0.1067491
-0.24334972
-0.103568934
0.2207441
-0.25550932
-0.42730355
-0.2961255
0.17651995
-0.008722458
0.027440216
0.28973973
0.36028767
-0.051683813
0.26398903
0.24335943
0.06253554
-0.0093433205
-0.2370223
0.0010771139
0.19062205
0.28432214
0.20360115
0.18867935
0.2339698
0.21807368
0.11437314
-0.33597547
-0.36195418
-0.1240072
0.086455666
-0.28493363
-0.2098302
0.2519191
0.31854466
0.1766092
0.25595453
-0.11598394
0.14491352
0.2813824
0.23217793
0.13951233
0.3391309
-0.03493379
0.21939932
0.048779946
0.029569224
0.27165103
-0.0029383528
-0.1386926
0.00996255
0.22837213
-0.29595387
0.1259365
-0.21688837
0.008924145
0.22653735
-0.17601612
-0.20670272
0.083119735
0.00814398
0.21711649
-0.256093
-0.29920238
-0.1409322
-0.3763945
-0.15633401
-0.26632202
-0.26542163
-0.2614977
0.08510824
0.27346128
0.08365247
-0.16458549
-0.17161088
0.069020525
-0.2173143
0.10244533
0.015555234
-0.09982217
0.08218188
0.087534346
0.31802955
0.020851282
0.45218858
0.20583701
0.25086814
-0.11551594
0.007549905
0.1323272
0.20552336
0.10934854
-0.22435197
-0.123091646
-0.20717177
0.08480013
0.22270519
0.035912547
0.28893897
0.34240013
-0.18992698
0.08046891
-0.079631045
0.3447343
-0.24515101
-0.031013463
0.07000651
-0.20801754
0.18676667
-0.09315146
-0.1370317
-0.09530095
-0.19323663
-0.2547723
-0.042619146
-0.17002979
0.1333424
-0.13502717
0.036554784
-0.2514984
-0.35654345
-0.23741478
-0.16351625
-0.35725313
-0.3649467
0.19534174
0.1103348
0.2709109
-0.25157863
0.04847299
-0.03574804
-0.09632242
-0.40027076
-0.25059187
-0.07935054
0.062325373
0.18740378
0.2002821
0.2898639
-0.076637045
0.29531664
0.40387097
-0.026695363
-0.33511302
0.07287819
0.29172713
-0.16513816
0.19404972
0.23230927
0.12772389
0.28615922
-0.08237392
0.03868252
-0.02784651
0.30391738
-0.11534098
0.14337127
0.15737201
0.10661198
0.284373
-0.14370972
0.050953772
-0.16860725
-0.16851687
0.12010436
-0.101413794
-0.19486415
0.055470295
-0.065124325
-0.11628675
0.0055560716
-0.1407549
-0.23601818
0.02338286
0.20606306
-0.20805883
0.11092742
-0.29412887
-0.30064005
-0.060957745
0.19357152
0.00903309
-0.0074198395
0.27181634
0.3567047
-0.055772003
-0.19010769
-0.13684286
0.027354099
0.21558288
0.117396824
0.051510002
0.06756428
0.10675788
0.19609533
0.32550573
-0.318994
0.083537474
0.06421983
-0.2201737
-0.16808832
-0.1938961
0.2861989
-0.12620908
0.18977526
-0.12934883
0.14618142
-0.010445181
-0.09671999
0.26238587
-0.18496308
0.020862728
0.12518717
-0.20839228
-0.3370359
0.34280923
-0.17273687
-0.09718138
-0.03293916
0.21070737
0.29184005
-0.27294412
-0.2984116
0.27696106
0.05395375
-0.18101971
-0.26894626
-0.15034892
-0.3108589
-0.3142898
0.0055036326
-0.3451798
-0.29972187
0.2541892
-0.064125635
-0.01109757
-0.021375645
-0.19104198
-0.12964047
0.046223167
-0.32148695
-0.40492475
-0.21606202
0.15436915
-0.13861902
-0.26825932
-0.04729387
-0.3641746
0.26700756
0.09035883
-0.28706554
-0.2727914
0.02862399
-0.04602657
-0.30520684
-0.33202273
-0.16872486
-0.2529743
-0.04077728
-0.14904755
-0.29865608
-0.3136163
-0.27707776
-0.21745488
-0.23292409
0.05931089
-0.31068957
0.22153157
0.076130316
0.18083237
-0.19447638
-0.20418136
0.21845417
-0.12556654
0.1551818
0.074765615
-0.21912773
-0.22925392
-0.30968946
-0.3175391
0.11035347
-0.08996413
0.112905964
0.041633092
0.13987575
-0.056209065
0.3250778
-0.11178137
-0.11877396
0.25194448
0.13474631
-0.24179219
0.3723668
-0.05806474
-0.09451577
0.041603807
0.093439996
-0.22160138
-0.1547314
-0.06811651
0.18387862
0.35914257
0.12544362
0.22633581
-0.09333768
-0.20591263
0.18510878
0.36072174
0.11671512
-0.104371086
-0.013836973
-0.24362794
0.19266036
-0.20236768
0.0048067435
-0.11671217
-0.15331216
-0.054836124
0.041397583
-0.2413847
0.31074908
0.12355774
-0.039722756
-0.26596057
-0.24289629
0.27596864
-0.10571662
0.23476736
0.06362603
-0.10120811
0.074743606
0.16098115
0.21712191
-0.0032548807
-0.13417804
0.15791427
-0.040973987
0.037380718
0.252571
-0.27508768
-0.3031144
0.21294333
-0.036581703
0.30086434
0.26178935
0.09574837
-5.755799e-05
0.14718156
-0.21228899
-0.20431365
0.15706554
-0.21164271
0.024468992
0.19363678
0.2980626
0.042395376
0.045494974
0.24939023
0.077569
-0.11328207
0.274832
0.22146744
0.2877233
-0.1175852
-0.0155965835
0.21204254
-0.25185865
0.1136024
-0.14369333
0.013134042
-0.05537299
-0.30390483
-0.40820017
-0.2146164
-0.040860657
-0.41608202
0.0062847887
-0.041849595
0.15989877
0.16219635
-0.20797408
-0.03608865
-0.13761105
-0.11127923
-0.22914095
0.05606081
0.13347925
0.0059328494
0.09181793
-0.020772805
0.35153493
0.25097153
0.18752617
0.3533376
0.3195841
-0.04298415
-0.13672233
-0.24166565
0.050633457
0.18431827
-0.25865752
0.11193609
-0.24124463
0.29048926
-0.11821664
0.104057685
0.14416689
0.06683117
-0.23437469
0.0764621
-0.23762974
-0.033526454
-0.2928188
-0.3152783
-0.29165623
0.049162924
-0.1416154
-0.2524553
0.047206987
0.14598897
-0.054142054
0.11921957
0.28300524
0.33757237
0.16602698
0.07065809
0.19183008
-0.018099684
-0.2286776
-0.030390263
-0.013453532
-0.31527156
-0.1367279
0.06924094
-0.3500802
0.0555398
0.12939684
-0.06440658
-0.095953576
0.27746484
0.2280313
-0.23796357
-0.26359802
0.25214645
-0.25905088
-0.18387625
-0.017125212
-0.3067793
-0.14706919
0.20432359
-0.10620715
-0.17419913
0.24386539
-0.06605904
-0.37659693
-0.22988041
0.012675986
-0.21668182
0.18186338
-0.2046919
-0.16830547
0.344001
-0.1632716
0.1848155
0.28943598
0.29940683
-0.18525071
0.07689107
0.24404652
0.12731807
0.02224606
-0.2679844
-0.18867122
-0.07843889
-0.34314787
-0.0873459
0.09995148
0.24003288
-0.085683115
-0.07963932
-0.20807688
0.09537049
-0.019744113
-0.31383467
-0.3024629
0.013834188
-0.3043692
-0.31024256
0.19638337
0.088875555
-0.18103218
0.025211783
0.12981175
0.15278283
0.12714052
0.35822317
-0.16846517
0.06492764
-0.1912622
0.23916042
-0.041021634
-0.0037015094
0.2265961
-0.1281791
0.2839248
0.15501186
0.2763108
0.34055322
0.2589823
0.34042042
0.22881584
0.14633092
-0.23674175
0.18917273
0.35649556
-0.2523844
0.3166924
0.12393623
0.05453402
0.04436718
0.2571263
0.267719
0.0804399
0.114131324
0.27482215
0.01778403
-0.29123667
-0.026493782
0.14359552
-0.06919831
0.19898853
0.28008485
0.40340403
-0.03256047
0.16950114
0.31164953
-0.26817822
-0.17705601
0.15849864
0.20287171
-0.2154016
-0.3086181
-0.29097462
0.072511375
0.1123167
-0.061568175
-0.13339333
-0.20671101
0.14057463
0.21171173
0.09979344
0.22604612
0.42976108
0.29584923
0.23700999
0.30703768
0.22782886
0.003619675
0.16796225
0.28911132
0.03683943
0.2503728
-0.27745467
-0.26870403
-0.13591799
-0.13945198
-0.025417324
0.1675032
-0.15878603
0.115213625
-0.20648062
0.2886634
-0.19932957
-0.10506935
0.26265982
-0.17656608
-0.30598468
0.063057885
-0.12246849
-0.2398495
0.07042279
0.095478594
-0.063702494
0.11215289
-0.33808196
-0.32143056
0.01469056
-0.22929615
-0.18506387
0.26309797
0.13968247
0.28605053
-0.032761365
-0.17008276
-0.18625186
0.15704283
-0.2505824
-0.10924422
0.14680742
-0.26255587
-0.3143469
0.04783316
-0.074913725
0.010194914
0.21740131
-0.2422852
0.09802629
0.20894438
0.04632052
-0.22424138
-0.08608992
0.1561061
-0.064442515
-0.12844324
-0.191499
0.29544604
0.29841673
0.021859853
0.1770167
0.25765997
-0.16506435
0.15854028
-0.2210863
-0.23630525
-0.071166664
-0.28460076
-0.022809621
0.18188992
-0.06854253
0.20704259
-0.3037104
-0.11853861
0.06838304
0.052623414
-0.2184797
-0.25277463
-0.11321014
-0.19601059
0.23543559
-0.070905596
0.1807454
0.1114984
0.19261952
0.030322794
0.07566856
-0.2552605
0.021271309
-0.19887237
0.14383966
0.08592815
-0.004515845
-0.16803549
-0.13241853
0.099972785
0.29933846
0.118386395
0.19938254
0.06993619
0.27262306
-0.17681745
-0.13433126
-0.23242742
0.19622903
-0.17671473
-0.37132415
-0.022263402
-0.28814033
-0.26648825
-0.011253399
-0.25517786
-0.16370425
0.0055987732
-0.15001915
-0.05017452
-0.24345477
0.11322523
-0.28945273
-0.1612937
-0.10013713
0.37567607
-0.22202745
0.23098055
0.34503016
-0.23749094
0.2561216
0.32263944
-0.09940074
0.42518783
0.11742811
0.24554224
0.006382503
-0.068039946
-0.19490546
-0.31241143
0.13293526
-0.26564962
0.082470626
-0.20891371
0.12523058
-0.089116186
-0.0548747
-0.065785825
-0.23099273
-0.005432683
0.05880655
-0.15512782
-0.35860917
-0.069953024
-0.19173911
-0.2926692
0.18192507
-0.18951888
0.06148834
-0.15799369
-0.056921903
-0.08268678
0.31684527
-0.12648751
-0.31300125
0.116901755
-0.023786372
-0.070160665
0.22812144
0.01761904
-0.060459733
0.15297402
0.22664048
-0.0061979145
-0.17189342
-0.20986655
0.07094174
0.032788903
-0.027739557
-0.25837642
0.10098469
-0.076838456
0.23317407
-0.015267797
-0.22113223
-0.17189318
-0.16196571
-0.26778147
-0.27340108
0.08983948
-0.35947788
-0.40851206
-0.2360845
0.18245117
0.08928305
0.0939515
0.24594036
0.26746085
-0.0004341264
0.0088732615
0.30163512
-0.06550701
0.1619395
0.06611627
-0.017781777
0.3073481
0.23915781
0.01901512
0.18511239
0.16046518
-0.23164634
-0.026052104
-0.22436282
0.20158558
-0.01344457
0.10356894
-0.27338964
0.0011608829
0.0380052
0.24280684
0.18186066
0.13140918
-0.24300851
-0.12924056
0.25942442
-0.24035007
-0.0292608
-0.017827565
-0.20685497
-0.2511573
-0.08969443
-0.3579055
-0.092560135
-0.21134113
0.076722614
-0.08163825
-0.28171664
0.054966576
0.011558381
-0.0014692011
0.17874803
-0.06595684
-0.066645086
-0.038303833
-0.26490754
-0.31697348
0.045451164
-0.1757642
-0.005393499
-0.2490541
0.045813587
-0.24221455
0.11964041
-0.24468692
-0.26729396
-0.36412647
-0.41212997
0.09803989
-0.37732026
-0.30019212
-0.31767398
-0.035904836
-0.23250686
-0.1069938
0.108486705
-0.31330326
0.009203425
0.00940941
-0.020448385
-0.18300633
-0.17990722
0.27022493
0.15285529
-0.29108536
0.16024645
-0.26591176
-0.108399935
-0.105903015
-0.21467648
0.17087452
0.22375979
-0.05626112
0.342886
-0.07414602
-0.39474583
0.32640633
-0.13229407
-0.019737657
-0.18056583
0.3590538
0.14070648
0.29339772
0.0552663
-0.3365901
0.29588652
0.13716416
-0.14541097
0.14723013
-0.13472036
-0.2721549
0.31829455
0.30322158
-0.12846895
-0.08225054
0.21750836
-0.08013197
-0.23393434
-0.19726132
0.18412574
0.041053332
-0.2907328
-0.16243704
-0.090955295
0.04239914
-0.2629643
0.18967138
0.26230544
-0.042551775
0.3212123
-0.060798604
-0.20315553
0.12778816
0.121064305
-0.16352133
-0.061925843
0.06601228
0.19138081
-0.027755117
0.25077513
0.006166525
-0.26135838
0.08409909
-0.073433764
-0.23329057
-0.29665467
-0.19221088
0.19221064
0.01128076
-0.18253951
0.04478256
0.28796735
-0.04114078
0.14603195
0.03286935
-0.18330634
-0.1517547
0.16059731
-0.01083991
-0.20956005
0.043736797
0.37057808
-0.15421152
0.22979681
0.2901981
-0.09932368
-0.21629472
0.24057628
-0.046463158
0.3453054
0.2917144
0.16012001
0.21165301
0.10258669
-0.208157
-0.28615385
0.062272806
0.16156484
0.057517502
0.19414246
0.14557101
0.2220862
-0.07471945
-0.0832003
0.0640676
0.33442765
-0.14941601
-0.17643674
-0.1226493
0.1820024
0.03199522
-0.037739355
0.099662334
0.2484768
-0.21927391
0.16294166
0.23777689
0.3633821
0.033868577
-0.04983385
0.26595396
0.1750637
0.19961019
0.22879331
0.024143409
0.12770696
0.025938258
-0.21061073
-0.05672929
0.0891219
-0.0527778
0.03771337
0.31371108
-0.03960753
-0.07099102
0.18352681
-0.030830177
-0.16364405
-0.28345063
-0.066140465
0.25621387
0.30055588
-0.16140799
0.42902443
0.52595884
0.12313783
0.15892081
0.36947355
0.20267355
0.23303574
-0.19273728
0.35003453
0.2670088
0.10620646
0.2166064
0.03126281
-0.21453133
0.16078319
-0.28709218
-0.37994874
-0.086708896
-0.30998734
-0.034353
0.08872367
0.0995112
-0.0044978806
-0.13888657
-0.180984
-0.28232628
-0.118786596
-0.32104465
-0.22512083
0.047825705
-0.013946031
-0.16172087
-0.11165277
0.08628275
0.055386357
-0.028987246
0.026520377
-0.13445868
0.25006363
0.2984917
0.25302008
0.2186014
-0.06419784
-0.18497069
0.16587406
0.27216205
0.2241455
-0.13808095
-0.040634826
0.14571583
0.16582285
-0.27149987
-0.16571656
0.3047308
0.07841123
0.2769935
0.31403506
0.24131522
0.26431447
-0.13886872
-0.12595765
0.0013463717
0.20250648
0.24177453
-0.16719036
-0.06016909
0.29135323
0.1047721
-0.22319028
0.050356988
0.14935876
-0.2939524
0.17558897
0.12732355
0.039162662
-0.17978829
0.2717421
0.24283746
0.3357899
0.17483163
0.35064206
0.19556548
0.27586693
0.019710612
0.25100917
-0.06746352
0.010119684
0.20840822
0.099832736
-0.11064262
0.020419916
-0.26518744
0.19641294
-0.076569356
-0.35622302
0.20584887
0.055656306
-0.25822708
-0.24745981
-0.24011768
-0.31741267
0.15078449
-0.078985855
0.04802948
0.0398654
0.33716977
0.25598437
0.07414491
0.25758338
-0.27973574
-0.19389077
-0.13105027
-0.27040616
-0.080077276
0.07821661
0.28077874
0.1399046
-0.22192025
-0.25273
0.07295327
0.06929528
-0.2569727
-0.09832994
0.2860675
0.012976916
0.046247303
0.21138611
-0.27691755
0.07271697
0.044222716
-0.20082723
-0.09773451
-0.17706479
0.1900626
-0.13540067
0.31253034
0.3244307
0.20808345
0.31422815
0.24872817
0.120110355
0.15543655
0.22294131
0.14731377
0.29793006
0.06299527
0.22554705
-0.13536225
-0.053479306
0.29114977
-0.061443772
-0.27035037
-0.18468072
0.21789436
0.1025495
-0.26165277
-0.2353921
0.02230586
-0.028703496
0.25835606
-0.13601127
0.2566494
0.3240173
-0.06331529
-0.042994224
-0.2031954
0.1826483
-0.095650114
-0.0086595155
-0.1794174
-0.33431858
-0.23910013
-0.042568065
0.11074136
-0.2714493
-0.19828948
0.19280669
-0.24395226
-0.13515721
-0.03064917
-0.2661317
-0.10127804
-0.086739585
-0.16759267
-0.31147322
0.13687614
0.09552087
0.30073938
0.18851064
0.027688822
0.28680593
-0.31389856
-0.23585942
-0.16989204
-0.20997733
-0.059144836
-0.121189915
0.19457506
0.21411437
-0.043445393
0.071895175
0.02792288
0.34075162
0.21215023
0.22313997
-0.17394723
0.3038926
0.2966696
0.032028403
-0.058496863
-0.11059434
0.06537024
-0.08715399
0.30147502
0.29706877
0.08963318
-0.014388556
-0.28339663
-0.16832997
-0.32254922
-0.06739781
-0.08613749
0.19993852
0.12359104
0.23191713
0.13195929
-0.070085414
-0.118640274
0.3426134
0.19731915
0.12524953
0.071215235
0.22945558
-0.049170222
0.23290995
0.4366268
0.30038616
0.32262725
0.10925642
