0.17317237
0.105275705
-0.082060896
0.18530515
-0.19206522
-0.05999205
-0.17313789
-0.23020999
-0.07881922
0.030967474
0.04766845
-0.22038817
0.29675898
0.34240282
-0.0817109
-0.056905665
0.24773549
-0.23327748
0.13895036
-0.08326581
0.025141504
0.31325093
-0.14043559
-0.14265393
0.356041
0.08217352
-0.0691722
-0.1798081
-0.011499469
-0.36737287
0.12620507
0.3146082
-0.19231503
-0.007404129
-0.037261955
0.17017116
-0.15916862
0.21453027
0.3507935
-0.32402292
0.2667787
0.22835754
-0.38027793
-0.09456571
-0.27246407
0.14411752
-0.21544407
-0.19564366
-0.21562433
-0.012824443
0.18315952
-0.29104015
0.046527267
-0.18199985
-0.24208309
-0.18563287
0.31058925
0.13892618
0.32587782
0.28307936
-0.0501297
-0.19501832
0.03819397
0.26586074
0.249448
-0.004697025
-0.109150864
0.06139414
-0.33470717
0.37127396
0.32273096
0.14887068
0.12817697
-0.20171402
0.23589796
0.08067233
-0.17979158
-0.12450119
-0.14927621
-0.16139425
0.18108858
0.3097119
-0.05057474
-0.2925266
-0.09780119
0.12637335
-0.18191274
0.22304319
0.06689001
0.37205732
-0.28197202
-0.08926401
-0.19216898
-0.29554433
-0.1929962
0.31898338
-0.015851226
0.2775077
-0.0136762345
0.045445956
0.21431266
0.0027924534
0.20824955
0.39530578
0.27325812
-0.20786284
-0.09636921
-0.150774
-0.18160406
-0.0071867662
0.26593593
0.15378109
-0.2836542
-0.051139053
0.06425629
-0.29848087
-0.0874903
-0.0043102778
0.07978871
0.13917685
0.04260763
-0.10292859
-0.30094087
-0.03303228
0.2332561
0.3120395
-0.19648552
-0.12795064
0.25133747
-0.40129066
-0.15536019
0.29577237
-0.20857184
0.03819534
0.31395084
0.12566997
0.20098549
-0.011444025
0.06841611
0.11328646
-0.37319064
-0.016488219
0.16486797
-0.23316266
-0.1727948
-0.24878006
-0.0413418
-0.19597945
-0.14520788
-0.08248895
-0.2562299
0.30182517
0.16088246
0.0699277
0.2831962
0.07107168
-0.0023363326
0.34764463
-0.08247162
-0.14082344
-0.09534656
0.2480456
-0.20331526
-0.23993368
-0.0654844
0.19517572
0.17385203
-0.24133103
-0.06382215
0.2623169
0.09537466
-0.065470666
-0.16273928
0.09198104
-0.16195443
-0.4437154
-0.008410268
0.04402808
-0.16352257
-0.384413
0.076257065
0.2866077
-0.15309648
0.17515178
-0.10070396
0.10586368
0.14803864
-0.014533638
0.0324182
-0.022465926
-0.345892
-0.2298249
0.22319473
0.24400732
0.033286378
-0.0057686493
-0.06449448
0.32901466
0.08714163
0.11061257
0.15866882
-0.10462022
0.0074467068
-0.053235684
-0.3292962
0.02881423
0.37244448
-0.25723106
-0.21150546
-0.012183855
-0.33257806
-0.21516705
0.21318725
0.18432587
0.11070199
0.0621836
-0.16912493
-0.18974648
0.04465242
0.30336297
0.1249366
-0.16234913
-0.00547725
0.18954985
0.13106188
0.123653285
-0.19530724
0.21265471
-0.10856927
0.09301655
0.29440537
0.006388474
0.12684421
0.10234973
-0.052469693
-0.2215559
0.24792567
0.17954019
-0.22420698
0.03946055
0.29013306
-0.11973702
-0.2582784
-0.17309017
-0.009108574
0.1453282
-0.115220375
0.1984827
-0.058214348
-0.34546706
0.21258627
0.24456851
-0.12970166
0.1696314
-0.34430555
0.19523121
0.113134734
-0.036620285
-0.4182886
0.39752138
0.1866171
-0.2508551
-0.0770112
0.047185432
-0.18527575
-0.16491835
0.22282177
-0.17594251
-0.11898555
-0.15396895
-0.16775063
0.27358243
-0.0043142904
-0.09422713
0.31350133
-0.043592174
-0.32103324
0.09850377
0.30647898
0.16025335
-0.0065119443
0.2853035
-0.08050731
-0.02819684
-0.005649724
0.12944597
-0.045753513
0.11491465
0.17988689
0.1363802
-0.065200835
0.33201772
0.25520965
0.19283731
0.048232045
0.21554981
-0.04041264
-0.12989138
-0.016600521
-0.29186448
0.26198983
0.09635583
-0.24890436
0.09817649
-0.11391072
0.13700557
-0.28284007
0.2857215
0.21728577
0.22053051
0.27936903
-0.12712762
-0.2265094
-0.18281779
-0.10666959
0.112654455
-0.029339205
-0.007376241
0.031409156
0.18278237
0.09771361
-0.17196494
-0.22070487
-0.058932476
-0.04993005
-0.031975172
-0.062237576
0.12898438
0.18410869
-0.11602239
0.2170847
-0.19547537
-0.31404695
-0.23592883
-0.042194635
-0.21621177
-0.33275902
0.07762013
-0.32140523
0.06375456
0.19323337
-0.20436975
-0.00011184419
0.1568562
0.016299432
0.023418048
-0.20373538
0.011466381
-0.3415924
-0.19177741
0.135028
-0.3279605
-0.23516496
0.19927081
0.09304669
-0.021921478
-0.2525203
-0.08789117
-0.07068135
-0.08165521
-0.28324145
-0.12304405
0.01189751
-0.15523022
-0.012854955
-0.22721736
-0.221662
-0.15997045
0.08872088
0.016093077
-0.25201076
-0.101917796
-0.054503143
0.39363244
0.3194242
-0.07411704
-0.18788032
-0.2676773
0.28412455
0.27246276
-0.19839853
0.3089748
-0.18802369
-0.2252848
0.16064166
-0.2448507
-0.32910547
0.0704788
-0.25289935
0.024868498
-0.16841677
-0.07426693
0.16047844
0.05180896
-0.25554025
0.31348377
-0.16434066
0.06754309
0.3775393
-0.25089604
0.2963804
0.38353667
-0.11557919
0.09324939
0.06723034
0.0730275
0.36253446
0.15174639
0.03733111
0.10438516
0.20463255
-0.26588643
-0.28880227
-0.15539166
-0.21931547
-0.1696569
0.2694883
0.2575021
-0.17908405
0.20193754
-0.1243313
0.08373541
-0.28026545
0.25386626
0.18331106
0.27870256
0.14978644
0.11697412
-0.082805775
-0.14043942
-0.26492155
-0.2814987
0.09893071
-0.23758663
-0.00170343
-0.3011856
-0.16324122
0.27160937
-0.15237865
-0.038160067
0.34096432
0.06728823
-0.22179508
-0.1063819
0.20072117
-0.17758684
-0.10025219
0.26178527
0.26275775
-0.12667157
0.18525341
0.24650577
0.09973634
0.009205228
0.23203866
0.29028141
0.20001017
0.042688318
-0.30518976
0.34750906
0.3153567
-0.036581155
-0.17427976
-0.31927714
-0.110043235
0.124276206
-0.19757171
-0.18812317
-0.045953374
-0.14309253
0.07123434
-0.30991617
0.2194621
0.3049799
0.07397432
-0.24625833
0.16842687
0.20300394
0.21436651
-0.048270565
0.12631623
0.22966881
-0.34197947
-0.1342942
-0.21084368
0.08057909
-0.13308202
0.1833197
0.21648303
0.30654255
-0.090385616
0.31198683
-0.2972356
0.17129374
-0.27339154
-0.11912512
-0.16543557
-0.122516334
-0.18305151
-0.1659565
0.062465705
-0.25071526
0.2766431
0.042209815
-0.02310518
-0.30725777
0.10467062
0.30748746
0.1929125
-0.2712417
-0.07525437
0.3177251
0.12930064
0.37130994
0.06143617
0.24845219
0.1548926
-0.040302522
-0.047307715
-0.071849495
-0.24173473
-0.3880013
-0.21654764
-0.0066550304
-0.11205662
-0.04617982
0.1777589
0.11946288
-0.30870637
-0.2921983
-0.11938532
0.25206795
0.23751771
0.020601533
-0.009721206
0.25902697
0.3025462
-0.16874999
-0.081819244
0.30144936
-0.016819814
0.10214375
-0.28593725
-0.056200486
-0.31612217
-0.3720409
0.13902456
0.36462024
-0.0011846438
0.25148526
-0.0449639
0.13430616
-0.1857856
-0.06319498
-0.01247664
0.19884545
-0.28993478
0.08596453
0.30557677
0.14999117
0.02759876
-0.21408704
0.25656983
-0.24669822
0.1416896
0.087114185
-0.05837179
0.099541105
0.05414209
0.21180335
0.28339538
0.19530487
-0.0214312
-0.23102237
0.32078892
-0.2554996
-0.0045627924
0.18388505
0.12947807
-0.20380118
-0.035480596
-0.13715085
0.12995999
0.18667741
-0.019999305
-0.13378432
-0.25251156
0.0549349
-0.09790508
0.2360151
0.08566296
-0.29168272
0.16648857
0.22672443
-0.30274463
-0.0019831762
0.078558095
0.05096378
-0.1840372
-0.0318587
0.27071685
0.3256066
0.37960157
0.048342146
0.28966758
0.18737197
0.26107538
-0.092887
-0.20610149
0.12056585
-0.3856349
-0.13479903
-0.07622201
0.22988504
-0.020887058
-0.30501184
0.26570347
-0.057820667
0.016715365
-0.21266478
0.0985823
-0.113560595
0.20519374
-0.32399622
-0.12621224
-0.28687742
0.04637739
-0.29706356
0.108176254
0.032335468
-0.020111872
-0.03961663
0.10645089
0.15943398
0.22804312
-0.33356076
-0.06297824
-0.11532205
-0.28183538
-0.11373086
-0.05912503
-0.22875635
-0.09675787
-0.19596726
-0.25625443
-0.023034658
-0.37192774
-0.2691537
-0.10624855
0.029903784
0.11447638
-0.043631177
0.18327488
0.20057866
-0.27420527
0.036622882
0.1876271
0.32982692
-0.10891023
0.1878713
-0.15251963
-0.2670928
0.21429704
-0.30921173
0.122492135
-0.12688446
0.15879652
0.31878698
-0.058291983
-0.32290012
-0.19027732
0.32856244
-0.120355114
-0.32844958
0.09868272
0.2219108
0.023691941
-0.16991182
-0.011339456
-0.023827784
0.024176868
-0.11947795
-0.24400215
0.22887264
0.20635554
-0.15682396
-0.17786248
0.14719915
-0.013019465
-0.30145577
-0.23631132
0.02040126
0.074896686
-0.19682558
0.20281091
0.16041785
-0.2859666
0.28298908
0.3140362
0.15783885
-0.2139721
0.06313
-0.19547041
0.25965247
-0.18529023
0.16251141
0.14857021
-0.29549313
-0.05841134
-0.19463205
-0.44059667
0.031159738
-0.004025513
0.011415735
0.29518315
-0.24818662
-0.11263818
0.2400166
-0.19623512
-0.25366208
-0.19113912
-0.29811794
0.02292827
-0.31055474
-0.13977498
0.30532455
-0.016743748
-0.037518356
-0.17123523
-0.30715284
0.16102214
0.32480583
0.23600043
-0.29946834
0.26021212
-0.21207245
-0.055002876
0.30248976
0.16591346
-0.062486853
-0.07428168
-0.1312803
-0.09767536
0.24936962
0.11055472
0.22953083
-0.19739397
0.12400535
0.11670999
0.22201812
0.052277844
0.069478616
0.110077664
0.048004497
-0.03554932
0.27104637
-0.22821651
-0.18993424
0.31021094
0.08008539
-0.15498948
0.26144907
0.18251716
-0.08031719
0.3444462
-0.10643499
-0.12880246
-0.060267076
-0.09988482
0.18458018
-0.20884813
-0.054394905
-0.04169835
-0.16848515
0.2293974
-0.13319089
-0.038126975
0.32347068
-0.015109875
-0.19573171
-0.16486552
-0.25812262
-0.268145
0.13125156
-0.027507372
-0.08990237
0.31584036
0.049991127
-0.2554343
0.17604436
-0.17257537
-0.093780614
-0.29474798
0.15877128
-0.011871807
0.24139401
0.3501195
0.13083914
0.34265307
-0.01919697
-0.10492278
-0.25512335
-0.35155797
-0.3114803
-0.016413314
-0.021674702
0.2035109
0.23345599
0.1467548
-0.2420743
0.14700747
-0.2709753
-0.11931319
-0.05493894
-0.14087406
0.039034676
-0.12773106
0.07336845
0.2535685
0.20596102
0.11857405
-0.3477141
0.14448942
0.09549947
-0.041493647
0.3193326
0.1628659
0.069100045
0.049302865
0.15796241
-0.1522729
-0.069570005
-0.08047253
-0.3547085
-0.06863547
0.11532009
-0.33457166
-0.27215084
0.084994435
0.048433404
0.062186435
0.03693156
0.3584893
0.11156241
0.19750196
0.20497623
0.13081168
-0.05264198
-0.32180515
0.30853534
0.28046498
-0.23493788
0.19285929
0.17993586
0.09969025
-0.1711391
0.25759038
0.22130348
0.0011451563
0.13523887
0.03347469
0.14338674
0.29780337
-0.015397629
-0.11032402
0.26254198
-0.066514805
-0.29931974
-0.118022114
-0.024471864
0.14179358
-0.2626461
0.061093744
-0.1828993
-0.07370531
-0.07832791
-0.013485676
-0.12483359
0.104263335
0.2464112
0.417709
0.19077326
0.25024527
-0.07727003
-0.18472649
-0.21697079
-0.22663023
-0.1073816
-0.18668608
0.091752924
-0.23541692
-0.1754796
0.100386895
-0.21120878
0.07359011
-0.0670214
0.14123021
0.02165966
-0.13411996
0.05500259
0.25871733
0.11218052
0.029634135
-0.040090088
0.39165372
0.3533494
-0.27735737
-0.054064173
0.24436092
-0.19949736
-0.028602773
0.33046815
-0.27463877
0.25713676
-0.10826071
-0.2758135
-0.16834281
-0.16117834
-0.122139424
0.14903282
0.062333666
-0.111153625
-0.16424444
-0.29967132
-0.30094796
-0.10611089
-0.08973128
-0.021171592
0.17544876
-0.26461595
0.19773662
-0.24909452
0.097994305
-0.08056533
0.28938946
0.33697093
-0.06012198
-0.12034785
0.20176002
-0.037799936
0.44023317
0.113556914
-0.0327077
0.3114645
-0.16371252
0.14865574
0.027908403
0.0233593
0.43151987
-0.06426216
-0.2910657
0.051093526
0.22775291
0.056413896
-0.26856208
-0.06365644
-0.04858527
-0.13078448
-0.044919673
0.29938108
-0.10757334
0.212306
0.07393918
-0.30063778
0.3866758
0.3396267
0.11062975
-0.076476835
0.17802304
0.23114997
-0.2821197
-0.3756358
0.06558608
-0.12990993
-0.29813015
-0.23084474
-0.38905066
-0.17199823
0.14483698
0.29493585
0.115360305
0.16326086
0.13063961
-0.20231137
0.25993356
0.26916316
-0.3742297
-0.08418204
-0.29510292
0.14604446
-0.11379073
-0.28241765
0.2932233
-0.007697101
0.16349788
0.1171691
-0.024718476
0.109704874
0.13665506
-0.13432157
-0.16857685
-0.17910016
-0.22291711
-0.3300109
-0.0039194496
0.19848675
-0.05400955
-0.056338947
-0.057610027
0.2784586
0.16316168
-0.09587282
0.011652378
0.19044875
0.19668745
-0.15354395
-0.072116755
-0.047641605
-0.14426321
-0.13064873
-0.17084824
-0.30587956
-0.013834441
-0.14789328
0.024149118
0.15671262
0.07679624
-0.27090555
-0.13689505
-0.034940243
0.25234175
0.20385438
0.22654754
-0.05502206
-0.028905218
0.14425391
-0.048192073
0.09343605
0.2221488
0.42177323
0.114245534
-0.12120668
-0.133162
0.097759694
0.11016988
0.05827398
0.1909229
-0.030026142
0.10396417
-0.15203354
-0.069366656
0.047990005
-0.1374478
-0.13889787
0.2311238
-0.07785723
0.015679106
-0.3006671
0.01498989
0.28337002
-0.1213761
-0.33076245
0.089645885
0.006370919
-0.063212216
-0.2558487
-0.4621573
0.115790546
-0.105756536
-0.012613941
-0.18165573
-0.0056829457
-0.03923145
-0.36899897
-0.17583537
-0.17972143
0.245232
-0.22930126
-0.06617397
0.006461211
0.0452089
-0.09146776
0.22264664
0.283525
0.12836415
0.24381438
0.10739771
0.09651075
-0.104540035
-0.08868027
-0.29861757
-0.077140026
-0.33745414
-0.29735917
0.08106321
0.131122
0.12738104
0.25351372
0.23329929
-0.16137594
0.032724798
0.2489706
0.0029433477
-0.31297278
0.044463947
0.21301661
0.12186465
-0.19582313
-0.17385684
-0.010651778
-0.097359024
-0.19657163
0.28295726
-0.30976057
-0.17251688
0.24119224
0.18224123
0.26007476
-0.2786441
-0.019553984
0.10237029
0.08670339
-0.07545434
0.064184345
0.20621157
0.10829638
-0.16362981
-0.23466593
0.08548628
0.31698313
-0.074562445
-0.35709348
0.07062658
-0.020878093
-0.19698288
-0.2946188
0.26231125
0.2702858
0.25511736
-0.21530344
0.17899406
-0.23701663
-0.14492276
-0.013224878
-0.040793337
0.015067951
-0.11212469
-0.16073063
-0.24645588
-0.2061999
-0.16689932
0.12866235
0.07259038
-0.1481023
-0.2370508
0.3115939
0.13138036
-0.37473425
0.07683686
-0.12520023
0.07236816
-0.27535516
0.19893028
-0.3230585
0.3444361
0.29277435
-0.37871104
0.34010407
-0.09513457
-0.16588399
-0.1974971
0.34556544
0.37810358
-0.34754696
-0.36041567
0.3853247
-0.35205233
-0.25025415
0.069161974
-0.021761617
-0.0544401
-0.06375164
-0.31261483
-0.36552328
0.2149554
-0.23789142
-0.31395045
0.22452389
0.16338286
-0.16865225
0.19087447
0.15763359
-0.15297794
-0.22415224
0.1689283
0.3112017
0.32701302
-0.2596834
0.18025817
0.066441074
0.23395695
-0.07337034
-0.081603035
-0.13947955
0.18965222
0.29764342
0.2679076
0.151688
-0.34531778
-0.14217679
0.2150803
-0.27809352
0.012831205
-0.27944574
-0.2338215
-0.18127179
-0.31624147
-0.14024757
-0.2859651
-0.1448472
-0.1975119
-0.17922522
-0.26702267
-0.064848416
0.23415363
0.080001496
-0.31749666
0.30031466
-0.09828221
-0.14941563
-0.15426037
0.16618674
0.2231475
0.16654599
0.12820463
0.01729151
-0.13845602
0.11425142
-0.18344791
0.26833332
-0.29955092
-0.028521774
0.19803225
0.0072315545
-0.3588818
0.37574297
-0.13390382
-0.22475371
0.030838368
-0.07241649
0.21106422
0.1906379
0.0078109256
-0.21475445
0.05595623
0.26367837
-0.04855744
0.071272425
0.04050241
0.10328026
-0.2633446
-0.10445268
0.1607459
-0.14212662
-0.32300574
-0.10509372
-0.23628467
-0.09786141
0.23806575
-0.17371859
0.19989192
0.10350295
-0.07123841
0.08624321
0.31404385
-0.30443084
0.2089583
-0.28381312
-0.31804377
-0.00335754
-0.0031475788
-0.11780072
-0.12512924
-0.11961698
0.32017544
0.008269182
0.07199688
0.17044003
0.22540382
0.027757544
0.0084422035
-0.06114996
0.0064843497
0.33687723
0.10151854
-0.07788555
0.20124538
-0.15393962
0.08830536
0.117626555
-0.017115826
0.20803922
-0.14781022
0.20579182
-0.05778265
0.14397916
0.01103567
0.2152132
-0.13761553
0.251678
0.3265521
0.08424101
-0.1401988
0.20667453
-0.18997152
-0.23120402
-0.025255762
0.24902387
-0.22727722
0.34126228
0.23011838
-0.066896684
0.40334493
-0.25816646
0.16507474
0.12391116
0.14110678
-0.075441115
0.14659764
0.12116026
0.052726064
-0.22139384
0.25800106
0.000221108
0.14596593
-0.13072695
-0.19273028
0.29499164
-0.019437753
-0.012546628
-0.19154732
-0.11758539
0.13182607
0.20519383
-0.07790738
0.13431968
0.033919305
-0.30533522
-0.3368213
0.25201216
0.0043586046
-0.057819955
-0.023028703
0.37166357
0.29854384
-0.08772239
0.2579712
-0.19958118
0.26123184
0.27418807
-0.20824102
-0.069974534
0.20178807
0.10986937
-0.37592003
-0.17317249
0.26422396
-0.24348219
0.15973735
-0.2009134
-0.19408202
0.2851078
-0.102758266
0.12605959
0.04595084
-0.0538037
-0.18132229
-0.059278682
0.12553944
-0.049517427
0.15508844
0.16822122
-0.016384913
0.13112484
0.21566401
0.20356973
-0.31511676
-0.34012645
-0.08165879
-0.11614136
0.29712155
-0.15837592
0.28593722
-0.14896742
0.06752439
0.25713196
0.2779741
0.16595578
0.22996907
0.029587038
-0.073369436
0.08641183
-0.18905087
-0.31491393
-0.050391983
0.02490903
0.0057456344
0.030676702
0.37858754
-0.191285
-0.081308186
0.2417595
-0.0040179975
-0.1502776
0.074341446
0.0001693003
-0.12350395
0.3720045
0.3787303
-0.035115574
0.2120949
0.17945766
-0.055937726
-0.20943317
-0.26058465
0.011432303
-0.21494864
-0.14026652
-0.17904517
-0.0025010318
-0.018902
0.03506493
-0.19551913
-0.17624591
-0.041508578
-0.2714413
0.13966903
-0.2048869
0.128171
-0.2588096
0.061214197
-0.14098978
0.07653134
-0.007592425
0.19541344
0.2694124
0.008126845
-0.3475262
-0.22259018
-0.18708634
0.29087955
-0.079272166
-0.3399943
0.04939623
0.32074755
0.1874304
0.015040161
-0.30462083
-0.11055432
0.14040977
0.3511197
0.1706914
0.18942739
0.24847516
-0.3393578
0.13362436
-0.24983469
-0.16250929
-0.16401502
-0.03622969
-0.13396144
-0.23315603
0.025859872
-0.24946722
0.16572046
0.35746264
0.3244017
0.37271184
-0.067823395
0.12541993
-0.15204127
-0.11355503
-0.24063018
-0.004786157
0.27271366
0.20523174
-0.20627454
0.0877974
0.20631395
-0.08871803
-0.077222645
-0.14588355
-0.16644375
-0.2959323
0.052466605
-0.19781992
-0.082015745
0.051124804
0.2440689
-0.11018953
0.048332263
-0.32120165
-0.40453774
0.33379698
-0.029080702
-0.2693433
0.263618
-0.16252108
0.036051705
-0.22811767
0.014403814
-0.18021744
-0.3223329
-0.28102311
0.19257875
-0.2565644
-0.117567584
0.22261094
-0.017133016
0.09732664
-0.068237044
0.24781527
-0.32295698
0.0513177
0.1979836
0.094535075
-0.11809225
0.3918262
0.41283032
-0.27407736
0.07103422
0.0069405064
-0.013871941
0.06793889
0.04685412
-0.11965809
-0.09142235
-0.3905703
-0.35053104
-0.31425208
-0.19369493
0.27987513
0.27891585
0.009532401
-0.036280945
0.20440693
-0.12000657
-0.087810695
0.21741952
-0.14317392
-0.1012173
-0.20423232
0.3469704
0.10160219
0.24865633
0.2644997
-0.1555811
0.29779297
-0.25074524
-0.34558603
-0.2547655
-0.2898831
-0.055442233
-0.28052235
0.047547445
-0.07599923
-0.13566133
-0.20226745
0.119396985
0.2546734
-0.13664655
-0.3249509
0.06289793
0.103539206
-0.31563047
-0.12818211
0.2687063
0.21948609
-0.04810848
0.2415447
0.035469573
-0.20806444
0.2298803
0.09600646
-0.0020377836
-0.19013129
-0.15289289
0.30804968
-0.22061266
-0.398692
-0.07579026
-0.03655411
-0.020571366
0.3356549
-0.08726007
0.022855688
-0.090262525
-0.18396774
0.28795022
-0.26220965
0.028122034
0.22310638
0.12839197
0.20173769
-0.22198242
0.076034606
-0.16794474
0.1393027
0.34905368
0.1006106
-0.21387118
-0.24012259
0.23103386
-0.26877934
-0.15433168
-0.30105942
0.1943373
0.2934697
-0.039801996
-0.21453121
-0.1784731
-0.17622782
-0.044594105
0.19771238
-0.0485236
0.0037136916
0.3097827
0.11417287
0.0742685
-0.057926673
-0.3117885
-0.21224874
-0.08860832
-0.3672268
-0.28725252
0.18267408
0.06099798
0.123425275
0.20398605
0.15674557
-0.29338753
0.35538214
-0.07571044
-0.08397515
-0.050488338
-0.19726387
-0.09408226
0.21814732
-0.14547284
-0.27614796
0.011217924
-0.13021101
-0.29837105
-0.05280377
0.14402854
0.14651032
0.2342157
-0.26013267
0.115612596
-0.26713952
-0.1630705
-0.11218825
0.024593681
-0.21500045
0.11099505
-0.033135857
0.14162782
-0.023104353
-0.31102926
0.14032218
0.001950385
-0.35062304
0.23933415
0.21760689
-0.04871123
0.01875291
-0.04886115
0.29638767
0.18184948
-0.19274718
0.25712588
0.28155887
-0.33289278
0.33014295
0.21487273
0.0825847
0.20899191
0.11485648
0.04350056
-0.2619773
-0.28136942
-0.23335499
0.234043
0.1468438
-0.15849267
0.18188876
0.28146788
0.045134425
0.21925059
-0.17080972
0.17402653
-0.32602173
0.24265608
0.3234469
0.053149194
0.28116572
0.17776631
0.034464672
0.22869396
0.081231855
0.09120718
0.18800077
-0.20933789
0.12850693
0.31132612
-0.2914164
0.07328991
0.26453686
-0.3266705
-0.2128394
0.14309125
-0.055243663
0.26803616
0.31757274
-0.08460199
0.108168535
-0.14996606
-0.053270314
0.009847785
-0.019945601
0.18277358
0.015516192
0.11781233
0.08071866
-0.34587434
0.021733155
0.25291258
-0.042200983
-0.17505224
-0.043265957
0.2535665
-0.0043970146
0.05183672
0.34275532
0.07900455
0.20464864
-0.033689864
0.020162318
0.23010914
0.23918045
0.19444884
-0.2940896
0.32457417
-0.013805793
-0.24325655
-0.16211112
-0.22787654
-0.26552632
0.25739244
0.1398487
-0.18817042
0.018582972
-0.16190471
-0.1711595
0.23085165
-0.2529878
0.0943837
0.20063592
-0.3120607
0.24039122
0.045890246
-0.26693466
0.23014393
-0.18253398
0.28969976
-0.20284083
0.04858841
0.075809546
0.047096524
-0.09936039
-0.38433737
-0.32501543
-0.22882812
0.11954845
0.23597147
0.22075763
-0.09025658
0.28137463
0.14184555
0.094703734
-0.14438866
0.3129867
-0.1948843
0.04213972
-0.17645216
-0.031158913
-0.15664184
-0.2881915
0.3000397
0.2958966
-0.2403198
-0.18845232
0.27115986
0.18169852
0.39664695
0.08438115
0.008353506
0.3371763
0.23288444
-0.29982424
-0.2022964
-0.3071112
0.09968544
0.033596467
-0.18805285
-0.31185254
0.09989915
-0.0719378
0.36196962
-0.19740772
-0.092897706
-0.028933357
-0.015298254
0.010923469
-0.056896996
-0.27919492
0.20906205
-0.0923261
0.009484175
0.012456804
-0.22746539
-0.22509502
-0.12611473
0.11357215
-0.17870696
-0.15477702
0.10405026
-0.19637942
-0.03707966
0.24070285
-0.15788569
-0.26300776
0.055317193
0.083814576
-0.18259034
0.10717723
0.037374455
-0.25199243
-0.06318468
0.33112925
0.32446337
0.054017115
0.2587635
0.023330512
0.2147722
0.37990725
0.3149789
0.2624193
0.008973461
0.124949306
-0.33214545
0.015091164
0.021705069
-0.038951218
-0.32207024
-0.1545461
0.0941265
0.2900813
-0.26560757
0.20417154
0.09791359
0.27169853
-0.32654846
-0.10096161
0.18132606
-0.38996485
-0.027681341
0.421342
-0.2674724
-0.10203662
0.29742476
-0.06990317
0.068175346
-0.1604536
0.20770341
-0.0029767302
-0.21791403
0.35696122
-0.20535816
-0.3783949
-0.013078438
-0.14892247
-0.06382815
-0.25685808
0.1310768
0.111832246
0.15176466
0.1406068
0.18593962
-0.23075335
0.0113021545
-0.07991003
0.13573226
0.16213371
0.18746462
0.28903696
-0.030361122
0.05363927
-0.0037233469
0.22728044
-0.25379467
0.259218
0.032922257
-0.14079118
-0.017449081
0.005563883
-0.15012898
0.022761054
-0.15119196
0.3356123
0.12605077
-0.25062364
-0.19844814
-0.063261345
-0.110923424
0.20618585
-0.26809806
-0.3512161
0.07791013
0.119721375
0.016539441
-0.25905344
0.10675509
0.36116236
0.1750025
-0.19244735
0.037542365
-0.21117614
0.319351
0.32488206
0.08013464
-0.39113948
0.09650753
0.15692432
0.00926437
-0.1644658
-0.008446037
0.2686133
0.048959497
0.04802462
-0.14340994
-0.050059084
0.1594295
0.05929165
0.09009695
-0.08958883
0.35911554
0.1401321
-0.28748414
-0.34078172
-0.14927663
0.29396036
0.32059515
-0.12345726
0.02188134
0.0748867
0.08166109
-0.3481518
0.16992569
-0.063867286
0.019638171
-0.09951028
-0.07450069
0.109857
0.17035809
-0.030300811
0.15063144
-0.119141616
0.06229182
0.03098195
0.16067587
0.19068107
-0.030416362
0.20422506
0.27644786
0.2955492
0.029216466
0.04697106
0.19216716
-0.1510429
0.1430631
0.13181381
-0.18123469
0.0934947
-0.060036
-0.21594004
-0.20499097
-0.21533325
-0.24733901
0.35391793
-0.009290752
-0.009161186
0.34689677
0.2471563
-0.37885088
-0.16694504
-0.2679411
0.2850211
0.017018793
-0.14573844
0.05367039
-0.3458543
-0.17019406
-0.18546838
0.0073166355
0.28226748
-0.22278626
0.34413427
-0.093711466
0.111917704
0.14551134
0.06046307
0.11689389
0.36563736
-0.0077885767
0.006292275
0.10739522
0.068380214
0.0972563
0.023185581
-0.2780431
-0.02036356
-0.21081318
-0.12449342
-0.33889553
0.20389652
0.27519426
0.19883655
0.39166674
0.29117057
0.054680783
-0.16017453
-0.12800513
-0.24947123
0.26381508
0.30590016
0.2579321
-0.35886332
-0.14384384
0.12749198
-0.08626076
0.1561271
0.022956243
-0.13328418
0.19583297
0.12717031
0.31744826
0.1646468
-0.23526654
0.29835966
-0.023830468
0.19494708
0.27970222
0.1838443
-0.10671232
0.04494924
-0.23014143
0.26741743
0.30211973
-0.008929374
0.14225794
0.055982493
-0.01979781
0.18507336
-0.15286005
-0.24551043
0.12661855
0.105862245
-0.13606867
-0.12956089
0.19863722
0.30054024
-0.290858
0.20025498
0.118795946
0.19866437
0.0035882534
-0.2113395
-0.17430145
-0.09966776
-0.061551675
-0.15767905
0.31612486
0.15041257
0.036638264
-0.2288328
-0.12274134
0.2188963
-0.23092599
-0.09155995
-0.28696507
-0.13379513
0.39051765
-0.26389357
0.077852845
0.13348417
0.23519067
-0.120038114
0.068915375
0.056490988
-0.35253266
-0.31780154
0.3493614
-0.2760233
-0.2738659
-0.12512438
0.016016843
0.020441102
0.13706586
0.31106347
0.26379037
-0.054551993
-0.20461823
0.2647375
-0.09391378
-0.25471777
-0.17435908
0.33022648
0.2593979
0.11762141
0.29842815
-0.07313193
0.29184932
0.28990462
-0.02138777
-0.15885253
0.29479513
0.02956447
0.18630332
-0.20004691
0.09136516
-0.17513789
0.015403835
0.07750779
-0.13010778
0.40902242
0.17896679
-0.32545945
0.27758828
0.16135761
-0.090228595
-0.021721365
0.04250955
-0.19896056
-0.2219866
-0.3496657
0.19577663
0.12108326
-0.2521532
0.032289047
-0.2631452
-0.1247563
0.04137338
-0.33676666
0.014206546
0.10306591
0.09086094
0.3447276
-0.050993852
-0.08448089
-0.012930903
-0.23104389
-0.14928393
0.031270623
-0.3691213
-0.03170422
0.079555
-0.21104966
-0.0113392845
0.13095859
-0.21690856
0.10600369
0.21792705
0.14055927
-0.27377123
-0.10768481
-0.067151435
-0.20439053
0.20999713
0.11665568
0.19958399
0.19213873
0.013611434
-0.18293454
0.050259646
-0.2411341
-0.06954499
0.14069988
0.029554466
-0.024317142
-0.031550035
-0.24722992
0.22801319
-0.14118086
-0.049482383
-0.24920484
-0.105533905
0.12619542
-0.2815126
0.21329173
0.09799394
0.12151846
0.2091248
-0.04455514
0.10321189
0.01577997
-0.1445432
0.07955481
-0.049537357
0.10185904
-0.3782436
0.22473334
0.03499951
-0.35348004
-0.29108626
-0.029708164
0.2233124
0.1090406
0.071229
0.31697
-0.029088994
0.021357266
0.15488096
-0.015651045
0.3253345
0.12035011
-0.24970347
0.2001326
0.24344066
-0.098474026
0.030486891
0.059116617
-0.16511978
0.3808617
0.11101495
-0.22800127
0.06994465
0.09736079
0.020869257
-0.41819194
-0.044707205
0.13938552
-0.09068388
-0.00757059
-0.17491627
-0.050031822
-0.20699632
0.2273191
-0.2448695
-0.03703439
-0.20113806
-0.12028832
-0.09702203
0.34074998
0.08517342
-0.29352474
0.14893354
0.10158549
0.06077195
-0.03531699
-0.13615754
0.12946616
-0.1726776
-0.10774007
-0.17644174
0.2156224
0.15178867
-0.29892883
0.16289553
0.2681217
-0.2951813
-0.056720328
-0.24580431
-0.121954
0.12192509
-0.26492232
0.022511208
-0.24020496
-0.10129727
-0.020107761
0.21172267
0.21146154
0.1573517
0.25068718
-0.2984417
0.13127369
-0.08864459
0.09117978
-0.07257701
-0.16154352
0.09348348
0.09935106
-0.21106972
-0.2882827
