-0.24870282
-0.0760138
-0.0811045
-0.127698
-0.1994834
-0.18246491
0.081834115
-0.1353799
-0.24812466
0.22639439
0.16918223
0.16594547
0.18113421
0.34583205
0.35065353
0.30683812
-0.011741262
-0.023445426
0.12337078
0.263126
0.19452374
0.07943124
0.10807418
-0.22516073
-0.346946
-0.3710007
0.07236235
-0.19832687
0.1732986
0.2576188
0.07212409
-0.06534152
0.087255955
-0.22052594
-0.003685057
0.20351301
0.23512258
0.2040212
-0.10756382
0.30403304
-0.05881187
0.20730788
-0.23098795
0.15812963
0.24974412
-0.041266583
0.26686966
-0.228607
0.20085737
-0.10493754
0.15757723
-0.22245218
0.2031097
-0.1611961
-0.3325605
-0.2821009
0.20196457
0.077282414
-0.24589066
0.08964603
0.2185949
-0.22212154
-0.21813355
-0.014746007
0.12017893
0.28927797
0.3252579
0.33798918
0.023155902
0.29542598
-0.035230055
0.042835616
0.23561843
-0.10419828
-0.32115898
-0.23153168
-0.123995215
-0.14456967
0.031670127
-0.15962987
-0.17480099
-0.03680832
-0.27889028
-0.08758072
-0.37787548
-0.37488654
-0.16480905
-0.28375277
-0.033537842
0.05001311
0.011523216
0.16045655
-0.12328437
0.3127271
0.10356164
0.28731364
0.081264235
0.20751627
0.13194257
0.16948967
0.26050666
-0.1595789
0.054015648
0.27635208
0.35680604
0.13357964
0.059597384
0.31279504
0.26745945
-0.025168113
0.079764485
0.20915358
0.14272177
-0.27883103
-0.041876152
-0.18159406
-0.09560812
0.19839281
-0.088577315
0.19844227
-0.13847442
0.28483298
-0.08595891
-0.2050499
0.06301192
0.18235491
0.16342166
-0.092590526
-0.30683354
-0.27224785
0.04620352
-0.32163495
-0.06858179
-0.10927771
-0.03623903
0.2824393
0.31722218
-0.11897866
0.31919664
0.36366367
-0.060745124
0.27457073
-0.1606511
-0.13233304
-0.14157754
0.07266554
0.33934674
-0.07374385
-0.0055397963
0.3662958
-0.27584848
-0.030206429
0.24360996
-0.018531958
0.049088363
-0.16919605
-0.18027022
-0.36247215
-0.13085604
-0.22491615
-0.1487811
-0.18260054
0.15953971
-0.19926588
-0.1845026
0.102442965
-0.046143226
0.06452075
-0.07074901
-0.10690575
-0.22418652
0.18426158
0.1086661
-0.09335901
0.09549686
-0.114963606
-0.029951422
-0.2112464
0.29232275
-0.027201755
0.034580823
-0.25165293
-0.27571285
-0.29048795
-0.0632265
-0.27382097
-0.19278333
-0.29501143
0.062037736
-0.04802131
-0.059718795
0.009128369
-0.02510131
-0.3593517
-0.24610603
-0.20197062
-0.3514799
-0.16833332
-0.1647952
-0.2395569
0.18166935
0.30676904
0.23799174
-0.1760196
-0.08029245
0.0632844
-0.09102468
-0.21782558
-0.103261776
0.27514857
-0.056703866
-0.18832916
-0.018442262
-0.23884897
0.18936847
-0.09428427
0.28175306
0.08399993
-0.14181903
0.19979113
-0.1687371
-0.18587989
0.29374138
0.22279282
-0.2417736
-0.18833278
-0.19182935
-0.29015163
-0.3210327
-0.43470657
-0.3284612
-0.23626168
-0.42522535
-0.06194706
-0.2353793
-0.30225173
-0.29280463
0.05820517
-0.3160443
-0.054287292
-0.032244302
0.11876962
0.20207678
0.25301456
-0.056725107
-0.20314702
0.19989435
0.081260026
-0.08262643
0.30350882
0.0073896213
-0.23504086
0.32036644
0.3025678
-0.0055432767
0.093025535
0.3735054
0.047498472
0.06714368
-0.13623695
0.17730919
-0.08949227
-0.21705133
0.27163908
0.16014223
-0.3263132
0.16718236
-0.05362637
-0.30339712
0.11862226
-0.046162203
-0.2084647
-0.26044527
-0.039611984
-0.26592094
-0.15519099
-0.17067005
-0.18012899
0.26379815
0.009669573
-0.12060229
-0.09819714
-0.040723868
-0.09622391
-0.17772567
-0.22298214
-0.10665645
-0.1144575
-0.24093163
-0.20008229
-0.07464257
-0.2627563
-0.18075085
0.02992387
-0.21729022
-0.16387904
-0.16891257
-0.015081275
-0.27303424
0.07596303
-0.18242359
-0.3354476
-0.12083711
-0.1964105
-0.06050286
-0.30042976
0.23276813
-0.045335915
0.20701712
0.16683343
-0.035436478
0.06190923
-0.060402904
-0.27949238
0.04196301
0.07169652
0.2315112
0.1691888
-0.08273509
0.30473283
0.05155064
-0.3291992
-0.107346036
0.2354032
0.07569847
0.15313366
0.17343114
0.12265118
0.5193203
0.38986084
0.19416174
0.5131755
0.20537782
0.1924531
0.13338812
0.08369087
0.18405604
0.24578384
0.20881028
-0.029359568
0.26507622
0.17466728
0.20526294
0.016968867
0.1994166
-0.3726488
-0.24081342
0.2739246
-0.1676203
-0.38196412
-0.21239279
-0.20867406
0.11761051
0.05709583
0.26558813
0.3530263
-0.08711893
0.32849368
0.16658904
0.17521855
-0.20997375
0.11052353
0.31649646
0.037640996
0.015307295
0.22523654
-0.30368853
-0.28897104
0.01691378
-0.096536
0.17447262
0.29381254
0.08288301
0.34413272
0.32804886
0.072981514
0.16130814
0.1676194
-0.015726676
-0.04737131
0.23070699
-0.30599728
-0.3299343
-0.0199779
-0.30686995
-0.3085414
-0.16318733
0.027477507
0.074353516
-0.31735775
0.29149887
0.0791725
-0.22694081
0.09834719
0.25604677
-0.14687727
0.06953979
0.003545293
-0.22960992
0.03445005
-0.024922185
0.10419386
-0.11068006
0.31215
0.27541777
0.29545254
0.21467926
0.18716753
-0.102871194
0.17072323
0.2526236
-0.2351886
0.12564026
-0.13950235
0.08107929
-0.065834485
-0.20263012
-0.09327637
-0.15102236
0.08372901
-0.2810148
-0.18701519
-0.0029513808
-0.019085653
0.24304219
0.121781096
0.35192937
0.40966338
0.09366643
0.17252743
0.13816172
0.26663172
0.16144815
0.18096328
-0.034045946
0.24311921
0.35476208
0.36130133
0.2810291
0.38342714
0.18070991
-0.06642109
-0.13496125
0.06359071
0.20297298
0.15174021
-0.2381489
-0.16324355
-0.04310353
0.15871085
0.11194197
0.20188825
0.16361323
0.09910603
0.05312316
0.09024374
-0.10205725
-0.090187006
0.115912765
-0.29503056
-0.24203444
0.04305596
0.09318245
0.25799924
-0.1960621
0.3057051
0.20733857
-0.20098867
0.20294966
0.113050304
0.14549461
-0.2945068
-0.15763776
-0.0067080427
-0.37072226
-0.36528206
-0.03303204
0.070311844
0.35739088
0.23967741
-0.0052514407
0.23237494
0.22640352
0.16733003
0.00880388
-0.16754678
0.030284502
0.01045689
0.2955798
0.2203829
0.1752469
0.2963863
0.36963177
0.06588151
-0.22830462
0.16210058
-0.12688136
-0.32659772
-0.09935458
-0.36871988
-0.33223107
-0.24614638
0.060331736
-0.061936047
0.13584821
-0.26561648
-0.26376945
-0.10672897
-0.1952133
-0.0074066655
0.15256153
-0.01819535
-0.072054066
-0.23256718
0.12849762
-0.2638372
-0.17376746
0.029505298
-0.031693827
0.10926744
-0.021793569
0.29852656
-0.15970331
-0.19236855
-0.14062285
-0.17597234
-0.38016632
-0.18742216
0.029576564
-0.18703474
-0.2500589
0.0042960914
0.124526575
0.048568
0.3219801
0.32815057
0.20264873
0.114841
0.09153926
0.07185668
0.24233645
-0.15449889
-0.26433918
-0.042307444
-0.27979922
0.14567028
-0.004358912
-0.09880426
0.28677222
-0.33091018
-0.14352314
-0.13751386
-0.22465445
-0.19633049
-0.2167995
0.029942693
-0.3611232
0.00024168426
0.16358824
-0.1839442
0.18551737
0.17305815
0.35720253
0.18875562
0.24493963
0.15201901
0.09115406
-0.24308057
-0.07256883
0.29917094
0.10722843
-0.122568086
0.012623122
0.108260356
-0.25699654
-0.054264672
-0.26522556
0.08400462
-0.24033579
-0.14534399
-0.4147713
0.039129443
-0.10119496
-0.17390771
-0.18527767
0.20644818
0.12298285
0.028533893
-0.095949806
-0.006688673
-0.2748499
-0.26171145
-0.09048461
0.028354688
0.031779036
0.13069214
0.060866874
0.22950794
-0.09731933
-0.077742204
0.15245281
0.14398734
0.123357154
0.03710834
0.1468845
-0.2519353
0.09845569
-0.1673277
0.25195912
0.32062533
0.17657477
0.0624969
0.15581614
-0.06351213
-0.14679733
-0.23491213
-0.3053471
-0.038712516
-0.33533683
-0.028422367
-0.2663696
-0.27494836
-0.016944235
-0.12334043
-0.017447036
-0.1435578
-0.066822566
0.087505415
-0.09197262
0.1965222
0.23900177
-0.07946969
0.22210748
0.24929959
0.2678682
-0.029912012
-0.22591966
0.2001866
0.24580312
-0.098700695
-0.15727782
0.0053115003
0.23795038
0.25517374
-0.11037352
0.063563354
0.34160724
0.09984001
0.10172278
0.3276301
0.009952238
0.2924267
0.14670406
0.21466452
-0.20171174
0.23469669
-0.07999115
0.29482117
0.1619004
-0.12787591
0.12481723
0.08130108
-0.044302374
-0.14067955
0.24216187
0.09237315
-0.01938819
-0.1330092
0.051817175
-0.2004665
-0.096489176
0.34879768
0.016827177
0.18200792
0.18283848
0.0637531
-0.28996807
-0.28097376
-0.089290015
-0.27283746
-0.17376429
-0.24375078
-0.30620906
-0.1870777
0.10030464
0.21325202
0.09286192
-0.013549477
0.38282737
0.34283578
0.241155
0.2232441
0.18743591
-0.26181865
0.02214388
0.035641413
-0.3183452
-0.245698
-0.05833679
-0.038514994
-0.17697442
0.17586783
-0.0033865299
0.1550313
0.20245364
-0.023826035
0.1671381
-0.16221347
0.2842941
0.14423569
0.022293828
-0.18761414
-0.12808013
-0.12700747
-0.10765977
-0.23423073
-0.21421605
-0.11559881
0.10069453
0.22311096
-0.30087522
-0.07959784
0.13349018
0.22382866
-0.08188604
-0.13586566
0.28473777
-0.22641507
0.11091573
0.19557987
0.20035619
0.084931254
0.07421293
0.33279926
0.18431765
-0.044647228
0.22307943
0.09218913
0.07338433
0.13331607
0.059823316
0.15514508
0.23107733
0.17898369
0.08944538
0.047901228
0.29284
0.18249008
0.19509974
-0.27822527
-0.061390728
-0.034251004
-0.27349767
-0.33327377
-0.5141868
-0.21247412
0.16688281
0.40071568
0.03604507
-0.023039864
-0.025996745
0.13670576
-0.17916147
-0.22952963
-0.26314542
0.00010612757
0.09874684
0.052391466
0.19991788
-0.05149807
-0.26239553
-0.08643922
-0.22094184
0.0048026466
-0.25619695
0.024307188
0.07355554
-0.10041349
-0.33897036
-0.12525778
-0.14084093
-0.28003657
-0.026821952
-0.25935656
-0.17443445
0.2810148
0.07933301
0.1371866
-0.19852531
0.28655687
-0.23357652
0.037444454
0.067211814
-0.2397486
-0.02931377
0.058693185
-0.24059393
-0.36278203
0.22476898
-0.032712586
-0.2130477
-0.12609668
-0.29151747
0.22393194
0.059153203
-0.3334189
0.23848762
0.24897534
-0.19590199
-0.110367596
0.17877261
0.31907114
0.14316627
-0.18680121
0.17855686
0.07311447
0.06973767
-0.2257007
0.23630837
0.2068291
0.10975222
0.11210784
0.15752634
0.32913524
0.18270203
0.042842954
0.34714308
0.29224083
-0.020746224
-0.15610555
0.12758893
0.17338032
0.06602067
0.109792694
0.092236154
0.12352427
0.27317142
-0.012261081
0.21016745
0.2849208
0.17429292
0.2503201
0.34564316
0.03451721
0.120353974
0.024702655
0.10720255
-0.056478143
0.21030658
0.2184852
0.21797219
0.38812867
0.18890508
0.19009358
0.120846555
0.11357014
0.09076677
0.20308693
0.36077473
0.45169267
0.074300446
0.30938354
0.15137748
0.08546054
0.19298077
0.10188684
-0.20912226
0.29210076
-0.2961725
-0.41152143
0.20389052
0.18266098
-0.03906184
-0.2121934
-0.20105375
0.1998825
-0.07300056
-0.1596734
-0.027146494
-0.35144246
0.086821124
-0.2549081
0.0077596647
0.23759255
0.24779883
0.20635875
0.4171214
0.32242197
0.0574225
0.32848597
0.08724952
0.22368096
-0.040978204
-0.31331253
-0.06276533
-0.08889146
0.10125728
0.23069261
-0.21873318
-0.26699322
0.20729698
-0.044754915
0.008833353
0.28260228
-0.06420779
0.329941
-0.15698527
0.030630222
0.3720777
0.13551392
0.27994433
-0.002091643
-0.08674898
0.21020171
-0.13856268
0.021580331
0.07277668
-0.16169117
-0.14427246
0.071547344
-0.05479926
0.2445631
0.28189272
0.27350414
0.25582418
0.1286372
0.19154775
0.15668775
0.30974197
-0.005690274
0.36613536
0.32024875
-0.113010176
0.20966245
-0.1625325
0.19811082
-0.190941
-0.21454509
-0.25914672
-0.31727546
-0.07491455
0.12326321
0.108319886
0.23763688
0.20270683
-0.18263005
-0.1553752
-0.20976813
0.029921642
-0.35574496
-0.47017846
-0.15609136
-0.27170214
-0.25932115
0.113966845
-0.12499285
-0.24671723
0.2667992
-0.016773999
-0.35024086
0.28898653
-0.0042319437
-0.17408715
0.16099042
-0.18769678
0.124758445
-0.13804199
0.08810191
-0.19894733
0.14633465
0.10276815
0.22924666
-0.18145415
-0.27792525
-0.25762346
-0.13979225
-0.37060624
-0.4395963
0.1835197
-0.28068614
-0.08165508
0.28575638
0.3757199
0.20227988
0.005335671
0.49565315
0.22396727
0.25020823
0.19454305
-0.08801859
-0.18821575
-0.1414166
-0.15703234
0.05124262
-0.25650054
-0.29094118
0.24574168
8.814453e-05
-0.24937186
0.07567971
-0.16952838
0.073393315
-0.0073896646
0.18449162
0.19329485
0.011131683
0.31820807
-0.08416388
-0.21605512
0.25602952
0.008048711
0.033579342
0.3837565
0.08919471
0.05728151
-0.01223963
0.28366977
-0.25938454
-0.0626419
-0.113624595
0.13660392
0.13711917
-0.00017179026
0.3206054
0.29931742
0.016604932
0.16198358
-0.20519982
-0.21272868
0.16799091
0.17661421
0.04302792
-0.019995004
0.13556352
0.19399236
0.06653538
0.043674264
-0.25182727
0.2948442
0.084715344
-0.43981183
0.33773357
-0.1309179
-0.26352233
0.20748527
0.33199146
0.15395355
0.30424014
-0.06426886
0.2502331
-0.18574823
0.18181247
-0.19089021
0.21094641
0.21628554
-0.0687668
0.1127541
0.19713892
0.11582652
0.27884242
-0.09551781
0.22456123
-0.043060042
-0.0057194512
0.004187332
-0.2239581
0.06427515
0.35567567
0.08404665
0.19615336
-0.03490509
0.01240282
-0.0511819
-0.15988712
0.061643805
-0.3178239
-0.06214393
-0.27207467
-0.34367484
0.10477939
-0.12228026
-0.21070369
0.043690164
-0.041429073
-0.28601778
0.03879828
-0.2925656
-0.31201127
-0.216712
-0.07001195
-0.29665783
-0.07815164
-0.06533177
-0.2580703
0.15782714
0.28580827
0.2164502
-0.043940574
-0.26400313
0.093893334
0.13161698
-0.11807866
-0.22702509
-0.31714922
0.10284679
-0.19871974
0.0017966304
-0.06442076
-0.08052855
-0.091742106
-0.07417887
-0.16942176
-0.34687892
-0.18064788
-0.1859792
-0.14955723
0.07977314
-0.04981433
-0.14628057
0.03395256
-0.09188243
-0.3111239
-0.27206802
-0.20988147
-0.23596266
-0.093126185
0.20137545
0.1478502
-0.26176205
-0.19684713
0.32618088
0.1785151
-0.05630729
-0.24260633
-0.018719202
-0.13229915
0.15071137
-0.06649431
0.23713024
0.44506133
0.21467164
0.31043622
0.33376074
0.3137641
-0.017831272
-0.09396289
0.10031573
-0.088082366
0.2291241
-0.13904737
0.18179157
-0.0015997898
