-0.22754437
-0.21589258
-0.15805763
0.03691204
0.08820594
-0.32961172
0.23035148
0.33853364
0.18898913
0.17314084
0.2186974
-0.03532583
0.11189332
0.005652324
-0.0420204
-0.24457663
0.00021103141
0.12240186
-0.075166814
0.11521089
-0.10412169
-0.22323427
0.35079572
0.19863105
0.18911955
0.09934047
-0.24998493
-0.2572949
-0.09852711
0.060268495
0.22598852
0.27107063
0.19003054
0.018750573
0.056975666
0.41638938
0.19352588
0.14760791
0.0035101564
0.22155371
0.015048612
-0.11542785
-0.14711556
-0.05796296
-0.3378784
0.21233147
0.30791146
0.29938006
0.15271573
0.0017925744
0.13524355
-0.33047596
0.04907162
-0.20309477
0.24917197
-0.15453438
0.20101151
-0.13042271
-0.08951881
0.07687299
-0.09583947
-0.12139567
-0.09272182
0.234039
0.13017483
0.3132152
-0.18947788
-0.176524
0.28917077
0.17584425
0.058766175
-0.20988844
-0.023833303
-0.15691732
-0.3051469
0.04085318
0.13194008
0.14665648
0.18059598
0.22752205
-0.047815736
-0.09545713
0.09196533
0.23885345
-0.3222912
0.009904542
0.08309917
-0.32330278
-0.15908682
-0.19924699
0.18959051
0.16243209
0.19936463
-0.32270226
-0.034848966
0.40559143
-0.0063992874
-0.24168356
-0.1461433
-0.089421615
0.26880828
0.07734854
-0.23421763
0.27583292
0.11323141
-0.016129881
0.0107884575
0.12619895
-0.019454652
-0.20530574
0.27028653
-0.23161422
0.15351604
0.2348512
-0.07230765
0.074724205
-0.12331989
0.27905574
0.060198467
0.09138745
0.083758794
0.28587657
-0.030490912
0.0853564
0.083984554
0.007248334
0.06481908
-0.3112948
0.019189803
0.19845515
-0.14782344
-0.28574196
-0.20200764
0.05142302
-0.22740205
0.04180018
0.18981704
-0.2711384
0.335996
0.06308142
-0.018566262
0.047167517
0.21710739
0.27212095
0.11937871
-0.088629276
0.19659191
-0.26481873
-0.15599312
-0.2970875
-0.11173792
-0.3044057
-0.21183164
0.25047714
0.16282225
-0.028158756
0.18763012
-0.13843025
-0.35721081
-0.19324473
-0.0020973221
-0.18247858
-0.16662858
0.25638115
0.26261136
-0.2786631
-0.3147762
0.28057185
0.1716457
-0.20723012
-0.25469276
-0.30685386
-0.3011935
-0.20428124
-0.0060665626
0.21243729
0.2264612
-0.29757416
-0.18471268
0.12722507
-0.14523646
0.08680695
0.113937214
0.13723251
-0.00828636
0.28490987
0.05368109
0.07426341
0.26511118
0.14963603
-0.13906424
0.28268114
-0.016673803
-0.082509995
0.110020645
0.035061166
-0.27750945
-0.21993564
-0.039362226
0.08373881
-0.13917337
0.13265638
-0.032904096
0.26863
-0.2965156
-0.09657188
-0.13957416
0.09141004
-0.21992274
-0.003892635
0.32228157
-0.34595087
0.19478653
0.041146334
0.061939623
-0.3127778
-0.053626247
-0.32966557
0.041726425
0.2594572
-0.1538713
-0.11731021
-0.17725995
-0.10629403
0.31733635
0.2819318
-0.18455668
-0.19097945
0.30799848
0.21431454
-0.40836427
0.38962254
-0.025397006
-0.3599047
0.21623284
-0.11721381
0.276736
0.23992693
0.088798106
0.2248902
-0.08446389
-0.16099872
-0.049235575
0.24323796
0.041932214
-0.026501477
0.041558895
-0.3003557
0.09449647
0.1934382
0.06846236
-0.26757827
-0.095756635
-0.08080155
0.009678193
-0.29130065
-0.060402296
-0.2831823
0.15085074
-0.36490822
0.11955241
-0.24329978
0.09294114
0.17803583
0.24822132
0.30853403
0.046231028
-0.025578775
0.3970069
0.24088703
-0.20973471
0.1637265
0.23286629
-0.2863538
-0.06110803
0.3479022
0.13260132
-0.049901884
0.09094253
0.035428558
-0.27017534
-0.20682669
-0.29563734
-0.2762343
-0.1817804
0.07633655
-0.1451238
-0.004981443
-0.10151188
0.028037988
-0.036117263
-0.048397668
-0.089671485
-0.004884858
0.07915454
0.17142066
0.1598163
-0.29601362
0.04548721
0.29681084
-0.2868613
-0.19978096
0.09239079
0.21953835
0.0012618512
-0.21039748
-0.20087627
-0.3347119
0.12160123
0.093443856
-0.19792338
-0.1714232
-0.16412964
-0.20815827
-0.3101486
0.36107302
-0.02836193
-0.07082835
0.28642255
-0.033024397
-0.25905046
-0.28178596
-0.026258936
0.046583608
0.032322377
0.27263728
0.0082477005
0.21921808
0.18472874
-0.18750562
-0.068104826
-0.11038448
0.09730231
-0.068253234
0.013939064
0.32897177
-0.2930889
-0.24964222
-0.20553192
0.042855505
-0.099294305
0.05837289
0.004079073
-0.2625471
0.15344709
0.2273703
0.0029906156
-0.34594515
0.23875804
0.0044263615
-0.28853032
-0.26241276
0.10959605
-0.35795465
-0.11359363
0.21954954
0.031243455
0.22603875
-0.07127434
0.37895733
-0.11816426
0.052370295
0.21196297
-0.004333039
-0.16520399
-0.082606144
-0.102758594
-0.041647818
-0.281812
-0.24889879
-0.16603686
0.25907245
-0.104115516
-0.2786305
-0.21814871
-0.23842502
-0.021131834
-0.21582599
-0.1767903
0.047559135
-0.29085952
0.36187345
0.32294455
0.28096017
0.23645926
-0.14243987
0.11223908
-0.0030328317
0.09972551
-0.16530682
0.08035704
0.2500337
-0.15278448
-0.24386261
-0.27786657
-0.26066184
0.23208906
0.32559052
-0.06076858
-0.28189236
0.21766847
0.1286794
0.18989472
-0.2186017
0.01985425
0.06500768
-0.12427157
0.04392243
0.28901973
0.20061642
0.10549521
0.25751385
-0.0449068
-0.17439677
-0.36223087
-0.30863944
0.040568653
0.10515565
0.14101131
-0.02692585
0.21531929
0.28552473
-0.09970667
0.09347897
0.13663092
0.41368717
-0.32604802
-0.24273221
-0.11739674
0.16673769
-0.15623613
-0.11641706
0.17293337
-0.080453105
-0.0398496
-0.2200793
0.20079516
0.2613237
-0.37347478
0.12971939
0.12348068
-0.04594606
-0.17407283
-0.29041636
0.21556495
0.10050516
0.07561575
0.23466788
0.2868247
-0.2522906
-0.1441407
0.09974453
-0.030808633
0.057416596
0.2146711
0.21074036
-0.23983341
-0.3884087
-0.22523125
0.31511164
0.029869014
-0.23403098
0.24666913
0.2318497
-0.05874547
-0.11991273
0.25243136
-0.22471353
0.21604212
-0.01978432
-0.22384986
-0.31235388
0.21924931
0.33806154
0.018635603
0.0017174012
0.30947682
0.13594262
-0.1594645
-0.00021121804
-0.25356328
-0.44841248
-0.24302027
-0.17638813
-0.21371579
-0.31636775
-0.1206925
0.2231426
-0.23838577
0.09175974
-0.0121226
-0.3740655
0.30012277
-0.26598328
-0.32562098
0.13486655
-0.110766046
0.16122782
0.03505892
-0.3350102
-0.3854456
-0.2952864
-0.12671918
-0.033345517
-0.14689437
0.18044609
-0.20733725
-0.086059645
-0.3956232
-0.29353118
-0.06594802
-0.16136564
-0.04249307
0.13564196
-0.30547446
0.12046316
0.00022640373
0.31227288
0.17955951
-0.38463283
0.21958113
0.38900468
-0.084417984
0.07993172
-0.2533877
-0.35646245
-0.22823898
-0.19505194
-0.10124706
-0.25284678
-5.945361e-05
-0.117564164
-0.27005705
-0.12861802
-0.15634237
0.117370784
-0.17805608
-0.2307546
-0.3133297
0.2786998
-0.28800386
-0.042621505
0.024075102
0.19406039
-0.2948776
0.26165566
-0.38292855
0.06531163
-0.29926407
0.07915621
-0.048911806
-0.1847875
0.295131
0.23118176
-0.13880774
0.07584258
-0.16950497
-0.12168186
0.03681364
-0.09773705
-0.13404362
-0.25405023
-0.19468477
-0.08990765
-0.2529967
-0.16439763
-0.28215516
0.117810614
0.19195539
-0.08577899
-0.15182091
-0.26729673
-0.0403264
-0.27617338
0.17911315
0.1496286
0.1846809
0.16656424
0.3328804
-0.08577946
-0.007727488
0.3635879
-0.22887132
-0.16441596
-0.20774217
-0.1820918
0.23555978
0.20699069
0.020627774
-0.097309135
-0.07140633
0.14508684
0.09499787
0.122019045
-0.00961634
0.20839247
-0.25198057
0.1756978
0.3725997
0.33581704
0.19429652
0.33393908
0.33847222
-0.23083341
0.09339358
0.3301153
-0.26385185
-0.017692076
0.22214338
-0.15505852
-0.16774815
0.046382725
-0.2739698
-0.23027793
0.07052145
-0.20117633
-0.21872127
-0.27259955
0.2956728
0.039728433
0.084909685
0.13633977
-0.07828264
0.3270001
0.08797596
-0.018417785
-0.13614202
-0.1736873
0.040699273
0.30072922
-0.0117253885
-0.09110721
-0.27607322
0.23883526
-0.14877512
-0.33641142
0.32264346
0.05076444
0.3447895
-0.23861833
0.2312635
0.20641957
-0.09047924
-0.08760201
0.007755153
-0.18092376
0.11014516
-0.117239736
0.06950818
0.04417715
0.31677458
-0.22783764
0.16061781
0.051737037
-0.10525189
-0.25423247
0.24522166
0.114493616
-0.22376339
-0.100369856
-0.11589764
-0.12452097
-0.31576312
0.117044024
0.018112803
0.31705403
0.09919105
-0.046520174
0.35741365
-0.20002128
-0.047213286
-0.17684545
-0.25460213
-0.34930223
-0.106447
0.20235702
-0.10447263
0.28564754
-0.34954116
-0.039718524
0.34807003
-0.045475002
-0.12737815
-0.15321623
-0.07512912
0.1751684
0.16919184
0.07136864
0.06668453
0.3160735
-0.166026
0.38785955
0.31243777
0.20411682
-0.06607448
-0.37878785
-0.17686595
0.14328054
-0.33188942
0.2985154
-0.1119914
0.12928477
-0.08076274
-0.0054107625
0.051034268
-0.09886642
-0.13876589
-0.23907523
0.045772023
-0.3027597
-0.23943251
-0.37130117
-0.3617855
-0.030688474
0.095831506
0.014486834
0.08213832
0.08645668
0.36460373
0.10445994
0.018885273
0.27500495
0.1119856
-0.10951585
-0.00810025
0.13812746
0.2807946
-0.14100602
0.18116644
-0.19027992
-0.14930655
-0.30123663
-0.07350961
-0.28940868
0.073673554
0.20487651
0.069814794
0.32401654
0.15806165
0.08493227
0.23856993
-0.18974283
-0.32652414
0.13045931
-0.2573345
-0.3787357
-0.28937924
0.048821528
-0.013485159
-0.06766135
0.012828789
-0.21601108
-0.3722723
-0.0057801814
0.4271806
0.23526134
-0.08690692
-0.032235805
0.16374318
-0.19857755
-0.14347224
-0.2913229
-0.1744404
-0.2039034
0.035588063
0.11155514
0.3497725
0.18936665
-0.19756362
-0.061011456
0.08049974
-0.21736704
-0.2825946
-0.26268348
0.3324151
0.27950463
0.19771478
0.22236489
0.09112658
0.26230407
-0.39835078
-0.05634133
0.06901694
-0.16158916
-0.108964674
-0.075444244
-0.13091972
-0.158811
-0.20530401
0.2593416
0.09156295
-0.25195616
0.16926046
-0.009093629
-0.21878694
-0.26429445
0.06976855
0.011728376
0.3391909
-0.27372044
0.22850728
-0.17594337
-0.17088684
-0.2559094
0.09862324
-0.3832089
-0.29850194
-0.15332033
0.061823927
0.20662723
-0.17048824
0.07567677
-0.18808934
-0.21436164
0.3573761
0.14313346
-0.1983889
0.19385815
0.20552772
0.024384221
0.01591598
0.1769238
-0.06597951
-0.28488705
-0.033728745
-0.14332984
-0.109681934
-0.08399176
-0.14133891
0.1987777
0.3448017
-0.09080578
0.24183677
0.24713159
-0.3697244
0.122708224
-0.23900117
0.2882519
-0.22944222
0.21180554
0.26231858
-0.24072261
-0.0468633
-0.030384652
-0.16496529
-0.07467319
-0.2757961
0.17987025
-0.14263563
0.03430197
0.16017137
0.13110012
0.11603004
0.20969188
0.03352047
-0.13739777
0.1258724
-0.11284867
0.25201476
0.2550678
0.33073047
0.08018665
-0.011059818
0.24053758
0.30707064
-0.1625643
-0.026765417
-0.03589089
-0.20126477
-0.23139319
0.36871853
-0.1566721
-0.20183887
-0.023825321
0.39085746
-0.077692315
-0.2805639
-0.20213583
0.35935372
0.13666758
-0.09885621
-0.22712848
0.058222488
-0.100510925
0.13959773
0.22375828
-0.06562291
-0.04491447
-0.02124166
-0.17357568
-0.16892298
0.15147378
-0.060577534
-0.2019242
-0.14874022
-0.336192
-0.09301164
0.16437605
0.052509844
-0.20610079
-0.030386696
0.09806214
0.2957989
-0.22436464
-0.14717934
0.17693625
0.09150404
-0.10752678
-0.32774737
-0.058793038
0.021070397
0.24102703
-0.072117135
0.056393266
0.046873514
0.0017375159
0.22991395
0.38926768
-0.21115106
-0.2106616
0.09063461
-0.2994239
0.2705217
0.20974231
0.08572252
0.31105444
0.25713086
-0.040717337
-0.15840863
-0.008642944
-0.18118878
-0.23112638
0.19240643
0.04671899
-0.14163193
0.26538166
0.036142647
-0.09380961
-0.25733814
0.0043431474
0.07836506
0.07188305
-0.2937906
-0.09845605
-0.18846951
0.13529965
0.12763005
0.20768656
-0.22049241
0.14588837
0.3548377
-0.11324988
-0.09849603
-0.18741071
0.15440692
0.015136484
-0.005652035
0.16051035
-0.080223344
0.059459075
-0.012193347
-0.3315641
-0.17727186
0.04938314
-0.0726857
-0.032768615
0.26610616
0.33903775
-0.32551503
0.2117697
0.26042032
-0.007107075
-0.24547268
-0.13888207
0.3566821
-0.23492208
-0.12613617
0.09413648
-0.2770455
0.0038392341
0.22259526
-0.27231932
-0.1920044
0.2502562
-0.4182643
0.09915367
0.19407162
-0.31753913
-0.10651444
0.35743895
0.12590085
-0.012661289
-0.08953133
-0.21318182
0.13796689
-0.10245417
-0.17757379
0.34670514
0.17948331
-0.1333927
-0.22519207
0.06488064
-0.30207685
-0.07207436
0.09988737
-0.13185671
-0.07744209
0.2701512
-0.15390022
-0.023039665
-0.0030357372
0.18575352
-0.09006009
0.1994523
-0.24831095
-0.30559292
-0.19434015
-0.16162299
-0.07863539
-0.17878571
0.22365232
0.31524974
0.07368623
-0.15796871
0.0108203
-0.03269841
-0.20010313
-0.28196853
0.0481345
0.010846056
0.22661802
0.0067941025
0.16735062
-0.17542414
-0.17485493
0.04533878
-0.13298608
0.12853412
-0.10518921
-0.18174693
-0.050209764
0.1891265
-0.29874456
-0.33712003
-0.16444753
-0.1523617
0.14410827
0.21698315
0.020547716
-0.14240299
-0.0325613
0.35161975
-0.036000274
0.17207493
-0.09024191
0.06555599
-0.039136425
-0.07507704
0.046212476
0.21532795
-0.27575234
-0.13209924
-0.038874943
-0.08217985
0.3497522
-0.23505849
0.14996235
0.19727232
-0.2893168
-0.077923454
0.015105551
0.082366474
-0.28613323
0.04208807
-0.074571975
0.32464847
-0.14848827
0.16497286
0.29339245
0.12807101
-0.0018063353
0.010396639
-0.0065069627
-0.19670238
-0.40437397
0.14223553
0.23468284
-0.132379
-0.09053612
-0.15204948
0.19988659
0.16408114
-0.26296487
0.3915304
0.1988486
0.013891521
0.08612397
0.25615785
0.03362887
0.2846157
0.24548179
-1.0737e-05
-0.15283436
-0.20674467
-0.2862393
-0.21226506
-0.11511585
-0.13106367
-0.24266042
-0.1859464
-0.30130854
-0.055428255
0.30901027
0.06859084
0.16275012
0.28062266
-0.18865658
0.23584019
0.061046213
0.24818522
0.40697938
0.084159866
0.110240415
0.10061263
-0.21271208
-0.26770508
0.124226935
0.044138227
0.33887446
0.32384858
0.104761496
-0.023626557
-0.2801202
-0.41027796
-0.22558214
0.101329
0.17981179
-0.34216934
0.13814496
0.18448855
-0.3370513
0.26045313
0.27601764
-0.012419801
-0.052305225
0.19924387
-0.17723541
0.2965559
-0.02409313
0.03944437
0.17926745
0.017989792
