0.2705118
-0.3055691
-0.15358691
0.18703155
0.31158257
-0.22346577
0.26950896
0.18719432
-0.355011
-0.06076197
-0.029061217
0.23786114
0.31339338
0.40380484
-0.16826756
0.09335622
-0.0013174128
-0.41075295
-0.2966761
0.18310565
-0.04998652
-0.0073363
0.29691544
0.37766054
-0.20667012
-0.20608562
0.24744107
0.26962164
-0.026757484
0.14815971
0.26748407
-0.17772935
0.1884332
0.3528004
-0.21942292
-0.14977244
-0.28510424
0.011247804
0.13929282
0.22055608
-0.21049513
-0.1627752
-0.16054854
-0.042316183
0.34235603
0.1355265
-0.20448898
-0.25510317
-0.22168702
0.18656333
0.17625788
0.09960486
0.1349223
-0.20848693
-0.13753447
-0.17220436
0.036406323
-0.16956434
-0.21632747
0.36913767
0.31352675
0.21449603
-0.010069509
-0.30285814
0.1929521
0.059850294
-0.26157108
0.2417122
-0.109849066
-0.21377553
0.18281451
-0.025404193
0.36670592
-0.030639663
0.17849404
-0.19476539
0.029543048
0.14941405
-0.1691058
0.15334326
0.032005716
-0.107087664
0.09954024
0.24576862
0.29887637
-0.22811893
-0.321666
-0.044859666
-0.11812943
0.31282863
0.23890887
0.17614582
-0.15523984
0.22176127
-0.25819844
-0.2808388
-0.24961436
-0.18011929
0.23304495
0.24360126
0.31088957
0.069167785
-0.17298609
0.042019352
-0.184382
-0.18952467
0.2762933
0.22928785
0.0060217213
-0.25670704
-0.1427205
0.19960909
-0.15357414
-0.24011546
0.065845534
-0.17764658
0.29562294
-0.07802458
0.08692317
0.0853388
-0.03953979
-0.120840855
-0.03361872
-0.34105495
-0.33921134
-0.34550372
0.18948819
0.20721154
-0.32811782
0.18756576
0.31879395
0.28449437
0.33211166
0.22265157
-0.21996327
-4.69971e-05
2.8235881e-05
0.08252463
0.16957048
-0.1773804
-0.27880055
0.050494567
-0.018481802
0.102185905
-0.32952252
0.17662252
0.029930182
-0.12988174
0.23309378
0.2759454
-0.38531786
0.16874893
0.036566034
0.18835327
0.18381315
0.083267406
-0.12379635
0.30420125
0.07502803
-0.16491005
-0.31488684
0.30922106
0.24138851
-0.27666205
0.24837251
-0.20453553
-0.2284055
0.3217868
-0.1100722
0.016384386
-0.21392018
0.18542762
0.1910567
0.09290995
-0.33577538
0.14306967
-0.11925716
-0.023169741
0.25214103
0.05046482
-0.2543224
-0.17017403
0.27271968
0.13121317
0.09859695
-0.21205296
-0.090168044
0.080232844
0.17682584
0.108735494
0.17058024
-0.11546538
-0.13258561
-0.020429833
0.33781436
0.03608864
0.20553434
-0.23600821
-0.11287632
0.028019277
0.11824536
-0.3598238
-0.07276456
0.38903385
-0.11213541
-0.1179857
0.069509014
0.24395262
0.28375813
-0.064567395
0.28095537
0.014467209
-0.05205195
0.16456586
-0.31594348
-0.19364622
-0.03324613
-0.048613045
0.092700735
-0.35632142
-0.34177688
0.29737324
-0.0038094812
-0.17721252
0.097713806
0.21426149
-0.0149384355
-0.15642937
0.0758186
0.19501238
-0.1289811
0.26871622
-0.017939888
-0.30205116
-0.036205042
-0.26840937
-0.14048664
0.35033733
0.14671007
-0.31707987
0.046780918
-0.21149172
-0.117693335
-0.28980774
0.12180889
0.1350016
-0.30902728
0.049142525
-0.2791503
0.31854013
-0.03030651
0.06623587
0.3275173
-0.028642546
0.26634267
0.09000115
-0.018227309
-0.34241328
-0.09271195
0.39433017
-0.037060693
-0.3256917
-0.1380604
0.2616568
-0.31343263
-0.35530782
0.38553402
0.0022450269
0.06885743
0.03149043
0.1318399
-0.102137536
0.16551897
-0.19419786
-0.020339372
-0.22515853
0.33428028
0.11447512
-0.0483887
0.23561895
0.13253349
0.34808287
-0.2237772
-0.011755183
-0.1848433
-0.010202657
-0.23420984
0.14985871
0.26302347
-0.15931661
0.03590993
0.16637728
-0.31035984
0.19546565
-0.14653897
0.04621356
-0.1772019
-0.20201616
-0.03675145
0.19064474
0.030783309
-0.010512934
0.399002
-0.13877551
0.2591684
-0.1342832
-0.18038909
0.09444597
0.2173129
-0.21579213
-0.2665468
0.10749923
-0.07985285
-0.23184861
0.32849258
-0.17446561
0.26405257
0.15127577
-0.18381582
0.283918
-0.08886367
-0.15557455
0.04474038
-0.019201534
0.009918706
-0.25083557
-0.02323576
0.041767202
-0.37285504
-0.058576778
-0.28359902
-0.0074532507
-0.11816399
-0.19639912
0.20288567
0.107486084
0.11245109
0.24333125
-0.15018705
0.07981577
0.20608585
0.2571604
-0.019506732
0.10908703
-0.30991182
0.23241591
0.06457125
0.21711475
0.26354992
-0.087128356
-0.18170738
-0.13162892
0.26229587
-0.15133587
0.12046982
-0.17965756
-0.32009718
-0.18683645
-0.36683482
-0.32417306
-0.048598465
0.3247248
0.15635768
-0.3240162
-0.26717287
0.2267026
0.13831282
0.19930533
-0.05568514
-0.26605532
0.22932763
0.10490396
-0.3586189
0.1623172
0.2881032
-0.32742023
-0.13877158
0.13234396
-0.06146535
0.15597676
-0.268417
0.32346913
0.25781244
0.28370517
-0.12566362
-0.37427118
0.08251265
0.13036983
-0.16614178
-0.40736204
0.054195773
-0.18581504
0.20050801
-0.10087829
0.25984737
0.090474874
0.23627992
0.30238652
-0.14079078
0.2550982
-0.20974515
-0.20273305
-0.39778277
0.025754588
-0.21414568
0.16604915
-0.30026296
-0.1724398
0.0056416364
0.23925099
0.19911315
-0.15207644
-0.12030905
-0.22127867
-0.06719956
-0.031166086
-0.044803247
0.1752754
-0.2004873
-0.36301005
-0.10423226
0.26857567
0.20173442
-0.03853644
-0.06938477
0.22333477
0.23797117
0.07850659
-0.35425702
-0.12264552
0.17971605
0.17746454
-0.16969597
-0.15364277
-0.26735374
0.30551118
0.23623262
-0.21998356
0.2654984
0.10380153
0.045519166
-0.19708101
-0.01830737
0.0482501
0.050021447
-0.27878803
-0.3207263
0.064489946
-0.05556372
0.22018579
0.35270524
-0.04072592
0.16789788
-0.21478917
-0.14357312
-0.1804344
-0.043238286
0.32699615
0.063230366
0.043851085
0.21415274
-0.18867867
-0.22646804
0.36418337
-0.22418661
0.26680937
-0.35541752
0.18499634
-0.06888641
-0.012434581
-0.16008371
-0.17440464
-0.015552184
-0.1851558
0.06500064
0.0153120365
0.33066103
-0.12442424
0.19284852
-0.16146858
0.2536908
0.17381264
0.17900635
0.2852309
-0.15388888
0.017499644
0.1684611
-0.18404964
-0.004226935
0.35955685
-0.0902785
-0.27957338
0.01015321
-0.34203857
-0.15876102
0.124383606
-0.011527643
0.16623476
0.3305597
-0.12603126
0.021020629
0.25125998
0.14465246
0.3150482
-0.09636051
0.29942322
0.09059999
-0.14211005
-0.27324474
-0.23463361
-0.056460824
-0.18056649
0.32638142
-0.00757148
0.06627607
0.007987591
-0.34488532
0.120463096
-0.29880786
0.059478894
-0.27150038
-0.38305745
-0.17761761
0.2531886
0.29366553
0.14549562
0.27269235
-0.16349493
-0.044282556
-0.19011715
-0.26359785
-0.05151332
-0.095656306
0.230271
-0.14673436
0.20099896
-0.35770115
0.07520125
-0.06630584
0.16870138
-0.17172043
-0.27277553
0.2747181
-0.065610565
-0.20482896
0.3579561
0.07820382
0.052165363
-0.2079926
0.19190946
0.13094282
0.3521885
0.103606574
0.108657956
0.018499805
0.31147754
0.008409065
-0.13195272
0.06302682
0.027104078
0.2453281
-0.30766377
-0.06904352
0.3000897
0.23005769
0.36431208
-0.11188961
0.28718928
0.01846615
0.25113246
-0.13366883
-0.33475623
0.2434558
-0.22417833
-0.19816832
-0.20619807
-0.07326642
-0.13058089
0.05249126
0.019355472
0.10407787
-0.24856623
0.12751094
0.14491205
-0.1781461
-0.08306504
0.18684366
-0.3373998
0.14709303
-0.03291954
-0.33868665
0.29068744
0.09502752
0.30961046
0.10438564
-0.22269893
0.28705797
0.18606004
-0.23928262
0.029829668
-0.15260811
0.2285789
0.27346843
-0.26353285
0.30683777
0.13139941
-0.20103872
0.26571518
0.24998663
0.09637685
-0.30166805
0.074515425
-0.081741415
0.18629473
0.20733674
-0.12314132
-0.034971006
0.2169858
-0.20590277
-0.07254541
0.044653848
-0.1955535
0.26170227
-0.07535358
-0.05098064
0.1601394
-0.2754501
-0.08932597
0.3036531
0.2223236
-0.23441169
-0.031582497
-0.12708528
0.25223848
0.06549089
0.0002936287
-0.28793836
0.30529404
0.016423034
-0.15306418
0.11673982
-0.230685
0.1917084
0.28132254
0.010602462
0.26672855
-0.27843028
0.3346131
-0.07275599
0.3233461
-0.19022445
0.2387893
-0.24750501
0.24355917
0.08702825
0.08565045
0.16040486
0.13433586
0.023380123
0.08502354
0.29064515
0.18286878
0.2869513
-0.39507908
-0.22117671
0.20135519
-0.04025513
0.21818945
0.28215
-0.15654254
-0.2714832
0.26271328
0.12264688
-0.3331076
-0.024402685
-0.23878658
0.2279941
-0.29481754
-0.05025087
-0.1616645
0.16449739
-0.19880593
0.35254827
0.21257402
0.05818294
-0.28908697
0.03909515
-0.15003861
0.32063758
-0.13666736
0.15934817
-0.25332555
0.05797884
-0.088761374
0.2791126
-0.19589128
0.27622443
-0.07111792
0.24919987
0.10813536
-0.16832337
-0.3261367
0.08667603
0.3980847
0.12527272
0.09039977
0.21811777
-0.27026924
-0.24561518
0.20816581
0.27688017
0.3244165
0.028225647
-0.103122935
-0.03232663
0.12158344
-0.017243546
-0.2215797
0.012945922
-0.3201477
-0.20111486
0.16827731
-0.054648254
-0.25939426
0.13333692
0.17459963
-0.090979554
-0.04911077
-0.041383203
-0.17564027
0.098268926
-0.06819995
-0.296049
0.25941885
-0.14233367
-0.07036398
-0.26680082
0.23661919
0.06338815
0.18762548
-0.08619072
-0.05627849
-0.24079365
-0.0052249455
-0.31393495
0.084126525
0.31797037
-0.07260405
0.12946579
0.13685532
-0.31048828
0.03564829
-0.2120597
0.2932317
-0.06953477
-0.2813153
-0.13896997
0.29336086
-0.03065114
-0.43162492
0.28115273
0.030841265
-0.12450333
-0.16453105
0.15644671
0.16298765
0.1901801
-0.19591686
0.14010155
0.30669397
-0.085532315
0.05137367
0.1332543
0.2734529
-0.031530034
-0.06499699
0.32437432
-0.22418393
-0.21420155
-0.20390569
0.35905173
0.017089384
0.14419813
0.26239634
0.05550664
0.13237853
0.11172564
-0.041881215
0.051054
0.17994305
-0.116117366
0.06854488
0.264263
-0.048690036
-0.22975118
-0.0014238303
0.03897915
0.20936696
-0.13374455
-0.15342629
-0.06346126
-0.03277971
0.06442337
-0.31774443
-0.16663694
-0.08801139
-0.23796761
-0.14400913
0.35547236
0.15423745
0.28093746
-0.103778124
0.032387685
-0.32547617
0.060908224
-0.29950786
0.22476113
-0.29701576
0.011331771
0.09655243
0.002731204
0.08669284
0.15241762
-0.3492724
-0.28603035
-0.032919157
0.14610794
0.39550513
0.27332136
-0.1410162
-0.4134656
-0.32356873
0.27384776
0.2442149
0.29954067
-0.2434057
0.29485714
-0.070509985
0.160327
0.22324267
-0.015497981
-0.335471
0.27313343
-0.1306338
0.042161
-0.12937044
-0.22312075
-0.10363966
0.09103182
0.28824696
0.3296985
0.147778
-0.14026031
0.094538316
-0.22532497
0.057659417
-0.25946388
-0.11902335
-0.10225797
-0.25956848
0.30096895
-0.11632879
-0.104139335
0.12807623
0.10106011
0.40663496
-0.079869546
-0.20447174
0.0691425
-0.3196529
-0.10166804
-0.241007
0.00034588494
-0.0927784
-0.069859326
0.20063445
0.1342283
0.06595683
0.3532247
0.12607798
0.22474888
-0.15412986
-0.05573006
0.09212507
-0.21948777
0.27877894
0.1545992
0.22322078
-0.33890575
-0.16493176
0.10853493
-0.123028345
0.02719859
-0.06345627
0.07890616
0.29248342
0.122022346
0.18915161
-0.14242919
-0.22360322
-0.20931031
0.3376545
-0.32318878
0.12645832
-0.1435123
-0.0050033135
-0.25539163
0.099650525
0.056503262
0.19001345
-0.2297314
0.22003408
-0.07420363
-0.14889327
0.13755035
0.28579572
0.12338666
0.10622566
-0.18896903
0.19929369
0.08930769
0.10983854
-0.003632923
-0.21468122
-0.27886632
-0.1580035
-0.21778387
0.19060284
0.2790192
-0.04998367
0.2576636
0.24365593
0.21299727
0.09642292
0.29023325
0.25963846
-0.06027793
-0.2207461
-0.35316864
-0.19106874
0.023420483
-0.38037598
-0.14098668
-0.19489267
-0.03844594
-0.3126333
0.32207453
-0.24357694
-0.09957456
-0.25250468
-0.13784796
0.038699716
-0.15877694
0.067468084
0.1868668
-0.021240147
-0.08641827
0.20774196
0.09761882
-0.29730463
-0.30876088
0.17090948
-0.07221499
-0.25510707
-0.1675358
0.11728371
-0.0043452005
0.023603948
-0.012387221
-0.17141399
-0.35153732
0.29933402
-0.2848463
0.21349692
0.201504
0.006241318
0.06530787
0.053058647
0.11743773
0.23723611
-0.3765265
0.39024663
0.095712855
-0.28616136
-0.062400427
0.018400619
-0.029603727
-0.091694646
-0.08019967
0.3396412
0.15072195
-0.047529887
0.0037796204
-0.24748264
0.026449695
-0.0030431324
-0.3656883
0.011328055
0.03388862
-0.14713003
-0.16142055
-0.083409846
-0.1643617
-0.0032416587
0.33825585
0.28694236
-0.2572513
-0.046260014
0.06707684
-0.099349275
-0.2909277
0.2873134
0.098594934
-0.36877224
0.30823526
-0.27874714
0.198284
-0.16287959
-0.29692698
-0.055665463
0.17696019
-0.11361067
0.04381293
-0.15645435
-0.20603646
-0.24397229
0.13718829
0.036647502
-0.06730922
-0.23380099
-0.22846335
-0.35666612
-0.24961373
0.007849165
0.21738535
-0.15003261
-0.21366227
0.13542461
-0.20954603
0.23731993
-0.0058146426
0.37325025
0.18927246
-0.27856782
0.18306911
-0.053770553
0.09645193
0.3212964
-0.028826173
-0.2958739
-0.3072976
-0.0007433804
0.2534119
-0.15939896
0.17575367
0.033121843
0.16634364
0.196223
0.2479266
-0.041088168
-0.017573785
-0.37003925
-0.1945855
0.15892635
-0.019339547
-0.28308538
0.22368206
-0.094917834
-0.2609822
0.2525138
0.30650756
0.20610204
0.23063275
0.24209192
0.0065119797
-0.40611604
-0.42532924
-0.272353
-0.083989084
0.15021709
0.08690968
0.040631976
0.057855133
0.24242032
-0.18471244
-0.016406132
0.08852415
-0.282335
0.3483647
-0.08012203
0.18756934
-0.21142651
-0.1303
0.1744222
0.28297412
-0.33394432
0.03724836
0.18527898
0.17974147
0.10480711
-0.073611595
-0.32133615
0.08776153
-0.24115723
0.4096747
-0.27498132
-0.11009015
0.08831306
-0.25423092
0.2740469
-0.19811346
-0.30321997
-0.07849279
0.29236907
0.2509088
0.16103917
-0.06164554
0.09428971
0.28196633
0.32197398
0.11856074
-0.13324954
-0.13755696
-0.3382818
-0.06639419
0.2740733
-0.17064963
0.2070997
-0.06736515
0.10892186
-0.21541737
-0.1866362
0.21067075
-0.2868898
-0.26203898
0.18228795
0.27172935
-0.11218661
-0.25330356
-0.32966992
0.015309696
0.3013086
-0.27834237
-0.034369677
-0.08371808
0.14846294
-0.18286559
-0.099834554
0.28639665
0.20804325
-0.12372704
-0.36621973
-0.34235692
-0.1629058
-0.114308074
0.11095101
-0.30127612
0.17637931
0.010503082
-0.059546217
0.18665394
-0.17400603
-0.033694685
0.06847164
0.18517387
-0.22462647
-0.2625413
-0.122174226
-0.24011858
-0.18048999
0.06326428
0.18243305
0.21376586
-0.2554062
-0.06261247
-0.088789225
0.12478482
-0.20409086
-0.06746038
0.11597074
-0.11690278
-0.25916883
0.03014739
-0.3074746
-0.2052284
-0.1282541
0.33008596
-0.07513721
0.33171797
0.18011445
-0.060368165
0.11338547
0.21231282
-0.24746521
0.013739903
0.002574588
0.110958226
-0.04741827
-0.14827617
0.08819317
0.107280046
-0.2873951
-0.11545669
0.27683294
-0.108550616
0.0022083838
-0.11495344
0.10036243
0.23017174
0.2709703
0.19242479
0.09150476
-0.2772198
-0.049879853
-0.27531818
-0.31893143
0.1902088
0.019735487
-0.10721264
-0.047723275
-0.17355342
-0.025881594
0.11022781
-0.10953591
-0.3132776
0.00034383248
0.37188426
0.2766052
0.28033516
0.06076122
-0.12288111
-0.117632896
0.1976203
0.16313533
-0.11765504
0.29519162
-0.049610928
-0.039996248
-0.35990676
0.29819292
-0.16699256
-0.034629047
0.20273447
0.09854193
-0.05131539
0.12572134
0.20873356
-0.083744936
0.10025522
-0.17676859
0.30078393
-0.00608065
-0.17631763
-0.29540786
-0.34979331
0.30913845
0.31423497
0.3381879
-0.016520677
0.3526799
-0.20081106
0.20810756
-0.26176283
-0.30449483
-0.0046765762
0.032191616
0.19314349
0.36761236
-0.22641478
0.10840898
0.15952039
-0.08512511
-0.1130852
0.02244658
0.10082458
-0.36655203
0.24668698
-0.12375598
0.21813613
0.20222487
0.38501734
-0.13258919
-0.27325216
-0.063962474
-0.07471898
0.22302973
-0.39479274
0.15330768
-0.07394784
0.22118588
-0.24832518
-0.30588073
-0.3144654
0.1109965
0.096317716
-0.18143252
0.34292185
0.13798903
-0.06299473
0.27921742
0.22847284
0.31292394
0.11071983
0.26397106
-0.2292978
0.08139522
-0.124126256
0.31342748
0.13293648
-0.17786855
-0.26165542
0.3480542
-0.20777468
-0.17249775
0.30363756
-0.18239586
0.0030164644
0.19620705
-0.13685693
0.15466666
-0.21303783
-0.057436597
-0.3380837
-0.010947486
0.05077398
-0.0324747
-0.33103243
-0.011432402
-0.010333971
0.13091357
-0.29575372
0.32625693
0.22853637
0.30389273
0.006248512
-0.12743384
-0.15933025
-0.00894415
0.3232393
0.34117156
0.040305328
-0.15584297
0.18776579
-0.008104019
0.3919099
-0.2689609
0.23588988
-0.044213608
-0.20914349
-0.15322475
0.22039913
0.21515118
0.018225964
0.17338148
-0.23175898
-0.23748635
0.21810316
-0.23994821
-0.20069963
0.008856521
0.16856237
0.09045588
0.30444852
-0.06045667
-0.26463813
-0.12215058
-0.2782795
-0.070213534
-0.00016457652
-0.05036232
-0.22442603
0.038667575
0.0025536637
-0.055492576
-0.17771871
-0.38518977
0.087273985
0.08487121
0.17235339
-0.005599456
-0.21572678
-0.34012502
-0.073796436
-0.19739938
0.12970772
0.005397967
-0.2135774
0.2716087
0.20779814
0.09742579
0.3631274
0.2525629
-0.01400357
-0.23636326
-0.05033059
-0.2709704
0.0024166775
-0.20225318
-0.2772271
-0.08985791
-0.20198691
0.13450257
0.26500934
0.027740303
-0.19955073
0.18277322
0.04432128
0.18408564
-0.26880285
-0.017343603
-0.32577923
0.27729413
-0.3094662
-0.23310493
0.020043304
0.00062722934
0.061157737
0.29935873
0.027858842
-0.14544044
-0.10912731
-0.11204579
-0.13776985
-0.41983682
0.24867664
-0.14366373
-0.2879446
0.15983337
0.1375577
0.1933698
0.32600787
0.2608877
-0.28383464
-0.2968313
-0.26222515
0.015776081
-0.19511653
-0.05488662
0.3080434
0.17468569
-0.13261722
-0.2852171
-0.050222237
0.24846378
-0.06088289
-0.07674263
0.09076318
-0.04649204
-0.24874942
-0.23851565
0.11328647
-0.22442926
0.042637352
0.04900795
-0.16670385
0.15644275
0.2168483
-0.292424
-0.18739247
0.070347786
0.209838
0.35165894
0.3760761
-0.0066481223
-0.016827095
-0.296592
0.07204946
-0.08012328
0.06297994
0.04304452
0.066683814
0.15363108
0.3245292
-0.04711407
0.1946867
0.16264237
0.06025153
-0.086149246
0.0071298396
-0.29145592
0.23635443
0.0070191002
0.1609558
-0.0799841
-0.10956883
-0.053439453
-0.017947135
0.1769897
-0.22955376
-0.04897026
-0.2170762
-0.26630247
0.20922855
0.09076298
-0.25292093
-0.07541402
0.2848751
0.3262168
-0.31916958
-0.21899231
0.03539063
0.122537255
0.30011246
0.006972819
-0.12993981
0.06678845
-0.12822168
-0.006438495
0.24055654
0.17043477
0.13879432
0.28187424
0.005737691
0.18845096
0.18589197
0.239465
0.0769761
0.14181826
-0.21459064
-0.39534804
-0.0766542
0.11507519
0.20516384
-0.23769778
-0.104765885
-0.035459097
0.24839416
-0.19505039
-0.17093803
0.24570577
-0.24293438
-0.10115909
0.040087547
0.107494846
-0.16919808
-0.19564995
0.36112055
0.33696368
-0.36994582
0.18895735
-0.13237177
0.1357072
0.027691793
0.2987935
-0.078300945
-0.13622409
0.119406775
-0.01240986
-0.24137326
0.21194975
-0.01842086
-0.025282586
-0.28482103
-0.12580232
-0.099586666
0.32199305
-0.07331358
-0.2833719
0.23607765
-0.031100662
-0.33283028
-0.38711727
-0.21921816
-0.07157094
0.17507109
0.22966497
-0.029349037
-0.08385611
-0.1951047
0.27076128
-0.040592637
0.32853478
0.15927213
-0.28274348
0.2755686
-0.12484419
0.3386336
0.20378251
0.2384852
-0.30985907
-0.009444464
-0.2552815
-0.13073952
-0.19405252
0.08468577
0.045534175
-0.035653118
-0.01023193
0.21934585
0.30264267
0.16638303
0.3493033
0.18073158
-0.16334476
0.00054670125
0.09029598
0.099938504
0.37614554
0.1934189
0.18300402
0.003996026
0.1557263
-0.13437875
-0.018084532
0.103897095
-0.09583525
-0.38422704
-0.07715902
-0.16576175
-0.22131576
-0.010221626
0.0800095
-0.24122511
-0.13205133
0.08505335
0.016553758
-0.39843243
-0.24132061
0.08501158
0.16280335
0.107293785
0.27039382
0.23637915
-0.1857293
0.1115547
-0.21044315
0.31738797
0.12184001
0.25575018
0.01205582
0.17385954
0.12741005
-0.31011948
0.1779944
-0.031227142
-0.36010727
0.22333297
-0.1696955
-0.18066435
0.04080448
0.29943833
-0.28113347
0.24312904
0.18509527
-0.18982579
0.12233801
-0.2289206
-0.028960904
0.034801558
-0.26449165
0.035786953
0.031081354
0.12164245
-0.08083729
0.02650898
-0.12861069
-0.25963137
0.025055096
0.16921978
-0.21640673
0.17587042
0.29502282
0.1366459
-0.07736611
-0.1722604
-0.055164814
-0.22794327
0.21764372
0.34243166
-0.24025296
-0.17474201
-0.22571197
0.17308792
-0.1403094
-0.23506844
0.24251242
-0.21338068
0.3027867
0.089415945
-0.3564186
-0.318539
-0.017069628
0.16113587
0.1709421
0.12902847
-0.26164854
0.23269895
-0.13740905
0.21178804
-0.23428154
-0.16976164
-0.36224312
-0.22933409
-0.12070711
0.23160651
-0.2864191
-0.098439954
-0.2784258
0.036332916
0.20207042
0.039863832
-0.023689618
-0.09144866
-0.24936265
0.22377162
0.23753822
-0.29829317
0.06923745
0.036737017
0.006914427
-0.051410947
-0.3229347
0.15122625
0.120318584
0.24112855
0.18293147
0.18420504
0.044793643
0.039810047
-0.17588624
0.09133993
0.15420127
-0.20625383
0.28977388
0.15585285
-0.26857442
0.08067722
-0.061388794
-0.2139441
0.41071182
-0.090060115
-0.18696006
-0.31576458
-0.23850916
-0.20258272
-0.26548815
-0.11770224
0.046867438
0.12724008
0.14240012
0.21166277
0.027764667
-0.093810536
-0.42106253
0.017769404
0.24977942
-0.31067142
0.2026387
-0.06621791
0.31062278
-0.0021622167
-0.17170143
0.011165866
-0.16124214
0.18003076
0.276871
-0.20974196
-0.17903732
0.3031228
0.28708985
-0.35032588
-0.33092406
0.21518892
-0.09770439
-0.029007547
0.14101051
0.2072759
-0.23196052
-0.24040186
-0.015328401
-0.091402
0.12434723
0.017848833
-0.14018765
0.074043125
0.035684083
-0.047512237
0.31125742
0.1181884
-0.34837583
0.17059816
-0.14658266
0.23644626
0.22526635
0.24960725
0.19379403
-0.14243488
0.010527939
0.29338142
0.114390515
-0.070972204
0.14947328
0.22974092
0.2526914
0.12675491
-0.1536219
0.27499053
-0.16506052
0.199365
0.109113716
-0.1390584
0.026233377
-0.225324
-0.34210047
0.32974747
-0.0046496983
0.0038128244
-0.4441949
0.17572106
-0.026923377
0.31377417
0.25171578
-0.21243945
0.07266547
-0.35299832
-0.20158435
0.08285414
0.20257086
0.2160967
0.024177494
0.0406632
-0.02918887
0.2527272
0.21833234
0.2520792
-0.022972561
-0.20806438
0.13821106
0.04637937
0.20590466
-0.1840324
-0.092325635
0.12277393
-0.07949396
0.20734458
0.28821504
-0.060621433
0.327121
0.30376375
0.25449508
-0.041184627
0.2726222
-0.035297617
0.22104691
0.26977727
0.16455808
-0.33142346
0.14257884
-0.30946502
0.042853676
0.086766884
0.19597718
-0.36970335
-0.20793863
0.20779407
-0.15229225
0.004247549
0.09980963
-0.051769506
-0.35392633
0.123368524
-0.28980935
-0.26749164
-0.23268025
-0.3119531
-0.20643002
0.13548708
0.08296982
0.30806345
-0.16064698
0.33976
-0.13102807
0.064118296
-0.24359894
-0.24098468
-0.032128297
-0.16074552
-0.101728365
0.3199375
0.3514419
-0.24904156
-0.14095214
0.22960366
-0.08039018
-0.13558693
0.14698912
0.09987922
-0.24186485
0.057222202
-0.30300087
-0.18554847
0.26902744
0.026452286
0.124725714
-0.20498608
-0.006385217
-0.049335703
-0.2604214
-0.48362562
-0.096335836
0.35851917
-0.30486947
-0.103672184
0.048889495
-0.05472973
-0.20858328
0.017578151
-0.25304198
0.056901712
-0.19301692
-0.14118843
-0.007213608
0.283985
0.0008804107
-0.12422816
-0.17724377
0.026093123
0.2542671
-0.16244012
-0.18352835
-0.2877718
-0.2602997
-0.01751761
-0.3178866
0.04811854
-0.342004
0.1345958
0.08913506
-0.38563514
-0.23441476
-0.27035585
-0.3008744
-0.061139442
-0.058500197
0.071313456
-0.14779803
-0.009718366
-0.00985368
-0.02429035
0.14001545
0.43467578
0.052647635
-0.25569704
0.12243329
0.3476377
-0.22713852
0.2121478
0.02543618
-0.35088846
0.34824955
0.12423682
0.13298918
0.17328475
0.070694655
0.04264755
0.08757088
0.27471733
-0.021181228
0.25242773
-0.13951513
-0.16874741
0.15089923
0.08535626
0.21619181
-0.14418377
-0.039868932
-0.32863316
0.07691188
-0.20198368
-0.37311414
0.21595894
0.05312574
-0.113558486
-0.037478328
0.25763413
-0.16786678
-0.029022725
0.12914832
0.31847307
0.12877671
-0.029217083
0.06079425
-0.29362142
-0.404145
0.21511371
0.25340775
-0.15957566
-0.11851977
0.3401412
0.28008908
0.33835876
-0.07386406
-0.026366895
0.29314277
-0.41112226
-0.15511772
0.009846923
0.16179657
-0.20591752
0.12632255
0.2452609
0.36503425
-0.047333207
-0.3355245
-0.0042034667
0.107335694
-0.3019459
-0.23394166
-0.02608968
-0.2852249
0.12159834
0.08272007
-0.102913715
-0.10758024
0.09972901
-0.20199393
0.01798063
0.29682449
-0.07642175
-0.045969747
0.3415927
0.09644826
0.032949854
-0.16154738
0.35327983
0.10394309
-0.2099828
-0.31378254
-0.19124663
0.27451044
0.34012222
0.018198099
0.102833204
-0.02590784
-0.20820402
0.003766486
0.3266393
-0.23623419
0.1681743
0.086333476
0.021968693
0.20671399
-0.26264137
-0.28569037
-0.1976414
-0.26111045
0.26680797
0.23060672
-0.15970778
-0.33735058
0.16125846
-0.13745493
-0.066262946
0.30041826
0.2840494
-0.027473826
-0.032438017
-0.14815877
0.20816262
0.228338
-0.1130345
-0.21612725
-0.21356526
0.049611397
0.23139866
-0.2565203
0.21356928
0.14302184
0.24226423
0.20258527
-0.062483326
0.23109062
-0.1882106
-0.16972664
-0.31326884
-0.21823314
0.10226417
-0.019188318
-0.24572076
-0.17911163
-0.24423666
-0.038508024
-0.3241661
0.04274253
-0.073716335
0.121590614
-0.15121755
0.16659021
0.2569342
-0.024104245
-0.17838338
-0.010802217
-0.20063438
-0.19257046
0.41205037
0.057087798
0.013653968
0.25016257
0.19488429
-0.07420698
0.21102275
-0.39578757
0.07770848
-0.16508117
-0.009700289
0.18132794
-0.108017564
0.21333593
-0.3001054
0.27967775
-0.29289243
0.04684411
0.15999727
0.2273439
0.23465696
0.15283974
0.017250746
-0.35373083
0.22503948
-0.31910768
0.36735108
-0.14330238
0.2382897
0.029866282
-0.1486389
0.21746399
-0.08106762
0.116069876
0.35178828
0.28689632
-0.126329
-0.041065075
-0.28418806
0.2330227
-0.12314636
0.18577194
0.2896168
0.2578898
0.2724712
0.0011491617
-0.33190173
-0.22918117
-0.22301999
0.02974843
0.08111681
0.24986012
0.35382515
0.32441074
0.20658886
0.19175349
-0.3742855
-0.26453507
0.3154379
-0.2225034
-0.17342559
0.016263606
0.36364523
0.16559288
-0.17616916
0.23236154
-0.15659614
-0.019003706
-0.010460431
-0.028902948
-0.1580322
-0.27466962
0.30797625
0.064215496
0.18958138
0.12521318
0.04746718
-0.09359821
-0.0869126
-0.24894814
0.0051136394
0.033141587
-0.1448336
0.26989856
0.0976593
0.03725192
-0.010403058
0.14453217
-0.16849068
0.21710876
-0.27227196
-0.25475326
0.013475083
0.1468397
0.03115615
-0.050253745
0.08140928
0.09834006
0.03170426
-0.14005673
-0.27808943
0.27555954
0.24242437
-0.17431566
-0.3076998
-0.101253696
0.33685583
-0.17651762
-0.07192511
0.12002367
-0.02662731
0.19847934
0.053418983
0.19604842
-0.12647708
0.41597512
0.05240351
0.01674122
-0.23121636
-0.06450122
0.12128757
-0.032567143
-0.31219065
0.16447096
0.30066615
0.27168924
0.17345914
0.14916787
-0.26244012
-0.12563512
0.3261087
-0.19850194
0.21041967
-0.31905752
0.11970018
0.080368
-0.20471497
0.24073058
-0.01724571
-0.2419192
-0.038351934
0.2249457
0.32552204
-0.05062487
-0.25208652
0.19256689
0.21939972
-0.1491208
0.20233284
0.33683378
-0.31952685
0.14925672
0.3188177
0.28398338
-0.12802754
0.021712579
-0.18263966
0.200325
0.09517786
0.06825869
0.1453477
0.0319237
0.22121303
0.28802407
0.32556975
-0.34364167
0.29322597
-0.15947631
0.14251609
0.17934877
-0.08402317
0.16521426
-0.312595
-0.002324272
0.20581442
-0.08898711
0.069461964
-0.21785764
-0.43390056
-0.40504482
-0.08095232
0.14190288
0.30883616
-0.20957997
-0.25130385
-0.00024006594
-0.2731639
-0.23440701
-0.07288276
-0.23232351
-0.09152999
0.13505927
0.1783712
-0.22481026
-0.31580314
-0.20101258
-0.11909534
0.10427127
-0.31798097
-0.08275693
0.03887429
-0.2172267
-0.15702483
-0.15103361
-0.26366735
0.19399312
0.3606184
0.06356799
0.17622072
-0.1803444
0.27101552
0.2858967
0.13897488
0.15719327
-0.22665828
0.19262722
-0.1498408
0.062706575
0.07113313
-0.29551557
0.17072383
-0.072874635
-0.045504995
-0.32735652
0.08484694
0.027568977
0.38034725
-0.31567958
0.26467776
-0.22520849
-0.27481967
-0.12040077
-0.12242877
0.026746482
-0.19397123
-0.028166242
-0.048501015
0.2073642
-0.17697115
0.24343288
0.03340818
-0.27504337
-0.35355264
-0.12822025
-0.24107118
-0.30054405
0.09447809
0.26945323
0.18370466
-0.27091777
-0.104580864
-0.34180424
0.020008756
-0.2562097
-0.21454073
-0.08226045
0.19167452
0.31097227
0.18768825
-0.24054585
0.10991427
0.07099269
0.16057265
0.31073457
0.076070204
0.11918179
-0.012768057
0.03703823
-0.15300609
0.12941727
0.08118622
-0.15484723
-0.0106223645
-0.11668189
0.03346594
-0.22088538
0.12964699
0.29852262
0.027003622
-0.02139993
-0.04749757
0.3288622
-0.2781878
0.030491326
0.16658713
0.080554575
-0.16417463
-0.12486438
0.11402535
-0.24945435
0.32505095
0.16785155
0.012962892
-0.17961963
-0.07734206
-0.32797194
0.28361475
0.026974393
0.2566064
0.15565732
0.17398499
-0.21862452
0.03629843
-0.24902153
0.0061666146
-0.13470338
-0.14141577
0.056596138
-0.20406877
-0.13713418
-0.19269112
0.17642392
0.09378465
-0.061016027
0.28628305
0.048632167
-0.029871399
-0.05850753
-0.0052382867
0.06349017
0.08383331
-0.17926471
0.31136623
-0.100140646
0.16181724
-0.44928017
-0.34719265
-0.3164576
0.1310988
0.31865886
-0.09949932
-0.24806942
-0.00817579
-0.07517796
-0.20573227
0.351223
0.28841242
-0.2763365
0.05256922
-0.20659213
-0.19763643
0.18835302
0.29988256
-0.15051092
0.17997245
-0.2240829
0.18480782
0.03052962
-0.05342207
-0.10170417
0.2467784
0.235829
-0.259866
-0.28259188
0.2225635
-0.14123118
-0.19524603
-0.047912627
0.06567985
-0.19216606
-0.22778551
-0.055441692
0.15542264
-0.20738842
-0.32616484
-0.08056826
-0.08596639
-0.02311058
0.36270472
-0.19138503
0.20931219
0.10933014
0.046594344
-0.12993513
0.24794412
-0.1073709
-0.06968874
0.057551235
0.024064256
0.16196162
-0.30900112
0.27495673
0.3155283
0.06865224
0.08482172
-0.23224741
0.26562142
0.2863262
-0.18016754
-0.2679288
0.1405418
0.022755703
0.2543664
-0.21814977
-0.34110987
-0.2721465
0.09779842
-0.0028641273
0.090762585
0.17976065
0.26431328
0.3065992
0.0971372
-0.039138716
0.30170792
-0.075142995
-0.25376827
0.32022247
0.12104528
0.334302
0.15694807
-0.12143089
-0.11058926
0.20210612
-0.31703484
0.032799907
0.28853408
0.062467996
-0.126832
-0.14480105
0.1393306
0.12563176
0.058137555
-0.060548235
-0.29862878
-0.07405921
0.08095919
-0.25133854
0.30046827
0.19939706
0.2757517
-0.2940556
-0.08426619
0.078565545
-0.19428223
-0.2597499
0.06097935
0.08521964
-0.14935625
0.21849307
0.19878133
0.12213081
0.26352856
0.053766236
-0.09160782
0.13522877
0.22948982
0.07719612
-0.16626243
-0.37256446
-0.30021313
0.19014041
-0.28640687
0.20185448
0.25329724
-0.04696722
0.22420907
0.055061247
0.125839
0.25518665
-0.11107508
0.29695722
-0.20248026
-0.33039412
0.026998863
-0.1671383
0.18072386
0.2643036
0.12933408
0.01920785
0.19148187
0.03363587
-0.014738691
-0.09776362
-0.21232508
-0.34589928
0.22349623
-0.1292028
-0.27531397
-0.23696204
-0.17895555
0.32778788
-0.29366088
0.074359536
0.1723478
-0.22566968
-0.27401343
0.21360762
-0.26437476
0.17548966
0.23758578
0.03542019
-0.0033153258
-0.36703905
0.23664303
-0.18326643
0.30823705
0.17222388
0.2634029
-0.11808295
0.08972453
-0.1687682
-0.15481018
-0.115201294
0.26232964
0.2099326
0.06500924
-0.14384525
0.24890012
-0.0067233304
-0.0052483026
-0.2901865
0.14063957
-0.20841852
0.04424569
-0.342239
-0.05759752
0.094401084
-0.04381945
0.2180185
-0.32331684
0.17047894
-0.19616944
0.21615219
-0.26272345
0.33777207
0.03415611
-0.17429188
0.0011433143
-0.28487492
-0.38701442
-0.2982002
-0.09017431
0.22549172
-0.006031611
0.0035359154
-0.02961039
0.101860575
-0.13407858
-0.27653658
-0.08448351
0.39875937
-0.2721542
0.012441869
-0.010495325
-0.014793421
-0.08841551
-0.091192335
-0.25321192
-0.23676749
-0.22979571
-0.32098934
-0.32496974
-0.0065879496
-0.09213261
-0.25490803
0.34477636
-0.2176827
-0.2977687
-0.022920024
-0.033272494
0.10013967
-0.22691381
0.1766851
0.09563805
-0.18960637
-0.12360422
-0.13007154
0.092709
-0.25490722
0.25644684
0.20084372
0.04307145
-0.17897923
-0.35132492
0.2691719
0.018394316
0.0089241825
-0.3137671
0.026513664
0.192687
0.14066198
0.17671612
0.25883946
0.13941638
0.2228616
-0.059726253
0.20685844
0.07948354
-0.13559955
0.11955532
-0.21019222
-0.21651036
-0.032742433
0.14542115
0.23923267
-0.17855358
0.09803851
0.0048297355
-0.28014222
-0.036246844
-0.031242874
0.37852457
0.113744356
-0.39656416
-0.258598
0.17345339
-0.043285456
-0.26871714
0.15451948
0.031036723
-0.09106172
-0.0991746
0.2903539
0.34938475
0.1342916
0.25823978
-0.18034379
-0.008983518
0.023060309
-0.14819553
-0.10920958
0.16892666
-0.023324078
0.2252241
0.24921447
0.027042689
-0.21537104
0.051209234
0.14350359
-0.12793401
-0.048309352
-0.23711301
0.32581404
-0.28949028
-0.23679914
0.19780803
0.03476383
0.060091883
-0.056436732
0.21400654
0.2635349
-0.023369048
0.163154
0.13929924
-0.2217315
-0.18451229
-0.1340862
-0.017335348
0.030350503
0.36458945
0.15182069
0.29348356
-0.27261633
0.25585154
0.2654065
-0.21520472
-0.0005747723
0.12630156
0.2752665
0.22605379
-0.037080135
-0.38820574
0.27206197
0.21342766
0.026157504
-0.0835589
0.31967098
0.33276767
0.30547345
-0.07439088
-0.26226655
-0.30704835
-0.14244275
0.1846933
-0.20196615
0.028372845
0.1685124
-0.38275596
0.20032687
0.12700067
-0.07026528
-0.1682014
-0.24340667
0.20088306
0.12840205
0.22894296
0.25576952
-0.13347225
0.023239706
-0.025591055
-0.05012346
-0.16503355
-0.06748945
0.16812049
-0.30606353
-0.17423747
0.023206446
0.20646891
-0.23139474
-0.11013782
0.1701003
-0.100582
0.17399628
-0.21954037
0.03656862
0.1847652
0.04037335
0.024677917
0.100906394
-0.37256598
-0.083735436
0.25327104
-0.18270211
0.15475519
-0.27916124
0.12971073
-0.15380569
0.12022328
-0.08251416
0.283354
0.31635663
-0.30272126
-0.108821705
0.2805838
0.0936648
0.17585792
0.07004695
0.10752372
-0.37034187
-0.40479717
-0.15829237
0.19234906
0.19188727
0.11771521
-0.31077006
0.24252126
0.14569469
-0.037633013
0.13726418
0.13913347
-0.2877955
0.10442572
0.14383796
0.19880247
-0.041171685
0.12893882
-0.17918462
-0.28872818
-0.07060763
0.2882156
-0.23843288
0.20806268
0.20507915
-0.024257263
0.39243355
-0.1190996
-0.028645629
0.31636894
-0.07282093
0.22841778
-0.2831055
-0.09633264
-0.2606288
0.3152746
-0.017001433
-0.05588836
0.33813104
-0.009652173
-0.18864864
0.09948165
-0.08789791
-0.12071428
-0.18088873
0.2578549
0.18897645
-0.41160908
0.16896723
0.19254294
0.013703356
-0.1600057
-0.05662119
0.12439949
0.12494549
-0.023864305
-0.13372657
-0.17529388
-0.11584362
0.3158829
-0.09543059
-0.41150737
0.3146085
0.27159432
-0.2116335
-0.05043704
-0.118852116
-0.16594845
-0.13524142
-0.062097207
0.0143637555
0.30396387
-0.08505759
-0.13709736
0.3282444
0.08742296
0.22531943
-0.12018764
-0.26174736
0.030458232
-0.28217193
0.18868716
-0.20624177
0.08258585
-0.3514312
0.19441564
-0.29486403
0.31226358
0.3547569
-0.37151864
0.19255422
0.18205817
-0.31966248
0.005244136
0.121753715
-0.289948
-0.047112286
0.28751445
0.18450026
0.3338518
-0.2593349
-0.0021249778
-0.2833657
0.27987382
-0.2782704
0.06527044
-0.18785228
0.23041984
-0.058713578
-0.30465397
0.13967407
0.031273436
0.021308485
-0.033430167
-0.07289988
-0.07772621
-0.1240043
0.041203298
0.24670619
0.37021908
-0.021905972
-0.10211374
0.36874577
0.1469873
-0.013878312
-0.202342
0.015758779
-0.0019226511
-0.11946102
0.18411292
0.23369037
-0.12357891
-0.23931646
0.1877124
0.27473125
-0.18704031
0.21474706
0.07839183
-0.04441352
-0.008764427
-0.20448978
0.038088266
0.18119575
-0.093128026
0.15028295
0.21543215
0.2204283
0.22346936
0.0572532
-0.16821982
-0.116568945
0.14772171
-0.02525665
0.046096656
0.14948493
0.37887585
-0.3091018
0.16634157
-0.2306331
0.091873355
0.062588945
0.18717982
0.11774665
0.32264963
0.045223564
0.15004551
-0.0019203256
-0.22419234
-0.0044850395
0.34336272
0.10113307
-0.12925105
-0.17097363
-0.017885294
-0.23967108
0.20326297
-0.2061055
0.24649632
-0.13835602
0.056669816
-0.33460614
0.29475182
-0.012015348
0.1523442
0.0041424735
0.05926632
-0.19892521
-0.32435566
-0.10318103
0.17716102
0.27951348
0.26527977
0.11680716
-0.28391284
0.037339713
0.09480822
0.32422322
-0.1805327
0.0691058
-0.020856805
-0.19186723
0.25059402
0.1714339
-0.029216424
-0.36466527
0.009212909
-0.13501817
0.3058509
-0.031230709
-0.09492154
-0.11970707
0.121878535
-0.09972043
0.28413436
0.051685266
-0.23200141
0.15538509
0.18789843
-0.04287536
-0.061950184
-0.066806525
-0.10113997
-0.023905633
0.1281796
0.3996192
0.069585234
-0.050627228
-0.343664
0.14748104
0.16341005
-0.22309737
-0.4473214
0.23814127
0.18322802
0.014661381
-0.10617613
0.22861259
-0.19040224
-0.18623117
-0.062254142
0.34203786
-0.20033978
0.061847977
-0.23062468
0.31511992
0.0060092956
-0.12785955
0.17504038
-0.023839787
0.26468745
-0.34136537
0.19565703
0.16053587
0.1563953
-0.3478571
-0.04830717
-0.064224534
0.067631125
-0.3497329
0.18199946
0.24952678
-0.2687946
-0.27943227
-0.044124417
-0.10048435
0.14775676
0.067934036
-0.064093925
0.28832617
0.34608975
0.26375747
0.20255405
0.009871287
0.23263241
0.2276273
-0.12322823
-0.039839745
-0.032119785
0.12551466
0.054162715
-0.09765241
-0.3680083
-0.3114157
0.10548628
-0.018672068
-0.13140115
0.16331466
0.19472308
0.026498046
-0.22917417
0.086307324
-0.046146825
0.093699686
0.16097024
0.08933956
-0.041231047
0.28769568
-0.18287098
-0.0745261
0.21979445
0.08133513
0.17962506
-0.19573994
0.12863964
-0.33710295
0.25702342
-0.10616886
0.15092687
0.22551338
-0.060392834
0.0998559
0.12768994
-0.24212474
0.22403859
-0.0049837343
-0.047470883
0.30331564
0.25535315
-0.3023907
-0.015960433
0.21902624
0.04416771
0.13397385
0.037718967
-0.014024978
0.2922005
-0.13976306
0.06753573
0.123108305
0.32509834
-0.3124774
0.4133839
-0.09386822
-0.2881784
-0.3034444
-0.3272863
0.024039503
0.07951909
0.3751554
0.23238453
0.065969944
0.0047060284
0.18350469
-0.37467048
0.11536944
0.22233783
-0.34942117
0.2040885
-0.20290515
0.26534736
0.15575294
0.09838573
-0.03228084
-0.3846045
-0.27626637
-0.1881738
-0.09786803
0.18010433
0.011630774
0.3376308
0.20732397
0.071913294
-0.19782487
0.32395253
-0.115032434
-0.019915158
-0.041023247
0.17337556
0.0009871387
-0.3276003
-0.028435448
0.29278076
-0.062170714
0.21815677
0.08515816
0.045760866
0.056227207
-0.15571271
-0.01775287
0.32678455
0.04231894
-0.10990143
-0.059335783
-0.22063719
0.038757406
-0.16204925
0.09667718
0.15618423
0.09800977
0.29808784
0.12598605
0.16096328
-0.2136205
-0.19902003
-0.007731713
0.33338767
-0.21612029
-0.1205563
0.13825311
0.12192185
-0.002473135
-8.5409265e-06
0.25357303
-0.056191593
-0.12166143
-0.22339977
-0.31999922
-0.032196783
-0.22263092
0.3434572
0.039034992
-0.13721064
0.34698564
-0.19834408
0.16333248
-0.042179618
0.32497466
-0.23732056
0.32767466
0.1574521
0.10851313
-0.106917866
-0.32728422
0.22593053
-0.04107373
0.35060328
-0.038135868
-0.18822174
0.35148486
-0.38460866
-0.11846872
0.0594411
0.13000363
-0.23311691
-0.07298839
0.0022800546
0.33717567
-0.13316433
0.2709421
-0.27744192
0.03737932
-0.24887927
-0.20266487
0.1731757
-0.13838084
0.25508833
0.20216933
0.19635516
0.17089398
-0.06654893
-0.021367222
0.057480793
0.3344613
0.3143066
-0.108339585
-0.32668445
0.08018047
0.3527128
0.25163308
-0.07395155
-0.2934117
-0.15514264
-0.07828827
0.18701792
-0.037712704
-0.16679105
0.10971594
-0.21823984
-0.07687554
-0.21026978
0.3876115
-0.22844145
0.21924116
-0.13399476
-0.10902703
0.26465246
0.3926159
0.0668042
0.33624458
0.25605327
0.006915034
-0.18958016
-0.22025596
0.11309215
-0.06955236
-0.22184478
-0.09749233
0.30963314
-0.007528726
0.20303208
0.08490674
-0.14566055
0.23739134
-0.06335008
0.026116211
-0.23707952
-0.34973156
-0.05039787
0.10930882
0.15795423
0.26635575
-0.013529179
-0.1135308
0.17886962
-0.022931887
-0.16831616
0.22937611
0.2730696
0.0063196216
0.22981597
0.05940287
-0.2672547
-0.16744587
0.06623928
-0.16287123
0.051784962
0.07466437
0.24379592
-0.07218224
-0.3256679
0.086627945
0.1456116
-0.06809702
-0.08211017
0.23110795
0.20799114
-0.26545754
0.11021807
-0.26747867
-0.273821
-0.14793244
0.031100005
-0.17627077
-0.04260039
0.32285115
-0.058259122
-0.14371167
-0.10441614
-0.08237058
-0.15836638
0.14760886
0.2775047
-0.121011324
-0.022596024
-0.19144292
-0.27755675
0.26292384
0.29253215
-0.15246984
0.20657568
-0.10726168
-0.056590535
0.16085081
-0.13673909
-0.2522632
-0.0057254457
0.45580855
-0.020520525
-0.29147983
0.14073636
0.0070236665
0.15332451
-0.14192542
-0.1117242
0.00872328
-0.12448925
0.006632861
-0.24775872
0.0317496
-0.27769116
-0.22235356
-0.28551152
-0.29108122
-0.24567206
0.17394991
0.29810005
0.28753427
-0.26334292
-0.08875648
0.34915808
-0.26041415
-0.23695141
0.10790804
-0.043370154
-0.3570533
-0.10141394
0.27433512
-0.32371706
-0.20354481
-0.28081235
0.34311908
0.27121133
-0.11113168
-0.04526999
0.27365327
0.0901487
-0.032908104
0.18422377
0.13965859
0.24757867
-0.0344245
0.25350797
0.108091824
-0.1892569
0.010929902
-0.30367464
-0.20543492
0.26108196
-0.092913784
-0.056588367
-0.13026781
0.22843969
-0.17572032
0.08759678
0.017622933
0.2481871
0.22648442
0.043809053
0.01594377
0.026644029
0.36773947
-0.225608
0.008298077
0.09723787
0.017428279
-0.015300986
-0.10744835
-0.2448366
-0.13554783
0.10190685
0.21857189
0.093076184
0.10460837
-0.18310162
0.038917914
-0.06542895
0.063343935
0.21876866
-0.24760222
0.2546239
-0.2677563
0.29480368
-0.27151093
-0.035161007
-0.42701814
0.08454503
0.35440406
-0.36690137
0.12713984
0.051134516
-0.03347241
0.03984374
-0.1858579
0.22665793
0.16994965
-0.054548986
-0.20447887
0.11909514
-0.14579786
0.22775294
-0.04777235
0.2610561
0.2626762
0.30132517
-0.19575213
-0.10212242
-0.24648082
-0.110563144
-0.017335033
0.05193104
0.30015615
0.16057937
0.020723801
-0.15604742
0.102653965
-0.12957677
-0.19768415
0.2580501
-0.22262193
0.16088042
-0.035335
-0.13034278
-0.20952795
0.18316504
0.077101745
-0.32711023
0.33025634
-0.28760374
0.08143868
0.09214137
-0.27109882
-0.09380541
0.3996728
0.21136183
-0.056306496
0.16894075
-0.3055693
0.3608215
-0.017719323
0.09661165
-0.11549063
-0.07258006
0.016100451
0.07810359
0.35972184
-0.1714796
0.3180529
-0.08224114
0.017135307
0.0665454
0.16243243
-0.27301523
-0.29336813
-0.085289665
0.24648726
-0.035630513
0.017996058
-0.17387947
-0.17108347
-0.083370015
0.33071005
0.0561745
0.32776394
0.003799182
0.31254232
-0.29626355
0.1739941
-0.15405363
0.14897467
-0.25921786
-0.14530063
-0.2987113
-0.23052217
0.28215775
0.0012199407
-0.20726979
-0.3435062
0.06925666
0.2513875
-0.06260364
-0.038059533
0.051589243
0.028185239
0.34889477
0.18195245
-0.092860654
0.1884851
-0.042514656
-0.11355704
0.1509738
-0.29971486
0.24837643
0.25844008
-0.10247382
-0.06840299
0.18694675
0.14902012
-0.20579164
0.2526511
0.36222237
-0.042741932
0.1593304
-0.027776828
-0.36771724
0.16137841
0.14691988
-0.10112061
0.018292606
-0.0011764533
-0.23448507
0.2573315
0.2985348
-0.009166535
0.30285823
0.061963145
0.09578228
0.13475366
0.16440496
0.3466989
0.3390141
0.11703741
-0.046697628
0.31871897
-0.36561325
0.010298716
0.17773758
0.18793048
0.020022864
0.10198163
-0.07464362
-0.17115933
-0.030753393
-0.28517124
0.08479632
0.04960773
-0.18438824
0.4129035
0.11815887
-0.14930746
0.24905887
0.11982988
-0.31931928
-0.2764925
0.079023115
0.22040622
-0.23543724
0.035528537
-0.0068718074
-0.26392537
-0.069238275
0.24238828
0.08274111
-0.021527028
0.056545928
0.35308057
-0.13449685
-0.21947284
-0.25026447
-0.004345501
-0.3250832
0.2811367
0.18992376
-0.14000215
-0.335249
-0.30537495
0.09760199
-0.10263034
0.16187416
0.31513023
0.1719474
0.22798845
-0.03372467
0.051691625
0.17248239
0.069447875
-0.25255877
-0.2847175
0.2502474
-0.33913118
-0.26871717
-0.24699996
-0.16722102
0.24715531
-0.06313705
-0.08329406
0.34278816
0.042941865
0.3034932
-0.16703328
-0.20291647
0.0045719356
0.2684495
0.05180611
-0.16711949
-0.08621706
-0.108805925
0.111830376
-0.024935944
-0.12656724
5.648349e-05
-0.057211865
0.2122183
0.32777077
-0.33032367
-0.26552168
0.0068728505
-0.100654155
0.18102889
0.06012837
0.05884691
-0.30654705
-0.29544312
0.22055943
-0.094021685
-0.3081702
0.34336355
-0.2132047
0.1388635
-0.031717587
-0.22421414
0.070269525
0.08753507
-0.110877424
0.08336592
-0.049137168
0.14247112
0.2323134
0.20418723
-0.115132146
-0.003972864
0.3127945
-0.075598545
-0.28451142
-0.26371047
-0.122772366
-0.2885144
-0.030651737
0.20683965
-0.2898294
-0.21382912
-0.10798568
0.18693766
0.048915505
0.054934505
-0.27210444
0.28096664
0.05823514
0.23655246
-0.21371424
0.17174567
-0.073844194
0.04684746
-0.0732933
0.043273382
0.042286634
-0.31346092
-0.09728501
-0.20203805
0.054669734
-0.3089002
0.12815976
0.20781367
-0.119377896
0.13565338
-0.13513462
-0.1251219
-0.05966686
-0.31543687
0.15165383
-0.17994922
0.24935743
-0.3032132
0.23134153
-0.040222652
0.19744316
0.3454801
-0.3090026
-0.0015893669
0.06668859
-0.3797826
0.23614179
-0.24418479
-0.12438781
-0.10498896
-0.24940217
-0.2836187
0.14560656
0.1748617
0.2549266
0.13734935
-0.1527123
-0.29620343
-0.17540663
0.433807
0.30194515
-0.10408581
-0.18833634
0.29461193
-0.2428052
0.21107641
0.010627501
-0.23520136
0.2900103
-0.21629262
0.26087144
-0.072656915
-0.11336459
-0.12405912
-0.25992745
-0.024448209
-0.110034086
0.25062624
0.03594612
-0.27622956
-0.18186386
-0.10848507
-0.33851898
0.32625884
0.22310619
-0.12556279
-0.19285254
0.0037349323
-0.15076222
0.09847672
-0.3520248
0.13476554
-0.27730873
0.12800774
0.3729236
0.046129994
-0.0855705
-0.2857186
0.2987929
0.18547055
-0.05684746
0.101572976
-0.38680306
0.110913485
-0.043076154
-0.08900148
0.14583866
-0.09529664
-0.0907665
-0.21423109
-0.21938713
-0.1792702
-0.26120993
-0.10743285
0.19243145
-0.10334525
0.043407846
0.051153857
-0.23848225
-0.2887822
-0.10424173
-0.078531004
0.15538539
0.091632746
-0.24420589
0.31086212
0.2621017
-0.28882617
-0.16051097
0.116998844
-0.08384211
0.1879704
0.11126589
0.27639452
0.3877477
-0.12122139
-0.1833165
0.07338273
0.28870183
0.16159932
0.1057523
-0.006996756
0.09338901
-0.3642158
-0.12810428
0.19556262
0.0060279216
-0.18555725
0.29057297
0.25509384
0.13378808
-0.102480695
0.00054681813
-0.39086863
0.3138314
0.3703337
-0.005302135
0.072150625
0.023125393
0.023894895
-0.18767862
0.18181005
-0.19011377
0.28599632
-0.2196944
0.258889
0.08914641
-0.26153976
0.071133375
0.19038437
-0.16109647
0.2183196
0.2564278
-0.27221173
-0.20225532
0.22079873
-0.11167808
-0.22446463
0.088730775
-0.244856
-0.29033744
0.0696807
-0.26013622
0.1359955
-0.17875297
-0.026749168
-0.057188977
-0.3641572
-0.14434728
-0.33189607
0.27079237
0.31620887
-0.3160654
0.30799463
0.0312724
0.040977992
-0.2874949
0.11223237
0.20584778
-0.32571524
-0.3090036
-0.27847397
-0.29067126
-0.17603344
-0.06636847
0.048508994
0.39386585
-0.0715123
-0.22363621
-0.34042615
-0.08878645
0.07217153
0.18436512
0.20734072
0.29726878
0.25424826
-0.020555349
-0.22900267
0.11004382
0.04009088
-0.3105966
-0.31644142
0.068721354
0.33828118
-0.027254049
0.01273437
-0.15731685
-0.06342438
-0.15724838
-0.18340194
0.034552526
0.3852193
-0.18051888
0.07928097
-0.052963626
-0.2719362
0.05008912
0.3912014
0.0184468
0.20245558
0.27044103
0.03814731
0.29262242
0.046007052
-0.20318997
-0.022594003
-0.06208649
0.00862075
-0.11757112
-0.03299098
0.29106888
0.014648044
0.079240724
-0.114067525
-0.023610257
0.25383404
-0.115110286
0.23335531
0.32764524
-0.27462617
0.28114754
-0.318364
-0.3195139
0.3588712
-0.030732278
0.11584706
0.18537033
0.017391229
0.06607469
-0.08114461
-0.33242366
0.32637694
-0.013137784
0.22998668
-0.2879599
0.2133364
-0.10710656
-0.06297236
-0.2240097
-0.27914134
0.29123196
-0.080307215
-0.26006976
0.33647683
0.08254067
0.006359874
0.09849388
-0.21703756
-0.009707936
0.13940288
-0.10319546
-0.14883193
-0.35044983
0.09094818
-0.16885754
-0.063078165
0.16110758
0.11499352
-0.3305325
-0.020118205
-0.05835883
0.11086228
-0.3516054
-0.33381742
-0.003853312
0.011635505
-0.19026743
-0.27841553
0.22395648
0.22978349
0.27346808
0.15889001
0.31138438
0.026828941
-0.30078548
0.26166826
-0.02627988
0.24405897
-0.3226311
0.3314882
0.19752374
0.28159258
0.3020499
0.25110617
0.2233967
-0.21264285
-0.215835
0.061568793
0.1086431
0.23806804
-0.1386082
0.1730917
-0.28530344
-0.2544189
-0.16657798
0.283774
0.048941713
-0.24443772
0.12091592
0.18135296
-0.020484723
-0.24100016
0.3868503
-0.27648216
-0.036766216
0.005894014
0.25247985
-0.09876619
-0.31375405
-0.14494148
0.084473684
0.27177742
-0.017854704
-0.16377386
-0.014585014
-0.18368362
0.35293353
0.27437028
-0.36586952
0.21037474
-0.35173237
0.27844715
0.07785499
0.15499859
-0.21222892
0.1415574
0.26332638
-0.35536492
-0.14603382
-0.3276316
0.22313857
-0.24255948
-0.17617889
0.13238569
-0.052622303
-0.011164931
-0.0989645
-0.0330257
-0.032034706
-0.27000484
0.10487029
-0.03722296
-0.18876983
0.15095074
0.2822626
-0.18741332
-0.030746082
0.14623901
0.20073003
0.16937342
-0.20752816
-0.32688758
0.28975287
0.074768685
0.25987977
0.030960316
0.21405752
-0.2804972
0.14143218
-0.008920241
-0.09924461
0.40835428
-0.2954021
0.021403834
0.02411878
-0.23357455
0.10326088
7.6090655e-05
-0.081668645
0.16963132
0.28298953
-0.043159515
0.07272944
-0.027717236
0.0966595
0.047099765
0.089692615
0.18176356
0.21096289
0.040588964
0.084925674
-0.0773634
0.17499195
0.12239855
0.18834932
0.07524959
-0.16956258
0.03749299
0.23303084
0.024650592
0.079768956
0.17112686
-0.23578766
-0.3460426
-0.097702414
-0.27050218
-0.2181765
-0.20730355
-0.18176879
0.011075098
0.04837226
-0.30822212
0.30474195
-0.07790121
-0.14673354
-0.0833278
-0.2974601
-0.05055178
0.24753322
0.32244417
0.17767346
-0.3015257
-0.11618311
0.036781482
-0.06590347
0.33282277
0.15029782
0.2502018
0.07906489
-0.129537
0.25123993
-0.17048794
-0.24964489
-0.2381249
0.1424945
0.31786737
-0.0121116415
0.04200933
0.083596535
0.007876277
0.17923857
-0.06634426
0.28712988
-0.0049986476
-0.08929552
0.25057086
-0.0817724
0.099072546
0.0735657
-0.3521977
0.39539146
-0.29778334
0.019373514
0.25716132
-0.37953904
-0.32315695
-0.34759513
0.028205233
0.3380307
0.1694346
-0.043448083
-0.26635852
-0.00057453674
0.11238577
0.09829896
-0.039002344
0.122843474
-0.08455178
0.062977895
-0.17998627
-0.31104654
-0.18188277
0.097301625
0.3503901
0.2561797
0.18182026
-0.22326943
-0.008442504
-0.03124698
0.006680747
0.27485898
-0.34718138
-0.050580442
-0.2626257
0.18288496
-0.13396673
-0.21598318
-0.18339424
0.011414552
0.2515827
0.06542333
-0.1269626
0.11160734
0.015106031
-0.06375406
-0.00059766165
0.06846568
0.24524075
0.28961843
0.32483774
-0.31123716
-0.074120596
0.20792443
-0.10896057
-0.27444232
0.14014623
-0.14851102
-0.297245
0.3509041
0.29432353
0.17838907
-0.076488495
-0.08599938
-0.24097708
0.03064314
-0.3255681
0.19085963
-0.19720182
0.18577975
0.15564658
-0.018486733
-0.026852109
-0.1819817
-0.19231792
0.27843404
-0.037484765
0.29325476
-0.03953703
-0.30689174
0.24568011
0.19198807
0.2484671
0.21857205
-0.25134128
0.08172018
-0.07016652
-0.011609527
0.18493965
0.10093994
0.2579076
-0.11535196
-0.20945626
-0.28222474
0.18567903
-0.10114176
0.3114055
-0.35510623
0.07270962
0.12914827
0.2221451
0.24614201
0.028005097
-0.29388013
0.049690757
-0.00787591
0.28445292
0.26063082
-0.2355703
0.039151628
0.2698807
-0.24287264
0.19108032
-0.25465378
0.0952445
-0.086856864
-0.106782876
0.22285189
-0.069984525
0.38119105
-0.09423354
-0.3184912
0.06284168
-0.17398731
-0.16698714
-0.35490987
0.25843012
-0.34153754
-0.31511217
0.16530734
0.35411698
0.47154215
-0.13712485
0.205443
-0.25601578
-0.15088443
0.29278842
0.28295276
0.0051378063
-0.27885514
-0.05235145
0.2097272
0.020187426
-0.0838265
0.1376697
-0.06595904
0.32003078
-0.29918453
0.22595724
-0.3338082
-0.21260446
0.13212663
-0.11735531
0.06668075
0.29343128
-0.36736813
-0.14650698
-0.23152547
0.21039933
0.095179215
-0.33535036
0.25830013
0.25225994
0.22102867
-0.28714183
0.25327596
-0.0097042695
-0.21588933
0.2580101
-0.2501165
-0.2067926
-0.17251852
-0.3301421
0.19986808
-0.09234998
0.22169882
0.14704514
0.043316122
0.23566039
0.14499293
0.06340485
0.18252741
-0.16963159
-0.17519088
0.1728223
-0.2776381
0.24990386
0.08298144
0.25066257
0.29514182
-0.09878207
0.1417813
-0.29957074
-0.22477143
-0.09740308
0.06194931
-0.1064047
-0.031099956
0.1128307
0.16397834
-0.2480256
-0.005124992
-0.1345638
-0.18471274
-0.06811321
0.19311158
0.2817395
-0.27832454
0.026560146
-0.2823528
-0.3767811
0.03026275
0.3023489
0.27888757
0.19875439
0.38765848
0.11288567
-0.0069674896
0.059388038
-0.19708909
-0.15750033
-0.30581334
-0.060032587
0.2074834
0.13202868
0.11131331
-0.009941814
-0.24926855
-0.08759295
0.100969896
-0.25879544
-0.1387131
-0.22977513
-0.24325979
-0.31825495
-0.27808964
0.14088418
0.07567455
0.3739952
-0.007859227
-0.11637585
-0.24259678
-0.103588514
0.1244291
0.05238606
-0.041932028
0.15984799
-0.12892006
0.2916216
-0.24232535
-0.21696027
0.16970211
-0.024022741
0.20766029
-0.049539667
0.43689728
0.063709706
-0.26243514
0.27438688
-0.2775582
-0.060631562
-0.10785138
0.22528423
0.11930187
0.09759525
0.34482202
-0.044262346
-0.07209933
0.0034528496
0.29517224
0.1787227
-0.0145942345
0.3376351
-0.09948255
0.18108238
0.18127705
-0.09669686
0.14753745
-0.024784146
0.05197667
0.38798404
-0.061658848
0.2565306
-0.2335283
0.22526261
0.12253778
-0.20156059
0.06353996
-0.21444847
-0.17482366
0.30392572
-0.15733188
0.3603287
0.09421547
-0.22382632
0.24068545
0.34422553
0.034835037
-0.23518825
0.057334952
0.11347621
0.07454957
-0.06485937
-0.23075481
-0.1259618
-0.15182303
0.018043062
-0.07413666
-0.078156576
-0.10134434
-0.09680734
0.004874216
0.39045665
-0.19536768
0.15159023
-0.045661733
-0.23461246
0.17137028
-0.21908523
0.13020712
0.07611812
0.38061467
-0.18883516
0.10034178
-0.16674823
0.12798277
0.062198404
-0.17473426
-0.05054858
-0.2669062
0.43067735
0.10598194
-0.26585302
0.25994727
0.33777976
-0.0258541
-0.08512192
0.2744303
-0.19411409
-0.30768067
0.10225071
0.16488837
-0.129252
0.31544214
-0.09792716
0.0382839
0.035793003
-0.23777579
0.13284092
-0.12573244
0.13890631
0.31263494
-0.26592937
0.32122332
0.12307077
0.2664623
-0.23491627
-0.25484967
0.2450087
0.050212916
-0.2274335
-0.0070150774
0.1481992
-0.0014678473
0.23997165
-0.10278289
-0.2625121
0.034750316
-0.3180003
-0.122987404
0.2390867
-0.12135917
-0.2801903
0.16675378
0.16208486
0.24536553
0.22950172
0.3423004
0.31487995
0.26927668
0.017109787
0.01478583
-0.26533946
0.24697472
-0.30233955
0.06989198
0.20288938
0.08545935
-0.24926041
-0.13913992
-0.053228613
-0.0977166
0.22826503
0.2119345
0.27825448
-0.17546606
-0.18742682
-0.22213884
0.16441816
-0.017553598
0.30964258
0.32095048
0.19815443
0.14180085
0.072593614
0.1352673
-0.16408946
-0.22757365
-0.16145352
-0.26993057
-0.07073545
-0.019682216
