0.013541047
0.09972604
0.035053592
0.3385346
-0.006450179
0.16982013
0.31931925
0.036129646
-0.020048298
-0.1479381
0.28717986
-0.22763106
-0.1412217
-0.2296901
-0.35575297
0.0061873468
0.23350652
-0.07511381
0.34834284
-0.18506159
-0.060489226
0.22798023
0.26919064
-0.12451159
-0.3334725
-0.06104266
-0.0809884
-0.30005994
0.042840935
-0.0032613657
-0.2716863
-0.1676715
0.3759177
0.13266021
0.10867728
-0.115065485
-0.32025957
0.1034099
-0.19326127
-0.20260882
0.015602711
0.11199795
0.17284748
0.14024463
0.28117022
0.23885813
-0.35353956
0.26040754
-0.12435275
0.3604416
0.061891656
-0.19157949
0.20562413
0.13634653
-0.34317333
0.0910612
0.10762266
-0.054672293
0.35901076
-0.071550556
-0.09805072
0.11922196
0.18193592
-0.013888554
0.004320919
-0.21317185
0.2278671
-0.23427752
-0.003562519
0.20232898
0.17201203
-0.2130456
-0.07474716
0.22442763
0.09884513
0.13842312
-0.022900177
-0.16682808
0.20494479
0.09276687
-0.16490445
0.32899264
-0.006063983
-0.050116133
-0.26538876
-0.34841952
0.3060709
0.21625301
-0.28087935
0.104975
0.28904212
0.18799391
-0.16081831
0.020779543
-0.24665208
-0.32324708
-0.14546217
-0.28127307
0.18361457
0.25365967
0.018383618
-0.2728923
-0.12803853
-0.023205474
-0.07603686
0.16410635
0.05076338
0.18245642
0.362435
-0.15606119
0.31502864
-0.20205438
0.030345496
-0.039058127
-0.07064232
-0.057976656
-0.33280298
0.17871125
0.37091947
-0.2587326
-0.05413148
-0.115484014
-0.06080596
0.29863724
-0.17040537
-0.30410823
0.25504747
-0.16816002
-0.20458722
0.27637854
0.21984752
0.11750275
-0.13578586
0.12489146
0.13200219
0.25828844
0.20433559
-0.03461819
-0.22620197
-0.32669073
-0.18681507
0.019868007
-0.15991132
0.24043772
0.2249951
-0.21214601
-0.0952045
0.20757402
0.19383858
0.08995312
-0.3203803
0.35393894
-0.00514496
-0.3313162
-0.022676583
0.30568898
-0.28705114
0.14460294
0.12359653
0.08448657
-0.078745365
-0.108184054
-0.27956566
0.05209942
0.042540252
-0.016984342
-0.11739655
-0.1551873
-0.21948995
0.06456895
-0.20135935
-0.2651945
-0.15025504
0.079107516
0.29651013
0.20767938
-0.32550475
0.301304
-0.25786683
0.06809374
0.30012244
-0.063338846
0.044687472
0.36799648
-0.051252007
-0.04005522
-0.3982773
-0.13943693
0.035661753
-0.07231573
0.24892044
-0.26003316
-0.32245114
0.4015381
-0.16385335
0.0543193
0.03234781
0.04317442
0.02096873
0.01783591
-0.13484803
0.2053077
0.23449019
0.21681415
-0.3365664
-0.22309905
-0.16521542
0.20019953
-0.07555356
-0.04347613
-0.23509973
-0.09197842
0.37025347
-0.24232277
-0.19193219
0.26190534
-0.15770215
-0.13534318
0.18992373
-0.28841984
-0.079221584
0.09072363
0.23915735
-0.24141188
-0.16448915
-0.014114358
-0.29245833
0.0859836
0.27354628
0.22213677
-0.114552714
0.105139576
0.19905372
-0.25038293
-0.043389402
0.014530094
-0.17163129
0.01176778
0.26742917
-0.22667325
-0.03265765
0.1968572
0.22744988
0.2613235
0.14680983
-0.2136758
0.21614099
-0.30179423
-0.18554805
-0.049731504
-0.25497553
-0.20498288
-0.3946033
-0.16859649
0.1333017
-0.049364064
0.34642813
-0.04068595
0.17792752
-0.042870544
0.21795905
-0.04918878
-0.033030145
0.027559247
-0.103552036
-0.15087737
-0.2100697
0.1403374
-0.12765735
0.24752042
-0.23670101
0.07969134
-0.28173086
-0.008624785
0.24250095
-0.13729669
0.20057485
0.2723086
-0.16687709
0.2970007
0.23906294
-0.19300967
-0.1728442
0.15776537
0.11718552
0.095187135
0.07523371
-0.35495016
