-0.111404285
0.17451723
0.09189664
-0.087267935
-0.30991375
0.055760186
0.21297929
0.19641337
-0.05920459
-0.053311337
-0.37837082
0.24397837
-0.10549337
0.14287795
0.26245436
-0.09378655
-0.17206356
0.06313035
-0.085647404
0.37241766
-0.035478614
-0.20913069
-0.277338
0.15638746
0.1826859
-0.25907424
-0.22857992
0.17166528
-0.2262676
-0.28059673
0.017326979
0.14340298
0.07605876
-0.1259204
-0.30417064
0.10990665
0.3221244
-0.042850193
0.061271586
-0.30337557
0.2639453
0.31198424
0.21872479
-0.06625538
-0.29212657
0.2193417
0.11100925
-0.22529796
0.097043745
-0.19897173
-0.31551573
-0.2564735
0.09922832
0.18994145
0.11459886
-0.33623138
0.2729662
-0.20291339
0.26124185
-0.16873947
0.29030108
-0.15928449
0.12395445
-0.296722
-0.23742554
0.20956634
0.31531566
-0.116084084
-0.06842132
0.17628339
-0.21409266
0.06439966
0.09925773
0.13429496
-0.03860192
-0.10707952
0.24714938
0.34364387
-0.095146276
0.12895915
0.25457057
-0.14275539
0.27362236
-0.10771921
-0.007662495
-0.007576897
0.121791236
0.14430788
0.27262875
-0.31218922
-0.27869523
-0.21691835
-0.06436461
-0.049118426
0.111091495
-0.12084674
0.06061087
0.07975129
-0.26823425
-0.1800724
0.0950461
-0.27293828
0.015885094
-0.23519965
0.1888825
-0.08018425
0.18991975
-0.22651649
-0.25594252
-0.042494778
0.06549078
0.21515055
-0.16194455
-0.13648705
-0.20580365
0.20427775
0.1562921
0.22608235
-0.0139334
-0.31009787
0.2699924
-0.20432037
0.32466504
-0.2540543
-0.0736071
0.14426126
0.01497642
0.13520521
0.29894432
-0.26455492
-0.09730465
-0.25702062
0.25509655
-0.20607772
-0.36194354
0.17254774
0.0496842
-0.18618242
-0.080628715
-0.168597
-0.10525063
0.27923018
0.19624415
-0.12989369
0.2439139
-0.10953555
0.11319409
0.27353877
0.10860054
-0.14887255
-0.16690141
-0.17623402
-0.1264082
0.20216057
0.29518425
-0.04601469
-0.37665364
-0.048299294
-0.03129335
0.19950354
0.11285527
0.010421237
-0.33954236
-0.088211335
0.099983305
-0.09022476
-0.026957097
0.31134495
-0.27658293
-0.009341361
-0.10460497
0.21789813
-0.1979421
-0.1492976
-0.36499283
-0.084133595
-0.03281385
0.2391196
0.31864852
-0.030948719
0.23363529
-0.12897831
-0.079340704
0.1954664
-0.15618554
0.089483
-0.07307289
-0.33763552
-0.3342646
0.053338807
-0.1264895
0.0990667
-0.024935335
-0.2623292
0.0856823
0.0038669666
0.036094356
-0.027507994
-0.25678837
-0.022885518
-0.32805413
0.18077417
-0.08326839
0.048733823
-0.2697765
-0.2676981
-0.13276623
0.22515345
-0.01889818
0.008373452
-0.22217682
-0.32116365
-0.31576064
-0.22647174
-0.25456682
0.14081092
0.08388613
0.18988788
0.33535653
0.09304751
0.07002282
-0.2849079
-0.17936085
-0.10177963
-0.18504424
0.15143448
-0.20099683
-0.20856649
0.17741095
-0.019412125
-0.07531708
-0.320467
0.31300393
0.2937178
-0.14701022
0.0120611265
0.038518846
-0.25289193
0.34232718
-0.22014317
0.13854326
-0.20943801
0.2266224
0.15753102
0.36164883
-0.24165177
0.20681928
0.20136571
-0.043216474
0.106013425
-0.30153358
0.07768258
-0.11355582
-0.16462454
-0.12269814
-0.03774075
-0.2501846
0.23506452
-0.26695687
-0.27304265
0.3330701
0.28538734
0.07369257
0.21384074
0.23335682
0.13910663
-0.18529105
0.2540635
-0.22760054
-0.15593126
0.10042299
0.17982605
0.13706237
-0.016006833
0.1272669
-0.17923008
-0.12883341
-0.31391793
0.20022415
-0.20097083
0.07203165
-0.19909795
-0.0644687
-0.03835882
0.14828174
-0.14182685
0.23261246
0.022742432
0.15385011
0.09374357
0.05217256
0.14214125
0.052422144
0.17770159
0.045088083
0.12746939
0.14149913
-0.10264222
0.110263154
0.018511174
0.19417456
-0.07351584
-0.17415011
-0.05287004
0.19992213
-0.29126006
0.15479879
0.011455043
-0.27919468
-0.052036926
-0.16708049
0.13258018
0.07628914
0.01246121
0.060854893
0.2289275
0.049685664
-0.1572217
-0.3360133
0.07405651
-0.27998507
0.04390671
0.13371332
-0.075548485
-0.015198688
-0.31653988
0.06374351
0.10628872
-0.01894959
0.031797405
0.10066158
0.15677759
0.2565569
0.022589251
-0.014516147
-0.15505968
0.11799926
0.17794313
-0.19216411
-0.0035826482
-0.13997896
0.22220844
0.16196962
0.2191668
0.11217827
-0.1250791
-0.08905104
-0.08542434
-0.2286737
0.3267545
0.04819772
-0.13533607
0.15275426
0.021654697
-0.33499932
-0.32867777
-0.16234554
-0.08719923
0.18787076
0.014982869
0.2531652
-0.028358841
0.25790378
0.14904718
-0.26498768
0.17576022
-0.15096486
-0.19853449
0.20848992
-0.25354615
0.20791005
-0.16441694
0.26291364
0.048432253
-0.19880776
0.25282025
-0.1290033
-0.34642458
-0.24575993
0.22080807
0.098075844
0.1037411
0.08127272
-0.026123252
0.16512187
-0.35146472
0.21942633
-0.042707063
-0.2012063
-0.25631112
-0.04922226
-0.30621538
-0.19423093
0.19671479
0.29362756
0.083377406
-0.09027799
-0.25838646
-0.22387734
-0.20785217
-0.11051483
-0.14763716
0.2563528
0.17113969
-0.19426315
0.08802989
-0.31129014
0.05309286
0.06950987
-0.33053288
-0.0141370185
0.2455408
-0.2616863
-0.19912851
0.26077724
0.0808862
0.13035622
-0.29188958
0.2636312
-0.13845426
-0.117973134
-0.21592136
0.28815523
-0.08693492
-0.2953928
0.11715872
-0.328892
-0.011138973
0.20159951
-0.270259
0.27830923
-0.08384457
0.17399344
0.27254188
-0.2770606
0.036107093
-0.16396372
0.12722768
0.19184513
0.10870702
-0.24879085
-0.28245744
-0.20661102
0.030834233
-0.21226105
0.19261312
0.2479737
0.27139378
-0.02007771
0.08025588
0.06390954
0.032838393
-0.2329325
0.060016077
0.2973457
-0.012911783
0.06466243
-0.14365809
-0.050979037
0.13146724
0.08284879
-0.25072283
-0.14397137
0.26609963
-0.11669637
-0.2167577
0.044367027
-0.24394922
-0.3696264
-0.031049224
-0.1614943
0.1405951
-0.20759504
0.12731771
0.057137944
0.19932987
0.24424803
-0.17962238
0.15894645
-0.20043874
-0.21370904
-0.120501705
-0.0064960294
0.055716097
-0.16142778
-0.30381325
-0.006534936
-0.17694944
0.18893558
-0.08478586
-0.16407491
-0.011972773
-0.20460957
-0.2519102
0.27966127
0.033408996
-0.34572205
-0.094107635
-0.007394891
0.31377447
-0.2568997
-0.28427416
-0.13283646
0.047965556
0.09217285
-0.30619296
-0.22439064
0.13181594
0.12798287
0.21285151
0.0790189
-0.25013107
-0.05053397
0.06137198
0.2575529
0.0083298385
0.22266819
-0.12998848
-0.043889552
0.2886493
-0.16080754
-0.1915215
0.24565512
-0.21595272
-0.35036612
0.015771009
0.22557242
-0.33518183
-0.20573398
-0.038068816
0.34107992
-0.17111237
0.1811426
0.2445923
-0.31870243
-0.043008815
-0.09945269
0.39637962
-0.19500154
0.08346813
-0.24167313
0.20313935
0.3199179
-0.26116097
0.27043715
0.09569355
0.20849802
-0.112643845
0.098753646
0.007053286
0.38118234
-0.06761183
-0.1326263
-0.021428136
0.072116114
0.24120338
-0.33071545
-0.16859464
-0.18559746
-0.06416605
-0.2348735
-0.2903159
-0.13343611
0.021551069
0.16442211
-0.27606326
0.15823203
0.043762535
0.27204543
-0.07251398
-0.23889352
-0.1943211
0.07877683
0.26836294
-0.23311839
-0.09109201
-0.26302427
0.10194542
0.045342073
-0.015894087
0.18094943
-0.14790104
-0.23368633
-0.014098914
0.23761718
-0.27637544
0.27115583
0.2220661
-0.23077947
0.24858491
-0.061128873
-0.2788598
-0.036593735
-0.00044703227
0.11354519
-0.37389484
-0.1644132
-0.15812287
-0.3477069
0.21171817
-0.14740242
-0.2073956
0.08522061
-0.02809305
0.04951075
0.073063165
0.22901566
0.1726473
-0.28705904
0.050034806
-0.062095612
0.12864198
-0.06424895
-0.1122822
-0.3562978
-0.084980495
-0.1618228
-0.30349782
0.058224052
0.09749755
-0.23213205
0.0880064
0.21716402
0.32013318
-0.054105725
0.18895279
0.16200472
-0.2657236
-0.2588866
0.17536815
0.31335384
0.0797628
0.24348922
0.0212081
0.07433373
-0.28394848
-0.12151928
-0.27172333
0.24574737
0.26867178
0.06812202
-0.072442815
0.22051482
0.083697855
0.21239457
-0.024698628
0.32259375
-0.14570911
-0.01741085
0.07824168
-0.028280586
0.025555093
0.21550165
0.1096386
0.29355142
0.28056327
-0.09179929
0.1723575
-0.1259378
0.044747613
0.17928627
-0.1533789
-0.26627132
-0.25732982
-0.24238923
-0.030729845
-0.14010699
-0.080126
0.17117776
-0.15978102
-0.12094923
0.1661434
0.10475879
0.10026064
0.32589743
-0.29989368
-0.06878805
0.08757652
-0.2593144
-0.27857915
-0.23753215
0.07258973
-0.33153954
-0.16096869
0.17543253
-0.0314468
-0.16159838
-0.33563328
-0.19574551
0.2978755
0.07923495
-0.20066339
0.19544628
-0.07502244
0.21617712
0.032813754
-0.2541823
-0.017739052
0.10268955
-0.27022198
-0.020914542
0.17986877
0.35320884
-0.0590759
-0.21316908
-0.22137403
-0.071479246
-0.19718607
-0.043295987
-0.26019856
0.120522104
0.14508516
0.08355061
0.23372483
-0.30406412
-0.03817854
-0.31406897
0.18576229
-0.25776225
-0.22526874
0.37048718
-0.20770086
0.056978624
-0.1411096
0.23401268
0.013398182
0.2942056
0.11123513
0.20017324
-0.087447405
0.08023401
-0.20997353
-0.08945035
-0.17706136
-0.25757584
-0.31555033
-0.38137546
-0.2377767
0.13752282
-0.12642829
0.32277736
0.08603474
0.19129214
0.08469206
0.033933762
-0.3191816
-0.05335258
-0.1973555
-0.19922404
0.049610756
0.24179818
-0.009844107
-0.061100043
0.031470705
0.13299407
0.14826505
0.027466811
-0.3471447
-0.09748742
0.26779756
-0.12827459
0.16712292
-0.2563216
-0.17374885
-0.18687063
0.15993537
0.10656435
0.05292005
0.29678938
-0.019514974
0.24896045
0.078526765
-0.059664834
-0.29467037
-0.17226538
-0.12918329
0.1282771
0.026780395
0.005687191
-0.23354213
-0.22463994
-0.04361747
-0.07482114
-0.04535091
0.27956098
0.22534105
0.04893212
-0.08922152
0.092019685
-0.20346594
-0.2120445
-0.27237576
-0.2051786
0.023575634
0.30159238
-0.2996902
-0.2852681
-0.058512203
-0.14559333
0.04383325
-0.10639203
0.124200575
0.050622307
-0.044616
-0.20513634
-0.23437995
-0.020499768
0.29454938
0.025630884
0.18823208
0.3588151
-0.23819582
0.19866127
-0.034641117
0.3692004
-0.235693
-0.16060853
-0.33222508
0.06812215
-0.2876052
0.09106153
-0.24554342
0.21506289
0.042693514
-0.15021446
-0.002055232
0.044921212
0.10108799
-0.11177629
0.16638416
0.0916271
-0.20589066
0.1909913
0.041345716
0.16582936
-0.17819257
-0.26731122
0.3234182
0.04522801
-0.12231059
-0.33524835
0.010047288
0.13351026
0.26915345
-0.124009736
-0.20575555
-0.010769478
0.26187283
-0.115380116
-0.13883993
0.1363518
0.00077295385
-0.2316733
0.21262534
0.3214903
-0.28153142
-0.033270974
-0.42905584
0.26651883
-0.19601008
0.26506764
0.21042727
0.25492382
0.0114416145
0.28829116
0.050309714
-0.016577333
0.0912259
0.12761691
0.27489868
0.051397838
0.29827693
-0.17890202
0.054537963
-0.16388214
-0.010784075
-0.069991186
-0.22423525
0.4021344
-0.10434211
-0.27351356
0.06143486
-0.37933433
0.1765255
0.17996635
0.25478214
-0.07387519
-0.12379524
-0.04968955
-0.017073682
0.23208417
0.32259235
0.17684485
-0.21534869
-0.13481621
0.1269258
0.057992026
-0.22181956
0.22542816
0.04705366
-0.28767562
-0.09357033
-0.22308657
0.18364263
0.001412024
0.10363876
0.2728166
-0.09371724
-0.2781146
0.054704763
0.18221024
0.17313574
-0.12650259
-0.2976593
0.16113599
-0.18808739
0.15206204
0.16332828
-0.08204699
0.15138207
-0.38564584
0.09245558
-0.08648528
-0.33207223
-0.07942414
0.03612983
-0.24615932
0.067882895
0.278554
0.20906107
0.22370054
0.32921594
0.15651421
0.39032683
0.20943087
0.31408417
0.053087313
0.13417941
-0.15158354
-0.276577
-0.0059242398
-0.25720125
-0.2694041
0.26982048
-0.021215668
0.28707698
0.36526218
-0.10766503
-0.305723
-0.1319749
-0.023891537
-0.24783899
0.19955951
0.018986931
0.04970707
-0.2222879
-0.1452953
-0.28225905
-0.090187505
-0.21505325
0.3254072
0.09956678
-0.038011555
0.19595444
0.19318525
0.19893593
0.026316289
0.16591142
0.0076214354
-0.03806748
0.25274038
0.14301875
0.06214716
-0.10581069
-0.0699062
-0.34449723
0.10563938
0.028765969
0.1809021
-0.22982387
-0.16597055
0.17132919
-0.10945859
-0.02912679
0.13821377
-0.0931507
0.17294909
0.046957996
-0.3661833
0.20692159
-0.026087353
0.34168315
-0.2481729
-0.018177455
0.3391211
-0.36261395
0.10993162
0.26850513
-0.23567927
-0.33358628
0.1485609
-0.1493514
-0.21147023
0.33058643
-0.14159106
0.3127364
0.2932395
-0.13384865
-0.17641023
-0.08365384
-0.12601614
0.2073447
0.24367061
-0.13513204
-0.18783203
-0.045143474
0.1851718
-0.048712004
0.17264654
0.11120807
-0.123798355
-0.23561424
-0.37361842
-0.24962327
0.20753758
-0.10654368
-0.291807
0.22977482
0.2750474
0.20349164
-0.101308234
0.051627073
-0.014391474
-0.21646878
0.30247557
0.06410145
0.14562766
-0.29404342
0.097413
-0.21726637
0.19046617
0.024262862
-0.24860097
0.049390096
0.18003032
-0.31351423
0.091381624
-0.052407913
-0.25563523
0.16690323
0.11351536
0.21657418
0.124034345
-0.18173948
-0.21216494
0.30723134
0.16219333
0.1346825
-0.026946917
-0.23871653
0.003071404
0.11877649
9.0812246e-05
0.074058376
0.16167614
0.35866272
0.32230794
0.26657018
0.16824467
0.364686
-0.03347445
-0.22034544
0.0038672134
0.10935398
-0.038059745
0.09300392
-0.15890224
-0.15434338
0.2353253
0.13990201
-0.27198845
-0.077618755
0.07505474
-0.1921264
-0.115257144
-0.244356
0.105178684
-0.06619857
-0.37117806
0.3214323
0.350165
0.247162
0.1293921
0.080587946
0.3152315
0.1967625
0.27886057
0.18642223
-0.37534493
0.13122231
0.10827224
0.13171808
0.24998502
0.050278466
0.28338906
-0.02451086
-0.34505618
-0.11908056
-0.291292
-0.16245905
-0.3287191
-0.20196742
-0.1873489
-0.08119634
-0.34252116
0.20056717
0.042617228
-0.17612651
-0.11096334
0.27549252
-0.0924344
-0.17833824
-0.020457197
-0.10365789
-0.100860946
-0.31477037
0.25272703
0.2730372
-0.12594233
0.25537774
-0.27356404
0.2498025
0.0437589
0.1301426
-0.14527775
0.22999962
-0.15791251
0.18703452
-0.10257635
0.2912443
0.12824717
0.115378
-0.18817857
-0.21008204
0.02756834
0.08879115
-0.07682861
-0.0024037964
-0.28617007
0.18197617
0.28565612
-0.12738138
0.20849378
-0.16542822
-0.31376553
-0.018152023
-0.21123701
0.33623254
0.34570214
-0.045801677
0.288514
-0.054647766
0.30804807
-0.09466455
-0.08248854
-0.13833942
0.06067779
0.039534077
-0.10183398
0.07269736
0.18410607
0.09077971
0.08018641
0.05518942
-0.21911179
-0.035353936
0.12112299
-0.17462829
0.34763667
0.31827727
0.18583648
0.009540696
-0.043023437
0.2811681
0.34717453
0.16351944
0.18083422
-0.21686314
-0.19639175
-0.26200324
-0.23590441
0.2666769
0.33894488
-0.20979238
0.26049998
-0.114825845
-0.34208226
0.1767944
0.1236331
-0.21006161
0.23584123
-0.28679305
-0.19526371
0.103166
-0.030203754
0.1905192
0.00059853046
-0.23170424
-0.2547072
-0.23858836
0.18475682
-0.39867923
0.032910984
-0.30517662
0.30880594
-0.23496658
-0.1729298
0.04452084
-0.18203332
-0.014330054
-0.17264237
0.34027794
-0.020468274
-0.12192406
0.31606725
-0.08714184
-0.10781994
0.047419067
-0.120410845
0.21519671
0.013868906
-0.2685137
-0.20403814
-0.17995933
0.10047895
-0.19487321
0.34695572
0.22772576
-0.0903033
-0.31717417
-0.28524655
-0.28086245
0.24657175
-0.13168193
-0.053711087
0.20604078
-0.084225155
-0.014238718
0.2520248
0.20970279
-0.24516307
-0.019456126
0.3441339
-0.14104775
0.22755694
0.06081813
0.015068512
-0.24871732
0.35710603
0.24351047
-0.2659755
0.3031903
0.19262798
0.22630905
-0.27809113
-0.17766477
0.0870372
-0.15528019
0.25760755
-0.27711672
-0.16443783
-0.28959787
-0.14874539
-0.17482494
-0.280929
0.30761352
0.023983719
-0.12201452
-0.07823235
0.24505436
-0.24240325
0.077560976
0.27276662
-0.24734846
0.2906937
-0.2565807
-0.0648742
0.034555875
-0.106225386
0.3065647
-0.049191587
0.24783064
-0.15033157
-0.106783405
-0.23246731
0.050414596
-0.39012176
-0.00529475
-0.20188922
0.072449856
0.31289616
0.16460522
0.099957
-0.068571076
0.18455543
-0.023252036
-0.2482861
0.12238745
-0.24550161
-0.1790888
-0.35072893
0.14846419
-0.36857253
-0.29297262
0.07289678
-0.2665287
-0.26941288
-0.12564503
0.11830705
-0.07374531
0.11976804
0.2423638
-0.30875665
-0.065419756
0.0046558995
-0.16291508
-0.07599863
0.31152263
-0.21824758
-0.14574061
0.09632517
0.1252409
0.1637213
0.2963784
-0.30843967
-0.32999346
0.007816168
0.04691888
0.25045973
-0.007022238
-0.27666163
-0.32930842
-0.35811687
-0.34313646
0.2356235
-0.2340004
-0.21480295
-0.1534038
0.35519892
0.02614786
-0.17767826
0.12265862
-0.46678138
0.34197214
0.15871744
0.012670387
0.13300711
-0.105317704
0.10623545
-0.15618898
0.0193215
-0.09939053
-0.026408575
0.039428428
-0.016565807
-0.19271407
-0.037198316
0.064195044
0.279344
0.30812192
-0.27202556
0.17081486
-0.2007649
0.04383683
0.2515973
0.09312857
0.204761
-0.08547821
-0.31820783
-0.1496917
0.115253165
0.250839
0.22302061
-0.053893115
0.18261078
-0.19936445
0.22723016
-0.018459324
0.14802758
-0.05511532
0.042501017
-0.05088971
-0.024601098
0.021940239
-0.12683348
-0.025783157
-0.26413217
-0.09868735
0.16504681
-0.27865764
0.049714386
0.10001403
0.02327574
0.27003095
0.31031016
-0.2771144
-0.034482356
-0.2988914
-0.06368536
0.20420977
-0.12533632
-0.106076345
0.19404617
-0.28419867
0.21087444
0.3228222
0.16092244
0.019897778
0.06771079
-0.18244144
0.25736198
-0.089736395
-0.2548435
0.112953775
-0.1272547
-0.3061812
-0.08114757
-0.20866589
-0.23527566
-0.14525852
-0.17276852
0.12778036
-0.11750079
0.22224428
-0.1594911
0.14833853
0.025678173
-0.12759204
0.18507992
-0.10668125
-0.13178906
0.24895243
0.18463558
0.077521145
0.11612437
-0.27661452
0.056110576
-0.18438146
0.27832714
0.27393338
-0.24812232
0.1850939
0.20270458
-0.16128168
0.17774178
-0.040484466
0.121102825
-0.35981718
-0.119628444
-0.34959263
0.028809115
0.12025241
0.004660606
0.025870625
0.17486705
0.25078833
-0.19945386
0.017070228
0.024113411
0.22864816
0.102401815
0.02642544
-0.20363085
0.17133594
-0.002710602
0.0073154275
-0.16490348
0.11682564
0.31708166
-0.32765865
-0.10391863
-0.22304922
0.022912214
0.04936366
0.09659485
-0.14518934
-0.035422355
-0.110654294
0.17271383
-0.16125573
-0.29154992
-0.25077078
0.061831437
-0.039256405
-0.072341904
0.2194458
-0.2223801
0.110327534
-0.2231538
-0.15726715
-0.23790742
-0.2185203
-0.2263476
0.19664735
-0.046927106
0.2786282
-0.12320323
0.12296428
-0.2114244
-0.27194875
-0.24410304
-0.12437105
0.04258335
-0.18432865
0.06679585
0.26625663
-0.04167131
0.19855268
-0.08207897
0.06790595
-0.06329167
0.223393
0.36729443
-0.041443463
0.13193373
0.2718064
-0.025421243
0.16847432
-0.18347733
-0.2787448
0.036169462
0.24316189
-0.15679963
-0.18577582
0.05291333
0.0016282854
-0.21227488
-0.037628077
0.20044266
0.18851855
0.10766839
-0.21917385
0.23389472
0.15029106
0.17216383
-0.08607029
0.04570601
-0.12149878
-0.2972332
-0.1870903
0.14280626
-0.04787762
-0.2762066
0.036705583
-0.12678216
-0.25567585
-0.30909553
0.13477114
0.27331817
0.31158406
-0.055913642
-0.13342232
-0.105312504
-0.23111662
0.034555715
-0.09914528
-0.2499224
0.08251562
0.18022324
-0.25765592
0.029617198
0.036901522
-0.30468145
0.025191415
-0.28455704
-0.023835622
-0.08991383
0.1383926
-0.13485356
-0.13478489
0.31539136
0.15967618
0.35129562
0.27089497
-0.17885481
-0.2327647
0.09406208
-0.153639
-0.10013595
-0.26032108
0.0070717335
0.13871536
-0.22717917
-0.010143767
0.098963074
-0.1500587
0.06847429
-0.060761824
-0.1657785
-0.06500483
-0.17786513
0.12029355
-0.10689285
0.22009404
0.01925306
-0.12728718
-0.26142466
-0.26134577
-0.21016246
0.24300668
0.30342528
0.093717046
-0.3342826
-0.056475706
-0.22106656
-0.12756085
0.13474903
-0.08602555
0.25918236
-0.25984535
-0.25964698
0.05716082
-0.25241676
-0.12784442
0.13713321
0.22767109
-0.15130469
0.20899025
0.16460422
-0.073650725
-0.040836334
-0.021275155
0.10401065
0.030122012
-0.26293814
0.26670358
-0.044992972
0.25845525
-0.16629109
0.17704554
0.15363199
0.29448348
-0.3034138
0.24878877
-0.23860104
0.14840196
-0.07226133
0.26420933
-0.06563699
0.15562823
-0.22520632
-0.23782346
0.26643565
-0.06953769
0.2894707
-0.19855355
-0.16937219
0.03931068
0.05631804
0.08080608
0.27911723
-0.10432216
0.123419665
0.15567839
0.26131105
-0.25882947
0.17826393
-0.10139892
0.06925598
0.2632666
0.060099795
-0.21643272
-0.30773854
0.23522182
-0.36151844
0.13985766
-0.095378466
-0.20094465
-0.23257923
0.0109173795
-0.26656055
-0.05111179
-0.04804765
-0.15513939
0.23024967
0.30365437
-0.20809567
0.16352391
0.35502613
-0.2338961
-0.24389343
0.21298122
-0.21421744
0.33646566
-0.28248933
0.039197437
-0.13057092
-0.10572403
-0.12456928
0.11299033
0.25392228
0.20933422
-0.3098898
0.021712938
0.027698947
0.21116064
-0.13476466
0.21435963
-0.27397236
0.07380188
-0.08120522
0.11907903
-0.09254588
-0.076349996
-0.062603466
-0.114407614
0.11554306
-0.1797924
-0.12515248
0.15243278
0.010369961
0.05344299
-0.21986346
-0.011605028
0.17888626
0.34003988
-0.201357
0.027540613
0.0110769225
0.1227769
-0.011034391
0.109845266
0.06398478
-0.18374321
0.32512116
0.30351436
-0.0109605575
0.0712786
0.3090986
0.21632312
-0.39841726
-0.35171637
-0.26296154
-0.308943
0.08155216
-0.22663645
0.25041825
0.366185
-0.27498615
-0.1092086
-0.2609751
-0.23927972
0.31232882
0.23949361
-0.23808178
-0.3510542
-0.118618965
-0.04190436
-0.029911026
0.101055175
0.06544037
-0.2594905
0.0662545
-0.10680393
-0.122349456
-0.34327334
0.36348844
0.006817064
-0.08295588
-0.35642195
0.06900169
-0.21538137
0.42530075
-0.28166258
0.03498929
-0.29273975
0.25818413
-0.039018963
-0.14848101
0.10500031
0.018528538
0.35928446
0.15699911
-0.10563983
-0.35089383
-0.049037665
0.34752172
-0.27071035
0.0617684
0.20539485
-0.19938159
-0.10011291
-0.10637728
0.2666234
0.25188506
0.113776006
0.02386977
0.1264977
-0.282875
-0.011801489
-0.28044578
-0.028891208
0.01146868
-0.2976673
0.27123028
-0.10251392
0.2749058
-0.2061941
0.15598026
0.092057206
-0.18434274
-0.006436642
-0.1717069
0.25903
-0.2583971
0.2353185
0.11722037
0.053728808
0.043888126
0.17555068
-0.39747053
-0.25752738
-0.03314506
0.022088766
0.20431493
-0.20134698
0.22865282
0.19192281
-0.22785404
0.3092686
-0.034330174
-0.22030215
-0.08134221
0.27703518
-0.09870521
0.025522001
0.08108045
0.26981714
-0.2168786
-0.31450862
0.14868866
0.1481879
0.01646621
-0.121663496
-0.1570356
-0.3197314
-0.23510386
0.30218008
-0.25158978
-0.21608053
-0.14868233
0.1303918
0.060775913
-0.08461826
0.16572571
0.031824443
0.15423983
0.2542077
0.25843024
-0.27495363
0.0013146434
-0.15079089
0.007180222
-0.06274866
0.10290234
-0.10284015
0.1828526
-0.16947247
0.05703187
0.3263858
-0.28698736
-0.3943648
0.11159309
0.26744792
0.015510467
-0.0017875023
-0.14678298
0.13249682
-0.19608401
-0.06645755
-0.16205285
-0.18855491
-0.0023389223
-0.15248778
-0.23599674
0.06964491
-0.075082056
0.34388322
0.0143845845
-0.04611332
-0.19083989
0.2441411
0.087027356
0.09529442
0.12320948
-0.0021400242
0.2499986
0.11705055
0.010998007
-0.2298786
0.25734738
0.18196684
0.31793845
-0.11267121
-0.023679744
0.105242305
0.26616806
0.14534451
-0.2362684
-0.050574455
-0.011047784
0.0037017984
0.08769641
0.2650265
-0.15621494
0.10656375
-0.2552538
-0.120406084
0.059361666
0.17449655
-0.18187954
0.072626926
0.07329225
-0.22576205
-0.0076107034
-0.18940969
-0.010192062
0.21390015
-0.020044634
0.024294795
-0.09933751
-0.017803393
-0.13745627
-0.081215404
0.01862662
-0.048333943
0.14642581
0.08627127
-0.08436159
-0.090352826
0.19390152
0.07308274
0.0006962264
-0.37133774
-0.021898825
-0.027865252
0.0037686927
0.18091363
-0.28772706
0.0550459
0.22199006
-0.319827
-0.08498613
0.21949182
0.2744715
0.015504083
-0.29929733
0.25648326
0.14672004
-0.10636292
0.18228096
0.27736923
-0.25467044
-0.25031903
-0.21568461
0.34263974
0.1884857
0.10308655
0.044731077
0.19793245
-0.12615465
-0.14594163
0.0013027008
-0.23683062
0.31200865
-0.17131631
-0.08878462
-0.08948319
0.021644818
-0.04432216
-0.12910326
0.055992812
0.004473027
-0.18039823
0.26315755
-0.0435323
0.02868729
0.14415732
0.1585936
0.02473172
-0.0313898
0.24982464
-0.12366344
-0.016872747
-0.24334069
-0.032838
-0.28904596
-0.26618776
0.10817298
0.024508052
0.057436414
-0.011853297
0.25266787
0.18587175
0.13920458
-0.31084332
-0.27406946
0.16100164
-0.039902523
0.13949735
-0.16327552
-0.21737714
-0.18096264
-0.18009786
0.17625646
0.15517086
0.12715411
-0.06494986
-0.15106939
-0.09300845
-0.23025459
-0.08688822
0.041864857
0.25041425
-0.26640895
-0.11273715
-0.081093885
0.08585895
-0.052790135
0.15331158
0.050788976
-0.07011586
0.08097284
0.29314333
0.1110667
0.06636891
-0.3041648
0.33972332
0.17180228
-0.045697127
0.13613331
0.30440304
-0.11089396
0.12732628
-0.19698684
-0.22298107
-0.2222641
0.21306157
0.40917528
0.35726637
0.08464633
0.38918626
0.27669567
-0.3473959
-0.30511922
-0.22030142
-0.24016528
0.0044853315
-0.1556305
-0.13057302
-0.06962183
0.020615287
-0.057556767
-0.26488182
-0.020432081
-0.015484812
-0.12559831
0.1657239
0.24633844
0.052329183
0.19894256
0.29333198
-0.005543602
0.0046596276
-0.06760589
0.039876126
0.25135478
0.14271829
0.12126729
-0.108893886
-0.31098214
-0.26434836
0.013284302
-0.29774198
0.09489836
0.3632643
0.210893
0.07303501
0.0075184377
-0.17063966
0.071245
-0.30222154
0.076677896
-0.34580573
0.005010661
0.22045155
0.33120248
0.15089655
-0.14194627
-0.011029243
0.050602753
-0.3605776
-0.19296166
-0.10714962
-0.28008762
-0.014695221
0.25743195
-0.25779623
-0.0018356902
-0.333221
0.26634184
-0.01984279
0.33036935
-0.055173267
0.05156235
-0.03352949
-0.06981915
-0.04904305
0.28285038
-0.21838874
-0.023977367
0.07692164
-0.07149491
-0.25273278
-0.3122076
0.1106068
-0.09382099
-0.28700745
0.061537728
-0.044484437
0.19049838
-0.043941513
-0.039408565
0.22895147
-0.23782292
0.07323216
-0.070834726
-0.14315347
-0.27834117
-0.26804045
0.13160269
-0.3516104
-0.29025945
-0.15518478
-0.15500197
0.314505
0.055392943
-0.33045784
-0.10723865
0.1598884
-0.20014983
-0.080240756
0.0075503024
-0.2567973
-0.15208758
0.001454764
0.04888823
-0.15708643
-0.16292219
-0.26030222
-0.10212586
-0.14679891
0.22399776
0.11770275
-0.07452391
-0.18306684
-0.06891382
-0.16353191
-0.126025
0.050232463
0.3287385
-0.26765573
0.18462582
0.03860104
0.32988647
0.12209947
0.0737284
-0.119426444
0.23791768
-0.09764664
0.21185161
0.24447964
-0.08785402
-0.043995436
-0.007838306
-0.24109441
-0.015865356
0.0360015
-0.22164144
0.170845
-0.13229898
-0.14077598
-0.00097258686
0.18858755
-0.0981748
-0.16613108
0.3001068
0.18613589
0.1320441
-0.08642613
0.07878722
0.30732587
0.26911443
-0.111762255
0.014179994
0.25800973
-0.39248928
0.28065467
-0.31474394
-0.27567875
0.20928198
0.12572232
-0.1867078
-0.30549103
-0.11010077
0.25065055
-0.105449915
-0.31894815
0.018611904
-0.24867441
0.07248208
0.17264673
-0.2589277
-0.022308547
-0.037164927
-0.22654697
-0.02843948
-0.21418455
-0.24084064
-0.30557653
-0.23112811
-0.20884052
0.31448337
-0.04906681
-0.20627472
-0.094539285
0.12362277
0.14693727
-0.2874612
-0.054000072
-0.050627537
0.24410264
-0.100875616
-0.21968812
0.07111755
-0.24130383
0.16051953
0.15940565
-0.043686017
-0.25019595
0.09496358
0.16398934
0.05986232
0.08276384
-0.1225494
0.23095243
-0.27186394
-0.31407145
0.07455084
-0.02924432
0.2784508
0.24261782
-0.10385298
0.1204778
-0.3091089
-0.13929042
-0.26140568
-0.22870779
0.38017678
0.33185259
-0.22868451
0.08777971
0.022122335
-0.19135657
-0.096437566
0.28564313
-0.06913134
0.19412689
0.082921565
0.13213405
0.01701887
-0.19125827
0.17188215
0.11279925
-0.014451817
-0.1920875
-0.1977807
0.10979134
-0.13897045
0.062084343
-0.2669873
0.039073512
0.24134806
-0.009366375
-0.17602795
-0.12862524
0.33108115
-0.10003904
0.13383724
0.032618225
-0.093216166
0.16150345
0.329521
-0.09678279
-0.33424205
-0.01756459
0.18958187
0.32626367
-0.0819019
0.19093047
-0.31538078
-0.26685432
-0.24919157
-0.18381488
0.16042349
-0.30573836
0.290556
0.006728576
-0.07327574
-0.0887179
-0.2625092
0.34407118
0.15918909
-0.2314778
0.35005543
0.0049522957
0.21369426
0.23260792
0.32469925
0.27970672
0.1217644
0.28859177
0.16518803
0.19255441
0.06723313
0.15334108
0.1498756
0.09761208
-0.1548052
-0.10168184
0.01265422
-0.16799131
0.34236315
0.31628284
0.33847824
-0.3368531
-0.35880753
-0.20306578
0.112717286
0.036711935
0.26698977
-0.15792352
-0.13286404
-0.0543868
-0.25107455
0.06686934
0.27416864
0.07928461
-0.2015782
-0.26379147
0.25331268
0.3755523
0.08488268
-0.22010711
-0.18968678
-0.13222045
-0.18422596
-0.24683605
-0.23029636
-0.27232513
-0.15230691
-0.10669069
0.087866984
-0.047890667
0.18909627
-0.35634753
-0.16286421
-0.23697971
-0.26544023
0.20480184
0.16094805
-0.124016866
-0.3120704
-0.25336406
0.25110444
0.27825877
0.15418981
-0.21488392
0.0336045
-0.32181454
-0.28720096
0.3400808
-0.33069357
0.04498313
-0.17020701
0.104649924
0.18491745
-0.15434754
0.21204086
0.19558124
-0.017567813
0.3056161
0.076145865
0.3634609
0.2539208
-0.14672855
0.09382718
0.33462232
-0.25027514
-0.31771165
0.16661887
0.079303145
0.17078647
-0.24870385
-0.220314
0.23651771
0.14943722
0.24265619
0.21463291
-0.15098964
0.28058562
-0.19622186
0.024539417
0.12406325
0.05146627
0.18813717
0.15393196
0.027949357
0.21263477
0.06887551
0.27261454
-0.26346737
0.3296407
0.1948556
-0.08383887
-0.07500635
0.09731507
0.2618407
0.2592156
0.2959089
-0.12385079
-0.0642409
-0.10943161
0.25319782
0.33184615
0.014457783
0.15674984
0.08293928
-0.100994304
0.25335217
0.06537019
0.19195427
0.030853508
0.03880952
0.20994447
-0.26342478
0.1020258
0.03106434
0.27848452
-0.020533213
-0.3078139
-0.107720114
0.07725591
-0.10312779
-0.12693354
0.080803536
-0.16028875
0.2053712
0.22470933
-0.058161102
0.023305347
0.12649779
-0.0035363697
-0.31450355
-0.18699756
0.09291569
0.15464258
0.09122431
0.2077236
0.22475886
0.07138532
0.14186956
-0.2583744
0.13672315
-0.45463836
0.07479815
0.00027802523
0.0090670325
-0.1836296
-0.01228189
0.027485644
0.34277835
-0.062296387
-0.23767012
-0.22011498
0.12785165
-0.2512556
0.3003369
-0.18824738
-0.25107238
0.18175565
0.27173004
0.23107934
0.04463776
-0.26463935
-0.32978806
0.08139673
0.026376937
0.34112972
-0.3467635
-0.15920241
-0.012553744
-0.15750918
-0.09082882
0.035023816
-0.06546377
-0.03350645
0.16572465
-0.2012757
0.010291593
-0.11466447
0.27105513
-0.2936861
0.25969565
-0.03882331
0.2508072
0.30346993
-0.30346218
0.105824694
-0.10914607
-0.1941393
0.052508455
0.27559635
0.20021573
-0.0004249672
-0.28187743
0.20296232
0.21984382
0.2824633
0.02334393
0.13208212
0.28265774
0.0599214
0.16801818
-0.023472555
0.37823543
-0.20437752
-0.1373863
-0.26324412
0.18284242
-0.1666836
0.09653364
0.033272732
-0.310145
0.095356725
-0.2724336
0.011660553
-0.11382379
0.1164954
-0.3233894
-0.26059636
-0.31428915
0.12227132
-0.22663672
-0.0064171203
-0.106679425
0.074370444
0.11881441
0.08689892
-0.16579114
-0.34515637
-0.26039132
0.1281469
-0.11463016
0.28959006
-0.10487087
-0.14310254
-0.03972743
-0.10171825
-0.013091604
0.017970879
0.17636402
-0.013409926
0.067474976
0.327169
0.22314851
-0.3825645
-0.25834665
0.021251248
-0.010158495
0.1497274
-0.14032754
-0.19525023
0.2115606
-0.23616466
0.35640365
-0.05642849
-0.204284
-0.013476935
0.23384227
-0.2226592
-0.2464452
-0.29522455
0.19799876
-0.045199275
0.35209063
-0.11574872
-0.36099967
0.17696641
0.062833615
0.1399734
0.1255332
-0.36563897
-0.13511491
-0.036584016
0.09811851
-0.11444399
0.07063756
-0.35919768
-0.093060374
-0.14532009
-0.3311849
0.28195056
0.28209168
-0.2781944
-0.27744767
-0.16894577
-0.0060929297
-0.2834783
-0.01738421
-0.10456758
-0.19617577
0.022141738
0.13614652
-0.06679012
-0.3298102
-0.013881744
-0.2587186
0.072247095
0.25682154
-0.21163647
0.17319697
-0.20637798
0.04916142
-0.14083919
0.18017785
-0.034649532
-0.034849904
-0.050810363
0.28913385
-0.22848673
0.2108733
-0.15116863
-0.070894025
0.06853724
-0.1477698
0.25982583
0.14409938
0.13349563
0.025824226
-0.16484103
0.100994945
0.0028123874
-0.023315309
0.14575611
-0.13999094
0.27035567
0.057693537
-0.33153558
-0.07910221
-0.30404025
0.3067586
0.3247646
0.023477841
0.012475281
-0.053885818
0.10964356
0.041231725
0.09517112
0.06013569
0.013955674
0.09594744
0.31313854
-0.22031368
0.15260349
0.22606678
-0.029424442
0.2067396
-0.0655515
-0.18704508
-0.2849737
-0.032214876
0.20074676
0.07692696
0.27828354
0.0023042858
-0.07546857
-0.132427
0.24657421
-0.19730951
0.23007968
0.13233839
0.26083934
0.16957995
0.1512151
-0.09372413
-0.18401542
0.27368343
-0.26035112
0.25694227
-0.24152051
0.0992839
0.2959408
-0.0647728
-0.035254873
-0.28479278
0.14221308
-0.17605121
-0.23967108
0.26806843
0.3594369
-0.14994225
-0.36078694
-0.04375106
0.21677269
0.1564969
-0.15528929
-0.15328784
-0.31267822
0.08957032
0.054027837
-0.19012126
-0.11491925
-0.33131832
0.034839775
-0.3187933
0.19435665
0.2310778
0.27331632
-0.14562818
-0.28806797
-0.23613939
0.17384528
0.010617236
0.13381696
-0.29385003
-0.036821768
-0.25279152
3.6815618e-05
0.039220955
0.0643838
-0.17545162
0.10398529
-0.21833646
0.08044038
-0.08533425
0.2358119
-0.008844275
-0.19513208
-0.027342452
-0.2319667
-0.30780256
-0.046725176
-0.25646397
-0.006577285
0.11660193
-0.016396012
-0.19754685
-0.07365959
0.20492049
-0.31639123
-0.22338775
0.11352835
-0.20112208
-0.16277958
0.019414645
-0.2551066
0.037309505
-0.17969467
0.0909561
0.33766085
-0.08489011
-0.10248482
-0.014906294
-0.011570719
0.06355301
-0.07652904
-0.19879365
-0.22337075
0.027493425
0.2980084
-0.20947458
-0.06571353
0.1943463
0.037717197
-0.16421583
-0.046758723
-0.13522822
0.1830945
0.048932012
-0.27943224
-0.2580456
0.040861055
-0.0051680687
-0.17529605
0.1892783
0.12669879
0.071767725
-0.3575739
0.24512391
-0.32673806
0.11964871
-0.05570599
-0.2557647
-0.12070365
0.10819712
0.023979302
-0.19621533
-0.20402114
0.34183565
-0.19717064
-0.089124665
-0.008481256
0.24331257
-0.09792937
0.087828495
-0.0063600605
-0.18598223
-0.107871585
-0.071235925
-0.07039058
-0.2714522
0.15564215
0.27000302
0.03761596
-0.19285832
0.11234993
-0.107175
-0.0655702
0.10935361
-0.045466717
0.16723914
0.058764428
-0.12734039
-0.03288862
-0.28838956
-0.23397504
0.13709144
0.18011022
-0.024167217
0.018115722
0.15264948
-0.23456103
0.27519393
0.24067931
0.2112825
0.16611992
0.08584242
0.3248575
0.2560141
-0.11374736
-0.05356222
-0.16605537
0.21343277
-0.27187935
-0.098293535
0.20354554
0.19887345
0.06809105
-0.010597622
-0.3501469
-0.1631689
0.31825668
0.1671676
0.27717662
-0.30102006
0.08708087
-0.1526186
0.3618081
0.06120906
0.17526889
-0.26148322
-0.32796127
-0.25949773
-0.14845443
-0.19626921
0.37638637
0.33977264
-0.061422393
0.01868975
-0.2191212
-0.29556975
0.2982117
-0.038309492
-0.014495162
-0.10809351
-0.12520209
-0.038112924
-0.05565363
-0.14934109
-0.25849634
0.09096848
0.1980057
-0.30112928
-0.21861914
-0.15936345
-0.17751113
-0.0081385225
-0.2774544
0.05261142
0.07888277
0.11054825
0.042163394
0.06708796
0.24047203
-0.060834482
0.23652525
-0.23917508
-0.36255878
-0.10569531
0.029707164
-0.033452522
0.07051583
-0.117649734
-0.20313457
-0.23140417
0.16453052
-0.16099413
-0.24123916
0.109065145
0.11958929
-0.0021186245
-0.026331047
0.18161991
-0.079773255
-0.30947366
-0.15368935
0.30709338
0.07736462
0.17319329
0.13547426
-0.08845797
-0.021043448
-0.29755986
0.22280784
0.06443769
0.15808277
-0.06902836
0.17786051
0.319046
-0.32823694
-0.2167259
0.092438065
-0.15815085
-0.19321139
0.21268357
0.14089215
-0.024510207
-0.37148425
-0.19519451
0.11181966
-0.17474562
-0.054246515
0.23361483
0.29723138
0.20389004
-0.17051066
-0.3294914
0.1756768
-0.17961442
-0.08669183
0.16648778
-0.23667525
-0.23065504
-0.0027385775
-0.14799346
0.035957947
-0.037522946
0.18517554
-0.04329863
0.06927837
-0.04367409
0.12751983
0.083603226
-0.100354195
-0.2466305
0.15726668
0.16719101
-0.17318034
-0.231658
0.085424975
0.18567109
0.21952291
0.122367956
-0.1079594
0.19975777
0.021385975
0.14286831
-0.21963648
0.2535358
-0.28891295
-0.29707032
0.3088983
-0.08830469
0.20866568
0.05197298
-0.1079119
-0.15826331
-0.050527748
0.12136072
-0.12361868
0.12336927
0.23164946
-0.25206336
0.20230104
-0.14496824
-0.37405673
0.04526001
0.28300694
-0.08114968
0.2827078
-0.10101903
0.17981882
0.05371755
0.1814937
0.20687635
0.03224866
0.21029367
-0.008299463
0.16131805
0.148646
0.16923764
-0.33372056
-0.09051613
0.067627154
-0.17817302
-0.17021762
0.09081025
-0.031640563
-0.08863785
0.10309442
-0.17498523
-0.21405783
-0.09145408
0.004595449
-0.14289507
-0.14368828
0.25186408
-0.060641285
0.19351001
0.24279527
-0.00414387
-0.013367455
0.09422781
-0.26343048
0.24133977
-0.14676347
0.1897292
0.20133126
0.21392396
0.080160774
0.13091698
-0.025307542
-0.012704318
0.06522275
-0.24249327
0.19044177
0.15836912
-0.0070756995
-0.17810589
-0.14378732
-0.03288656
0.29248688
0.054406334
0.23379752
-0.047224913
-0.3057979
0.14178886
-0.20069356
-0.21724224
-0.14398299
-0.30762425
-0.3198834
0.13449135
0.07062338
0.1723572
0.21256498
-0.32234144
0.21509328
-0.102059774
-0.36055958
0.25291464
-0.22174376
-0.36631393
0.06522519
0.29479834
-0.04301181
0.2366084
0.02926801
-0.055175565
-0.25494176
0.20550251
0.17636125
0.34313685
-0.09388957
-0.06130542
-0.13844624
0.21866152
-0.34618407
-0.2536223
0.29507434
0.24273124
-0.020429647
0.02829618
0.13852538
0.07890026
-0.18796642
0.24189895
-0.025298413
0.0047630854
-0.31449056
0.26755568
0.1667015
-0.06498386
-0.016155226
0.2372655
0.20031585
-0.24007997
-0.07549263
-0.17323637
-0.34310177
-0.15680346
-0.23657477
0.18833895
-0.11607869
-0.19400752
-0.14192638
-0.2332554
0.20549586
0.26473057
0.11735927
-0.05662295
0.3200318
-0.31656063
-0.09410657
-0.15005678
0.20807809
0.13869362
-0.2888185
-0.12513755
0.11846573
-0.20921388
-0.14609513
0.289342
-0.28099915
0.07521696
0.37439576
0.25857374
0.2146459
0.15260315
-0.13541228
-0.03423521
-0.21548867
0.118684806
-0.21154323
-0.33985493
-0.087409556
0.26355335
0.145966
0.08231084
-0.025975512
0.007932879
-0.29353672
-0.10792691
0.33288136
0.29768863
-0.1309676
0.20030393
-0.15727891
0.286619
0.08733363
-0.058566824
0.11692973
0.13931318
-0.08770657
0.10727982
-0.16474883
-0.32165176
-0.2238895
0.030121243
-0.20033494
-0.22582683
0.035614762
-0.08496027
-0.1661934
-0.057139423
0.23850624
-0.22829343
-0.33640897
0.20998833
0.14749347
-0.05858568
-0.24832381
0.2512576
0.042092133
-0.17463112
-0.15031473
-0.19702971
-0.15546525
-0.12513869
0.083456144
-0.115497194
0.40209556
0.255617
-0.13607141
-0.27381647
0.11386302
0.01688821
0.09190244
-0.12948695
0.23844247
-0.08537791
0.1274949
0.23609188
-0.21056794
0.22633354
0.15674205
-0.042616386
-0.1939226
-0.022130255
0.07862518
0.03430864
-0.043854576
0.12765464
0.2947456
-0.20976056
-0.30776727
0.21813403
-0.10177952
0.24620514
-0.29585883
0.107866935
-0.14158607
0.17762524
0.081123486
0.024654433
0.27235702
-0.21612197
-0.17864472
0.20790443
0.15158115
0.21214074
0.19896159
-0.00671281
0.14476651
-0.0030705822
0.26842386
-0.1764395
-0.12310033
-0.06706826
0.06407104
-0.16856977
-0.12526773
0.032127492
-0.32166636
0.008582593
0.2561999
-0.025358325
0.27604052
-0.26406062
-0.14844419
0.01745403
0.110607125
0.11223094
0.043839876
0.2740121
-0.23323986
-0.122832835
-0.28913507
-0.24029393
0.14816386
0.27461207
0.2600308
-0.10786729
0.24791886
-0.1480497
0.18936072
-0.26258004
-0.029379051
0.020666288
0.24194391
-0.0014238231
-0.23788907
0.18492372
-0.07897551
0.13824688
-0.0837526
-0.071453884
0.17680448
-0.17152965
0.20933342
-0.21280469
-0.28305387
0.21936494
0.11313388
-0.2522797
0.058208935
0.06260253
-0.22034982
0.33738694
-0.08914574
0.2494989
-0.2927574
-0.24976127
0.33781555
0.078860186
0.19498304
-0.17731823
-0.28855136
-0.04393274
-0.21373191
-0.15327817
0.15050575
0.12719782
0.038140703
0.1822293
-0.24699402
-0.18498957
-0.15075023
0.12889196
0.10828625
0.15359578
0.13896647
0.107629426
0.11055276
-0.31559622
-0.06794593
-0.3147231
-0.088908866
-0.28209874
0.15919687
-0.08007058
0.2782214
0.17739435
0.21507245
0.01974971
0.20645478
0.035447106
-0.23747353
0.0245871
0.1548297
-0.09526358
0.0484956
-0.18267272
0.064536095
-0.121370904
0.34618473
-0.13971648
-0.034630466
-0.18852735
0.22572762
0.018334309
-0.023676602
0.015566076
0.11299702
0.2916738
-0.2657703
-0.21677321
-0.073880516
-0.10214107
-0.26714256
-0.29555157
-0.24257983
0.281847
0.27192584
0.1877092
-0.09597839
0.18213934
0.00032750668
-0.15517499
-0.14578053
0.15703472
0.18593416
-0.08558056
0.10180387
-0.10200173
0.13131067
0.16129681
-0.18879968
-0.17501764
-0.11769978
-0.23079708
0.23514764
0.11853517
0.23250976
-0.24612634
0.054033034
-0.27115205
0.20513947
-0.066819906
-0.18891598
0.06721311
0.040683806
0.26230523
-0.23066477
-0.288662
0.27822638
-0.26598397
-0.2796718
8.186349e-05
-0.1041473
0.10044108
-0.17977472
0.16531093
0.20070828
0.13130002
0.35233587
-0.21759179
-0.3365381
-0.10960244
0.08954139
0.1082237
-0.018345984
-0.31658
0.27356946
-0.15344603
-0.02440594
0.17919663
0.16007116
-0.20311381
0.36721277
0.038748965
0.058076493
0.27351984
0.08142838
-0.07744877
-0.30421928
-0.19449875
-0.20938607
-0.18317881
0.26058102
-0.25656852
-0.10009785
0.3050888
0.11341448
-0.23220408
-0.11747105
-0.2572547
0.15615346
-0.10731548
0.04827263
0.2369586
0.16855285
-0.26977217
0.06217727
-0.13855661
0.20541039
-0.29505855
0.09663259
-0.293676
0.0020645964
0.13728
0.053567022
-0.25188884
-0.14722356
-0.3199992
-0.13231203
0.31345108
-0.23701783
-0.11810276
-0.045607053
-0.11322965
0.2911113
-0.09496183
0.049920317
0.27659258
-0.17992838
0.17974788
0.04621181
-0.19139881
-0.20276111
-0.2020145
0.20605671
-0.2223705
0.17761908
0.23139083
-0.16457017
-0.11216491
-0.0038933894
-0.13219956
0.1183764
0.24555504
0.12424163
0.27249148
0.1920728
0.15226418
0.037102215
0.07477328
0.13188013
0.063261025
-0.31488454
-0.093286075
0.16169769
-0.12147953
0.2623698
-0.19564389
0.2538561
0.25553235
0.037611175
-0.062010687
0.01831281
-0.004841018
-0.12439676
0.28383145
0.23323022
-0.31331676
0.30576208
0.12731746
0.13517857
0.08349118
0.0022351227
0.093662985
0.15930028
-0.23222058
0.18106054
-0.093917064
0.22220592
0.03541045
0.212048
0.0870142
-0.18206625
-0.07975901
-0.28136212
-0.06152864
-0.10697355
-0.19528022
0.33231616
0.102803506
-0.18305422
-0.05771582
-0.04797682
0.09164926
0.11445416
0.05189192
-0.10222091
0.24870948
-0.17540038
0.26160344
-0.014138339
-0.0038515374
0.28326616
-0.015003541
0.25651443
0.09752406
-0.33419767
-0.1838654
-0.025437001
-0.018114889
-0.1889841
-0.3093132
0.17813268
-0.055591542
0.32917815
-0.14700943
-0.11448071
0.32220098
-0.21132983
-0.16457374
0.16315587
0.27117452
0.29644212
0.07885034
-0.10744362
0.20021963
-0.26332268
0.24516018
0.29975495
-0.25182474
0.20734969
-0.24745551
0.16024141
0.23033075
-0.099831216
-0.17267969
0.19993462
0.1565065
0.06113333
-0.006299437
-0.26110822
-0.07707274
-0.06763704
0.26779172
0.107206106
0.3108536
-0.1670898
-0.053419136
0.08512993
-0.21281177
-0.21878329
-0.2639678
-0.10087988
-0.08254172
0.28486216
-0.23461859
-0.15228233
0.03809945
0.10493842
0.38204378
-0.2852816
-0.036792267
-0.23129897
-0.021896033
-0.28158456
0.0184674
0.33290097
-0.0392652
-0.06376194
-0.0062560462
-0.2908194
0.3148645
-0.05643412
0.12383059
0.23351158
0.11325527
-0.2822814
-0.078677885
-0.029429493
0.042719543
0.024849676
-0.1300884
0.2637297
-0.25128084
-0.19721943
0.28246456
0.036086682
0.20430431
0.2302889
0.05506084
0.0034005765
-0.05449116
-0.1718432
-0.020198638
-0.16369694
0.08010145
0.19307363
-0.266194
0.12191459
-0.069638304
-0.11016486
0.28162187
0.26533204
-0.21445948
-0.36670056
0.11162327
0.04948231
-0.12866613
0.021438852
-0.041918058
-0.26774514
-0.105952084
-0.31871733
0.2591765
-0.12921204
-0.38806814
-0.08327784
0.042725846
0.18641241
0.21324618
0.18011232
0.0069978945
0.025811933
0.19524151
-0.27076456
-0.03753518
-0.13096598
0.16072585
0.05344461
0.30095688
0.36026677
0.35420573
0.25505337
0.19626577
-0.2512976
-0.25670153
-0.25880966
-0.24303155
0.2126964
0.09847751
-0.086608045
-0.023525586
0.08453522
0.30925223
0.0795848
0.27637565
-0.28695333
0.052562717
0.15231201
0.29648948
-0.11376577
0.048188686
0.12951371
-0.23518437
-0.0018308164
-0.09754604
0.012342156
-0.025524281
0.16862893
0.11204965
0.030730525
-0.09533236
-0.028201504
-0.22622098
-0.32864118
-0.2590581
0.3179947
0.28074864
0.29217926
0.2892105
0.18142684
-0.14535548
-0.1291722
-0.11884881
-0.20180605
0.03325559
-4.045893e-05
0.30107453
-0.036329925
-0.24693236
-0.057924718
-0.31035253
0.073599435
-0.34006652
-0.26324514
-0.18511938
0.09595302
0.19669561
0.11730905
-0.24058747
-0.08699969
0.29351154
-0.1936016
0.058611337
-0.0834188
0.0980551
0.22596768
-0.12586163
-0.16292025
-0.04109137
0.25776705
-0.05664436
-0.07821986
-0.10500035
-0.048128486
0.028723884
0.078597225
0.16278331
-0.14740238
0.10133885
0.103429414
-0.295476
0.17088558
-0.30541956
0.20091166
0.05465311
0.046110403
-0.34163046
0.18122078
-0.11309241
-0.010681494
0.07029153
-0.021168848
-0.15263695
-0.104853675
-0.042477164
0.18051665
0.2862708
0.29385683
0.32674494
-0.16911227
0.37978268
0.12530345
0.06237051
0.21842073
0.15372075
0.05831565
0.064537756
0.22863707
-0.0794165
-0.27076253
-0.0040430594
-0.24125695
0.3312981
0.2354146
0.22106603
-0.013653057
-0.038052134
-0.2556105
-0.2000607
0.0033302307
-0.06298372
0.034641895
-0.28663525
-0.21364878
0.2961843
-0.19083093
-0.26383734
0.08274177
0.16557615
0.19975016
-0.15754138
-0.04016059
0.24149221
-0.23419291
0.08271232
0.0124981245
0.12564811
-0.30735362
-0.25618222
-0.26884934
-0.020475823
-0.103385925
0.22408806
-0.2442573
0.28841078
-0.22332819
-0.25434455
0.2769534
0.15164535
0.10704509
0.11536533
0.12964177
-0.14632142
0.085778415
-0.33857775
-0.033414304
0.17520429
-0.014611586
-0.34240478
-0.19054677
-0.23655486
-0.22199719
0.15440379
-0.002985448
-0.13240829
-0.11763767
0.26632896
-0.1056074
-0.11813103
-0.3312258
-0.17352445
0.2387254
-0.15501122
0.17019223
0.12461336
0.24459638
0.014103691
0.0034491417
0.29329878
-0.057622224
0.237574
-0.26048845
0.059707828
0.013202742
0.30495247
0.15265313
0.060409445
-0.29779574
-0.017521387
-0.24217916
-0.038291935
0.1312618
0.18975875
-0.21290807
-0.02962906
-0.30604994
-0.29808554
0.17649049
-0.10671313
0.058122136
0.27803937
-0.13534611
-0.17451447
0.17092432
-0.09920649
-0.0049742754
-0.27657104
-0.26190987
-0.16520864
-0.07665979
0.023458106
-0.12007013
-0.20075504
-0.16788647
-0.04599808
0.026263421
-0.15574254
0.3360564
-0.20111723
-0.29267746
0.045638215
-0.0555085
0.2845492
-0.13470188
0.24543668
0.23313299
0.0075978236
-0.20902057
-0.1574933
0.110490546
-0.28799585
0.10546088
0.10250304
0.17373548
-0.31615067
0.10522708
0.07497076
0.22669536
0.024543485
-0.1260697
0.25582242
0.20474946
-0.17451048
0.32460642
-0.2927735
0.13906695
-0.08283655
0.32756644
-0.26040047
0.14441599
0.28037238
-0.1461969
-0.1874211
0.0031139294
-0.04107163
-0.24218383
-0.14797321
-0.010333058
0.11095481
0.2691736
0.26196656
-0.06719387
-0.15245076
0.16755188
0.24415214
-0.104078606
0.061151586
-0.35622498
-0.34499463
-0.093807384
0.2181429
-0.27206048
0.11642732
0.06656116
-0.019948216
-0.22560225
0.2846044
-0.23747881
0.29652563
0.061350044
-0.2925782
-0.1527071
-0.19884056
-0.109234616
-0.043138675
-0.13602285
0.020494694
0.22445722
0.063508384
-0.14672564
0.32386455
0.2663413
0.09392797
0.28856528
-0.09644165
0.2587087
-0.34584185
0.02266901
0.03410599
-0.22223762
0.30589485
0.10846289
0.19749267
-0.3244177
-0.0071936734
-0.08304032
-0.109976344
-0.1709649
0.2194055
0.1421718
0.25345865
0.24264824
-0.3195513
-0.3031818
0.24997477
0.16242924
0.09117157
0.13120264
0.35129637
-0.084548205
-0.28246018
0.31133917
0.18717118
0.00925611
0.33848745
0.02617448
0.33203444
0.26264897
-0.31851766
0.26310492
0.20945087
-0.24406771
0.217816
-0.055359058
-0.2607301
0.297225
0.35411406
-0.0047674845
0.31260648
-0.19415708
-0.35892653
0.13543883
-0.3208995
-0.18011576
-0.16640721
0.18271309
-0.19739635
0.23375684
-0.23436366
-0.17418957
-0.27467304
0.14648822
0.21643592
-0.0858393
-0.23412696
0.11612114
-0.2841384
-0.21779752
-0.0131795565
0.38315198
0.39479822
-0.21813014
0.33053192
-0.28181636
0.0036135747
-0.094818465
0.15945682
0.067845464
0.115271084
-0.2619367
-0.36616817
0.23700733
-0.1803876
0.38505092
-0.27600843
-0.048766505
0.1539529
-0.28820166
-0.15687627
-0.18704467
-0.106622286
-0.028793886
-0.06791455
-0.08524724
0.10404473
-0.18009412
0.20258625
0.17695262
-0.15414537
0.20519723
0.09077568
-0.20892794
-0.13653752
-0.023022128
0.14060353
-0.27302557
-0.19273064
-0.18865949
-0.2979759
0.014222741
0.2165621
-0.11501777
-0.19572818
-0.29051
0.22248496
-0.21465594
0.020181427
-0.10367572
-0.24339412
0.026003797
-0.0046923235
0.15403189
0.08025319
-0.15666117
0.23600051
-0.21169062
0.28638023
-0.36454213
-0.30602202
0.059334453
0.21234664
-0.0432726
-0.2601368
0.14153281
-0.19028017
-0.09507295
0.11875736
0.06475254
-0.118398614
-0.33849397
-0.30955777
0.12635525
-0.28776005
0.19895402
-0.042025626
-0.24258265
0.14562368
0.18899198
-0.085750796
-0.06959667
-0.23991354
0.10223504
0.23856752
0.016142786
-0.2669857
0.34458402
0.37754205
-0.03940564
0.2674488
0.25559357
-0.28422573
-0.25726068
-0.12438303
0.29395744
-0.16519581
0.16281623
0.035364214
-0.004738616
0.12107895
0.0109784575
0.10158921
-0.3176994
0.33111417
0.17978156
0.34121352
-0.13390219
0.24062638
0.2508619
0.20950876
0.2531944
0.051761672
-0.2773715
0.3398609
-0.13414353
0.07104116
0.25806844
-0.1595646
0.30811632
-0.17708401
0.3317004
-0.2044805
-0.1874695
0.31269068
0.1688579
-0.0025400762
0.1692389
-0.262608
-0.32884648
0.26090816
-0.1486958
0.17971003
-0.1926531
-0.12822624
0.049792204
0.08905955
-0.061817452
-0.19086063
-0.064149626
0.16200295
-0.27928987
0.28471816
0.03467307
0.2237224
0.20806377
0.1450137
-0.24078207
-0.004402767
0.21650183
-0.041857697
-0.026830858
-0.08545285
-0.274031
-0.11828274
-0.35470247
0.051992923
0.050519094
0.28932282
0.30196464
-0.12025504
-0.23027319
-0.09895915
-0.05564556
0.25257155
0.25025916
0.18605796
0.03072463
0.3265177
0.31519338
-0.09409305
0.008456236
0.13559997
-0.27818143
0.061692767
-0.24337268
0.2272884
0.13889055
-0.17146467
0.03503954
-0.033231646
0.24900351
0.29445386
-0.22689508
0.12815286
0.120440446
0.15197465
-0.34621122
-0.12056109
0.0998337
0.11060324
-0.033164155
0.008762754
0.041741535
-0.034924302
-0.26304775
-0.14904572
0.28826013
-0.17138934
0.28903025
-0.1484893
0.021668624
0.08180548
0.11725763
-0.18103895
-0.21484989
0.13354047
-0.08623593
0.16200519
-0.06458862
0.11436248
-0.16764727
-0.278154
0.27086574
-0.04470168
0.16747513
0.3318434
0.3095661
-0.17610033
-0.008254018
-0.14326102
0.06254349
-0.26253292
-0.06517191
0.024021773
-0.02225938
-0.037890837
0.12901661
0.13603719
0.23705712
0.30476528
0.26576996
-0.1529246
0.013333234
-0.053251214
-0.29646412
-0.22351654
0.091900736
0.3027117
0.15557379
0.12627959
-0.2606319
-0.19188215
-0.24309827
0.2123622
-0.076612495
-0.26744786
-0.11178133
0.2571536
0.00010161029
0.087403476
-0.15628293
0.068802826
-0.2993615
-0.17206505
-0.1934483
-0.09428943
-0.20358196
-0.36571646
-0.12961023
-0.24386281
-0.10974574
0.07689367
-0.298843
0.32545933
0.026362158
-0.20130017
-0.089372106
-0.22000779
-0.0749662
0.26397595
0.12170717
-0.12910849
-0.096873194
-0.27009112
0.10512506
-0.07040315
-0.26946932
0.22809185
-0.033127412
0.048197377
0.034516755
-0.040062036
0.33172008
0.020732712
-0.12245076
-0.302753
0.35266072
-0.2170447
0.116195865
-0.044628818
-0.31393576
-0.03628394
-0.07244286
0.09924763
-0.14981015
-0.07708037
0.19992366
-0.21531825
0.16973089
-0.2560218
-0.07079425
0.26853853
-0.027753934
-0.15644675
-0.12447366
-0.018397179
0.01362173
0.26765522
-0.2942559
0.29238617
-0.031055454
0.048121314
0.25670972
-0.26186094
0.25604266
-0.03816471
-0.16022731
0.06864077
-0.16539554
0.05913432
0.0073077334
0.0026675125
0.15428604
-0.12394969
-0.122958906
0.022473635
0.03946318
0.20020905
0.15970469
-0.03519112
-0.21494138
0.09956974
0.14379208
-0.27333236
0.22846295
-0.28591725
-0.16170658
-0.20284523
0.37241435
-0.043248877
-0.30735484
0.32051626
0.32054168
0.212931
-0.33333328
0.027072161
0.24401572
-0.009106483
-0.16630891
-0.10691778
-0.027285386
-0.25491124
-0.27384114
-0.034569085
0.041070078
-0.2636106
0.02893814
-0.18653409
-0.30740649
-0.32405028
-0.013776359
0.35270467
0.22405002
0.06181985
-0.109665014
0.25263634
0.31786826
0.28162554
0.3131049
-0.10303311
-0.3995065
0.08030811
-0.21618555
-0.12822457
0.075434595
-0.15411502
-0.16114154
-0.20778711
0.17864521
-0.305685
0.12235074
-0.12326151
0.31603345
0.09392308
0.07541433
0.082982324
-0.014263172
-0.022362676
-0.18834065
-0.21994512
-0.2796075
0.28532946
0.23989618
0.16322581
0.13056248
-0.0872794
0.2420168
-0.26532862
0.05617767
-0.14423439
-0.14900579
-0.11771954
0.30456346
-0.065076336
-0.2633064
-0.29396784
0.20758833
-0.15716714
0.20291996
-0.23519965
0.34742886
0.12607732
0.109420255
0.07684119
0.17187014
0.25262332
0.29487485
-0.15149978
0.039425004
0.14291374
-0.12154754
0.23328935
-0.17432775
0.018763902
-0.124006815
-0.14440195
0.0251036
-0.30376685
0.0987127
-0.30439922
0.27653986
0.27793905
0.19101112
-0.21705371
-0.16847163
0.18875213
-0.24902262
-0.25580248
-0.15128204
0.24524456
-0.21393082
0.18564059
-0.195573
0.12820567
0.22146688
-0.26722774
0.14076573
0.17649738
0.19783454
0.23018381
0.10709679
-0.34870136
0.07575549
0.029080955
-0.06985637
0.09818397
0.06295448
-0.037461735
-0.061017945
0.18466206
-0.042024586
0.1480856
0.12002235
0.03235469
-0.2778695
0.16875826
0.31193405
0.2879742
0.10252614
-0.025715418
9.9978424e-05
0.21438332
-0.13484976
0.0382865
-0.27432153
0.18612449
-0.03006583
-0.21047734
0.24088539
-0.19131054
-0.15790726
-0.025719581
0.002169696
-0.23964144
0.30904835
-0.2844435
-0.23166063
-0.22623749
-0.15087177
-0.03852635
-0.21419255
-0.050389368
0.26558268
0.34010136
-0.23096037
-0.12546967
-0.30558607
0.14009094
0.040002473
0.03945711
-0.094666235
0.21180286
0.28196752
-0.10003525
0.12120868
-0.23728926
-0.16561887
-0.08173529
0.2233329
-0.110009655
0.008579723
-0.25398147
0.06398233
-0.060197785
-0.12114354
-0.086002596
-0.17479281
-0.2323119
-0.13472235
-0.2871389
-0.2474604
0.1161162
0.29030448
-0.02030976
0.021072347
0.108400024
0.1925724
0.31385693
0.26134932
-0.23188412
0.20108652
-0.28595686
-0.12752281
0.28347397
0.15953587
0.31738782
-0.02187476
0.20136173
0.054181345
0.14690873
0.04670184
-0.146175
0.16870338
-0.06716802
0.16131286
-0.15845418
0.26875287
-0.10260051
0.24962032
-0.086403005
-0.18326604
-0.23905112
0.35457364
-0.1332324
0.04370635
0.060786318
-0.17586496
-0.24134572
-0.27664563
-0.27889392
0.30086416
-0.049767137
0.073543034
-0.05131851
-0.027190704
-0.23979424
-0.21340269
-0.22906975
-0.14294045
-0.20481041
0.049643967
0.20227854
-0.2630828
-0.0073704706
-0.27017683
0.13005388
0.3506766
-0.013240474
-0.31195155
0.29424953
-0.10756762
0.23879376
0.11176419
-0.089653246
0.19110125
0.05430138
0.26153564
0.3131526
0.24533568
-0.22751333
-0.019051401
0.25591934
0.17683727
0.13675675
-0.24354173
0.022281451
0.26182663
-0.22260487
-0.17863427
-0.12241455
-0.08540446
0.2295798
-0.07231793
-0.24834591
-0.047774192
0.18785162
0.23274428
0.31478512
-0.06273596
-0.31173056
0.21524301
0.33952436
-0.31257686
-0.16881858
-0.04261812
-0.056997005
-0.020740446
0.01582982
-0.08060647
0.08021711
0.19353811
0.28507364
0.099875726
0.0044436315
-0.020669062
0.04939946
0.189957
0.018253911
0.09907126
-0.36035436
0.15084152
-0.23570558
-0.42668885
-0.02156369
0.1184059
0.33101326
-0.08000342
0.031111028
0.12983654
0.26592025
-0.17926912
0.27389863
-0.28063452
-0.3672048
-0.33509526
0.13206632
0.28631836
-0.03137682
0.207857
0.3103623
-0.2033596
0.28119692
0.05889435
0.28587297
-0.011266481
-0.18777524
-0.0009958236
-0.24234006
0.12512009
-0.26515532
0.11888399
-0.0822614
0.324087
0.08207496
-0.34867966
-0.07556192
-0.25881165
0.03333476
0.38288867
-0.054205637
-0.10542697
-0.061441425
-0.18761168
0.07721277
-0.20792866
0.04941197
-0.01461211
-0.22367328
-0.11095506
0.023843875
0.17588629
0.30987328
0.376015
0.02722524
0.03956158
-0.30347696
0.092936166
0.16271663
-0.32774302
0.24687153
0.1462413
-0.12251471
-0.2965024
0.23131685
0.11380442
0.05928153
-0.35504794
-0.20553713
0.010833906
-0.07667189
0.30595613
-0.0062898146
0.12555787
0.16229399
-0.052580364
0.104640864
-0.036616415
-0.33652094
0.058452472
-0.06069791
0.016672894
0.16013856
0.30926368
0.028671576
0.2580909
-0.28423774
-0.20882653
0.060604695
-0.25340262
0.33622375
0.026457425
0.23944612
0.08837207
0.31909534
-0.23560637
0.2171381
-0.2666809
0.10157999
-0.26713642
0.1447965
0.21219935
-0.22541222
0.2716428
0.36000058
0.050297596
-0.28062278
0.16114362
-0.34512734
0.30562672
-0.10735803
-0.07676965
-0.18285954
-0.14365846
0.011065173
0.025895702
0.16783915
0.29199457
0.16721389
0.10128326
0.37772876
-0.2559458
-0.11512717
-0.13425016
-0.21676034
0.17284125
-0.21321003
0.018943628
-0.22469932
-0.1360821
0.22535008
0.111459
0.041989647
-0.14764197
-0.03772799
0.19265865
-0.079234354
0.011515531
0.14412814
0.08015723
-0.38062847
0.2826641
-0.08522093
-0.38079062
-0.107155755
0.25750217
-0.33097035
-0.29310694
0.15621576
0.08082203
-0.15669958
0.26956156
-0.08436285
-0.2018058
0.104307406
-0.11262137
0.0282968
-0.26841882
0.15188085
-0.29352266
0.024629055
-0.36367452
-0.3525932
0.04960079
-0.059019495
-0.24035794
-0.29843634
-0.25311163
-0.056370668
-0.15974557
-0.13175388
-0.22265744
-0.13030103
-0.04579309
-0.21809702
0.29609254
0.22666094
0.13606545
0.09558927
-0.31697398
0.30177897
-0.13186955
-0.10810969
-0.06585646
0.13114353
-0.41068456
0.2541323
0.14017318
-0.17477453
-0.24688631
-0.21329038
0.3345536
0.10848373
-0.027362717
0.15900877
0.27618688
-0.15748285
-0.067069404
0.11821928
0.343644
0.19905934
0.24023059
0.029105762
-0.315336
0.13303281
0.35849264
0.18644755
-0.16721317
0.21941334
-0.21245746
0.0756532
-0.118602976
0.23816808
-0.13807197
-0.051914133
-0.25303236
-0.18871206
0.0521797
0.09701096
-0.2545065
-0.07794209
0.0075323926
4.4047134e-05
-0.09213481
-0.09003185
0.08547144
0.1827094
-0.051047802
-0.31605634
0.11867676
-0.12677316
0.021690935
-0.10195848
0.14389403
0.01426249
-0.17284162
-0.050075386
-0.019073244
0.32524008
-0.04300654
0.3142862
0.2916936
0.29963702
0.21781866
-0.21132329
-0.26478967
-0.22328417
0.16036877
0.19673066
-0.107188895
-0.077963375
0.08523479
0.08821663
-0.15695533
-0.24012457
-0.20535049
0.15258972
-0.24033251
0.14468946
-0.21849842
-0.1515834
-0.29129577
0.0049502198
-0.10894984
-0.1765683
-0.26190248
-0.17189287
-0.26311997
-0.19374947
0.18875463
0.13150398
0.24309996
0.1161313
0.037939947
0.05999778
0.17413472
0.27816465
0.24710901
0.29442623
0.06010052
-0.043955274
0.06629045
-0.30232444
-0.06910547
-0.24363233
0.30320257
0.05767246
0.20221908
0.16735397
0.0657695
-0.042190388
-0.17147113
-0.32584578
-0.1588199
-0.26032332
0.22535709
0.32096004
0.046830826
-0.18085627
0.32708496
0.26932862
0.10706854
-0.17116195
-0.29804695
-0.059612796
0.33658332
0.060951255
0.29672247
0.10889093
0.0057380535
-0.20884828
-0.28684133
0.14331509
0.15340829
0.058577146
0.19357689
-0.31638417
0.042709105
0.013354487
0.24200146
0.09554613
0.06163348
0.24714759
0.20610823
0.22463965
-0.029267952
0.09017698
-0.26285198
0.2628959
0.28592685
-0.13837911
0.29122445
0.06558657
-0.22567387
0.1667869
0.22011748
0.24481341
-0.123198554
0.2849827
-0.11849918
0.15655117
-0.32503048
0.10923157
-0.10067955
0.19392468
-0.0717927
-0.23611972
0.023923611
0.14292659
-0.1655836
-0.202689
0.14803009
0.1120268
0.12670168
-0.10153975
-0.19238608
0.24843825
0.3296699
0.1310272
-0.23263137
-0.043726817
0.010660188
0.072867095
-0.27604654
0.007577344
0.1820527
-0.116353385
-0.21094908
-0.115584545
0.28479356
-0.091815844
-0.05815627
-0.16937475
0.2835349
-0.16807668
0.068248264
-0.38032287
-0.07175995
-0.15679437
0.18786864
-0.0070500327
-0.045703515
-0.0155526
0.08271706
-0.22587518
0.0938014
-0.104882546
-0.17801945
-0.14035653
0.32302794
-0.0077684093
-0.2324215
-0.06579161
-0.04370339
-0.06075962
-0.24457227
0.13076866
-0.18774654
0.12184525
-0.09807618
0.34998664
-0.13247633
0.17885649
-0.23945312
-0.11668491
0.14723231
0.3010816
-0.13794889
-0.15900911
-0.06503244
-0.18755345
-0.18850954
0.13252254
0.08502512
-0.09963947
0.33027527
-0.24853693
-0.23108113
-0.093440115
-0.034550797
0.048710205
-0.01008006
-0.05047344
-0.3431804
-0.17875744
-0.3410188
-0.13505898
0.29399177
-0.29437125
-0.17417441
0.0787634
0.1624038
0.034106188
-0.3891445
0.054627225
-0.015221542
0.2532253
-0.03019927
-0.08775138
-0.17422378
-0.2275447
-0.2578668
0.052146044
0.10521166
0.074881
-0.08239057
0.03516421
-0.3027667
0.13856938
-0.10458651
0.27136135
-0.0036290544
0.06773556
-0.077300355
0.3007342
0.22735049
-0.07154344
-0.21233971
-0.13513547
-0.046651065
0.14631619
-0.11700089
-0.04361514
-0.28979546
0.10891489
0.0769795
-0.27583504
0.23271006
0.05730178
-0.28790224
-0.14691277
-0.096312985
-0.10240467
0.10885872
-0.030912908
0.10052832
0.013639592
-0.08008426
0.14485705
-0.10727039
0.12258802
0.0505151
-0.40440127
0.2822852
-0.16475849
0.3494201
0.30409232
-0.1457855
-0.10834838
0.05522612
-0.16638002
-0.14533383
0.10123128
0.32645604
-0.2921528
0.26123214
-0.31250402
0.20674306
-0.17101726
0.17395867
0.17415227
-0.24471335
0.1419908
0.00662267
0.21343766
-0.11772594
0.05333284
-0.044039153
-0.087046914
0.0046310425
0.12223551
-0.22481753
0.008147005
0.0061612567
0.1400993
-0.19476496
-0.06281558
-0.261438
-0.21503139
-0.04500279
0.24118795
0.06371975
0.18242517
-0.20519537
0.2620308
0.22184893
0.19790976
-0.047771227
-0.122283004
-0.030938342
0.06337023
0.2395517
-0.16357972
-0.060738698
0.31306136
0.22183967
0.16989435
-0.11000157
0.047971573
0.062186636
-0.07932005
-0.033956353
0.0053705857
0.31892562
0.118898444
-0.26374203
0.10816625
0.28741705
0.0756442
-0.13598205
-0.15326832
-0.16692394
0.0653319
-0.06094319
0.262728
0.09218352
-0.22528352
0.13812648
0.037453663
0.16890185
-0.18110706
-0.23734279
0.2076148
-0.10563037
0.29173928
-0.16953406
-0.15635109
0.25157398
0.28148448
0.26274806
-0.07495013
-0.086634785
-0.15998203
0.30310428
-0.18141095
0.026850725
-0.24833833
0.3065451
-0.15088853
0.21204536
-0.034641955
-0.027013164
0.0053129983
-0.0853261
0.19143479
0.23396462
0.014765801
-0.18608218
-0.1399457
-0.29295453
0.30403534
-0.12440182
-0.23998669
0.20614453
-0.020135846
0.051869996
-0.3147578
0.22174105
-0.064251505
-0.14043261
-0.015035398
0.014448488
-0.1489636
-0.015891027
-0.3216723
0.3150442
0.123415776
0.27249125
-0.18950416
0.15528536
0.22070669
-0.16581781
0.085674696
0.00084527454
-0.057613995
-0.21801913
-0.26314884
0.21259099
-0.3126977
0.24083754
-0.23609453
0.27421206
-0.021062082
-0.11222536
0.017720222
0.067943975
-0.028763004
0.059301578
0.2164958
-0.17824006
-0.045067143
0.25455162
0.28892812
-0.1297063
-0.26418224
0.0046198014
-0.17616333
0.23016292
0.299425
0.19792731
0.100078166
-0.28752798
-0.23877712
0.29726884
-0.20482925
-0.22391012
0.18450888
0.28599444
0.24071956
0.009258229
0.26220235
-0.19686897
-0.10922207
-0.21896532
-0.17256483
0.26567796
0.24060817
0.04803676
0.25896743
0.04829888
-0.30442902
0.052851096
0.27858037
0.19507873
0.2516807
-0.16017716
-0.04922837
-0.2381206
-0.109487824
0.3564762
-0.2584968
0.31600022
0.38562393
-0.2320096
0.1710601
0.293356
-0.258511
-0.13809855
-0.08368415
0.27565074
-0.029452946
-0.007018207
-0.06986384
-0.2162199
-0.22323334
0.25066927
0.32099137
-0.29680672
0.12889843
-0.013332215
-0.28879115
0.08231324
-0.14145114
-0.23724525
-0.00576228
-0.075421214
0.04634304
0.18118842
-0.100053795
-0.19521302
-0.26231876
-0.038140703
0.17794852
0.07520693
0.33542544
-0.13834299
0.26928407
-0.078461275
-0.030310715
-0.17314026
0.266956
0.10566399
-0.022643657
0.104860075
-0.2953862
0.07269417
0.123548195
-0.08684534
-0.07600489
-0.34427977
-0.004890541
-0.06579014
-0.09603022
0.2580613
0.3305751
-0.17022386
-0.03878278
-0.23801696
0.03223362
-0.2526308
0.059056543
-0.28986377
0.09921934
-0.07642654
-0.18255195
0.08386059
0.27635777
-0.27057186
-0.0065468918
0.20034169
0.20244455
0.008583429
-0.06513094
0.32063037
-0.10846135
-0.25395122
-0.14996925
0.22750297
-0.2758417
0.0055096154
0.059298724
-0.24844673
-0.09014753
-0.26344377
0.22243357
-0.27039024
-0.071518734
-0.19773625
0.04627994
0.0068504806
0.23704933
0.2792182
-0.20260112
-0.33768535
0.05071703
-0.04498879
0.063307725
-0.16581434
-0.0248441
0.16542546
-0.16300602
-0.06733346
-0.13304096
0.35679734
-0.1612789
-0.09472704
-0.27976653
-0.17895982
-0.101508334
-0.2914162
0.21096182
-0.12655161
-0.024423681
-0.3318324
-0.2493654
0.07122164
-0.093516156
-0.2949786
-0.35267133
0.27742895
-0.01538977
-0.27981895
0.061019663
0.28239173
0.2326268
0.33743194
0.097649604
0.1566689
-0.19768253
0.2935549
0.13188656
0.304101
-0.20254827
0.11910606
-0.1406788
-0.19104776
0.11385357
-0.15991904
-0.14240496
-0.2776177
0.20303814
-0.26384848
0.0031098523
0.016603518
0.1836614
-0.029685764
-0.14357768
0.09803376
-0.18305562
-0.079945646
-0.031323045
-0.05008772
0.10860437
0.11196525
0.19103912
-0.23392336
0.23877634
-0.09523567
-0.20693284
0.3106051
0.006963844
0.23493451
-0.30354407
-0.20851418
0.27947074
-0.007866246
-0.14599508
0.026909752
-0.26632974
0.0968908
0.22386044
-0.2772829
-0.115130946
-0.2794292
0.20039524
-0.12507367
0.1403754
-0.34942982
0.3097037
0.2175778
-0.08450798
0.11017709
0.24598552
-0.19856986
0.182998
0.072449595
0.16965449
0.17156065
0.25117075
0.18681252
-0.22311854
0.2743254
0.0027709207
0.27095395
0.00015162029
-0.10484724
-0.22543487
0.16635327
-0.24678527
0.3260105
-0.25315443
0.19484094
-0.10945665
0.31125
-0.33682814
0.12817878
-0.2120773
-0.22857566
-0.24548805
-0.20348355
-0.005262022
0.3295179
-0.23449557
0.14849539
0.29839113
-0.2218475
0.02687677
0.1671231
0.15061602
-0.36043254
-0.31680745
-0.30537283
-0.16090652
-0.18114862
-0.2639816
-0.12064695
0.20992428
-0.0046530855
0.21438575
-0.24019457
0.086304806
-0.15178713
-0.16966933
0.29321983
-0.28552994
0.018686764
0.28775367
0.20345905
-0.15547432
0.14675412
-0.25646877
-0.18734263
-0.06976833
0.19912076
0.029853314
-0.13418017
0.07515901
0.24610361
-0.13570082
-0.30913582
0.24424954
-0.10742514
-0.08691334
-0.14751552
0.27022487
-0.15951055
0.23148517
-0.33980486
0.06961665
0.1990615
-0.041819826
-0.02898966
0.041131362
-0.15805453
-0.007635089
-0.2316203
-0.03864529
0.20222907
0.23081635
-0.015209516
0.11052002
0.04567315
-0.08580645
0.19003898
-0.23915362
0.3080124
-0.21133295
-0.26988527
0.15022142
0.15928258
-0.14220098
-0.1659403
-0.036201246
-0.13202998
-0.14753702
-0.15941964
-0.04239129
0.09147708
-0.061439894
-0.13741681
0.16157722
-0.11956445
0.06920944
-0.05344195
0.2800186
-0.22679755
-0.16095841
-0.2651856
0.15177451
-0.27577955
0.08024416
0.31190974
-0.310364
-0.2344069
-0.17573555
0.31072956
-0.1934328
-0.18782093
-0.33531737
0.24705397
0.20342652
0.2583527
0.051796347
0.23641327
0.10553776
0.33250028
-0.16753396
-0.251054
0.10948517
-0.3151633
0.28865147
0.013330093
-0.122586265
-0.12813444
0.1235856
0.19995718
-0.22961126
0.18834668
-0.201452
-0.108297385
-0.009424972
0.103044204
0.06654532
0.14206168
0.2269345
0.0042454633
-0.0076699657
0.24298015
0.21193224
-0.24919346
-0.23153532
0.1456314
-0.23164135
0.10478859
-0.13906631
-0.24743417
-0.29314315
-0.21387567
-0.16013527
0.1084616
0.20846066
-0.03779881
-0.25783423
0.09905829
0.13654582
0.009688953
-0.2764003
-0.21917193
-0.0026157247
-0.13638994
0.049336854
-0.34570566
-0.2989531
-0.07701734
-0.26150694
-0.15505001
0.22858357
0.2498574
0.37757167
0.17625304
0.011144376
-0.22437577
0.06588057
0.21068011
-0.24442753
0.2927433
-0.31954205
0.005698284
-0.15299645
-0.12351607
0.21706636
-0.15000407
-0.09026934
0.22954483
-0.056593865
-0.0017147736
-0.1320445
0.089940555
-0.20417172
0.28488922
0.3085337
-0.29181635
-0.3073496
-0.17102137
0.34197664
0.17751358
0.24301322
0.043932118
-0.1447611
-0.30711535
-0.18169804
0.088941105
0.311066
0.328463
-0.32459605
-0.25536862
-0.1650259
-0.19044161
-0.32979473
0.28279847
0.112184726
0.19823132
-0.17352295
0.11553806
0.27059868
-0.11214172
0.21021035
0.0145658795
0.2820832
0.36581373
0.13231733
-0.26982895
-0.29752272
0.31669912
0.2764932
-0.059595108
0.27556464
-0.03820045
0.13565552
0.116412155
0.0067203096
0.14423127
0.20835924
0.12586994
-0.19465388
0.16868725
-0.2399487
-0.106278025
0.15520307
0.1547769
0.12073786
0.02417112
-0.3854655
0.14102116
-0.04642556
-0.032001764
0.29980978
-0.060209982
0.31216475
-0.017787948
-0.32693917
-0.2620826
0.13286246
0.05337285
0.017907368
-0.016741566
-0.29075798
0.15772247
-0.2845126
0.1919392
0.1950218
-0.069227844
-0.16759546
-0.15084983
0.07932701
-0.15957619
-0.28406164
0.3223936
-0.101905756
0.32067287
-0.17983656
0.18625155
0.0043782108
-0.13421445
0.26279247
0.15598734
0.16380718
0.117156416
-0.06115581
-0.17902473
0.09773582
-0.1607548
0.2781934
0.18982424
-0.15896252
0.08622152
-0.076078944
-0.13298903
0.24973011
-0.34734553
-0.27300897
0.3624772
-0.1988262
-0.3441413
-0.12392442
-0.29665118
-0.18370657
0.16138624
0.31366354
-0.24069227
0.027026465
-0.027069077
-0.24959692
-0.25609142
0.2505761
-0.2816427
-0.3449439
-0.13076985
-0.01123149
0.079674326
-0.115930684
-0.3145853
0.3369714
-0.09544386
0.37996808
0.3448318
0.14828852
-0.2003097
0.124809526
-0.032911535
-0.16505548
-0.080672204
-0.1150201
0.19220933
0.2426406
0.22091663
0.24815989
0.12276777
0.27262384
-0.19075842
0.059601977
-0.114445895
-0.03450695
-0.080884546
0.11716596
0.25055137
0.30418223
-0.28070733
-0.00065320823
0.21580105
-0.11679007
0.16260596
-0.11776971
-0.039488476
0.24565463
-0.15036558
-0.26788217
0.16952881
-0.092489876
-0.1652095
-0.03413103
0.098653615
-0.019337496
0.017399952
-0.23903726
0.12022481
0.20003945
-0.26339284
-0.12667215
-0.13374297
0.10947801
0.1393485
-0.18012278
-0.03902127
0.19863431
-0.018778734
-0.36577114
-0.2032642
0.053591467
-0.060508806
0.21213698
0.060339436
-0.07028782
0.06745767
-0.1886204
-0.19963723
0.05466158
0.19070964
-0.16995369
-0.18650855
-0.1525203
-0.012493766
0.10689267
0.19657177
-0.22216147
-0.25896385
-0.17904525
-0.031508848
0.14669754
-0.035887863
0.0043319054
0.20634468
0.1643053
0.21195693
-0.2548499
0.0025624936
0.08189993
0.15743893
0.030771289
0.25866175
0.26861283
-0.027482744
-0.014636033
-0.06449207
0.09925227
0.17081383
-0.14987203
-0.16704705
-0.05120541
0.12586142
0.06066705
0.24384724
-0.01781682
-0.26066926
-0.037913453
0.17861411
-0.036874413
0.28404862
0.1922943
0.12414378
0.14495312
0.21709843
0.17438148
0.35735208
-0.06539845
-0.12545477
-0.22727017
0.28951395
-0.27017763
-0.16009411
-0.055196848
0.018757418
-0.16996692
0.14423764
-0.24118346
0.025323471
-0.11878608
-0.067137666
-0.08883149
0.1938594
-0.27816042
0.236653
-0.15308604
0.25297162
-0.114518195
-0.13558877
-0.0913402
-0.23772475
-0.23076907
-0.024207981
0.039522383
0.30324882
-0.30958748
0.22321072
-0.009468106
0.061255243
0.24284159
0.25693285
-0.20854472
0.3038425
0.26427367
-0.06448445
0.15177909
0.22381799
0.21957083
-0.042070273
0.27549982
-0.26502916
-0.11873472
0.020292616
0.15653928
0.22121146
0.19683447
-0.14800152
0.3582997
-0.2612251
0.31740057
-0.22007816
-0.058889013
-0.09359147
0.010554551
-0.23271754
0.05363832
0.00953668
-0.16667362
-0.2425647
-0.015516111
0.16633877
0.09716931
0.20249283
0.0024420582
-0.10043732
0.30075052
0.08463592
-0.042466193
0.33926842
-0.16523567
-0.10664322
0.048074223
-0.10389243
0.18072589
0.28474924
0.26771253
-0.2719999
0.027339429
-0.21332747
-0.05634348
-0.29143688
-0.23286134
-0.041757252
0.17531803
0.15567099
-0.3646481
-0.36204633
0.17524883
0.18314816
-0.07396737
0.2952105
-0.2284944
-0.04527399
0.25745437
0.2315148
0.13828547
-0.29860193
-0.0298503
-0.1363382
-0.11732446
-0.16662596
0.28513455
-0.21082436
-0.29256356
-0.010646236
-0.18711305
-0.04462005
0.1968241
0.052059524
-0.0168623
0.0037845157
0.23689094
0.10331893
-0.28235695
0.23041968
0.21988909
0.0901482
-0.16431166
0.067679666
0.22998857
-0.10715308
-0.17519376
-0.23789349
0.25968274
0.2774857
-0.3224575
-0.06505779
0.31021082
0.091398925
0.2621665
-0.00848517
0.31054315
-0.27620772
-0.2704142
0.2723551
0.28849703
-0.0057364837
0.2908278
-0.11640474
0.10475404
-0.1626298
-0.26069027
0.15354434
-0.020880869
-0.1097414
0.05033489
-0.23526165
-0.04686288
0.10054561
-0.25118673
-0.3067695
0.13740362
0.27944002
0.19111933
-0.2809892
0.030760098
0.005610389
0.24021289
-0.06549942
0.094261155
0.17005046
-0.28013384
-0.059356928
0.27946278
-0.00839849
0.08344016
-0.23456779
-0.085135706
-0.11332202
-0.2815872
-0.045402814
-0.12496979
0.31640777
0.18480724
-0.08797289
-0.012247637
-0.024854
0.22484541
-0.13548201
-0.056252737
0.077334434
-0.21864079
-0.24099264
0.09338952
0.16958112
-0.076488204
0.11326463
0.20802744
-0.23002261
-0.15305474
0.25528234
-0.21156366
-0.0971668
-0.14138399
-0.2935652
-0.081372045
-0.011303234
-0.005751751
0.35068175
0.21625382
0.34021506
0.35605323
-0.11817766
0.16300912
-0.097396046
-0.2510976
-0.2388036
0.23634486
0.13237597
0.12933148
0.22463791
0.23465131
-0.14437778
-0.32798547
-0.20649415
0.15517297
0.21774541
0.22408645
0.29491165
0.3665504
-0.10230059
0.23888423
-0.034197547
-0.05678727
-0.18300283
-0.1319683
-0.24728675
-0.0017185834
-0.119348936
0.18251203
-0.1263762
-0.4953291
-0.16133179
0.34616446
-0.21473543
-0.36790285
0.30056274
-0.2161826
0.17515205
-0.25630212
-0.0055163587
-0.08606297
-0.28154245
0.3255249
-0.26917496
0.08537308
0.0095875375
-0.28971305
0.102201305
-0.21018423
0.14675018
-0.2656161
-0.14559695
0.24735115
-0.009010421
0.055925317
0.04097223
-0.33904672
-0.12059126
-0.1219942
0.035001576
0.17753752
0.05842194
0.115123816
0.037081096
-0.012337998
-0.01042121
-0.060598504
0.281999
0.23917979
-0.17532763
-0.32688332
-0.037763674
0.12711531
0.27067113
0.24992585
0.16834752
0.29535702
-0.21304883
0.3026711
0.36188927
0.33652702
-0.08400619
0.17937306
-0.20756191
-0.31660977
-0.0971236
0.26072168
0.034701075
-0.0033745042
0.30287305
0.22123697
-0.1303357
-0.21053058
-0.30553028
-0.07528164
0.038850933
-0.23639913
0.038342047
-0.1472736
0.04476901
0.2223415
0.32175505
0.09918791
-0.25646022
-0.3058567
0.15253453
0.085716836
-0.25342953
-0.17703435
-0.28575855
0.019050779
-0.12958491
-0.28979197
-0.19662926
0.069230095
0.27617306
-0.006977868
0.03261749
0.26854965
-0.36474332
0.29434565
-0.24597035
-0.07171734
0.284048
0.34145775
0.05830732
0.22272405
0.038432088
-0.102016784
-0.18247364
0.08861716
-0.014136738
0.13371469
-0.088814825
-0.022084124
-0.00946585
-0.29585674
-0.0461392
0.25507376
-0.26626897
-0.1202976
0.094905585
0.27201104
-0.14815389
0.300651
0.119687684
-0.0179595
0.34237
0.12327126
-0.11572988
0.18374106
0.13853173
-0.06441177
-0.059605166
-0.18465886
0.17519173
-0.011162279
-0.049160596
0.025050517
-0.20670244
-0.069288835
0.21316983
0.28457043
0.0479413
0.031105202
0.04977694
0.123256065
0.049195975
-0.12203991
0.29547682
0.31123763
-0.11532387
0.0777627
-0.17778824
-0.23153205
-0.28939745
-0.06655237
0.24986583
0.3871446
-0.19611162
-0.3380169
-0.13709877
-0.16108233
0.079136826
0.15472841
-0.09704449
0.21449728
-0.24224448
-0.05655227
0.053226236
-0.18579914
0.03321955
0.21704589
-0.19542076
0.16988733
-0.06082242
0.07562852
0.02632882
0.07456596
-0.02546651
-0.16551499
-0.10142122
0.19084843
-0.00047782462
0.23862115
0.22095682
0.16103326
0.23984864
0.29545936
-0.02082276
0.2685782
-0.008646697
-0.2452053
-0.19139548
-0.19737263
-0.19882153
0.3029387
-0.28411114
-0.3705642
-0.19180447
-0.06430497
-0.1835329
-0.20205387
-0.06742946
0.20504124
-0.044255238
-0.053325977
-0.0024972272
0.07240382
-0.08810104
0.27905142
0.18502288
0.24959555
-0.20308797
0.2484302
0.0886097
-0.29662165
-0.117982246
0.117281795
0.3280821
-0.16876031
-0.09326204
0.08364272
0.3275354
-0.01803196
-0.233349
0.23293622
-0.0721834
-0.15493941
-0.0013256095
-0.17574844
0.3537981
0.25850022
0.12258654
-0.0052666375
-0.34008208
-0.18046093
-0.22525774
-0.18258306
-0.119869605
0.0023465136
-0.35474223
0.13768885
-0.18334475
0.03906396
0.23217477
0.097681805
-0.17784718
0.10336457
0.22019833
-0.070834056
-0.08011981
0.20914252
0.0909693
-0.31376034
-0.30175033
-0.18351004
-0.11518655
-0.106109984
0.124364555
0.24141592
-0.10276389
-0.27873436
-0.12534273
0.11264706
0.10624206
-0.070829615
-0.006299716
0.04003833
-0.12688954
0.15040427
-0.11290096
0.16667892
-0.21053976
-0.04317341
0.030777205
-0.10825928
0.29715508
0.04854786
-0.25351694
-0.33510846
0.18683699
0.301746
-0.20186478
0.27077985
-0.26561555
-0.045383263
0.062785916
0.009922876
-0.020854674
0.05119544
-0.18586332
0.14436251
-0.25302356
0.08697657
0.14506833
0.06948651
-0.12279356
0.070484504
-0.1652058
0.26767844
-0.113842316
0.10760891
-0.22818334
0.18496515
0.18172045
-0.14119224
-0.059607916
0.08358128
-0.2852428
0.0040765037
0.17488104
-0.016316643
0.214303
0.07106877
-0.26757795
0.18341666
0.20754759
-0.18885179
-0.26656
-0.02804379
0.04429721
0.014451274
0.27959856
-0.36138445
0.26696327
-0.07329333
-0.11586953
0.23643935
-0.080060646
0.04482271
-0.23990253
-0.30172062
0.28101742
-0.24834001
0.012272941
-0.18302625
-0.22118226
0.27091432
0.3040693
0.54258585
-0.2298324
0.027518028
0.35532913
-0.31581944
-0.23782447
0.031908695
0.3966007
-0.29679376
-0.06950182
-0.07247449
-0.31131765
0.28689927
-0.06157433
-0.06920256
-0.030062519
0.2131651
0.122626364
-0.09469735
-0.23716626
0.12688588
-0.028982073
-0.37249696
-0.09628551
0.04317841
-0.10415595
-0.1957286
-0.004789204
-0.28370887
-0.20615411
0.09043507
-0.10111289
-0.114060454
0.058729056
-0.31745517
-0.27145016
0.25486088
-0.07692181
0.31684044
0.042268373
-0.0024077788
0.020630432
0.26602727
0.24722597
-0.23675138
0.030430606
0.20051701
0.23224269
-0.019975917
0.052586336
-0.12614486
-0.24122845
-0.25825512
0.13716888
0.08323979
-0.13069616
-0.3101434
0.132959
0.057356283
-0.012978411
0.32812804
-0.029939685
0.29471472
-0.29023954
0.16459575
0.024495766
0.19690189
0.2867866
0.03918448
-0.38954034
0.16509157
0.33918828
-0.18354437
0.23525926
0.11515024
-0.08532671
-0.25112116
0.17727701
0.1902896
-0.15082903
0.20118846
0.15337643
-0.05489124
-0.14653586
0.21976371
0.2564511
0.23951034
-0.11356014
0.07309212
-0.2526309
0.07010343
-0.1850216
0.3053603
-0.16176112
-0.1048741
-0.26040378
0.050453372
0.27704528
-0.21419221
-0.28764272
0.27885124
-0.04873187
0.29735503
-0.17434378
-0.19586289
-0.060367525
-0.066881
0.19730291
-0.013485383
-0.28822944
-0.19727376
-0.28106397
0.025474394
0.36454213
0.27511796
-0.26318637
-0.22954543
0.004776687
0.029327398
0.021283653
-0.2003579
0.16436724
-0.26897135
0.11494563
0.11284204
0.112542525
-0.1897551
0.18059307
-0.24808693
-0.12031523
-0.19940479
-0.10372159
0.21196309
0.0905136
-0.16522433
-0.012607191
-0.112485915
-0.0058294265
-0.23322736
-0.0994348
0.29988518
0.18377194
-0.029881163
0.09864523
-0.22157395
0.29311413
0.16423602
0.2748635
0.030976545
0.30243114
-0.16978168
-0.10393325
-0.103310466
0.22114794
-0.11400133
-0.039163608
-0.20340073
0.021043664
-0.26316282
-0.21857159
-0.15551393
-0.37277433
-0.21379933
0.088377036
-0.07389709
-0.023566166
-0.18386233
-0.019466246
-0.16999283
-0.17930935
0.050278436
-0.31533936
-0.11129891
-0.02644175
0.08450962
0.21432671
0.014706531
-0.25155523
0.05678515
-0.3049102
-0.19092834
-0.1697632
0.015534402
-0.0671205
-0.017030954
0.052365784
0.104443945
-0.13667414
0.16246065
-0.22578335
0.19726844
0.32141814
-0.18548708
0.10719144
-0.07785264
0.24315049
-0.040640537
-0.20749725
0.21506639
0.036717586
-0.31853032
0.30603397
-0.107972704
0.23980097
0.08449
-0.124907196
0.18372224
0.31368405
0.24946904
-0.32171902
-0.25829318
0.29053178
0.19513135
-0.08874843
-0.3700185
-0.16776106
-0.28931502
-0.24191648
-0.35281706
0.19808286
-0.23463501
0.26972756
0.25466612
-0.27761987
0.011644429
0.042701874
0.20013948
0.036758374
0.2783057
-0.12231741
-0.006713681
-0.34940356
0.11582383
-0.19345154
0.12414081
-0.17684253
0.14804748
0.1344351
0.28973117
-0.1190288
-0.1518126
-0.01889319
-0.066204935
-0.020049026
-0.2740526
0.105370454
-0.038763486
0.16964641
0.3211258
-0.2910353
-0.01983057
-0.15726525
0.051968414
0.30510587
-0.28456992
0.23579563
-0.07288651
-0.030452376
-0.07929299
-0.15070084
0.13368665
0.1531637
-0.13532946
0.27213687
0.30774394
-0.056147136
0.2542831
0.15309443
0.31077233
0.2185889
-0.12609205
0.36692286
0.1121331
0.13684866
-0.32583234
0.34031984
0.077800386
0.2926815
0.1782898
0.25340962
-0.28102076
-0.1426973
-0.05884173
-0.08760064
-0.30131325
0.26613215
0.23522486
-0.12161107
-0.00023613228
0.2930173
-0.28823867
0.22919498
-0.24930768
0.27840173
0.12504256
-0.030014252
-0.22252429
0.14797194
-0.25537848
-0.0026991894
-0.28266776
-0.037595216
-0.08634553
0.07253676
0.007826355
0.35471755
-0.08577912
0.035845097
0.030664196
0.2700673
0.041181024
0.07387393
-0.114980385
0.0435679
-0.14264336
0.008350952
0.020883987
0.18590242
0.090346895
0.226633
0.05086563
-0.07397896
0.094943255
0.3051791
-0.16178322
-0.044307157
-0.027869532
-0.25222838
-0.29519513
0.1955014
0.36563337
0.26049647
-0.18279265
0.28362894
0.3605338
-0.2735183
-0.04450007
-0.15872328
-0.27654493
-0.02102141
-0.11061428
0.07601105
-0.025136657
-0.09063312
-0.351519
-0.07445579
-0.3375106
-0.03406795
0.21815686
-0.20982729
0.002528619
-0.17827085
-0.27789956
0.026918761
0.37253276
-0.098275974
-0.07297868
0.10928117
-0.18868373
-0.20677249
-0.22180979
-0.11194286
-0.28688997
0.19853014
0.1337301
0.14701304
0.26894912
0.12412252
-0.07790624
0.08288797
-0.31712392
-0.14499852
0.18629958
0.026785865
-0.1676502
0.0006486167
-0.29915386
-0.19248898
-0.1714727
0.2185628
-0.09673885
-0.15264435
0.055795763
0.03975982
-0.006611465
-0.0747819
-0.01938869
0.181105
0.11713197
0.16326311
0.23574728
-0.18178792
0.098712094
-0.32142386
-0.20062275
0.25690478
-0.3042485
-0.11956424
-0.041146446
0.047110338
-0.16732618
0.02826763
-0.033207905
0.23273262
0.27328193
0.09305887
0.18755133
-0.2726169
0.14875486
0.2445532
-0.1487623
-0.125781
-0.10071054
0.09122676
0.20092393
-0.15359938
0.29340357
0.2703917
0.12175922
-0.097271614
-0.24255253
0.106339425
-0.33529997
0.28155288
-0.036956042
-0.28809133
0.005568142
0.19961655
-0.0009949324
-0.117783114
-0.21030311
-0.082654186
-0.36084825
0.123015344
0.20958252
-0.062364995
-0.3609025
0.28062665
-0.14077005
-0.26396093
0.15469712
0.3223976
-0.18429306
0.052296214
-0.25872788
0.01015756
-0.2943153
0.18018262
-0.20096196
0.2718416
0.32688025
-0.042623263
0.1506553
-0.011514043
0.15884541
-0.14960153
-0.07798986
0.31215748
-0.20189679
-0.16459902
-0.12021188
0.27385673
0.07928242
-0.22002418
-0.06219534
0.11868057
-0.15818763
0.28726533
-0.1729643
-0.16897543
0.023194164
-0.32542282
0.20620954
0.05537296
0.20730008
-0.10341006
0.07279752
0.007499225
-0.022230111
0.069249086
0.16912134
-0.14270636
0.24218407
0.09493174
0.078905895
-0.11087481
-0.08760224
-0.21895364
-0.076393805
-0.1821603
-0.1404855
0.32667774
0.047492094
-0.25865304
0.07857584
0.14788829
0.14209464
-0.12244155
0.34022483
-0.24849437
-0.25239784
-0.042282686
0.29162437
-0.26332217
0.26124614
-0.25175112
0.2759357
-0.19561194
0.1288984
-0.094066545
0.07316973
0.273924
-0.17520404
-0.0027137338
0.0918756
-0.14143486
0.07877868
0.050548848
-0.019786576
0.12093739
0.113667674
0.22900005
0.18383828
-0.049870253
-0.2299764
-0.29781264
0.17876089
0.023886748
0.041521635
0.30717808
0.20162016
0.24619207
-0.14152996
0.14440367
-0.06578276
-0.13806087
0.2565794
-0.063650906
-0.13875559
0.1277831
-0.12890203
0.03642633
0.3217795
0.059851468
0.16380513
-0.105943345
-0.07392393
-0.09086351
-0.10879203
0.35039252
0.046724994
0.23313451
0.10240894
0.066924125
0.2692589
0.2972086
0.2751485
0.25104374
-0.13389271
0.275922
-0.15373844
0.06521888
-0.18883322
0.2762896
0.32185465
-0.16817114
0.009939462
-0.0839303
0.18260165
-0.10683751
-0.1615162
-0.051848162
0.272319
-0.14324483
0.10062933
0.17730664
0.13777566
-0.07879471
-0.07807293
-0.20634708
-0.07280254
0.1053645
-0.16338402
-0.28739706
-0.09283456
0.123840936
0.16414927
-0.14451054
0.13367096
-0.008259136
-0.03445231
0.090408355
0.25274277
0.06346288
0.2564228
0.206038
-0.32831398
-0.07295132
0.14594927
-0.2684754
0.21056296
-0.045678515
0.3119796
-0.15519787
0.08581362
0.020013073
-0.09853138
0.01854415
0.15503256
-0.091770336
0.22004086
0.12524068
0.0996059
-0.18691516
-0.18416102
0.0045197615
-0.054094102
-0.26781884
0.15820892
-0.14226487
0.27915198
0.09944775
0.31159124
0.07169911
0.06568886
-0.2633463
0.1988224
0.0744978
0.0061408896
-0.038046516
-0.033512708
0.12729438
0.0889692
0.05219241
0.061596993
-0.033007417
-0.010513587
-0.1698341
-0.16309828
-0.2788533
-0.12688835
0.15720198
-0.15531419
0.32536468
0.31780908
0.14293584
0.012546562
-0.07996721
-0.0682615
0.25684834
0.23290734
-0.18752395
-0.044372857
0.20046489
0.21956211
-0.1261172
-0.26474318
-0.32040793
-0.29773957
0.09484209
0.06660753
-0.041298173
-0.33131152
-0.3032679
-0.36665976
-0.34651926
0.3141894
0.3976356
-0.16426699
0.17986558
0.28752944
0.19942497
-0.26175156
-0.1666982
-0.24177115
-0.1723552
0.22316843
0.29077736
-0.36577982
0.2803301
0.23024864
-0.26079983
-0.066957094
0.1834307
0.21081962
0.19728152
0.019159827
-0.020986607
0.03565667
0.0136043755
0.27603367
-0.03171646
0.0927164
-0.14519688
0.3652847
0.40461123
-0.019892568
0.33324686
-0.16719563
0.31481487
0.3206421
-0.103690684
-0.18214968
0.22347915
-0.2656312
-0.11469064
-0.14848685
-0.012940586
0.21850355
-0.15947004
0.24906078
-0.20722829
-0.2842837
-0.08094665
0.076612346
0.025263503
-0.075620145
0.28006595
0.0027825686
0.24368627
-0.2688123
0.13301824
-0.35359877
0.12083212
0.22714418
0.14179437
0.24149185
0.3142985
-0.03846594
-0.13009647
0.30198848
0.31220168
-0.1433291
-0.3154282
0.03019438
0.08283161
0.0013157348
0.17958222
0.2018885
-0.27166465
0.32928798
-0.010961018
0.24987513
0.08226536
-0.16016668
0.3564492
-0.4147614
0.18992302
-0.12834656
0.017206484
0.1826708
0.22015311
0.09248748
-0.23597552
0.23718387
-0.063343674
-0.2012911
-0.23761396
0.13047726
-0.06279051
-0.29692644
0.08751229
0.18952121
-0.25553107
-0.29271612
-0.191223
0.049378503
0.20777625
-0.16878708
0.30065352
-0.3267461
0.026422242
-0.27232802
0.041204914
0.0010659824
-0.03750545
-0.102497004
-0.24256074
-0.31251928
-0.034698926
-0.16757245
-0.2848327
-0.07000127
0.28163838
0.04642965
-0.327591
0.009794473
0.2800373
-0.13309218
0.27928713
-0.102781914
-0.13246916
0.21683687
0.31651038
-0.27315474
-0.2854572
-0.08734641
-0.20717442
-0.2414447
0.07548288
0.13527302
0.2908272
0.19913487
0.26831043
0.12292165
-0.12928958
0.21917975
0.1593835
0.30639362
0.13551477
-0.33414018
-0.18687262
-0.10800669
0.31073675
0.09981339
0.19486578
0.10657671
-0.15629226
-0.22838886
0.030277357
-0.059369195
-0.35365814
0.38112634
0.20240793
-0.08365512
0.16130202
0.35982448
-0.34010583
0.21493922
0.24998242
0.18273729
0.039534476
-0.17342961
0.26680872
-0.0034537
0.25725472
-0.3268607
-0.2652483
0.066647515
-0.18615599
-0.14750941
0.19848832
0.16278239
-0.2708586
-0.14068332
-0.1970628
0.14860709
0.21251355
-0.20165585
0.030493822
0.046163324
-0.17798069
-0.2653412
-0.10517664
0.30788264
-0.035936292
0.26086864
0.24188842
0.06874019
-0.15017408
-0.06965517
-0.25089216
0.23463933
-0.18173742
0.24803942
0.25152454
0.42423344
0.1712999
-0.12266712
-0.2641027
-0.18573841
-0.0012509055
0.1997821
-0.31953084
-0.024037937
0.112471424
0.00012390869
-0.30750194
0.017097067
0.14341544
-0.06374719
-0.09196018
-0.022054028
0.05382482
-0.12816665
-0.10117706
0.254301
-0.08643954
0.09369045
0.06330461
-0.2565475
-0.042796165
0.19504446
0.23676276
0.010006369
0.11891093
-0.1400325
-0.22273348
-0.23480406
0.28047228
0.29188552
-0.073646456
-0.26503366
0.16458628
-0.21501501
0.07595508
-0.13728362
-0.13255824
-0.18742415
0.117086425
0.05846382
-0.08438129
-0.28501317
0.20540467
-0.05472894
0.2602168
0.06184108
-0.0569168
0.0060250424
-0.18848571
-0.0902579
-0.016960597
0.093965955
0.13110012
0.14539106
0.20628041
-0.149021
0.29182926
-0.123412505
-0.051464356
-0.10998316
-0.072987825
0.29595467
-0.012853406
0.30690292
-0.16468517
-0.25136304
0.16212323
0.25665775
-0.014521111
0.23350044
0.04833149
-0.122239895
-0.06958096
-0.2045554
-0.06530821
-0.22164781
-0.21640985
0.21681918
-0.01006492
0.061848573
0.13661452
0.02424013
-0.30876595
0.20778568
-0.20813493
-0.21189979
0.11280285
-0.042694945
-0.059709843
-0.27524254
-0.067845255
0.3005409
-0.11644877
0.17593385
0.023312919
0.06237791
-0.1880969
-0.013769697
0.31103262
-0.21662165
-0.01142385
0.2285758
0.029659953
-0.018113747
-0.2575067
-0.07532114
-0.16963261
-0.1851201
0.06167419
0.240767
-0.24951947
0.16225952
-0.13008374
-0.016899444
-0.18823004
0.11659669
-0.33788973
0.31012824
0.046980944
0.25321916
-0.034101743
-0.232006
-0.20180544
-0.28567645
-0.13543017
-0.14301461
0.40496418
0.21272251
-0.29001826
0.06518735
0.31151503
-0.20888272
-0.09100897
-0.2850359
-0.08451132
-0.34896493
0.051837526
0.14612329
-0.16515784
0.17227502
0.10270068
-0.15110038
0.104889385
0.30320495
-0.115899645
-0.28168216
0.20105794
-0.35222244
0.19885957
0.02070272
-0.09631148
-0.2587475
0.13922748
-0.107970156
0.023872148
-0.06595234
0.22842146
-0.3821593
0.15879121
0.3342688
-0.16171993
0.3531351
-0.0008025135
0.3504433
0.27788302
-0.16172142
0.12197547
-0.2899667
0.047090277
0.11147095
0.3027607
-0.036949165
0.1715367
0.25104633
-0.22023177
-0.18818557
0.15267846
-0.33759305
0.14224027
0.225494
0.0009798974
-0.05240709
-0.07622977
-0.07012389
0.10181687
-0.06883906
0.20861071
0.025960261
0.2640493
-0.037229966
-0.17833677
-0.16924335
-0.2631539
-0.043368634
-0.093055084
-0.13009201
-0.21729651
-0.2252254
0.22129135
-0.018371748
-0.072635286
0.26682666
-0.0144805685
0.008383075
-0.181957
-0.32712635
0.12693627
0.19175197
-0.18720508
-0.0021102158
-0.15539269
0.029016677
0.18639314
0.24391674
0.0709734
-0.0894515
0.06004809
-0.005032156
0.31589368
-0.20897706
-0.053867973
-0.14862806
0.053626418
-0.13063487
-0.2804936
-0.0838049
0.34215686
-0.048695665
-0.064293146
-0.30509067
-0.12803555
-0.21484125
-0.13185984
-0.21995074
0.0058385055
0.15351032
-0.14215857
-0.32919136
-0.05286676
-0.10037407
0.20460919
-0.31692052
0.032411553
0.35380673
-0.2993323
0.27282783
-0.17181773
-0.13748685
0.15035062
0.01376009
0.167473
-0.22703175
-0.120992325
0.14048903
0.22692543
0.23884635
0.2946073
-0.021855285
0.2561477
0.07882239
0.034535382
0.032761555
0.21494539
0.21739854
-0.16944422
0.1926171
0.009279217
-0.1703517
0.22378442
-0.30771378
-0.15917847
0.36830962
-0.3288412
0.12812567
-0.18514755
-0.012267719
0.3458528
0.29559195
0.09896763
0.33832508
-0.27264497
0.05381422
-0.25297552
-0.26529846
-0.20226401
0.32128462
-0.13081825
0.30013716
-0.1311732
-0.024918066
-0.078066744
-0.3296393
0.19926673
-0.1335773
-0.21004541
-0.15462284
-0.0072596488
0.04202707
-0.05059225
-0.044963222
0.11518967
-0.156643
-0.15898013
-0.105028905
0.237562
-0.046432555
-0.22271627
0.08046377
-0.10313776
0.31413034
-0.039866228
-0.28304768
0.0012540973
-0.22348961
-0.28216502
-0.0024810208
0.05102104
-0.2779805
0.25789583
0.23027822
-0.108870395
0.1680218
-0.005460253
-0.21442915
-0.0032250797
-0.22560567
0.29092848
-0.02519085
-0.035345256
-0.20068875
0.24204704
-0.3073917
0.24894544
-0.08828426
0.22865096
0.1354273
0.2642733
0.32306617
0.15171266
0.2925911
-0.30641067
-0.088440284
-0.037761305
0.2589151
-0.2061484
-0.2100277
0.02150495
0.2945585
0.12941973
0.15700294
-0.31885302
-0.09053412
0.09308398
0.2422511
0.075799614
-0.05424201
-0.04806506
0.1292968
0.14681762
-0.3194253
-0.31063214
0.30580544
-0.12610272
-0.2571905
0.2291338
-0.2407511
-0.23826806
-0.27361885
0.3021209
0.31970465
-0.2823802
0.095509574
0.15866217
0.29714984
0.27287072
0.19604148
0.12838985
-0.038277622
-0.11968762
0.122066066
0.3024827
-0.13287967
-0.11799463
0.22722271
0.28485972
0.027145235
0.31313863
0.24497166
0.37620735
0.15069303
-0.037157394
0.2097849
-0.06982128
-0.35093907
-0.29354665
-0.2767486
0.16208135
-0.31776735
0.25340495
0.19070022
0.23904534
-0.110901155
0.3273615
0.24731342
-0.004894915
0.1379984
0.09442844
-0.2023512
0.18336004
-0.26046
-0.09823724
0.067442365
-0.11688989
-0.055466525
0.1584172
-0.20921968
0.14094776
0.18190151
0.060158603
0.2614565
-0.2543029
0.012948768
-0.11040659
0.029624416
0.17198734
-0.37410256
-0.029764535
-0.29807612
0.27098164
-0.2612647
-0.06441475
-0.060480908
-0.13629007
0.06161457
-0.117953606
-0.08875552
0.03984937
-0.2281796
-0.11015493
0.2814911
0.25434583
-0.11556053
0.12259159
0.1711934
-0.05566612
0.33119786
-0.19165687
0.011072058
-0.08421641
0.19059467
-0.18430994
0.029595325
-0.24943322
0.20337254
-0.07579613
0.22616524
0.090907216
0.1684982
-0.38235003
0.11882645
-0.24894473
-0.2610653
0.08312339
0.19550434
0.052176315
-0.13013402
-0.2177138
-0.16081862
0.23296854
-0.14961495
-0.18957421
-0.015519391
0.1651697
0.23262535
0.019633178
0.22086065
-0.17863944
-0.2704037
-0.20988736
0.08659275
0.22947754
-0.031093094
0.05754908
0.22082205
-0.33258775
0.18701987
0.14912324
0.2848156
-0.058435604
-0.10429015
-0.05797876
-0.007499219
0.036139492
0.12811697
0.14570518
0.14983729
-0.21233426
0.33944494
-0.10516792
-0.34593347
-0.09027345
0.051536936
0.03191055
0.21588929
0.056360256
-0.12934032
-0.2961448
-0.110076144
-0.06819385
0.17539392
-0.2666349
-0.09552295
0.03975339
0.051702466
0.089592
0.2341571
0.15616678
-0.009724432
-0.16445825
0.066769354
0.06326677
0.0880841
-0.37915006
0.23076658
0.14484362
-0.2442481
-0.34212333
-0.06819114
-0.022064105
-0.27469632
-0.12621291
-0.12381124
-0.3019256
0.21477512
0.10506197
-0.23785475
0.07216767
0.0125358915
0.20865512
-0.02769805
-0.019077094
-0.06131252
0.010902124
-0.09530235
-0.16011128
0.22927319
-0.040288996
-0.116842225
0.06982387
0.004831181
-0.09754115
0.21844034
0.26303956
0.09957298
0.27779883
0.29789641
0.33257428
0.2539535
-0.006429184
-0.13679846
0.07240521
-0.041951817
0.18435426
0.064160116
0.04899659
-0.17996791
0.06703675
-0.048525017
0.17317419
0.25262007
0.17850706
0.14439423
-0.152435
-0.21273409
0.097405754
0.048167806
-0.18555208
0.0150466645
0.34542716
0.11176224
-0.27374572
-0.27247208
0.08738071
0.26460359
0.33063802
0.3002874
0.20704545
0.37017357
-0.051060513
-0.30615523
0.10560306
-0.059864096
-0.1684417
-0.050313942
-0.03224236
-0.18988873
-0.0992045
0.061248373
0.2062267
-0.13652551
-0.34092134
0.030368604
-0.30995512
-0.031324074
-0.04502513
-0.18623388
-0.2987124
0.24761052
0.18923236
0.25467393
0.082490616
-0.10164104
0.14425664
-0.3086063
0.18193184
-0.27492464
0.24270785
0.16892593
0.24695782
0.12118799
0.20683923
0.21842752
-0.11056257
0.1985083
0.2639058
-0.35873866
0.08218724
0.34604496
-0.20593147
-0.011307351
-0.20058398
0.0925673
-0.25069067
0.133106
0.09043256
-0.06112105
0.17114675
-0.11126829
-0.33263913
0.033848718
0.20621942
-0.036007017
-0.0977671
-0.10901406
-0.0884921
-0.27242842
0.21882664
0.1850181
-0.052733313
0.24559091
-0.085634075
0.21677956
0.052539244
0.052355617
-0.11565522
-0.040735684
0.14343469
-0.16935463
0.24386938
0.16364205
-0.3149517
0.29893878
-0.23653696
0.08728723
0.11868863
-0.17284684
-0.015628971
0.04070413
0.08269051
-0.07100219
-0.16184641
-0.013514829
-0.0998842
-0.17807314
0.33545431
-0.123320974
0.22447024
-0.18099546
-0.37539017
0.321878
-0.33583426
-0.21805973
-0.054936666
0.32071996
0.34055975
-0.12655482
-0.27188554
-0.068662204
0.25870362
0.13995524
-0.115270786
-0.08499767
0.26547223
0.07376347
0.21747518
0.29655907
0.067700006
0.3143916
-0.013038063
-0.07329667
-0.08625798
0.11646028
0.29527432
0.100318134
-0.121554695
0.106902204
-0.2734347
-0.0817546
-0.20160523
0.018640853
0.10215577
0.23478264
0.040704757
-0.035875212
0.23112333
-0.24879943
-0.32601312
0.2649492
0.08946258
-0.13431951
0.089725204
0.1485982
0.265683
0.0157226
-0.20565672
0.05971468
0.3537151
0.17414226
-0.0025097595
-0.2383606
-0.24889182
-0.26225662
0.09246095
0.12104014
0.053665794
-0.19566211
0.16670327
0.3234822
0.033651777
-0.21951008
0.35756007
0.32183176
-0.29450512
0.043383285
-0.23892675
0.27215248
0.10364897
0.12381184
0.21056709
-0.2525504
-0.331176
0.30232248
0.3704971
-0.06704307
-0.03209508
-0.030221375
0.24956284
0.08713676
-0.14316608
0.23273166
-0.21864153
-0.04985407
-0.053709175
-0.16341044
0.010816062
0.10947869
0.10252916
0.05841665
0.14390083
-0.2167991
0.09659006
0.14758568
-0.34031403
0.0020292383
0.25050348
0.3156534
-0.02812136
-0.13646595
0.1982209
0.23101093
-0.06509389
0.049990438
0.019253382
-0.09436349
-0.1582033
-0.19288827
0.052650742
-0.13338049
-0.12376087
0.09032217
0.006282579
-0.23104075
0.26384532
0.27823332
-0.20136689
0.11861342
0.060102575
-0.19462842
0.031509995
-0.16775286
-0.18917513
-0.28840256
0.22639428
0.014746097
0.11551961
0.17685173
-0.18313533
0.1958693
0.24121544
-0.10638855
-0.27215645
-0.07486492
0.019960662
-0.27732414
0.04079496
-0.048194222
-0.08154294
-0.28983033
-0.03160766
-0.18702127
-0.07363826
0.34588814
0.08554483
-0.24612126
0.09596572
-0.16199923
-0.18285075
-0.2348159
-0.054892823
-0.13384306
-0.17013672
-0.1860968
-0.100611925
0.26246884
0.11347588
0.12560141
-0.20980269
-0.013976553
-0.09755282
0.036921587
-0.24809514
0.27387413
-0.16729686
-0.042612325
0.04764282
0.11811801
0.04345257
-0.13820447
0.27574053
-0.27154794
0.0067033414
-0.124669686
0.096289404
-0.23054688
0.0066890987
0.20992246
-0.35403425
-0.23904128
0.122046016
0.1778281
0.21977767
-0.20236658
0.25343418
0.112150624
0.16259293
-0.11072501
-0.16765457
0.2583454
-0.19380154
-0.2980421
-0.2010831
-0.08185573
0.03177082
0.0055444753
0.19204159
-0.16256839
-0.2681554
0.09476453
0.31237653
0.26400274
0.078151464
-0.34493497
-0.24592932
0.31815138
0.28625092
0.050356958
-0.16159469
0.1876617
0.0023941908
-0.009703845
0.21205167
-0.12034764
0.178948
-0.005210297
0.004880478
0.08040007
-0.36826482
0.22783737
0.11451022
0.1684902
-0.029129896
0.070185795
-0.061420187
0.06861233
-0.2689593
0.105632685
-0.24597828
0.21364619
-0.1592409
0.12795183
0.0337777
-0.16911457
-0.08907231
0.20081085
-0.221359
0.070029736
-0.032078106
0.15491605
-0.011085472
0.024633931
0.3068597
-0.091007896
0.22527479
-0.15930904
-0.06370465
0.113593556
0.047893092
-0.07137267
0.26233026
-0.2294075
-0.11098162
0.230446
-0.035590056
-0.22029145
-0.17460339
0.072168395
-0.07746727
0.24701928
0.28946763
-0.2937028
0.20291449
-0.12881444
-0.23872538
0.06273937
-0.31751016
-0.19485031
-0.051220577
0.21711464
-0.17297453
0.16445875
-0.217946
0.11527947
0.29358533
-0.16866226
0.18479699
0.2056248
0.116675176
0.10135606
-0.074097045
-0.04641436
0.3098791
0.29360858
-0.31676129
-0.3418835
-0.30313072
-0.26193246
0.29416442
-0.21911998
0.16744883
-0.1341045
-0.089961365
-0.112908795
-0.09050338
0.2024939
0.03837111
-0.010862168
-0.3139438
-0.118992545
-0.25329912
-0.28767803
-0.13798858
-0.11547019
-0.30329445
-0.23234318
0.16181171
-0.12671535
0.065980196
-0.32337186
-0.225002
-0.16440952
-0.26407725
-0.054491837
-0.20473424
-0.006554923
0.010696539
-0.24636199
-0.26606184
-0.22913519
-0.07677209
0.059439972
-0.14644383
-0.15331647
0.0069499128
-0.065006286
-0.14533408
-0.33645424
-0.07391692
0.08684874
0.07515598
0.24469675
-0.310417
0.099949636
0.3475227
0.28720537
-0.07932684
0.14468542
0.19147518
0.11686159
-0.2853936
0.23880412
0.26044366
0.21549048
-0.18947808
-0.40005437
0.10394346
-0.077668265
0.0021567298
-0.06714178
-0.07755705
0.0546564
-0.2829457
0.057887036
0.008391246
-0.059467766
-0.119537644
-0.1295129
0.0013322475
-0.24156356
-0.20627277
0.021549648
-0.13742582
-0.11815151
0.27582213
-0.17653273
0.1632348
-0.21661818
-0.236859
0.006863599
-0.03595656
0.062163293
0.1420912
-0.30448094
0.25286633
0.13936101
-0.22164169
-0.28060922
-0.24162722
-0.36465803
-0.26309022
0.091967456
0.033503752
0.33830735
-0.1537137
0.25610483
0.33060956
0.20329253
0.30906865
0.25975347
-0.14539151
-0.043426976
-0.10818346
0.03148732
0.000797637
0.22444285
-0.17614733
0.21827078
0.29718903
0.035543323
0.16222046
-0.14928347
0.09640166
0.13008593
0.24304159
-0.26841173
-0.23972458
-0.25517952
0.27519298
0.24258067
0.19222303
0.06904043
-0.11787623
-0.15087986
-0.1562374
-0.16342191
-0.3562952
0.16194944
0.17188281
0.1719006
-0.09967932
-0.1632397
-0.09049537
0.3093737
0.077257544
0.33173367
0.0031943463
0.20522779
0.036710184
0.16188857
0.16336647
0.26413605
-0.04534923
-0.21810047
0.23755176
0.2587006
-0.083027735
0.038769305
0.08611286
-0.051342905
0.1327694
0.29807132
-0.13589384
0.11283038
-0.24337246
0.11950683
0.02815159
0.0045333277
-0.010897473
-0.07352704
0.26134
-0.26569343
-0.023345385
-0.122871675
-0.12686424
0.20774014
-0.07396127
-0.1385537
0.18146439
-0.27034277
0.025668595
-0.10799039
0.28016028
-0.06327751
0.08749801
-0.2448938
0.16631076
0.07120068
0.16001017
0.31893113
0.29138693
0.09082225
0.3063604
0.24834816
-0.12335765
-0.14229208
0.062486984
-0.06975078
-0.1183749
0.058824796
0.27772847
0.11665349
0.20916773
-0.3404906
0.09654071
-0.012201413
0.0054732524
-0.32501483
-0.20683436
-0.11287266
-0.019868132
-0.16830212
-0.27557278
-0.04423661
-0.1901423
0.17741176
-0.28523472
-0.16016261
0.26985487
0.041601174
0.19909549
-0.13107543
-0.14184266
0.0045633735
-0.04087327
0.14620157
0.39892125
-0.21603215
-0.31221256
0.17676136
-0.1749157
0.28892583
0.26685786
0.15970543
-0.36042467
0.34475285
0.021900184
-0.14700732
-0.17208616
0.14681327
0.23843372
-0.18152383
0.0673505
0.33458352
0.004702244
0.23853117
0.08420813
-0.034641046
-0.08444773
-0.16882513
-0.22957249
-0.091764666
0.017229712
-0.25811708
-0.15559898
-0.16627295
0.2728754
-0.13188297
0.33682668
0.22700569
0.29625747
-0.20801467
0.0572174
-0.337589
-0.2526825
0.06953257
0.27179322
0.025672093
0.0075920676
0.010065108
-0.21150982
0.3129115
0.030129632
0.08886186
-0.025926488
-0.21154793
-0.08498201
0.16861008
0.050847653
0.31541342
-0.1522895
0.26193777
0.17823754
0.1189621
-0.096976034
-0.32224378
-0.18334362
-0.13347255
-0.19712698
0.16608131
0.0060401387
-0.16971828
-0.24477166
-0.13267562
0.032118835
-0.24881114
0.2513771
