-0.13928665
-0.09565183
0.17494829
0.25631875
0.15177125
0.07576234
-0.116406836
0.3260569
0.35600445
0.21851677
0.076316066
-0.11432532
-0.043830935
-0.18295106
0.16083212
0.025221897
-0.31433508
-0.19529942
-0.19653733
0.1647472
-0.2650898
0.02771869
-0.2934593
0.14362024
-0.07510666
-0.22213931
0.28895748
-0.38724762
-0.029993542
0.0014225031
0.18417776
-0.2781408
0.12304411
-0.117473915
-0.019864539
-0.047233332
0.07696128
0.17633696
-0.021884834
-0.1761175
-0.03345302
-0.04409631
0.2818739
-0.19890961
0.13574551
-0.005027319
0.29299334
0.22612087
0.30042168
-0.09181705
-0.08426712
-0.015164732
-0.16726111
0.20342885
-0.11961193
0.21946476
-0.354289
0.13013116
-0.17311038
-0.19101971
-0.1663317
0.09295526
-0.060523488
0.21241361
0.19073135
0.054387704
-0.24935845
-0.33489758
0.09102819
-0.40798542
-0.059672005
0.32023287
-0.34509623
0.05756128
0.2451016
-0.2608021
0.09473235
-0.29979348
0.4145586
-0.1414237
0.38292462
-0.38613507
-0.2684767
0.082315005
-0.24274312
-0.34610564
0.17476952
0.16415744
0.24810211
0.31879643
0.1043596
0.19710696
0.07196212
-0.13751996
-0.087446116
-0.13760146
-0.26335213
-0.29829252
-0.24235877
-0.21528758
-0.06000232
-0.13250159
0.24793056
0.037770547
0.20512523
-0.06085137
-0.19527219
0.06517541
-0.3171401
-0.4432559
-0.16112295
-0.28719822
-0.06942388
-0.12900598
-0.0027737373
-0.12357099
0.26035276
-0.21783425
0.21552531
0.25205928
0.26487476
-0.22614291
-0.13764077
-0.28799048
-0.35356775
0.12199322
-0.25248834
-0.040997975
-0.19516751
-0.11642399
-0.19880061
-0.18490691
-0.11801433
-0.3157216
-0.13095461
0.13003108
-0.075783886
0.2271212
-0.23934844
0.20898466
0.09539159
-0.17690964
0.109998815
-0.0072949175
0.18387581
0.036467202
-0.09430031
-0.21341142
-0.16198714
0.2388169
-0.21992429
0.16108826
-0.030435504
0.020081267
0.039990127
-0.059690103
-0.21268106
-0.058793698
-0.19648354
-0.2528799
0.19884554
0.024899764
-0.09836614
-0.008683707
-0.24739648
-0.043753512
0.052292693
-0.122146964
0.31736958
0.26834115
-0.06613464
0.30754027
-0.1561144
0.34906134
0.082223944
0.369683
0.14570592
-0.13205162
-0.038825717
0.13365598
0.12586743
-0.25592363
-0.1625694
0.017670492
-0.096910246
-0.31504494
0.16900139
0.06730336
0.3227647
-0.14127424
-0.12358271
0.3863214
-0.19149616
-0.21454053
-0.0628573
-0.18879357
0.0029623783
-0.31420898
-0.35249108
-0.11667758
-0.30821487
-0.25655466
-0.2880065
0.16984618
0.016771024
-0.02083036
0.29319197
0.028112413
-0.077789485
-0.14884578
0.0579046
0.2965823
-0.051693656
-0.11980408
0.038076323
-0.1465903
0.10005667
-0.10651706
-0.0864218
0.027253335
-0.26387542
0.20689988
0.28234667
0.2926293
-0.04619704
0.25678214
-0.14427735
0.1468054
0.007420705
0.28590724
0.23534584
0.2129723
0.24987473
0.008224092
0.058816824
0.19066446
-0.23790745
0.3247199
-0.21136571
-0.14465573
-0.20272756
0.086108975
0.24237412
0.04829687
0.12949039
-0.13566336
0.23866937
-0.05757737
0.1373441
0.23074807
-0.11580198
0.07336305
0.24160665
0.089277044
0.067718685
-0.053976696
0.066535644
-0.30984896
-0.1331334
-0.070258155
-0.18657045
0.1328492
0.15627436
0.17201285
0.07812018
-0.011621058
0.12080166
0.07766505
-0.23197787
0.027234541
-0.31098115
0.048628245
0.090525426
0.29471153
-0.34343177
0.18757844
0.26812163
0.01996022
0.21168056
0.20412944
-0.019482736
-0.23125586
0.2962873
-0.15950915
0.2774209
0.08763354
-0.23654798
0.11623538
-0.1629172
-0.27532494
-0.036395483
0.2976423
-0.26325116
0.25156084
-0.040265873
-0.15327853
0.3133889
-0.22292109
-0.17453581
-0.08429952
-0.0149664385
-0.36421224
-0.26211384
0.057279173
-0.2444989
-0.2996646
-0.2062157
0.037859384
0.14621529
0.29117966
0.13351788
0.28806034
-0.007318642
0.18495028
0.03001852
-0.26595044
-0.0009928157
-0.16150683
-0.03847656
-0.36252567
0.14012976
0.19015808
-0.024985528
0.13739084
0.15431389
-0.0077624973
0.0031697142
-0.27126068
-0.031832494
0.1778242
-0.00652461
0.042899754
0.3929866
-0.18830594
-0.13812904
0.2964338
0.3006756
-0.14076741
0.15555868
0.2755458
0.14086029
-0.30829036
-0.25348765
0.11069239
-0.30140558
-0.16689873
-0.14973138
0.33881962
-0.16847126
0.097190976
-0.16099975
-0.017396368
-0.21554534
-0.036563452
0.17595237
0.30365396
0.019424908
0.21416739
0.02325817
-0.14784847
-0.15069865
-0.11604552
-0.019700188
0.15923128
0.12218656
0.17094758
0.3620357
0.27988356
0.37380308
-0.08153282
0.19086607
0.01268209
0.27890965
-0.15413934
0.25626817
-0.05691334
-0.32653344
0.057268076
-0.3728557
-0.21757095
0.23768455
-0.19256555
0.021090286
0.14334032
-0.03146038
-0.04477989
0.0062297955
-0.10591141
-0.18852043
-0.19253293
0.06422996
0.31750178
0.2252512
-0.25520095
-0.2860634
0.01652469
-0.13090445
0.18799365
-0.11686821
0.08796335
0.23691668
0.18711779
0.074846014
-0.010498123
0.23299909
0.015206333
0.14430885
0.0022030328
0.14936076
-0.17228456
0.16035138
0.2646942
0.1445503
0.06648266
-0.28992498
-0.13937528
0.20968522
0.24173872
-0.1961958
0.065439746
-0.109750524
0.10754455
0.3189718
0.35328203
-0.015982643
0.30996704
0.16559632
-0.25726154
0.09315533
-0.28377652
0.028765772
0.32293385
-0.021454932
-0.016167825
-0.06621325
-0.20076002
0.113905706
-0.026856123
0.20241378
-0.18541783
-0.19433165
0.13892871
0.18398833
0.108974166
-0.20895788
0.27953956
-0.22437353
0.2994548
-0.18587089
0.06825708
-0.004010412
-0.057575885
0.03701006
-0.26077205
-0.26718655
-0.05404655
0.16057393
-0.24104156
0.21782504
-0.077971995
-0.014436569
0.35118583
0.06906088
0.26912087
0.40578967
0.2584936
0.37683758
0.0914732
0.1397201
-0.14970459
-0.11903937
-0.17525846
-0.19463241
-0.2650639
0.21228462
0.08654608
-0.12182179
-0.095365725
0.31892294
-0.36105785
-0.040226933
-0.013840445
0.043260522
-0.26917598
0.17727436
0.017663088
0.092593275
-0.00449867
-0.21901514
0.009817398
0.08136148
0.30014467
0.068815626
0.16555655
-0.17116617
-0.111989774
0.15674864
-0.24640436
0.28339544
0.180985
-0.09218459
-0.33115867
0.08433459
-0.22131059
-0.1780378
0.107736334
0.14697509
0.019412972
-0.23718037
-0.1288888
0.048010778
0.03416922
0.1930124
0.13833086
-0.12320236
-0.20016128
0.15268214
0.18005396
0.18375607
-0.24274786
-0.16790031
-0.15373549
0.048855297
-0.24418862
0.3055775
0.09864303
0.038192254
0.3306321
0.15318114
0.14196183
0.0792497
0.15015206
0.09932298
-0.18309072
-0.17671716
0.17945975
-0.09957607
-0.12256775
-0.20617658
0.20708366
0.055512123
0.30721915
-0.12443211
-0.15900655
0.25923553
0.18308002
0.24091284
0.12342437
-0.18460664
-0.15721841
0.011286647
-0.1538848
-0.23866975
0.28030595
-0.25991565
0.28942853
0.12327825
0.24974932
-0.038962524
0.11585262
-0.07228651
-0.24025021
0.041469127
0.18155843
-0.1699219
0.3225018
0.15527888
0.09766936
0.07152217
-0.054275572
0.29569426
0.1295728
-0.06368294
-0.20089364
0.19955827
0.058052897
0.059248786
-0.033157703
0.26402688
-0.3222534
-0.09658026
0.06052509
0.066837564
-0.09907899
-0.24047953
0.05884558
0.33822256
0.04802764
-0.027248047
0.3918065
-0.06219513
-0.27193314
-0.28488946
-0.08444461
0.26282394
-0.17737791
0.093710594
0.09683532
0.22979511
-0.26973337
0.36484802
-0.047102768
-0.1951643
0.23290165
-0.14830166
0.09731364
0.071595006
-0.2976775
-0.1327003
0.18928006
0.15078385
-0.002092843
0.08879841
0.012959485
0.007873686
0.23179476
0.07469765
-0.06893998
-0.11543464
-0.27492872
-0.27045593
-0.27710572
0.0056867753
0.3277926
-0.23817816
0.18658741
0.20426217
-0.28475767
0.12849659
0.09229843
0.117311336
-0.17479448
0.25605038
0.33312514
-0.25613225
0.087417066
-0.15036826
-0.32954708
0.093774095
-0.15117493
-0.14503987
-0.06500095
-0.3347279
-0.0010473533
0.08006437
0.3708178
-0.0897739
-0.17286725
0.22885992
-0.082637995
-0.31403023
-0.22961552
0.14037493
-0.012972908
0.2642716
0.11147542
-0.19192705
-0.13687995
0.14940523
-0.21109034
-0.048415463
-0.014899864
0.0537334
0.16649038
0.19293563
-0.30358455
0.19576989
0.2087075
0.077250995
0.32218784
0.07739972
0.16108151
-0.11933513
-0.29954454
0.07050415
-0.34197435
-0.19406876
-0.16058034
-0.33276522
-0.27849546
-0.10352157
0.14079788
-0.11460859
0.15116213
-0.06773795
-0.08800844
-0.120809734
0.16477855
-0.02243912
0.04191953
-0.042509682
0.34609148
0.10300086
0.24148706
-0.116382465
-0.054246962
0.35668468
-0.23943645
-0.28338718
0.3293534
0.07784516
0.06332796
0.014956427
0.14534818
0.12483954
0.18522294
0.29501933
-0.2999549
0.06497627
-0.09254828
0.24246538
-0.15967666
0.10052408
-0.009020033
-0.03142443
0.01714344
0.15266514
0.25653177
-0.048220843
0.024179267
-0.04899307
-0.012326862
0.26128933
0.30821493
-0.16293298
0.29693225
-0.03134163
0.28662083
0.3224411
0.1697181
-0.102604195
0.1757444
-0.23338267
-0.08621198
0.015037026
-0.13165946
-0.2067319
0.2305084
-0.29990384
0.29062653
-0.10765921
0.10993658
0.24479584
-0.0010318913
0.21589985
-0.27384037
0.09676734
-0.21726789
0.37246683
-0.31201872
0.1315007
-0.15655087
0.30344707
0.03436616
0.16838308
-0.081225656
-0.035787266
0.2972246
0.07774389
-0.027025077
-0.08473851
-0.13197568
0.27534124
-0.15086558
-0.16004351
-0.044810873
-0.21335329
0.20733866
0.2002567
-0.034542635
0.24428575
0.09127986
-0.16167717
-0.37316442
-0.08529185
0.092111774
0.20993218
-0.05022582
0.10640873
-0.20422965
-0.033202816
-0.016645674
-0.04655434
-0.0023758118
0.34306878
0.2745453
-0.098342635
0.24818331
0.027739847
-0.35037687
0.34195966
0.23473139
0.019090112
-0.33898693
0.036498103
0.0741983
-0.23281483
0.1382581
-0.052986078
0.2586901
0.022339914
0.20018637
-0.061705116
0.045067277
-0.13515036
0.26620954
0.021463612
-0.11058163
-0.09095945
0.16124262
0.034720965
-0.30526993
0.21078974
0.0474386
-0.33301896
-0.1464726
-0.10482776
-0.27854192
-0.09146169
0.23491594
-0.0076179067
0.3247684
-0.25236017
0.300311
-0.17172702
0.2698688
-0.12156827
0.37888977
0.21462405
-0.23321548
0.1557645
-0.14995936
0.15975907
-0.024897594
-0.11173785
0.32068002
-0.33313608
-0.15683015
0.17627709
0.0057260967
0.18015477
-0.22869879
0.17388494
-0.08039043
0.06880688
0.3973623
0.10780424
-0.2055236
-0.0832614
-0.3062448
0.334668
-0.31319764
0.11627303
0.25308755
-0.065003514
-0.03352039
0.13936892
-0.36030385
0.20294538
0.33470604
0.03493564
0.16910818
0.067494385
0.26949623
0.03551605
0.27739173
0.03713602
-0.12458524
-0.1630236
-0.055701066
0.24722907
0.10530352
0.11421589
-0.06066951
-0.30135277
0.34313896
-0.13700104
-0.08398125
-0.105745696
-0.30364916
0.1474041
0.24260041
0.34636617
0.18823014
0.21785234
-0.027676744
-0.20483223
0.26138172
-0.18283422
0.11377816
0.28765094
0.2589992
0.23996975
0.27484238
0.034673568
-0.22080787
-0.27286962
0.24304295
-0.29366067
0.2905603
0.22089715
0.3303802
0.14474769
0.14188817
0.19099167
0.33278495
-0.077305704
0.25109258
0.3473737
-0.21022364
-0.09733189
0.28254038
0.06966043
-0.31046283
0.2965604
-0.22802071
0.16586077
-0.16447115
0.27676016
-0.09558764
0.20350201
0.24817239
-0.16964032
-0.14381126
0.108331464
0.3528507
0.3270022
-0.020166915
-0.023256185
0.076407336
0.2508737
0.2216297
-0.32817438
0.013406279
0.061092436
-0.11320966
-0.26727918
0.29262018
-0.22420889
-0.14439383
0.27317885
0.20771319
0.111462966
0.29924864
0.1575973
-0.09196434
0.3481963
-0.056921568
-0.10241241
0.28941557
-0.0865538
0.035172965
0.0124971075
-0.1375836
-0.32479948
0.13799345
-0.22066583
-0.27612668
0.21843867
-0.09414525
0.036048785
0.017508946
0.25729126
0.004773478
-0.15998036
0.22578269
-0.2733232
0.105900176
-0.12868975
0.12412814
-0.022787878
-0.30609247
0.15474331
0.32818207
-0.3262804
0.18923804
0.1015997
0.17834291
-0.13010924
0.14848727
0.28329706
0.071668684
-0.065350026
0.064482346
0.18562964
-0.14215535
-0.19008248
0.3013896
0.08887298
0.014493193
-0.13461152
-0.07178762
0.17152931
0.12928432
0.05686624
0.11684698
-0.1329927
-0.017413838
0.117316395
0.12764697
0.004885483
-0.22961622
0.13889214
0.018847123
0.12801917
0.12201401
-0.03337738
0.08707898
-0.13300067
0.03103783
0.28958732
0.0918206
0.27430135
0.3116222
0.30280304
0.26819226
-0.117158785
0.04878479
-0.22466196
-0.079294495
0.02577833
-0.06184894
0.23349743
-0.3144304
0.19847202
0.24148877
-0.18381284
-0.18677408
0.21805987
0.15805042
-0.2618099
0.36071098
0.09997428
0.29255107
0.002902883
-0.118306726
0.07802789
-0.067914404
-0.3847677
-0.42270067
-0.23875022
-0.2272989
0.053031716
-0.13883701
0.3169076
0.043226354
-0.270808
-0.21824552
0.27756074
-0.18682452
0.057838723
-0.17699149
-0.13782386
0.19090554
0.097614266
-0.14095183
0.063422546
-0.21913542
0.11457539
0.13205162
-0.15223926
0.19939344
-0.056053042
-0.28838056
0.13270225
-0.1951301
0.29356202
-0.21265338
0.13061282
-0.12029587
0.27083367
-0.03223502
0.049815148
0.2018914
0.023848696
-0.28631824
-0.019165648
0.26591182
0.1547416
-0.22042851
0.20769869
-0.2919546
-0.15105486
-0.27146065
0.101547405
0.02868573
-0.20491037
0.35023773
-0.20224582
0.070993334
-0.04479928
0.11307144
0.2750745
0.13115215
0.2984552
-0.2904827
0.29902247
0.03740003
-0.006792901
0.088502906
0.12209711
-0.3342804
-0.3046325
0.030264309
0.25191802
0.060381386
0.12727831
0.10780453
-0.19785488
0.047488302
0.23371543
-0.106407344
0.1431589
0.091883086
-0.30339468
-0.009093624
0.058972884
-0.24464731
0.08240065
0.11806988
0.16807346
-0.3245742
0.27799365
-0.1312121
0.11332693
0.17424297
-0.04188381
0.053742703
-0.07200821
0.04175356
-0.13642837
-0.10075563
0.12422304
-0.2095494
-0.2556945
-0.23438378
0.2628187
-0.33117
-0.3702871
-0.2941129
0.12408928
0.12878148
-0.22757488
0.22535443
-0.22305657
0.052255873
0.23015736
0.18072209
0.13310793
-0.17146398
0.19506156
0.27665773
-0.20793264
-0.20892324
-0.10234185
0.23582782
0.26060453
0.13088556
0.26820055
0.0635462
-0.16537921
0.20672219
-0.13126083
0.14186466
0.10456929
0.025485788
0.030815667
0.10801996
-0.26006532
0.17681444
0.22928096
0.17007342
0.08964817
0.28651303
0.14800493
-0.074388675
-0.25868902
-0.031480502
0.20979023
-0.2838082
0.22597411
-0.3630402
0.35333106
-0.0906425
-0.24233183
0.33039692
0.07480711
-0.145355
-0.16234371
0.3435946
0.26254606
-0.013024101
0.24406332
0.31169865
-0.2862082
0.0875849
-0.049086533
0.10102833
-0.11279864
0.15051639
-0.19792359
-0.2823008
-0.089998595
-0.21795078
-0.24920663
-0.07707735
0.108131744
-0.12719944
-0.28879645
0.10254247
-0.049139548
0.28543302
0.18302287
0.28320858
0.30229762
-0.0388324
0.31899273
0.19957887
-0.22343703
-0.21060148
-0.10957529
0.1003966
-0.02403595
-0.17221022
-0.07156533
0.24870369
-0.29613936
0.21908867
0.25492588
0.049590647
0.29819414
-0.31827223
0.08921543
-0.07580843
0.058793567
0.31120548
-0.13975094
-0.28889453
0.23399536
0.25712356
0.056160808
0.071612336
-0.15838504
0.09809043
0.09093563
0.008929269
-0.15592076
0.0095347585
-0.20289826
-0.1951993
0.049310803
0.31919447
0.2867337
-0.27920613
-0.17773114
-0.03737975
0.15166374
-0.23508918
0.10657334
0.06737976
-0.023092177
0.046384316
0.13613752
0.03161345
0.24175525
-0.19138664
0.25298753
-0.117808826
-0.19481185
0.09345594
-0.20242678
-0.025134187
0.23635642
-0.19206339
-0.125351
-0.17066315
0.10058899
0.066771716
-0.0662971
0.06966437
-0.25558916
-0.24367183
0.2643071
-0.03185495
-0.3335648
-0.021233387
0.19205324
-0.24971993
-0.13427542
0.27696484
-0.1917914
0.0017805019
0.11650104
0.026619848
-0.07467222
0.25309286
0.06601094
0.2278413
0.10779916
-0.17949465
-0.27285776
-0.18822879
-0.20910624
0.12597558
-0.098780334
0.2551901
0.010023284
0.07552663
0.3019252
0.15141784
-0.19840425
0.21775731
0.30288222
-0.14109245
-0.29576957
-0.29101333
0.14659767
0.028069206
-0.16133635
-0.106750056
0.17156689
0.27016196
0.28773406
-0.12973507
0.09548636
0.27598312
-0.09457755
0.21118009
-0.07933512
0.10323909
-0.23929155
0.052827965
0.1835689
-0.073297426
0.32715422
0.006823505
-0.19868457
0.34775907
-0.0855433
0.19202267
0.05611957
0.26864648
0.10966734
-0.07281296
0.014710216
-0.11902727
0.35962492
0.15127005
0.19338357
-0.014205772
0.10773095
0.20337701
0.1673872
-0.17615886
-0.21745269
0.09961668
0.27134
-0.20693289
-0.17279035
-0.0284237
-0.31775478
0.09194071
0.16664697
-0.09586343
0.30394205
-0.07967475
-0.08999388
-0.27918813
0.16149972
-0.106777735
-0.12017232
-0.08621103
-0.1340604
-0.036383696
0.202868
-0.3132867
0.18123671
-0.14092186
-0.32294628
-0.26879513
-0.2753147
-0.37071076
0.3305478
0.26876613
-0.07828528
-0.21730156
0.17564523
0.12314009
-0.13408373
0.016230036
-0.23049006
-0.34410757
0.1177946
0.1821756
0.30410865
0.24283938
0.26685244
-0.020225665
-0.25303102
-0.031978734
-0.2047909
-0.3527203
-0.3255612
0.21000199
0.23816255
-0.27921385
-0.05019536
0.22136432
0.17255089
-0.17560676
0.23448919
0.3017161
0.206113
-0.22160341
0.21264948
0.27609652
-0.03899383
0.2520032
0.2953819
0.16110176
-0.15757778
0.2610855
-0.038471688
0.28409073
0.031278256
-0.06656958
0.050972357
0.008087832
-0.2078483
-0.18190525
-0.3074362
0.23639551
-0.20322058
-0.19162802
0.24291407
-0.030075721
0.018781492
-0.058891233
-0.26261088
-0.08515035
0.22686888
-0.049559265
-0.1541315
-0.17198795
-0.25738525
0.3420822
-0.16465844
0.1541659
-0.31772193
-0.13004857
0.0059517957
0.24343802
0.11189804
0.18072495
-0.3090174
0.32174072
-0.04171152
0.27753508
0.14245532
-0.12501974
-0.30185536
-0.086707324
-0.1994828
-0.13091758
0.18314955
-0.028982773
-0.092540056
-0.009964583
-0.16916005
-0.12735812
-0.0363712
-0.30760676
0.10328397
0.06147941
-0.36188743
0.08873296
-0.07834972
0.32239744
-0.029747859
-0.072346374
0.34946334
-0.0241334
-0.021961223
-0.15774412
-0.09680554
-0.24434313
-0.068945855
0.20173268
-0.13097192
0.24033345
-0.22029819
-0.006069593
-0.20250177
0.15601085
-0.30992535
-0.1846573
0.23339418
-0.009228151
0.19401002
0.043444186
0.15631229
0.3113175
0.2176762
0.12057138
0.3398527
-0.016206622
-0.23613474
0.123528995
-0.09163133
0.0018893529
0.22641988
0.40492553
0.022662507
-0.09544981
0.02305028
0.11707057
-0.06750851
-0.20512448
-0.19002095
0.26200742
0.23623247
0.15686919
0.06598831
-0.2303967
-0.16513723
-0.30192822
-0.014060207
-0.304763
0.2223807
-0.3199068
-0.23136917
0.055201255
-0.34178618
0.11916279
-0.12191311
-0.12438011
-0.06692949
0.3143661
-0.09834691
0.14577366
-0.15838769
-0.033799376
0.0014043167
-0.32586485
0.03749406
0.21289644
0.3311039
0.061169684
0.1270462
0.03726148
0.015280274
-0.26331595
-0.26251295
-0.13231902
0.1863668
-0.20068443
-0.14592901
-0.32590064
-0.082239605
-0.12723961
0.07615018
0.24494077
-0.19373478
0.34645712
-0.2251355
0.29007348
-0.18631534
0.25675607
0.0781021
0.21937151
-0.22658136
0.21265616
0.0440024
-0.22638556
0.22342995
0.26168495
-0.022636304
0.20512983
-0.17472734
-0.04875972
-0.014773898
-0.077932976
0.08795315
-0.20592502
0.21042815
0.27722436
-0.28068608
0.23408931
0.10113948
0.0036614302
-0.019115528
-0.20733218
-0.30341068
0.030251326
-0.016389668
0.13800608
-0.084441505
-0.12347555
-0.3176459
0.039033525
-0.29052994
0.31401524
0.273258
-0.07903816
0.14678964
-0.24319889
0.25471288
-0.09223207
-0.30911693
0.11898157
0.16840197
-0.28611946
0.047255266
-0.03470141
-0.064019576
0.19806887
0.21459594
-0.09439346
-0.18670976
0.12612312
-0.23289903
0.012869013
-0.017608179
0.11342104
0.10578686
-0.13598895
-0.30384344
-0.21690851
-0.27461046
0.27485263
0.046682853
0.18359895
-0.2214025
0.3032374
-0.08621372
-0.2276172
-0.021408381
0.066334285
0.32620984
0.20199025
0.15976734
-0.16305691
-0.3172836
0.117747635
-0.30829546
0.024286527
-0.11774666
-0.0011725039
0.18383284
-0.20540217
-0.20457104
0.046893265
0.098696895
-0.10327285
0.07998765
0.16422343
0.340838
-0.10973691
0.33448905
0.17873318
0.06546127
-0.20103896
0.052706238
0.06843458
-0.11275345
0.29699805
0.34113812
-0.23031004
-0.02182116
0.13052528
0.17685822
-0.025583666
-0.07221936
0.03516272
0.024640625
-0.090027876
-0.11449054
0.19166118
0.088069946
-0.27219665
-0.08721164
-0.29310444
-0.26534393
-0.11942133
-0.17851923
0.22931907
0.032162167
0.0888152
0.03503507
0.034267753
0.23956016
0.017255232
-0.22121507
-0.23914763
-0.08239331
0.31892982
-0.27271828
-0.16505581
-0.23638692
0.13453783
-0.2434068
-0.22729082
0.2985398
0.24981122
0.16327143
-0.15520535
0.04872354
0.030269613
-0.10585965
0.09832601
0.03988179
-0.09601868
-0.19772698
0.061771963
0.19222637
0.29287305
0.051550265
-0.1366204
-0.21688107
0.019431116
0.15219621
-0.09292788
-0.030456407
0.03766621
0.13296446
-0.30925155
-0.17843041
0.14490809
0.2074752
-0.002373815
-0.14305916
0.2429668
-0.021915313
-0.04552035
0.2174737
-0.11496033
-0.102208406
-0.03451092
0.35638517
-0.07310337
-0.26012734
-0.17208436
0.010502172
-0.30692604
-0.18379605
-0.11952877
0.233808
0.20977612
-0.114558056
-0.23507698
-0.06078191
-0.031026114
-0.116339065
0.2098264
-0.13416761
-0.06402842
0.27479452
-0.110045746
-0.41375154
-0.21434982
-0.20846428
0.0009564116
-0.32702094
0.11192454
0.08568897
0.082112774
0.29126364
-0.15084943
0.34796292
-0.14717294
0.22775444
-0.07957094
0.122696966
-0.14579582
0.121771775
0.009662081
0.07471303
0.16662544
-0.27795935
0.08227246
-0.005747352
-0.12437367
0.34101075
0.26289177
-0.0911532
-0.19583784
0.2931339
0.27775866
-0.18131465
0.16905136
-0.27080882
-0.029574739
0.13073826
0.0013163744
-0.08267309
0.108310625
-0.30266538
-0.12555532
0.04191888
-0.22033131
0.06366832
-0.16654898
-0.014766126
-0.083234906
0.115646206
0.18130463
-0.24203046
0.29793927
0.112431444
-0.06670161
0.1606348
0.1294465
0.2550571
-0.29194763
-0.10936476
-0.12673725
-0.316201
0.11427736
-0.31329653
0.20229906
-0.11842191
-0.052956324
-0.10037377
0.10586743
0.12762776
0.23946077
-0.10721318
0.03733235
0.18392755
-0.23060337
-0.24460647
0.1643042
0.021315515
-0.2568918
0.3401342
0.10411056
-0.18918422
-0.26159847
0.12894116
-0.017601874
-0.09752958
-0.23005643
0.24166843
-0.072501406
0.09677086
0.21349442
-0.24977498
-0.064806886
-0.01296476
0.07270603
0.12827174
0.095145956
-0.21860042
0.014213004
0.027915932
0.26105416
-0.059654634
0.07478888
-0.19407034
-0.15718774
0.25951406
0.11008606
-0.0073289354
-0.14668001
0.31056497
-0.00439086
0.124964006
0.38613707
0.363695
0.20889696
-0.19280536
0.23652676
-0.01933116
-0.0265868
0.24175712
0.04987954
0.26109058
-0.16963671
0.084405184
-0.1719889
0.16924188
0.033417657
0.076692134
0.13002728
-0.20457472
0.035936963
-0.054385368
-0.21728268
0.257973
-0.19819719
0.29617563
0.046252735
-0.2266556
-0.077879034
0.20732374
-0.30181783
0.10084718
-0.2688061
0.21633066
-0.07388131
-0.29587862
0.15782675
-0.09032091
-0.28898373
-0.10051587
0.07611278
0.19555926
0.16453509
-0.15055923
-0.12886761
-0.2755616
-0.31158692
-0.36503598
0.057021488
-0.34967262
-0.0025102952
-0.28551516
0.15618683
0.37492388
0.2652614
-0.11572206
0.37017643
-0.19574764
0.22076513
0.07513612
-0.16870321
0.24759056
-0.29380062
-0.2126047
0.265503
0.08174258
0.24287269
0.099833235
-0.21627873
0.21526508
-0.17668432
0.11159307
-0.3289493
-0.26136002
-0.14172783
-0.19609718
-0.05191429
0.211349
-0.21948977
0.22517729
-0.20567961
0.21975483
-0.32266524
-0.24239288
0.042829942
0.1818227
-0.23841481
0.17759162
-0.045894038
-0.36018056
0.06992232
-0.2160227
-0.19315219
-0.08201161
-0.050323557
-0.19610076
-0.086140014
-0.15106611
0.070917554
0.07770646
0.14759865
-0.16811685
-0.13730031
-0.22694574
-0.3461037
-0.0063751135
-0.030579627
0.15933344
-0.09329551
-0.095863014
0.0491436
-0.12930024
0.13312568
0.28953728
-0.3167539
0.06727644
0.2151203
0.23921156
0.1225875
-0.19306536
0.056357246
0.29045323
-0.3148254
-0.14022434
0.21923925
-0.19431064
0.07441665
0.090288915
0.379956
0.36850545
0.3711217
-0.21893595
0.23284142
0.259807
0.11683558
-0.04239991
-0.22137712
0.17419375
0.033894315
0.17525004
0.28976318
0.28121248
-0.23543201
0.14403945
-0.16351563
-0.101199016
-0.2523328
0.020364255
-0.22186573
0.25675854
0.3066419
0.066065304
0.19816054
-0.028801605
-0.09146418
0.09011445
-0.0026100301
-0.07210361
0.04052559
-0.2573735
0.08164178
-0.073185846
-0.11099133
0.09988002
0.13629451
0.16372389
0.29478002
0.0736153
0.2505938
-0.27086923
-0.17002879
-0.32475525
0.35025027
0.20034562
0.3855031
-0.32588977
0.18929662
0.19190599
-0.01846515
0.049154736
0.18521473
0.2673585
0.044942133
0.23131898
-0.008189585
0.2872866
0.04808883
0.2810921
-0.047490425
-0.2479243
-0.0026163147
0.33079046
-0.085064486
0.14064653
0.04255459
0.10089105
-0.1312508
0.031196063
-0.3645438
0.10495644
0.11141577
0.21210423
-0.20756081
-0.21649744
-0.20243484
0.21764614
-0.018009959
-0.17406116
0.22559977
0.28198817
0.025353098
0.3302583
0.054993518
0.17593741
0.18439086
-0.2637027
0.09418467
0.017654749
-0.10243901
0.091096
0.08610139
0.16654539
-0.04664539
-0.22466023
0.054966345
0.036052495
-0.31957617
0.30762747
0.1646176
0.09267693
0.11821915
0.2939682
-0.22462699
-0.0073230607
-0.21436955
-0.19556308
0.23881896
0.08194145
0.06269971
0.3349758
-0.29698956
-0.045537114
0.015494391
0.09240342
-0.109603114
-0.064818054
-0.0013502799
0.09544953
0.023847554
-0.08243674
0.16199426
0.14035158
0.23311469
-0.3381293
0.009712508
0.12110229
0.14616735
-0.13663322
0.19258653
-0.10291895
0.23660925
0.15102287
0.122641936
0.035153903
0.09848695
0.23966318
0.16916795
0.20900622
-0.17410263
-0.11550833
-0.17857957
-0.049089584
0.11839316
-0.10521775
-0.03200187
0.076557554
-0.20193174
0.0726873
-0.010393652
0.2108032
-0.10894674
0.22738825
0.35326815
-0.11182288
0.19550702
0.16132492
0.2540856
0.23465934
-0.093603715
0.19819424
0.05864193
-0.096987866
-0.24865445
-0.20375396
0.10645028
0.21745297
-0.17081667
-0.32885092
-0.31785533
-0.31905422
-0.27732533
0.091601886
-0.26398912
0.20590726
0.085871376
0.05623738
-0.1175408
0.0703801
-0.2869149
-0.0537223
-0.06258977
-0.025398968
0.10983964
-0.08568006
0.101349264
-0.21830004
0.20812704
-0.2846982
0.13612327
0.20103183
-0.1297487
-0.144985
0.14349112
0.29704326
-0.032855347
0.017474063
0.1489253
-0.08839288
0.11642459
-0.008009049
-0.040098235
-0.39269036
-0.25081283
0.22988907
0.021679793
-0.3332046
-0.17658135
0.03791051
-0.18107083
0.26111448
0.0752657
0.30950794
0.20913531
0.11038676
0.16119343
0.43958604
0.108732946
0.2719773
-0.35767788
0.16890712
0.11128671
0.3144109
0.1758822
0.030411322
-0.32732788
-0.09044475
0.2163458
0.12526082
0.017552795
0.035939727
-0.0734306
0.1120995
-0.13000081
0.21507712
0.033685394
-0.2977318
0.3086759
-0.05331036
0.05321348
0.03098995
-0.20683691
0.19626145
0.12211198
0.03811215
-0.057069633
0.09744314
-0.09644516
0.18265434
-0.26796755
0.3371252
-0.018283444
0.11894963
0.27599975
-0.24776597
-0.24472848
0.13037015
-0.00095332676
0.12961444
-0.039310943
-0.26624286
-0.03282299
0.11415949
-0.07307434
-0.35278988
0.072951734
0.24289846
-0.01501865
0.1642613
0.3415595
0.07487977
-0.21886802
-0.30612442
0.24004722
-0.24840039
0.18119597
0.16010825
-0.111810036
-0.2948067
0.104567416
0.1713972
0.16479106
-0.17930083
0.30452952
-0.17710032
0.024038972
0.23696448
-0.12290436
-0.17731918
-0.17458458
-0.05999591
-0.1323161
0.25916335
-0.19664039
-0.20031856
-0.015554315
-0.0075623216
0.1774231
0.14784928
-0.08825642
0.16617195
0.00048929977
0.11338728
0.034325052
-0.13120945
-0.14958695
-0.0730358
0.3226093
0.17085575
0.07050318
0.016863331
0.11588188
0.06341165
0.28223914
-0.18209456
0.061915297
0.33654502
-0.21756972
-0.1562212
0.09110553
0.28602472
-0.020302553
0.14856255
-0.184255
-0.068931535
-0.30000657
0.12688112
-0.16356458
0.13170093
-0.024595216
0.0025193514
-0.24931203
-0.18839158
0.20782144
0.20829383
0.19189805
-0.24266471
-0.05086283
-0.029694749
-0.2492656
0.22300898
0.3680363
0.23741184
0.19449723
-0.34050214
0.17426792
0.14652616
-0.30524936
0.110109694
-0.09924598
0.002305794
0.044571985
0.2447872
-0.1645688
0.24489655
0.09300899
0.26923355
0.4105888
-0.1052206
-0.27016857
0.25714317
-0.076241754
-0.2024623
0.2031428
-0.20659776
-0.0005516479
0.02388803
-0.011454285
0.423147
-0.09214738
-0.320904
0.310384
-0.068363436
-0.0006580736
0.00833492
0.14206506
-0.2569669
0.29996067
0.12923887
-0.062029626
0.05194718
-0.2677559
-0.12026747
0.17177308
-0.13983865
-0.24374972
0.26315242
-0.20794651
0.17100441
0.09075523
-0.073507585
-0.009087822
0.046617407
0.2517241
-0.28664297
-0.2684551
0.03327596
-0.2563425
0.23083775
0.026081728
-0.24774887
0.17799513
0.14862232
0.005317192
-0.12463746
-0.012422606
-0.12163252
-0.13863963
0.36501184
0.23230937
0.30536422
-0.12537758
0.096341394
0.0112956045
0.39569294
0.20440242
0.2237612
0.28910506
0.23955078
0.20346291
-0.10258365
-0.09696938
0.16931807
0.11687726
0.180299
0.3335839
-0.25904512
-0.04054521
-0.38375956
-0.0586462
-0.02128475
-0.046789255
-0.1153983
-0.05194355
0.27658123
0.1883618
0.13904913
-0.31114632
0.02172733
0.13975188
0.17214772
0.021234678
0.1633642
-0.31998888
0.2309899
-0.15588386
-0.25993302
0.20886315
-0.24407631
-0.03515142
0.11773278
0.15331891
-0.024972994
-0.12790889
0.19542713
-0.022091411
0.082413875
-0.39808086
-0.36413532
0.0028602872
-0.013103422
-0.2422684
-0.24788104
-0.09885237
0.2682503
-0.18903612
-0.3693567
0.06862277
-0.31374928
-0.16123597
0.14434904
0.30451438
0.183508
0.15029064
0.087346554
0.05443687
0.14167005
-0.34273824
0.10656317
-0.31474674
0.2909578
0.053548597
0.08592587
-0.2457434
0.094031595
0.2833003
-0.043911353
0.08625339
0.1261781
-0.10122473
0.031410247
-0.014076281
0.11946424
0.28058133
0.10880878
-0.14186324
-0.29109073
0.0064233574
0.0017199907
-0.17513987
0.20889013
0.25116387
-0.26314655
-0.28815737
0.3277084
-0.11436543
0.32573897
0.20548509
-0.17315322
-0.13483113
-0.13806443
-0.16363142
0.10256312
-0.1949346
0.23312916
0.30576074
-0.23190564
0.07347117
0.2631535
0.20727125
0.30160242
-0.07217787
0.27664056
0.3444234
-0.24595122
0.22466947
0.20156501
0.027509741
-0.20034629
-0.35667723
0.10835082
0.18522422
-0.0833853
-0.30502695
-0.22140233
-0.103977226
-0.07305478
-0.008747085
-0.0016725186
-0.088407695
-0.1877155
0.07519669
0.29269227
-0.104200535
0.042570543
0.16259803
0.0584611
-0.21965745
0.1837285
0.19707292
0.20581684
0.2265131
0.18469739
0.33288485
-0.041616883
-0.07783918
-0.2061644
0.26570794
-0.3524526
0.014425123
-0.27179563
-0.15845758
0.21780764
-0.04733005
-0.11645116
0.13832888
-0.028746087
-0.09892111
-0.20652868
0.12856737
0.012663482
-0.18420461
0.23903704
-0.13604145
-0.049067885
-0.07925279
-0.14593259
0.016496036
0.35586727
-0.35456026
-0.18751492
0.11016621
0.05532525
-0.2772918
-0.16010435
-0.35119703
0.080997296
-0.29228118
-0.03836413
-0.13745986
-0.06283138
-0.00046562628
0.24764371
0.33731288
0.05148859
-0.122601986
0.29553503
-0.04997613
-0.1936691
-0.17978542
0.13339294
-0.07081454
0.24301799
-0.1831828
-0.23117732
0.27535334
0.24135402
-0.04399498
0.05811799
0.17180735
-0.22769909
0.3491206
0.21921535
-0.1073266
-0.13106759
0.14288886
-0.26741624
-0.060044
-0.30504623
0.047412407
0.25349912
-0.28705925
-0.088139355
0.14871246
-0.30564183
-0.14572224
-0.35095897
0.07400869
0.10496056
0.055505127
0.26968253
-0.17251585
-0.0055764695
0.32211822
-0.03998237
0.4565754
-0.25420213
-0.06202345
0.3271214
-0.27785754
-0.27783257
-0.25463778
0.27151477
0.04224667
-0.15192959
0.06938668
0.07084311
0.22160317
0.0012389271
0.077759005
-0.2604068
0.2631723
0.0606576
-0.01715978
0.074540146
0.12390271
0.08676127
-0.12478783
-0.2831634
0.045141757
-0.1757867
-0.27683395
-0.004944567
-0.27536207
-0.08986828
0.06966538
0.37807947
0.09450275
0.1351825
-0.097868375
0.18460767
-0.013955216
-0.070162944
0.010246608
0.3946146
-0.04616304
0.1461026
0.31255937
0.1415214
0.12892224
0.2511898
-0.24788077
0.022378178
-0.02896402
0.034936216
0.10071001
-0.05189948
-0.1233443
-0.026334489
0.20588617
0.050704647
0.038255222
0.3271252
-0.19650032
0.13061988
-0.011056804
-0.26988193
-0.028781865
0.052195102
0.15812302
0.2703647
0.08748499
0.10244451
-0.04845609
-0.20976624
0.18438336
0.2364366
0.30896673
0.013803212
0.17240074
0.3137912
0.13717616
-0.12194713
-0.04804041
-0.055606853
0.17815432
0.2917972
-0.06560556
0.19807881
0.20541944
-0.30793166
-0.062780164
0.123270124
-0.15727055
-0.14885633
0.16273826
-0.121618785
-0.09129905
0.28643155
0.25272
-0.32813558
0.11243861
-0.07157297
0.2617585
-0.039674565
0.10177073
-0.15834184
0.11994427
0.2500476
-0.09082585
-0.10277267
0.12952627
-0.13484693
0.14733541
0.09436664
0.14993465
0.24296886
-0.21879673
0.13728677
0.11091034
-0.0702605
-0.15017852
0.22096732
-0.2808025
0.22668837
-0.27992982
0.23963058
0.027246075
0.14220318
-0.34363794
0.021691313
0.08049546
-0.07199578
-0.24043386
-0.091386996
0.33127722
-0.26413557
-0.16334672
-0.009064222
-0.17353272
-0.11249352
0.24720971
-0.33288246
0.38253313
0.037790593
-0.3136605
-0.34297043
-0.2433861
-0.1006954
-0.19762719
0.06313332
-0.15192838
-0.0804985
0.06412621
-0.24806455
-0.09996925
-0.0440081
0.33120716
-0.098411486
0.035646368
0.28512686
-0.13271318
-0.30405936
-0.31797764
0.33307737
-0.016774116
-0.1663323
0.25009945
0.15987878
-0.018804004
0.08200255
-0.2414263
-0.22449978
0.26928642
-0.042259775
-0.30337
0.19674292
0.26716465
-0.2737957
0.33206156
-0.18885
0.059585396
-0.14713441
-0.05126809
0.30784714
0.118537225
-0.16290134
-0.28529057
0.15089005
0.29977372
-0.055157322
0.34865835
-0.19346109
0.12481899
0.12128493
0.2989597
-0.14843202
0.28272
-0.010196968
0.17744774
-0.20580897
0.07539244
0.267449
-0.3234441
-0.19293155
0.115276724
-0.2988621
-0.29303777
0.17593381
0.22429383
0.13636534
0.2698745
0.17397419
0.10776334
0.20393172
-0.21508138
0.07886836
0.16606002
-0.21565764
0.009321548
0.1871574
0.06354837
-0.32944858
-0.03976505
0.30178937
-0.022358434
-0.3044011
-0.2811655
-0.004799672
0.25649983
-0.1055022
0.24062955
0.15065587
-0.33378735
-0.034068022
-0.2162149
-0.24335523
-0.15666685
-0.16097681
-0.33247185
-0.011740123
0.29803324
-0.11808505
0.34559155
-0.28400663
0.036416985
-0.31922284
-0.020938525
0.013780872
-0.17318852
0.31762278
-0.2567005
-0.15247492
0.24947669
0.05073305
0.26932365
-0.16546082
0.106842786
-0.27843976
-0.015976796
-0.2079737
0.107643925
-0.29002708
-0.11032149
0.27467835
0.2003669
0.2777173
-0.036278933
-0.07296754
0.07759839
0.21281856
-0.18661995
-0.30204883
-0.29004645
0.049652796
-0.22825652
0.14892422
0.25440717
-0.25521266
0.16578358
0.28935778
-0.27142555
-0.16994807
-0.1943953
-0.2549448
0.12134185
0.20068331
-0.06223504
0.24838646
-0.1606793
-0.012169265
-0.15284249
0.041879296
0.17825368
0.24897993
0.0592157
0.2588459
0.119967796
0.15947837
0.17640348
0.33759475
0.08460861
0.15648615
-0.17777877
-0.23238076
0.027157504
-0.29245913
0.097720385
0.31783223
0.24420458
0.21540563
-0.2674302
0.2211522
-0.17328577
-0.07796705
0.086391896
-0.15905541
-0.17041846
-0.07442212
0.13526775
-0.13712177
0.10582026
-0.05864934
0.17509143
-0.101620324
0.26542932
-0.2140902
0.3269189
-0.24863707
0.29594332
0.109708466
-0.13310862
-0.2927357
0.057866324
0.36947072
0.2331239
-0.110019125
0.19953457
-0.1651497
-0.32253683
-0.0037811082
-0.118338086
0.17560694
0.14248794
0.109726004
-0.122336425
0.17050171
-0.16193716
0.31689894
-0.25261185
-0.012241337
-0.3118016
0.13556959
0.36218306
0.21475357
-0.110071145
0.1370159
0.35786706
-0.29956412
0.2767324
0.17887653
-0.086807266
0.22100067
0.31299278
-0.1767799
0.10321105
-0.22341488
-0.09201334
-0.039556906
-0.21187004
-0.22717856
0.18332617
-0.037635006
0.14513114
0.1567265
0.07799664
-0.051348474
-0.006956742
0.13303515
-0.2921345
-0.34922433
-0.23385116
-0.40064245
-0.025304537
0.04036581
-0.16956976
0.16003098
-0.29180017
-0.082788035
0.28294313
-0.24134955
-0.12692854
-0.14121114
0.012982754
-0.04948266
-0.3419248
0.12239305
-0.31690037
-0.004832371
-0.17173329
-0.16741624
-0.27707568
0.15997419
-0.07781894
0.17730163
0.16817763
0.048602283
0.14208443
-0.19543886
-0.15432951
-0.084148325
-0.07265385
0.30010128
0.059214797
-0.2118847
-0.033749558
-0.30288202
0.19390807
-0.06824592
-0.20141396
0.072042614
-0.24819396
-0.2532976
-0.32971418
-0.22000772
0.15411085
-0.29316851
-0.22464071
0.05289044
-0.23461102
-0.35902587
-0.31453472
-0.14201486
0.008222362
0.26960516
0.14525472
-0.086599685
0.041111365
-0.25664303
-0.028446756
-0.2950628
-0.07358407
0.31392252
0.31742847
0.04111058
-0.20934936
-0.1975372
0.18753591
-0.026307544
-0.19490458
-0.23951218
-0.115054995
0.3015801
-0.19758356
0.042358153
-0.0015050768
0.3584737
0.11792146
0.35377985
-0.25256926
0.12501715
0.061110027
0.31226823
-0.068126775
-0.13367566
0.36039647
0.066451445
-0.11596949
0.12799327
0.070615314
-0.3308111
0.1601511
-0.25952092
-0.28952557
0.28876114
-0.024622258
-0.11350794
0.27618805
-0.27549335
-0.0620347
-0.107668616
0.13183434
0.18346207
0.16509788
-0.082365125
0.19764635
-0.083002634
-0.14471342
0.27009708
0.21839516
0.18675326
0.003909348
-0.21511349
0.27097908
-0.026484264
0.18624973
-0.019718105
-0.20029597
-0.08512294
0.26181298
0.020411996
-0.10114407
0.05718492
-0.05284071
-0.3108937
-0.24762216
-0.28119403
0.2236888
0.25942826
-0.12582445
0.41677237
-0.19178751
-0.10305917
0.22754364
0.29821208
-0.284136
-0.15616582
0.09166337
0.26136878
-0.35548723
0.26418483
-0.30793878
-0.24453185
-0.29441082
0.13937873
-0.13453725
-0.13702774
0.0675598
0.12198992
-0.07489096
-0.23954168
-0.11438067
-0.23611537
0.4045068
-0.0340855
0.37955108
0.11404699
0.30775392
0.13585158
0.2638989
0.08623775
0.29421854
-0.021713395
0.33345276
-0.106345326
0.2951434
-0.3288703
0.07244551
-0.11825173
-0.058431834
0.0066404035
0.09913573
0.12318123
0.14054574
0.09701154
0.18099837
0.16882116
0.34721705
-0.07168124
-0.17966747
0.2540619
-0.35529405
-0.18381362
-0.2435667
0.21311218
0.12114497
0.050865058
0.27629167
-0.18359834
0.12126371
0.34363356
-0.22828948
-0.26020628
-0.25761303
-0.09727013
0.20195381
0.033814706
0.14931905
-0.2280493
-0.1648635
-0.05857951
0.038432576
0.0780625
0.285022
-0.27558288
-0.22319366
-0.08083527
-0.17475751
-0.17974669
-0.13442472
0.07152453
-0.022058673
0.028103689
-0.26201877
-0.06717907
0.03722367
-0.14778306
0.33194196
0.14750656
0.041066088
-0.19934796
-0.13751449
-0.1652136
-0.19259316
-0.052244272
-0.36141166
-0.08090576
0.3726015
0.09811927
-0.17677371
0.27387464
0.2343924
-0.27382198
-0.039202232
-0.09968501
0.13786368
-0.06574528
0.28841907
-0.318655
0.3053023
0.27080566
-0.052777786
-0.15486671
0.007294636
0.12876843
-0.13486667
0.26553303
0.22811481
-0.24713777
-0.14878647
0.29605398
0.050187543
-0.044463262
-0.09104018
0.09508412
-0.22010037
0.14597239
0.06825018
0.032268796
-0.05332784
0.184934
-0.08118109
0.014453746
-0.19194287
0.04878121
0.14119068
-0.35768914
0.019302208
-0.14057313
0.23428495
-0.12793903
0.32984936
-0.2725708
-0.09374762
-0.13847019
0.033030987
0.027055835
-0.2908231
0.06502019
-0.3202712
-0.353043
0.28113586
-0.046115622
-0.19665909
0.0010342388
0.26080543
0.1257593
-0.11806817
-0.2151541
0.22923924
0.1036258
-0.07555749
0.43229544
-0.06632742
-0.14652832
0.09752954
0.18986686
0.13031748
-0.13773726
-0.16280362
-0.29344603
0.3449865
0.21720599
-0.27546328
0.22510538
-0.16953477
0.25163096
-0.11412771
0.04543406
0.123032704
0.12759095
-0.35565314
-0.2742338
0.29383957
-0.33443493
-0.1593049
-0.22433373
-0.1018448
-0.18335082
0.27220157
0.2547637
0.22125629
0.3108751
0.35448533
-0.2345804
-0.19440684
-0.26498303
0.0038154514
0.083660774
-0.2358661
-0.005897363
-0.17084043
-0.089174554
0.05723673
-0.17588912
-0.31213006
0.26184902
0.12054703
-0.32456866
-0.12751643
-0.28232303
-0.12972708
0.07852858
-0.007627775
-0.2478176
-0.059115794
-0.19473825
0.27618495
-0.20332737
-0.025590528
0.33841357
0.11964315
0.19160214
0.008683487
-0.058712073
0.07766966
0.06385904
-0.21601693
0.10316106
0.015975105
-0.031962242
-0.18424416
0.2550922
-0.2533284
-0.09154613
0.024705999
0.21709044
0.3742573
0.04704538
0.030519523
0.056994632
0.17476319
-0.07914435
-0.10627738
0.2728911
0.028063053
0.13176836
0.14546083
-0.2734763
-0.21959543
-0.0011497721
0.21387823
0.09082945
0.25706017
0.022368403
-0.15683815
0.25737125
-0.14114542
-0.04776526
-0.123404175
-0.06386854
0.031150732
-0.020089637
-0.060097773
0.16547424
0.09040456
-0.02595691
-0.06270621
0.07482746
0.20182154
0.2566966
-0.15859781
0.13947228
0.12079635
0.21316005
0.20307125
-0.24897814
0.15134487
-0.20762359
0.119599395
0.17054252
-0.018657316
0.10382341
0.12860954
-0.07031703
0.17592722
0.19439977
-0.31855813
0.075941786
0.12518479
-0.037063267
0.08043942
0.2524069
0.017671391
-0.12570535
-0.33172107
0.26897812
0.30529922
0.025429374
-0.27825126
0.12912054
0.21744528
-0.059262022
-0.19700636
0.14219345
-0.3145739
-0.21245542
-0.056873694
0.31291494
-0.027773496
0.015319974
-0.1299965
0.2050466
0.19014546
-0.29239497
0.041728053
-0.07872121
0.13520937
0.33289644
-0.28897345
-0.15987599
0.030712863
0.25334764
-0.057268158
-0.0864472
-0.17569967
-0.20933785
-0.34347072
-0.10744895
-0.14000204
-0.22061796
0.2556671
-0.14335084
0.035988074
-0.04398154
-0.105423026
-0.23841143
0.092956156
-0.28024274
0.13661423
-0.29693928
-0.25268784
-0.18083082
0.16430543
-0.2246061
-0.16873886
0.018895388
-0.35855663
-0.014821295
0.0892244
-0.19083631
-0.20737506
-0.16107742
0.052089233
-0.22106732
0.025043758
-0.12735754
0.12260455
0.29514614
-0.2507955
-0.26044226
0.3016456
-0.24470346
-0.028672805
-0.10039646
-0.35021913
0.06998121
-0.29407427
-0.24504611
-0.25680998
0.09398907
0.26555505
-0.30428082
-0.13147445
0.18419695
-0.18351182
-0.08693846
-0.07495848
-0.15165254
0.33539113
-0.16254637
0.008442296
-0.16009486
0.0030347158
0.1619901
0.3066873
-0.18960725
-0.29362684
0.22652657
-0.034191377
-0.11437837
-0.33254004
-0.24115068
0.18391371
-0.069626264
-0.047645994
0.39508906
0.0031854906
0.06720484
-0.12615411
0.30195734
-0.3303806
0.1966914
0.046517797
0.0713872
-0.119169906
0.35813907
0.36422604
0.10017588
0.2842464
0.30261105
0.05243888
-0.08938547
-0.0018595161
-0.30460402
0.27642938
0.17374298
-0.2774382
-0.14725102
-0.16398883
0.045045674
0.22323313
-0.18036059
0.115391426
0.1402122
-0.06059493
0.02653494
-0.117707804
0.10753931
0.19480036
-0.009776727
-0.026330596
0.18036838
0.2969631
0.23029962
0.06162025
-0.12570219
-0.16801523
0.06565114
0.15743431
0.37330484
0.10200554
-0.15050809
0.4185756
0.3868054
0.30046952
0.25753412
-0.18769906
-0.1790591
-0.23261203
-0.15110376
-0.27354348
-0.046482187
0.26508301
0.04223426
0.20587073
-0.0398527
-0.10273496
-0.21236499
-0.2033076
-0.097838916
0.02088949
-0.28156042
-0.11371808
0.10142603
-0.06496864
0.2253175
0.07659767
-0.32953864
-0.3121919
0.14213015
0.38063988
-0.0132945515
0.22217458
-0.05862895
0.051661104
0.07742971
-0.2369817
0.14951804
0.2597291
0.049663663
0.0735721
-0.17047487
0.29824942
-0.0069193346
-0.277279
0.03884406
0.17803735
-0.22666599
-0.071511984
0.18754406
-0.099470116
0.072840355
-0.39774257
-0.13877715
-0.33689964
-0.37994918
-0.11043219
-0.17961437
-0.25942957
-0.034889515
0.029671852
-0.07004865
-0.29921734
0.24087529
-0.15741505
0.018152809
0.21026497
-0.21546173
0.25873727
0.20097096
0.052281093
-0.27285504
0.04545213
-0.21251194
-0.16091546
-0.1734276
-0.11555226
0.12555338
-0.22209416
-0.08452909
-0.30675805
-0.052463546
0.009917016
-0.096532606
-0.1460387
-0.050132364
0.16921428
-0.22540647
0.31029305
0.05102709
-0.115244634
0.19147444
-0.32942122
-0.028270101
-0.07005785
-0.029720504
-0.30659327
0.039751574
0.046971478
-0.1804507
-0.06639929
0.041316237
0.0051930794
-0.07625613
0.022478897
0.05158633
0.26280776
0.32183185
0.21954475
0.36552396
0.17323592
-0.08795388
-0.2838502
0.07534501
0.024284862
-0.21709138
-0.06310978
0.2189536
-0.06417537
-0.22845331
-0.07545959
0.17894143
-0.3646597
0.19255646
-0.019432852
0.35948977
0.35140583
0.34483013
0.13151392
-0.15034671
-0.022441613
0.090531975
0.36658123
0.16232832
-0.14360449
-0.11144369
-0.21779689
0.03538337
-0.2639507
-0.1802758
-0.219706
0.16320784
0.20189855
-0.046065617
-0.2610359
-0.33796972
-0.15614276
0.28754294
0.060375962
-0.35058728
0.11952149
0.015212633
-0.18155743
-0.051508468
0.058226645
0.29912296
-0.10821526
-0.12784548
0.0622638
-0.2784338
-0.0965279
0.24002308
0.09311374
-0.108005375
0.24469315
0.2931994
-0.14109589
-0.053752393
-0.13998269
-0.12667754
-0.29611203
0.20838138
0.11248731
-0.10238266
-0.24119468
0.25279358
-0.124780804
-0.2630757
-0.36583585
0.20336059
-0.1414765
-0.10112212
0.011460711
-0.35270575
0.097079545
0.2282704
-0.2746275
0.20804265
0.02058217
-0.028845385
0.07258172
0.05460406
0.21445243
0.13258602
-0.08682364
0.20455201
0.22673416
-0.23122342
0.26556602
0.088979974
-0.23512627
0.31281126
0.24040875
-0.16130872
0.17060696
0.027180435
-0.1118652
0.016951283
0.1289012
-0.1663834
-0.14351824
-0.2321561
0.15773971
0.21414007
-0.18745151
-0.22993565
-0.042186923
-0.26024437
0.010258946
-0.27959293
0.16376759
-0.038881373
-0.18130334
0.26263398
0.24861479
0.26302353
0.31231037
0.0718994
0.35385168
-0.008878626
0.2843542
-0.120766744
-0.036995698
0.1395379
-0.24203742
-0.282053
-0.13430403
-0.14026153
-0.010928735
-0.06897516
0.22214505
-0.060877595
0.25097096
-0.17182173
-0.051857527
0.31737128
0.08596599
0.10758379
-0.31648594
0.0083766915
-0.28239456
0.30808553
-0.15013704
-0.03258223
-0.29053658
0.18681519
-0.029544568
0.32404587
-0.29826432
-0.076867186
-0.15061331
0.17732991
-0.19754687
0.26055732
-0.24341556
0.31848636
0.061658185
-0.25881526
-0.09146782
-0.32742164
-0.032530464
-0.29443786
-0.10862236
0.3111388
0.11573298
0.22188042
0.07848748
0.21234041
0.124890864
0.22020407
0.07946531
-0.06938973
0.20705323
-0.011709307
-0.23767145
-0.36596
-0.31405988
-0.32632297
-0.18053773
-0.29201818
0.25494185
0.2811167
0.036183685
-0.15880334
0.18373504
0.33391258
-0.035904717
-0.22833844
-0.00047523458
-0.08871209
0.18089941
0.119244985
0.10341976
-0.036655203
0.12776889
0.21058388
0.20001616
-0.14430127
-0.20395029
0.16174455
0.20304388
-0.106080644
-0.22526304
0.04732818
-0.12799132
0.17095949
0.30440995
-0.33452532
-0.19961089
-0.31567723
0.06995902
-0.2747551
0.17190185
0.28194195
0.06505606
-0.09447635
-0.22173473
-0.22372666
-0.047096685
-0.27309692
-0.18590435
0.023009794
0.038135886
-0.13660009
-0.3017112
0.24133494
-0.10918757
0.008016297
-0.2229943
0.05648277
0.27488574
-0.031234156
0.15397963
-0.17082913
0.060371876
-0.13979432
-0.14123982
-0.21260528
0.09086941
-0.07748605
0.059238184
-0.31897244
-0.26524788
-0.2675157
0.1466871
0.19429798
0.05664131
-0.23875435
0.22711071
-0.12939894
-0.33077684
-0.1982609
-0.016086949
-0.04957143
0.22901444
0.045855608
0.108818665
0.1609465
0.10796731
0.26262984
-0.23791946
-0.2403439
0.25185603
-0.13882631
0.025559677
0.19652084
-0.15984547
0.2328801
0.15128458
-0.050426282
-0.23178522
-0.2732609
-0.22398597
0.22220804
0.07841779
-0.08873524
0.22182387
-0.24979612
0.0833084
0.16031867
-0.021016754
0.20927155
-0.29477352
-0.07347453
-0.059411127
-0.14396973
0.0121965725
0.3225855
0.32505396
0.10568595
-0.28106108
-0.34341165
0.22428572
-0.33601207
0.31734505
-0.027330989
0.26286593
0.1289947
-0.08593304
0.3578832
-0.31549844
0.24002582
0.22195531
0.0047853743
-0.19963574
-0.005835849
-0.26499766
0.004653932
-0.27251884
0.31293213
-0.29876924
0.16451252
0.026080629
-0.2854448
0.23241746
-0.069785
0.11842725
0.2515074
-0.14890702
0.026505716
0.066640176
-0.18614943
-0.0045016548
0.03907994
0.043480273
-0.113611065
0.1233714
0.010046836
0.29586896
0.2341138
-0.20621048
-0.21843559
-0.31144586
-0.33771867
-0.100940235
-0.107718796
0.028899398
-0.15781492
-0.04270811
-0.3241281
0.0649421
-0.34149596
-0.054543775
0.09476575
0.30140355
-0.17268416
0.24919242
0.007884666
0.15764818
-0.24530566
-0.08813489
0.32748532
-0.011557522
-0.01746926
0.22369099
0.17156838
-0.31645408
0.18406202
0.22678827
-0.31622976
0.15872666
0.12407265
0.22327049
0.2641358
0.31693694
-0.058235615
-0.03947408
-0.2705956
0.1610648
-0.3468094
-0.28240046
0.053081483
-0.24309754
0.19424766
0.112519324
-0.07962715
0.33727586
-0.1398505
-0.09129285
0.33491385
-0.24373342
0.0939743
-0.20030421
0.19927493
0.029117793
-0.0939073
-0.041765794
0.09640124
0.08823716
0.17890044
-0.056376122
-0.2029066
0.12382164
-0.16511641
-0.25285906
-0.048907466
-0.066847704
0.36876392
0.37471712
0.32228243
0.34876952
-0.12257446
0.33207956
-0.02359832
-0.09563883
0.013150587
0.22103788
0.16633096
-0.36297032
0.22156912
0.09845026
-0.08871
0.33365336
-0.25887287
0.34458998
0.09987336
0.14052363
-0.20493796
-0.10333839
-0.22385103
-0.19389912
-0.24012177
0.29906005
-0.36188266
0.05438213
0.22909366
0.2211584
0.22126575
0.33799022
0.18193969
0.108883396
-0.06575633
0.30347025
0.15240234
-0.008578038
0.21633475
0.16037536
0.26606485
-0.31099582
0.20791648
0.084841624
0.010894986
0.031887855
-0.28568792
0.17372313
0.2763157
-0.31729403
0.11982117
-0.34124237
-0.13061982
-0.011058172
-0.28635925
0.15439005
0.16492356
0.22244708
-0.034204613
0.18865447
-0.2744255
0.1982661
0.2812866
0.06761521
-0.22909662
0.19830897
0.22107318
-0.024780056
0.09902607
-0.025018508
-0.088945106
0.25931793
0.29711667
0.16223286
0.0064984877
0.26807076
0.28368682
-0.25939372
0.17692651
-0.2356876
-0.19029282
0.21255276
0.2250586
0.05052593
0.26519087
0.12928854
0.30197987
0.22950011
-0.2516955
-0.309004
0.15311883
-0.3274641
-0.11029633
0.032911375
-0.12540054
-0.06948817
-0.08264023
-0.09604624
0.18401726
-0.2349102
0.024665734
-0.27549773
-0.30179304
0.18843547
-0.05390544
0.022522137
-0.25196242
-0.15245698
0.060347546
-0.21920316
0.015703123
0.08387979
0.11893288
-0.19935772
-0.27792764
-0.18888874
0.3618874
-0.029423332
0.24395332
0.07267372
-0.26785877
-0.19189544
0.41362843
0.35078728
0.2392276
0.44373173
0.0856117
-0.38859957
-0.2312984
-0.17741756
-0.12996991
0.07854958
0.22961812
0.15648144
0.07298011
-0.31640068
-0.21508981
-0.3731368
-0.22726609
-0.240413
0.1697966
-0.13839972
0.23215383
0.30707204
0.12280162
0.20112409
0.158783
-0.14674622
0.14727345
0.2788807
0.13155988
-0.17728302
0.028147817
-0.29598886
-0.041975338
-0.16340306
0.016673693
0.30571115
0.27057543
0.21349642
0.1548961
0.2555146
0.24632454
0.19967349
0.4163951
-0.09378147
-0.04117698
0.20399939
-0.16016419
-0.27675113
-0.21255109
-0.023104459
-0.08582346
0.3220437
-0.3348712
0.011489916
0.08797852
-0.22081837
-0.10089366
-0.022863142
-0.03892007
0.18753289
0.13952243
-0.09287618
-0.1472637
-0.19768429
-0.12250392
0.30814832
-0.04306295
-0.03156959
0.086097546
0.20030145
0.27594078
-0.27067125
-0.30141497
-0.045089148
-0.22267786
-0.0427692
0.09068479
-0.1667153
0.020103127
-0.056123093
0.24134772
0.051322322
-0.17408371
-0.18549113
0.30753842
-0.23867492
-0.3299887
-0.057601616
0.050122324
0.24942715
-0.23085636
0.17157349
-0.22402513
0.062448107
-0.15089066
0.23320605
-0.14968911
0.01969514
-0.19394985
0.12940176
0.32354185
-0.24840413
0.29404682
0.03054501
0.01759949
0.29766646
0.03025682
0.30608243
-0.06782585
0.12533563
-0.009759009
-0.022602124
0.32926592
0.1415071
0.1479195
-0.083073966
0.14369088
0.1983476
0.33232486
0.25851497
0.22855625
0.13572975
-0.26953536
0.15288584
0.050030794
-0.07821771
-0.19055872
-0.32826462
-0.32062602
0.026334675
-0.11465766
-0.20718773
-0.25167653
0.052263778
0.08181175
-0.13326953
0.13294831
-0.12507729
-0.12868597
-0.037318077
0.3073534
-0.30287963
-0.2918476
-0.27799574
0.26005483
0.13823082
0.11215923
0.04990561
-0.13026074
-0.1963214
0.03240346
0.13744223
-0.112538
0.2361093
-0.19590712
-0.27287114
0.26368117
0.24627736
0.18043198
-0.2306536
0.030268317
-0.28713253
-0.1176711
0.10473034
0.2640565
-0.094513066
-0.19120076
-0.17080797
0.2726703
-0.124292135
0.07378347
0.051551986
0.018694883
-0.1596513
0.064683564
-0.27844557
-0.26111707
-0.13330106
-0.10080044
-0.026456323
-0.11911745
-0.115837276
0.17288847
-0.042089157
-0.0935304
-0.03343891
0.18888575
-0.16175474
-0.31370637
0.020829564
-0.24520385
-0.29397216
-0.11777859
-0.33827618
-0.17346218
0.18456945
0.30474085
0.18340077
-0.29886433
-0.19679144
-0.026753481
-0.10419684
-0.19557844
-0.14947441
-0.20075919
-0.019680416
0.24708436
0.07058695
-0.25947326
-0.030884009
-0.045989793
-0.15208194
-0.24842462
-0.15906952
0.3712082
0.19434248
-0.17996804
0.021291839
0.32900494
0.32167128
-0.22963405
0.29148754
-0.021216238
-0.0180931
-0.027941292
-0.0022265518
0.15746282
0.06993942
-0.37113622
-0.11044106
-0.17918955
-0.2284823
0.263223
-0.08515106
-0.13366912
-0.3146052
-0.04632043
0.36046782
0.13999213
0.32713687
0.15620781
-0.036083397
-0.35727882
-0.18976453
0.25075123
-0.037977286
0.036390256
-0.05709818
-0.34779996
-0.27705848
0.13537723
0.08101682
0.17479432
-0.17745626
-0.097274065
-0.29000452
0.15597259
0.114322744
0.29399812
0.07481242
-0.24618483
-0.32611728
-0.27923164
-0.19375005
-0.050859377
0.027289279
0.24702227
0.07710716
-0.2975552
-0.108417794
0.16047554
0.100320034
-0.27763817
-0.3124019
0.006285814
0.2865297
-0.026800225
0.07279151
-0.036721002
-0.03599587
0.043279417
0.17358759
0.23105246
-0.21266967
-0.21530901
-0.08820626
0.2570085
0.25251716
-0.16500714
0.2537531
0.30002263
0.23735256
0.16996977
-0.022463728
0.06340739
-0.023464864
0.09522253
-0.2382722
0.38298804
-0.2501952
-0.08604059
0.18563539
0.3444955
-0.17841138
-0.19429888
0.1501067
-0.24196802
-0.15229069
0.28215143
0.16355017
-0.18350305
0.17490108
0.14324166
-0.19261687
0.08801714
-0.031542316
-0.12631044
-0.082499325
-0.14279722
0.19487405
-0.26934922
-0.103237055
0.085192256
-0.2755143
-0.28973585
-0.15701535
-0.19778314
-0.32204056
0.04370755
-0.3693893
-0.15915008
0.22567108
0.17463808
0.0007114046
-0.25058544
0.30949166
-0.1562627
-0.15073854
0.064065546
0.107767984
-0.15469636
0.15268993
-0.13819806
-0.1340548
-0.34180525
0.26605898
0.2657029
-0.10676632
0.18430138
0.22809406
0.24782117
-0.35745037
0.3185938
0.20349981
-0.08412387
0.3904124
0.3027637
0.02116221
0.06506058
-0.0315982
0.08261388
-0.26046827
-0.025446588
-0.094325714
0.26444697
-0.16701658
-0.15752907
-0.0018025927
0.031770073
-0.027379634
-0.12218951
-0.32357422
-0.0717359
0.114408016
-0.05874121
-0.29249918
0.0014744202
0.2647168
0.0037309357
0.24824058
0.12323975
-0.07351326
0.006972808
-0.20047602
0.31848162
-0.22654174
-0.047510173
-0.30220607
-0.19998606
-0.045128252
0.07204299
-0.27459055
-0.023614794
0.18451083
0.16585521
-0.029858232
0.18035616
-0.29290453
0.280722
0.08385803
0.3231923
0.12659545
0.023502389
0.27743322
