0.09935329
-0.24012615
0.009253447
0.20223384
0.17087355
-0.098552465
-0.024157196
0.33179727
-0.1066323
-0.035498723
-0.3392824
-0.034971863
-0.2448517
-0.1905769
-0.067311466
-0.22672549
-0.1776011
0.2711174
0.05475762
-0.011293486
0.052696213
-0.028926866
0.043965437
-0.2591824
-0.12591036
-0.090523094
-0.09338788
0.0005966681
-0.035102528
-0.21878359
-0.15764467
-0.06664253
-0.24928662
-0.30640218
0.04558094
0.1743198
-0.16116935
0.2521523
0.23958808
-0.3111595
-0.09757647
-0.07848637
-0.043329693
0.12588568
-0.23723628
0.25471944
0.07870708
0.05181875
0.1689989
-0.16464938
0.2263269
0.18693039
0.24509713
-0.15163596
-0.04606308
0.3159301
0.055543967
0.25470194
0.22531158
0.010381671
0.31944045
-0.3474243
-0.002080354
0.14437485
0.13761984
0.30416116
-0.24142145
-0.11913001
0.059962608
0.10185145
-0.23970866
-0.1720227
0.1576603
0.28875077
0.20803998
-0.08082375
-0.22790557
0.19399774
0.17767052
-0.31792498
-0.32689485
-0.03239499
-0.14352717
0.06807812
-0.11045058
0.2619403
-0.031064833
0.22782265
0.28002748
0.011334807
-0.18313251
-0.17745969
0.0047133765
-0.19876952
-0.26913923
-0.14456701
-0.21412504
-0.18987143
-0.23241404
0.03311291
0.10401624
0.2264989
0.119049266
0.12037912
0.2718901
-0.26075152
-0.123933256
-0.21845236
0.042281248
-0.30836996
0.27016062
0.21117334
0.11352382
0.14998713
0.14109096
-0.24316254
-0.055660814
-0.17015599
-0.2285149
-0.14735459
-0.23623587
-0.11822994
-0.21486229
0.17310368
-0.19658296
0.06553824
0.12179604
-0.17329988
0.061377708
0.27190477
0.2900404
0.24026051
-0.03784835
0.03280804
0.18918331
0.31614494
-0.21254717
-0.08444713
-0.043616828
0.07615079
-0.061702184
-0.28973004
0.15918717
0.1787744
0.0021369157
0.07829737
-0.08211508
0.14635007
-0.02433617
-0.1882526
-0.17133167
0.21153882
0.06654249
0.052708365
-0.015847057
-0.061544094
0.09583071
-0.060901165
0.15285695
-0.067268066
0.28796405
0.074433826
0.08548517
-0.30075568
0.25312772
-0.3030057
0.006820667
-0.318536
-0.107056364
-0.33439934
-0.19802088
0.0039606583
-0.20406374
0.060480766
0.07918415
0.2620101
0.32251942
0.1763191
-0.06199851
0.20758022
0.2456749
0.15138511
0.28934744
0.3079793
0.27940288
0.22734334
-0.03117959
-0.025892418
0.17103346
-0.046063792
0.052234802
0.15409067
0.3260138
-0.15665072
-0.051840555
0.21960743
0.34308875
0.342083
-0.20174307
-0.11512947
0.2346206
0.17270103
0.17516032
0.019013824
-0.06898401
-0.011391503
-0.25030014
0.1834475
0.050898425
-0.117665745
-0.12842128
-0.032343842
0.059893303
0.29250985
-0.29729208
0.25582272
-0.21051316
-0.115672715
0.12600918
-0.300292
0.27564025
-0.01081549
-0.107504725
0.27074942
0.09413196
-0.20654234
-0.166792
0.18225805
0.117478706
0.10591919
-0.09525439
-0.062990814
-0.12270858
-0.0982883
-0.18660733
0.25053814
0.22037944
-0.27511355
-0.2985047
0.16772227
-0.30451083
-0.30827805
-0.0059191473
0.17768197
-0.023845784
-0.07956203
-0.06365928
0.06873395
-0.033686325
0.117125995
-0.25335965
-0.018449195
-0.08968045
0.028414255
-0.25674814
0.015384014
0.19887534
-0.20121203
-0.029696897
-0.2305509
-0.031389218
-0.22334391
0.26112777
0.14247462
-0.01654745
0.25196636
-0.33963725
-0.23533988
-0.19260736
0.060553256
-0.2649002
0.045215838
0.1852118
-0.3140261
-0.34301892
-0.08068691
-0.09591992
-0.25363392
0.10321011
-0.15742119
-0.27846858
-0.31916195
-0.34339622
-0.11232168
-0.05487592
-0.013431232
-0.20795763
0.13192086
0.01462635
-0.2393833
-0.19109212
0.09018699
0.07448183
0.29235432
0.09579756
0.27916968
-0.29032558
0.055075057
-0.25256646
0.13423762
0.23920673
0.17157012
-0.22889711
0.24848962
0.19777514
0.051962752
-0.34431842
0.27388108
0.062719055
0.37127927
-0.2586112
0.040926095
0.21608916
-0.055218108
0.15828492
-0.11926121
-0.13757862
0.17185163
-0.075926095
-0.19143608
0.08770739
-0.10085997
0.10000493
-0.054240685
-0.28318605
0.050274946
-0.026790876
-0.20994093
-0.011303407
-0.309006
0.07186824
-0.261416
0.023347927
-0.13399284
-0.22423062
-0.31614912
-0.18483998
0.22389306
-0.10866024
-0.103855394
0.25038075
-0.35861742
0.24671263
-0.26744512
0.19358653
-0.015476943
0.13267459
-0.25536582
-0.29619735
-0.18443435
-0.08396492
-0.10994613
-0.049653083
-0.3156813
0.22049169
0.027238246
-0.34134018
0.15692656
-0.2732892
0.342064
0.12019448
-0.3329894
-0.020656662
0.19210853
0.06557538
-0.22775333
-0.11033078
-0.29233208
-0.20997572
-0.09200859
0.21497262
-0.21627554
-0.32140398
-0.248188
0.29135704
-0.0052288487
-0.29433787
0.22833356
-0.12605305
0.052154988
-0.021750528
-0.15126874
-0.1527412
-0.20829682
0.13405433
-0.0053738346
-0.06747994
0.038974784
0.059781052
0.07080881
-0.24037145
-0.089346595
0.24444972
0.23844871
0.032339454
-0.11872424
-0.3336181
-0.12284641
-0.28995126
-0.36000034
-0.09720781
0.056685228
-0.33144593
-0.13431402
-0.28587106
-0.13342762
0.059427004
0.04450454
-0.08839944
-0.026100066
0.25509155
0.13317658
-0.09039674
-0.13692965
-0.08177128
-0.3248377
0.17486957
0.17143826
-0.33754066
-0.031986073
0.35365257
0.11977768
-0.15853894
-0.105096914
-0.27182314
-0.27265212
0.07242768
0.04525098
-0.18782045
0.027774822
-0.029166557
-0.009995973
-0.0924409
0.26894116
-0.21899301
-0.25701734
0.05401002
0.24378507
-0.12003743
0.05371691
0.24723323
0.05308881
0.09561421
0.19500592
0.2975912
-0.116726704
-0.08051005
0.07802949
0.0671138
-0.14055587
0.15743513
0.18511046
0.17501082
-0.11855907
0.08118068
0.17513178
0.17621611
-0.079819895
-0.08499746
-0.2153485
0.2608827
0.040087238
-0.037141033
-0.21129805
-0.012259142
-0.15245557
-0.06944904
-0.10947312
-0.18674555
0.044008072
0.012588166
-0.31257284
0.15181619
0.090453334
-0.26127708
-0.061815117
-0.013905478
-0.09128266
-0.017127527
0.07914344
-0.19310738
0.15209346
0.08433598
0.199001
0.17590211
-0.21348271
0.039014865
-0.017045842
0.26902345
0.18649909
-0.28555343
-0.062795065
-0.06060522
0.13247657
0.13465248
-0.12638482
-0.017976338
-0.0919578
-0.08040736
-0.310636
-0.041493133
0.11855266
-0.2700618
0.2240067
0.09794693
-0.24665035
0.38049155
0.0805109
0.13482717
-0.25776827
0.13139755
-0.06364639
0.07804611
0.10863365
0.29405168
0.1462159
0.27702948
0.2130657
-0.32706335
0.0938938
-0.1957392
-0.2860517
-0.12142656
0.14909786
-0.14429694
0.026249122
-0.0062546926
0.13179399
-0.27558205
0.1705264
0.36782926
-0.27683422
-0.28772613
0.08192026
0.1868661
-0.3223826
0.030290065
0.057767387
-0.085606635
0.14397581
-0.0965477
0.117691025
0.09913918
0.17596276
-0.16366266
-0.23788893
-0.05470482
0.27126127
0.14198369
0.100009926
0.12835068
0.22889037
-0.11509891
0.37672558
-0.20250854
0.21840134
0.0640911
-0.25247133
0.06961104
-0.07039744
-0.23467602
-0.0332667
0.07976657
0.2196413
-0.26450634
-0.14273016
0.0719983
-0.107855
-0.23444703
-0.2363318
-0.19697224
-0.4075479
-0.36954412
0.1990153
-0.14324091
-0.33049864
-0.120952874
0.22384264
-0.015155849
0.21483076
-0.05922506
0.16092327
-0.015675541
0.26959085
0.0856652
-0.19589472
0.26493907
-0.1723268
0.33692113
0.2280689
0.03727107
0.34426165
0.24293737
0.21480212
0.039053805
0.31285197
-0.11264183
0.10334398
-0.06826245
-0.26509428
-0.08589532
0.055542644
-0.28686666
0.03464508
-0.2442889
0.2046335
0.18110451
0.14608115
0.07445253
-0.15017138
-0.2420934
-0.12663661
0.12645003
-0.20546927
0.14405397
-0.03204002
-0.1806606
-0.06667641
0.032121398
0.10003453
0.28749314
0.07511285
0.13310885
0.10693986
-0.25983447
0.059711576
0.22113083
-0.18948005
-0.2329996
-0.05537369
0.07685704
0.15750775
0.0464062
0.05906347
0.38908437
0.19393279
0.007880841
0.35347193
-0.3080636
-0.2153026
-0.31589678
-0.26612478
-0.2092968
0.060443893
-0.16764285
0.04955568
-0.36141357
0.065237746
0.03462214
-0.29254842
-0.11478288
-0.029459206
-0.29203942
-0.31733447
0.19237624
-0.2878686
-0.11989616
0.28971687
-0.016831858
-0.23578343
-0.09716544
-0.19225305
-0.2632767
-0.15692222
-0.2786313
-0.13480316
-0.29441628
-0.3148537
0.14407659
-0.28969634
-0.20123887
-0.24704883
0.06026106
0.025659762
-0.2656155
0.057601124
-0.3171853
0.18076666
-0.1110769
-0.31494138
0.19480816
0.17950785
-0.075821474
0.24458656
-0.24944516
0.22783393
0.33139703
-0.23435728
0.015657047
0.126565
-0.0009830976
0.14795303
-0.1665888
0.026575774
0.024730178
-0.032583028
-0.13211523
0.11221317
0.14853008
-0.16928871
-0.24571314
0.14091724
0.19706601
0.16153286
-0.06112547
0.076522544
0.17027444
-0.2824496
0.065353155
0.23189496
0.12603676
-0.09052777
0.15103993
-0.27504665
0.29321843
0.15236945
-0.16017565
-0.17454895
-0.22392969
-0.056675468
-0.15126263
0.32090798
0.014587056
0.3282942
0.39653733
0.29303285
0.18460946
0.34382454
0.067179605
0.001801837
0.1748379
-0.02770743
0.124830656
0.04475287
-0.31932402
-0.1515575
-0.103667594
-0.14778309
0.16149625
0.15295275
0.27459234
-0.15202942
0.32515168
0.21524817
0.12703855
0.16171838
0.13438776
0.055781476
0.095077194
-0.26433566
0.1515006
-0.07123502
0.082584314
-0.06739139
-0.31010112
0.018516267
0.23498586
-0.04761825
-0.18112281
-0.07872028
0.19720182
0.31855515
0.12288749
0.090381145
0.026679153
0.10401914
0.1374364
0.11812098
-0.010730153
0.17156865
0.3125357
-0.04567245
0.009085779
-0.17337851
0.18329677
-0.15180038
0.15220399
-0.149072
-0.24799606
-0.03780678
0.10167309
0.033530153
0.24748628
0.13171962
0.31137487
0.31015834
-0.28000587
-0.284757
-0.29999194
-0.013966579
-0.09407612
-0.33056495
-0.18668208
-0.35364196
-0.27786553
-0.29717523
-0.10996751
-0.37784266
0.21123144
-0.32555512
-0.31502506
-0.22175236
-0.30546102
0.004977454
-0.24040902
-0.3277363
-0.105308935
0.13073151
0.14656061
-0.2787837
0.16602594
0.28164598
0.19284648
0.3589125
-0.18615122
0.37403744
-0.07593729
0.21120617
0.13548675
-0.28296152
0.12411792
-0.18051478
-0.14000121
-0.24065901
0.17241587
-0.3314216
0.17596604
-0.10124654
0.24757613
0.30748427
-0.31396767
0.10323399
0.24488364
0.1658294
-0.26586422
0.059147947
-0.29809317
0.2984389
-0.17952211
-0.10618208
-0.09098771
0.25871116
-0.16370669
0.022305658
-0.062099945
0.04377356
0.18985438
-0.21926889
-0.01750777
0.12050698
0.040280003
-0.25338706
-0.023504663
-0.16862473
-0.31134987
0.023313211
0.065475345
0.13965912
-0.25866097
-0.01596518
-0.17269078
-0.20473863
-0.09980525
-0.22745013
0.11056683
0.055924453
-0.17327036
0.15565746
-0.07954788
0.17808548
-0.07583485
-0.24875024
-0.19612965
-0.008681556
0.15144663
0.12999167
-0.12226768
-0.15052448
0.26022044
-0.17357475
0.1808573
0.27925602
0.18108061
0.044013456
0.10719866
0.21374565
-0.01133593
-0.028536208
0.14303471
0.019218333
0.22111727
0.0602629
-0.21021894
-0.07051856
-0.2482485
0.19818525
-0.013826601
-0.28232783
-0.33075866
0.26973015
0.17059149
0.045339573
0.0672319
-0.13962026
-0.2420829
0.1420125
-0.013399235
-0.1558141
0.35410842
-0.08110519
-0.1553677
-0.041985046
0.08561891
-0.10968911
0.35127306
0.22397473
0.3839447
0.35730585
0.06187476
0.14544874
-0.19336875
-0.1442982
0.18700424
0.09655036
-0.1608469
0.060543004
-0.06783147
0.11025783
-0.2513668
0.21576217
0.30725157
0.3230156
0.056725916
-0.07639934
-0.23766772
0.3162282
0.3112114
0.08042596
0.023774449
0.111037016
-0.24273321
-0.23870663
-0.08413624
-0.29206434
-0.02276493
0.064621046
-0.045049287
-0.058545586
0.041041896
-0.09228692
0.22218578
-0.34574848
0.19619809
-0.1143853
-0.21583232
0.06766156
0.24991478
0.117584184
0.22467381
-0.20848146
0.18496698
0.097864196
-0.061636813
0.11150347
-0.21880376
-0.2622148
-0.07234545
0.09809163
0.05203983
0.14526112
-0.005757375
0.07221587
0.00974524
0.18198566
-0.031783856
-0.22467315
0.22192158
0.10760909
0.17333165
-0.018136503
-0.11945833
-0.2730087
0.07161925
-0.10444317
-0.15769741
-0.2680298
-0.3672192
0.19639274
0.016259545
-0.16937117
-0.006472672
0.22075075
-0.1864321
-0.075516604
0.14405732
-0.007425173
0.12077306
0.18880962
-0.05846487
-0.040164266
-0.2746848
-0.23737422
-0.23126183
0.26834905
-0.1053182
0.16923629
-0.17834242
-0.08385655
-0.22566794
0.057630118
0.09372199
0.14813976
0.1618416
-0.027517205
0.040772397
-0.013843566
0.12642574
-0.0039343648
0.1649283
0.058349792
-0.11664432
-0.23234458
-0.11009629
-0.061591662
0.089322954
-0.29870567
-0.1882706
0.14874156
0.011725492
-0.25233176
-0.13630576
-0.16409977
0.13613349
-0.083469264
0.03815683
-0.123055644
0.26063508
-0.16042805
-0.18421768
0.2539555
0.27566606
-0.19175808
0.12214863
0.09068506
0.007956119
-0.1595282
-0.3027935
0.3293501
0.20672095
0.076529585
-0.08525087
0.26966622
-0.2795989
0.16212851
-0.3635728
-0.3211377
0.24342676
-0.15514362
-0.32522753
0.2918153
-0.107807286
0.27233595
0.23141286
0.20285186
0.021906974
0.038939156
-0.08940549
-0.2007257
0.018062338
-0.371903
0.29445493
0.094755694
-0.24294378
0.22061501
0.20525295
-0.08673248
-0.26802188
0.01871676
0.27311635
0.06370197
-0.007423289
-0.25926232
-0.008264641
-0.25212577
0.13824874
0.2853148
0.26777524
0.1896104
0.23288724
-0.14493111
0.30021256
-0.38562644
-0.09088874
-0.008765588
-0.07674243
-0.19291417
0.21456666
-0.28863132
0.04577747
-0.13474117
-0.31238705
-0.096729666
-0.10391514
0.01831567
-0.097496204
-0.13572635
-0.054484583
0.019540254
0.1778059
0.2231583
0.17003298
-0.20332599
-0.057538398
0.17196897
-0.058557976
0.10973796
0.036688153
0.29283127
0.16787194
0.13442288
0.22545315
0.23133703
-0.26478127
-0.06846945
0.15945035
-0.20930798
-0.06303148
0.25704587
0.11378772
-0.09334245
0.13980348
0.18248588
0.21185023
0.3372483
0.12084376
0.1995183
0.29117128
0.10522854
-0.32647938
0.14238617
0.3251358
-0.35749337
0.084563084
-0.28062478
0.25174978
0.05851606
0.20795165
-0.18023981
0.3252906
-0.02103707
0.12433111
0.2559919
-0.1132042
-0.08443158
0.21231067
-0.19991174
-0.35003686
0.05011544
-0.10953945
-0.17780632
0.15062395
0.14001898
-0.22056064
0.15183182
0.22268397
0.1922875
-0.046109974
0.055418044
0.14534366
0.29448888
-0.17663445
-0.2870492
-0.19029202
-0.27666664
-0.29861253
0.24758933
-0.14245756
-0.2655085
-0.2910685
0.15330286
-0.35074
-0.045654863
-0.29943985
-0.10495831
-0.03905002
0.037998
0.1552234
-0.118144535
-0.24112794
0.14446104
-0.008465462
0.10600079
0.25520328
0.06569962
0.23527128
0.31200537
0.2911661
-0.027114054
-0.10466117
-0.2608002
-0.0463066
0.06699014
0.21905862
-0.11186462
0.055458024
-0.37098727
-0.07686821
0.19466645
-0.1935061
-0.14037676
-0.036164735
0.113797925
0.18728958
-0.14479566
-0.004236578
-0.2475762
-0.016726168
0.33438805
0.15964559
0.017732628
-0.32437718
-0.2965159
-0.2907377
-0.29764673
-0.20736384
-0.19656254
0.039105028
0.05173055
-0.12529993
-0.23212083
0.050541714
-0.03167217
2.6225287e-05
0.096846685
-0.11540513
0.18806607
0.25167927
-0.13744928
-0.26278368
-0.1601027
0.023639403
-0.122884005
-0.13709724
-0.10589806
0.031844042
0.067112744
0.18036886
0.060371414
0.1746725
0.3265177
-0.2948995
0.14512585
-0.023508875
-0.2953751
-0.12478211
-0.15152273
-0.23807046
0.21948336
0.3026301
0.2741165
0.07695922
0.060227815
0.18783374
0.25036046
0.41253757
0.35209176
0.1622709
0.3638658
-0.07505947
-0.24615233
0.101802416
-0.088485695
-0.21889965
0.08364305
-0.21906552
-0.22001979
0.3371117
0.32323155
-0.022652125
-0.23924376
-0.11543545
-0.21357453
0.34878212
-0.007209577
0.012483378
0.31767458
-0.14334606
-0.31052482
0.079841696
-0.2627618
0.24315427
-0.32179275
-0.4305523
-0.109926105
-0.36722854
-0.20019737
-0.05914927
-0.22158238
-0.26669458
0.23409599
-0.19525933
0.092933565
-0.2923162
0.22755006
-0.11604977
-0.0896818
0.041684862
-0.19446832
-0.16480969
-0.32010028
0.14361064
-0.18272068
0.18017985
-0.16046822
-0.10244705
-0.24422328
-0.31453806
0.065962076
-0.21350493
-0.37749174
0.22817637
0.24211173
0.010247407
-0.207561
0.27166852
0.116957225
-0.13441382
-0.031829286
-0.1613153
0.14391312
0.08239512
0.09042516
0.034128122
0.34439975
-0.22972552
-0.07369663
-0.19343051
0.0906284
0.12421095
-0.11012819
0.21200138
-0.034618147
-0.18048172
-0.10211963
-0.20088509
0.2689787
-0.25442737
-0.22499645
0.15824018
0.12723517
0.05259081
0.10368329
-0.050123338
0.08570426
-0.1619414
-0.17878488
-0.08044162
-0.06209087
-0.3270897
0.24237011
-0.14128327
0.076656714
-0.017892746
0.045021873
0.025168547
0.13969018
-0.105900206
0.27176636
0.22609507
-0.24675003
-0.16272813
-0.2724859
0.20971449
0.02969692
0.091886945
0.21271153
-0.13279991
-0.011315559
0.19107683
0.23724328
0.04394745
0.3274047
-0.050208982
-0.33156124
0.2108783
0.18285297
0.22164705
-0.29777274
-0.1452657
-0.25552478
-0.24789812
-0.2031408
0.2606976
0.2056288
0.0014982462
-0.28724155
0.0825847
0.2114368
0.21324259
0.03044734
0.14391162
0.071493484
-0.13955398
-0.24661455
-0.32096833
-0.1608686
-0.19104977
0.008478951
-0.36603475
0.21574672
0.2141293
0.30458596
-0.020705836
-0.1284235
-0.13613811
0.13566431
-0.1905997
-0.18086952
0.26212078
0.12562124
0.047606103
0.0024545393
0.091597706
0.2980023
0.15438382
-0.114176266
0.1164811
-0.23631372
0.12911421
-0.088013545
-0.027998833
-0.070488706
-0.08970625
-0.057499085
0.066795744
0.31884727
-0.019446585
0.26129428
-0.2552362
0.25257376
-0.16731189
0.107776865
-0.035683006
-0.26053205
0.15513246
-0.1800947
0.21005863
0.07300694
-0.33071917
-0.255735
-0.08509787
-0.15057324
0.03125839
0.16625096
0.19942577
0.017322253
-0.09838652
-0.06630332
-0.09037315
0.15375729
0.2625023
-0.30187827
0.23116912
-0.23086482
0.22913708
-0.1478204
-0.13135812
-0.035062622
-0.039766293
-0.21889636
-0.21173336
-0.28554028
0.28601804
0.29071105
0.043700602
-0.2489443
-0.2182468
-0.22568701
0.26793355
0.26640472
0.13131317
-0.071220934
0.2887187
-0.032048106
0.08278438
-0.046812367
0.10325703
0.27881742
-0.026512587
-0.0071974974
0.18333459
-0.2875979
-0.24889132
0.14668052
0.00590795
-0.009341681
-0.08390837
-0.14834636
-0.13454051
-0.19961357
0.16132574
-0.04045064
-0.03398627
0.22919752
0.07955717
-0.059086807
0.29533643
0.19013432
-0.2936302
0.022787858
-0.22261517
0.09366272
-0.20765938
0.08304227
-0.27747974
-0.15762272
-0.08404038
0.25478217
0.11406983
0.20607941
-0.044428974
-0.017977068
0.1119759
-0.04016794
0.22205973
0.23812841
0.05462513
0.19366784
0.30693316
0.09910113
-0.12735164
-0.2450217
-0.18373771
0.16593845
-0.24082975
-0.19246429
0.15188861
0.37598422
-0.17134866
-0.17933625
-0.15252826
-0.1996799
0.28563341
0.27133787
-0.21889552
-0.06409077
-0.27367228
-0.35566223
0.30204555
0.27381045
0.19733414
-0.3628778
0.39851075
0.34823978
0.035785384
-0.0101642385
0.33647713
0.14079043
0.077763766
-0.2365805
-0.15295097
-0.20847051
-0.25655642
0.16147943
0.047526162
0.17434233
0.12441507
-0.13770345
0.1986834
0.25376132
-0.18516673
0.36964402
-0.15421948
0.24148305
0.20607048
0.14520542
-0.3164223
-0.18157502
0.07734712
0.10214503
-0.12170983
0.23096342
-0.17203608
0.078525454
-0.05661101
0.17070754
-0.21625645
-0.19641913
0.007932595
0.14137787
-0.1593327
-0.10648156
0.07388963
-0.17575558
-0.106513485
0.014255433
-0.26194993
-0.08491179
-0.22288173
0.35158378
0.36238956
0.26707125
-0.14636552
0.09097901
-0.22137834
0.016656686
0.249437
-0.051157363
-0.19765447
-0.16119477
0.10346062
0.02057628
0.024378918
0.049967684
-0.31760633
0.17818488
0.026274472
0.0033450816
-0.17583445
0.24865857
0.22488476
-0.16440699
-0.19165666
0.31490624
0.23502468
0.06556672
0.046150252
-0.22909433
0.0039473237
0.24933794
-0.1365558
-0.13938038
0.25923425
-0.27614844
-0.02656337
0.12860899
-0.07510259
-0.08701744
-0.3168619
0.24099438
-0.1754163
0.21071474
0.20411769
-0.090671845
-0.12812002
0.10665101
0.07960584
-0.14321153
-0.12122811
-0.1315156
-0.31745896
0.1981787
-0.16873021
-0.043880913
0.034934483
0.008716555
-0.25783807
-0.10011699
-0.18305531
-0.15802759
0.33679456
0.32108694
0.063229404
0.22025979
-0.023281686
-0.17716116
-0.18796133
-0.34145424
0.14548321
0.2921327
-0.23321207
-0.09084517
0.3763729
0.09288399
-0.06297045
-0.12964357
0.23356962
-0.17458905
0.3496103
0.20591429
-0.031063253
0.2701222
0.3694795
-0.20377937
-0.22490917
0.12901969
-0.33813578
-0.094187684
-0.3899884
-0.24218723
0.12333989
-0.20049952
0.041920178
0.07269468
-0.23576204
0.07679806
0.20962071
0.06076501
-0.13834657
-0.14977863
0.3132792
-0.29954448
-0.251428
-0.086008884
0.18424697
-0.40347663
-0.30764666
0.18514061
0.20799778
0.43244058
0.22328436
0.21867825
0.13249359
-0.13350765
-0.28353658
0.26435447
-0.27672482
-0.04569341
0.17580912
0.06474609
0.074956276
-0.28106657
-0.018011093
-0.065372616
0.18086131
0.13000245
-0.053974643
0.2540248
0.22948605
-0.19321895
-0.09799145
0.38263172
-0.016364675
-0.17809033
0.23071077
0.18113078
0.3549841
-0.071221486
0.23697852
-0.18150766
0.24272476
0.029165233
-0.06937948
-0.027293438
0.29704282
-0.32960755
-0.32432678
0.28824705
0.34086916
-0.2762056
-0.10408558
0.20186566
-0.20063183
0.16784872
0.19453521
-0.13421635
0.09648975
0.012880025
-0.08797992
0.13917468
-0.070610516
-0.19058466
-0.12410821
0.32657394
-0.009771557
-0.15642345
-0.009933337
-0.14831541
-0.0053282226
0.093919836
-0.066741906
-0.21574232
0.23577939
0.14071769
-0.16258311
-0.050227743
0.06083775
0.043433823
-0.17268959
-0.051328372
-0.18188182
-0.17008056
0.31500563
-0.15979424
0.070959665
-0.2726656
0.23650098
-0.011621174
-0.17899986
0.04326541
0.12730917
-0.18656881
0.046163276
-0.1791642
-0.11641389
0.24679062
0.2722704
0.10326845
0.10117902
0.14445296
0.044113744
-0.22986859
0.21926834
-0.082651556
0.14933522
0.30455682
0.037524845
-0.25618535
0.31916535
0.25517914
-0.13763922
0.104374245
0.19571483
0.018213965
0.03320845
0.17438525
-0.05816339
0.24550824
-0.08725146
0.23088261
0.24368618
0.20754702
0.10350583
0.22600545
0.072867066
-0.109801926
-0.17070766
0.034089286
0.08213843
-0.35374126
-0.25209218
-0.35631844
-0.3479164
0.011698932
-0.04695995
-0.24789669
-0.112777896
0.055821154
0.14908676
-0.16282324
0.099265955
0.34003937
0.060065575
-0.14161175
-0.21036884
-0.26832727
-0.036180098
-0.26919702
-0.36648658
-0.07665294
-0.19228247
-0.26553676
-0.32380897
0.30783707
0.026476892
-0.03402873
0.062713645
0.078518055
-0.1328107
-0.19228503
0.17425114
-0.28177655
-0.3057978
-0.19262847
0.04191406
-0.21078098
-0.025251871
-0.27502915
-0.052726038
-0.3361963
0.17571284
-0.07191416
-0.2776513
-0.08543129
0.038319357
-0.19967856
-0.15156785
0.17815407
-0.09248093
-0.1141822
0.3219862
0.16591117
0.10283247
0.20300482
-0.26589018
0.121139675
-0.27014288
0.29374975
-0.018696418
-0.2962481
-0.11674904
-0.22100356
-0.03757052
-0.1312663
0.13997327
0.20601562
-0.004945336
0.0029485803
0.26708007
0.30890864
0.0060783154
0.16546677
-0.00302126
-0.15575258
0.26796782
0.35183042
-0.031396385
-0.14702946
0.07208918
0.05874321
-0.17046198
-0.341013
0.17774044
0.18684869
-0.12692049
0.09905661
0.29670504
-0.08816503
-0.18177594
0.054702286
0.24731699
0.07999898
-0.20170727
0.17356123
-0.2113374
0.06396253
0.18833704
0.015875915
0.18591942
0.029568613
0.044342175
0.026480643
-0.2879972
0.1451198
0.040908772
-0.2058048
-0.26490447
0.03469367
0.2144136
-0.11135165
-0.16446717
-0.1851448
-0.2819551
-0.25089717
-0.2695631
0.23975155
-0.25067636
0.32458487
0.07891867
0.11778286
0.21420215
0.1812748
0.21535425
-0.041847482
0.10975647
0.06898296
0.33575547
0.37542632
0.05938522
0.32769215
0.012172162
0.29524875
0.014667176
0.2625765
-0.0128738545
-0.019721627
-0.25550485
-0.272722
0.16122346
-0.306991
-0.15976377
-0.011868497
0.21705557
-0.3320013
0.27370194
0.18151882
-0.06220338
0.30855364
-0.008934934
0.068360664
0.11876607
0.02348008
-0.062340446
-0.06938369
0.24201778
-0.11367436
0.042749655
0.0038529101
-0.32761434
0.25220278
0.25188538
0.08255567
0.08715365
-0.02753833
0.13326725
0.068434335
0.133984
-0.33864307
-0.24957715
-0.2382787
0.124577746
0.055372946
0.25454187
-0.08943958
-0.023034725
-0.018731857
-0.032265525
-0.19605254
-0.10674604
-0.11837458
-0.011662166
0.22873792
-0.07585693
0.21187906
-0.17324807
-0.09045375
0.102405
-0.108274914
0.156932
0.21036017
-0.23845768
0.3412436
0.106380776
-0.08635568
0.11463269
-0.27395275
0.12789911
-0.2875629
-0.18707107
0.1597887
-0.09038662
-0.21537136
0.16920179
-0.37388995
-0.25486612
0.013415507
0.16806594
0.010630856
-0.28068715
-0.017008299
-0.079483636
0.18999174
0.20217031
0.16611448
-0.026182022
0.1433926
0.3377088
-0.36625254
0.18809266
0.087404214
-0.26180187
-0.030942785
0.102644555
-0.00095861097
-0.2987564
-0.22136785
0.23963222
0.15071414
-0.19156608
0.2110614
0.00015250382
0.34522602
-0.2091693
0.05204822
0.0063767773
-0.0663618
-0.12428604
-0.31473377
0.30776128
-0.13887392
0.26836774
-0.2689306
0.30644283
0.21161008
-0.12556155
0.19848947
-0.22737835
-0.23954377
-0.17931719
0.2272401
0.22035176
0.13755596
0.11092509
0.049252212
-0.122942664
-0.061990727
-0.065783106
0.09744705
0.12094911
0.2151667
0.17897545
-0.23587948
0.2573125
-0.11544913
0.028241761
0.14472082
0.16740252
-0.13470697
-0.24465258
-0.08216189
-0.041311774
0.22421938
0.21848318
-0.20627442
0.25149968
-0.16956612
-0.05900592
-0.27549696
0.07611341
-0.0023358576
-0.16427642
0.060105715
0.28748438
-0.14347169
-0.0467069
0.024254564
0.061894316
0.31522968
0.11673738
-0.017228264
0.17992103
0.28654122
0.12813836
0.14794055
0.22334217
0.19411963
0.029060444
-0.20509043
-0.018293068
-0.07063219
-0.24765159
0.28355643
-0.015921665
0.009387692
-0.031002777
0.28581062
-0.06632403
-0.056509852
-0.0857904
-0.026536131
-0.26067588
0.13745292
0.37085775
0.17553422
0.16781896
0.2682294
-0.028163454
0.27721485
-0.29656425
-0.21382572
-0.35284397
0.05326997
0.31906828
-0.014254358
0.16549222
-0.13086781
0.3360552
-0.014735892
-0.22584787
-0.32943973
-0.31012955
0.1044839
-0.2292991
0.3508687
-0.21078746
-0.15989706
-0.100400455
0.123243734
0.23247227
0.15401034
-0.10293451
0.13042836
-0.08776621
-0.2859938
0.14041531
-0.26061252
-0.2800351
-0.08527573
-0.21450022
-0.015721492
0.022612289
0.25674742
0.25275478
0.23731016
0.18822919
0.30733922
0.025562035
-0.06612635
0.14445014
0.18574914
-0.035698645
0.28945985
0.0387439
-0.090511106
-0.18368958
-0.28111655
-0.15518543
0.14768888
0.052992895
-0.16405427
0.041238982
0.05960402
-0.06635152
0.08449331
-0.20029008
0.10352325
-0.21147108
-0.085355386
0.15218318
-0.09067123
-0.06734698
-0.15080713
0.14076693
-0.036440376
-0.13298753
-0.20280695
-0.25310862
0.27652988
-0.1430254
-0.08865559
0.0048358906
-0.036824167
0.0095231
-0.02254846
-0.21471013
0.02318351
-0.13081838
-0.02985472
0.24157779
0.2082514
0.010862545
0.029796505
-0.104061246
-0.2732542
-0.2997523
0.104284965
0.28380668
-0.03293974
-0.34130388
-0.30563602
-0.050616693
0.18371032
0.28333902
-0.030606098
0.30632988
0.19560958
-0.09261923
-0.04543451
-0.11041211
0.05936575
-0.1255697
0.09495374
-0.2440515
-0.21069369
0.23914352
0.098052286
0.10314283
-0.039712835
0.078646444
-0.16751029
-0.118642844
0.046743516
0.049187608
-0.27213606
-0.050992496
-0.030740233
0.31493288
0.16059911
0.06806228
-0.3141491
-0.12884188
0.06387726
-0.32652816
-0.13435596
-0.19553205
0.16141263
0.03127383
0.24232882
-0.2826424
0.2709471
-0.26282904
0.12046914
-0.30101156
0.29705957
-0.29192287
0.01271409
-0.0680051
-0.22345631
0.08144958
-0.32576352
0.22736305
0.20095254
0.16226363
0.23098162
0.1991746
-0.14504306
0.0101929335
-0.13596138
0.3431805
-0.23977175
-0.01116824
-0.06587886
0.16911373
0.19501297
0.22479841
-0.15936625
-0.07505328
0.2763049
0.2922332
0.2785541
0.022826223
0.110020086
-0.11977816
-0.18871605
0.01642254
-0.22103657
-0.16380934
0.103232466
0.18387769
-0.070607476
0.37012693
0.034592822
-0.1853005
0.08766752
-0.24946192
-0.28425762
-0.14969443
0.20580707
-0.3604209
-0.27428904
0.1345508
0.21022409
0.05647879
0.048187353
-0.013200101
-0.0018532989
0.24061933
-0.2567772
0.108754046
-0.2871794
-0.016931763
0.07909291
-0.18069798
-0.21673697
0.19904198
0.22444005
0.046498884
0.03235231
0.35909885
0.30074432
-0.19842176
-0.0972532
-0.054102466
0.22981714
0.18552747
0.15085378
0.25464386
-0.10401279
0.26446646
0.18076922
-0.30341923
-0.21309154
0.0194547
-0.15141976
-0.32416713
0.21404237
-0.20706895
-0.10506457
0.25692135
-0.11926984
0.15306358
0.22964756
-0.1140614
-0.0001384733
-0.2596389
-0.10461995
0.087163106
0.35247812
0.3015582
-0.15122773
0.029476736
-0.3942908
-0.28912044
-0.15222512
-0.35919455
0.14134365
0.2527409
0.055760562
0.11513257
-0.32704386
-0.01363768
-0.20663887
-0.019331632
-0.07599566
-0.20266786
0.16265349
-0.09478959
-0.2339244
0.1877541
0.24490036
0.10716326
-0.03697294
0.12796201
0.3009514
-0.10187447
-0.01478252
-0.102252
0.22203565
-0.012737754
0.11999407
0.22286354
-0.14981902
-0.047716983
-0.31934625
-0.2477985
0.2877568
0.15389536
0.013377609
-0.001166811
0.015941886
0.1973913
-0.001065574
-0.017207889
-0.15115373
-0.030055776
0.2719012
0.09523428
0.121451154
0.008304435
0.16787669
-0.34122068
-0.3148756
0.17439958
0.36449903
0.34098136
0.12885578
0.11483648
0.29761952
0.17881513
-0.070101656
-0.16184033
-0.23538369
-0.03624406
-0.28710732
0.1897121
-0.16999501
0.23014332
-0.06169169
0.040474795
-0.011943545
0.0617261
-0.17685239
0.053587385
-0.1177879
-0.18140136
-0.14097035
-0.1786281
-0.19607458
0.18122861
-0.14749114
-0.33661562
-0.12441683
-0.07542895
0.1296843
0.06770414
0.011607858
-0.23194553
-0.28074065
0.28935298
0.26384532
0.1760743
0.019956574
-0.14277679
0.2056871
-0.25922522
-0.25471762
-0.15740785
-0.23077269
0.1549905
0.09923078
0.18916155
-0.2760127
0.055881266
0.089378335
-0.0949667
0.25896314
0.0407741
0.2338637
0.124782875
-0.31815097
0.2914775
0.23730452
-0.276668
0.028266972
-0.17529894
-0.14619845
-0.2785921
-0.37578076
0.089303516
0.013454566
-0.3192952
-0.16064414
-0.09790286
0.32572135
-0.18817161
0.35862738
0.16749097
-0.4125952
-0.13812248
-0.1080837
0.1103332
0.252882
-0.19950615
0.10010933
-0.17097895
-0.2456721
0.33031097
0.033889744
0.14798152
0.087682456
-0.07462568
-0.08765736
0.25356284
0.22430268
-0.013076448
0.13412061
0.29541418
-0.15744461
0.1564318
-0.03174017
0.2681297
-0.32153866
-0.11669487
-0.25083148
-0.014279797
0.17863981
0.32576293
-0.018836739
0.124412924
-0.07650948
-0.2574414
0.05372669
0.14681518
-0.34782144
0.13189873
-0.27880841
0.21867245
-0.19541383
0.120831646
0.19499613
0.22605035
0.0047458094
-0.32983252
-0.0586976
-0.0757202
-0.308824
0.23330332
-0.059320856
-0.19894934
0.22162864
-0.24555236
-0.045351032
-0.1334321
0.13212174
0.23044349
-0.287941
-0.006367544
-0.33080393
0.09425042
0.05470766
0.29587036
-0.0934054
0.12149469
0.14030637
-0.057718683
-0.04708924
0.12265168
-0.0045369654
-0.030871382
-0.14435028
-0.17679104
-0.05128384
-0.17926769
-0.17382427
0.25833303
-0.06867526
0.06797332
-0.10600554
0.26767185
-0.19889437
-0.10856311
0.31446037
0.15597852
-0.23538332
0.07392768
0.044572905
0.2665727
0.113844685
0.3258994
0.12688464
-0.16216208
0.011257732
0.14685568
0.31571817
0.11670428
-0.122828685
0.22708762
-0.17839023
0.25568435
-0.29066664
-0.02523299
-0.2831655
0.11345079
0.26382306
0.04695345
-0.25233012
0.0973468
0.200223
0.061091132
0.03886334
-0.113911234
0.33507326
-0.3139881
-0.22828722
-0.06277142
-0.16213207
-0.17966206
-0.32080913
-0.36916697
0.00073387945
-0.122813486
-0.0007665758
-0.34981287
0.21725605
0.1451445
-0.08646265
-0.06794302
0.24895363
-0.039000522
-0.25780836
-0.0889991
-0.09313346
0.26286402
0.18264829
0.16432457
0.04998454
0.2022347
0.14310318
0.032151107
-0.2584369
-0.108001634
-0.3468742
0.272523
-0.35235834
-0.22664976
-0.25029603
0.106204815
0.08967705
-0.0762804
0.039652344
-0.27790633
0.22229369
0.100336745
-0.20248507
-0.045556117
0.011716067
-0.063528895
0.004021475
-0.09798714
0.32139754
-0.10618895
0.065564744
0.35227075
0.13130294
-0.0063684983
0.246881
-0.09876944
0.14375299
0.012130314
-0.17765103
0.17906295
-0.026877102
0.0075404597
0.01941937
-0.20589428
-0.18685341
-0.071409166
-0.17341709
0.18557222
0.05215856
0.22146204
0.005120452
-0.05444789
0.2800126
-0.15404509
0.48637587
0.09235807
0.10301908
0.37932003
0.26732656
-0.011937277
-0.013849663
-0.16590202
0.09095827
0.29060102
-0.2700631
0.13978301
-0.10184994
-0.01604175
-0.09318498
0.19857845
0.1764254
-0.27093634
-0.08375091
0.07090156
0.258815
-0.24735284
0.30860767
0.1296631
0.10151667
-0.28535596
0.17226544
0.1716654
-0.008104025
-0.27464837
-0.30273893
-0.2030034
-0.20823933
0.18000264
-0.20730676
-0.14759038
0.07876589
-0.2649649
0.15000024
0.11834474
0.023134304
-0.09686328
0.20417994
0.1897527
0.15579209
0.08740055
0.27719134
-0.19683592
0.056577258
0.35998848
0.22288726
-0.025729587
0.3138937
0.11431503
0.33213022
0.389819
0.09587885
0.34594423
-0.2593778
-0.17873895
0.26379794
0.09811782
-0.35464472
0.16610168
0.18443729
-0.048747953
0.24457055
0.045269106
0.09355603
0.048236776
-0.16423628
-0.08125144
-0.28655875
0.06256592
-0.28600723
-0.3210611
-0.07893347
0.064187184
0.017749602
0.03915012
-0.016379554
-0.13236217
0.11290512
0.055581283
-0.0626745
-0.17248942
0.2723787
0.14489073
0.10517129
0.14620173
0.123425305
0.2508617
0.064518295
-0.03921577
-0.36984798
0.10261924
0.21419302
-0.05049593
0.17099296
0.24115197
-0.28342208
0.11990841
-0.3205747
-0.07880638
0.016582133
-0.1388155
0.12633792
-0.23083028
0.05567022
-0.06330734
0.08495219
-0.09644587
0.15098968
0.11880735
0.23924541
-0.0093439855
0.34272996
-0.019682623
0.25048915
0.4251981
-0.28091004
-0.24315901
0.10268496
-0.29805478
0.2715649
-0.3160992
-0.21591
-0.2778955
-0.34457487
-0.40519902
-0.35306206
0.01555144
0.1951277
-0.14448848
-0.0383476
0.18542193
0.110616334
-0.16421331
0.24608366
0.21485052
0.19672705
0.03419364
-0.35192993
0.15756683
-0.3291296
0.026188558
0.27364305
-0.36160043
0.0788364
0.28188628
0.14780824
-0.0995713
-0.1029609
0.19566256
-0.21247105
0.15678658
0.08479668
0.14349262
-0.080508746
0.099964015
0.13284296
-0.12604468
0.25080767
0.21078143
0.00916138
-0.03663607
0.19293898
-0.23277543
0.14291379
0.040750485
0.0925214
-0.31650674
-0.2692321
-0.1032111
-0.17034271
-0.0844383
-0.24511275
-0.15955909
-0.25034407
0.3414826
0.18366414
0.023801418
0.20031473
0.14532393
0.1844471
0.22904842
-0.26629248
-0.22800452
-0.17527562
0.3182932
-0.18494183
-0.15438494
0.10747312
0.07778306
-0.013446534
-0.037027143
0.32698208
0.18443419
-0.20850953
0.13512594
-0.19037093
0.0059297876
-0.16291964
-0.09006496
0.08602459
-0.18822475
0.08316246
-0.28867188
-0.24692391
0.28081217
0.06063336
-0.006817902
0.24987522
-0.24115135
0.25245765
-0.27652
-0.055516087
-0.06001097
-0.06249355
-0.2805438
-0.13087729
-0.2686019
-0.20764336
-0.0030624687
-0.004036588
-0.2853198
0.042642534
-0.19011578
-0.21102114
0.08752241
-0.05169996
0.10813862
-0.13575679
0.19671616
-0.18831031
0.155989
0.16454124
0.16410482
0.07519627
0.22062565
-0.3264341
-0.29728416
0.025408262
-0.2453553
-0.224802
0.23497528
-0.2406307
0.30855596
0.20891759
0.14302774
-0.097351044
0.2057409
0.30900386
0.22668496
-0.21827568
0.27627102
0.035945974
0.0842143
0.092047505
-0.114703335
0.20926403
-0.11710704
0.0037284554
-0.20475818
-0.051064048
0.30111763
-0.119147465
0.29440394
0.19558044
-0.0029061756
0.2702939
0.09437876
0.17797603
-0.013260741
-0.14406933
0.20900117
0.24527699
0.19722338
0.18380925
-0.086126186
0.27720276
-0.12517634
0.25588405
0.20761155
0.035404984
0.019941552
-0.08542454
-0.26344305
-0.17888992
0.2676146
0.26156595
-0.13513555
0.24685577
-0.008292531
-0.33028662
-0.20606397
-0.13390401
-0.050245404
0.3294639
0.20495509
0.06333553
-0.3877035
-0.10100777
-0.030618832
0.32445073
-0.23575369
0.012448987
-0.38569137
-0.29926345
-0.42215306
-0.25385994
0.15992185
0.11457688
0.2276921
0.2985945
0.11766201
0.3625046
-0.3995018
0.097929284
0.13814762
0.15087736
0.09315708
-0.13785031
0.013058683
-0.392877
-0.27161834
0.11457076
-0.38471252
-0.10106542
-0.11997645
-0.1451112
0.09420578
0.0760906
0.20619053
-0.1779725
0.16861823
0.11201116
-0.29445374
0.05086249
0.2560508
0.018044462
-0.044565212
-0.1495987
0.046796225
-0.064141385
-0.053306088
-0.032822765
-0.10542565
-0.28910762
-0.1886515
-0.20283365
-0.12137856
0.041756608
-0.24062072
0.09319012
-0.12305329
-0.38608706
0.12505127
0.2165173
0.23803574
0.3406573
0.30761603
0.2961288
-0.113022044
0.16551058
-0.031989556
-0.062116913
-0.023505358
-0.17380458
0.2753986
0.31247318
0.07346117
-0.06168698
0.12967566
0.09705286
-0.076750286
0.36687312
-0.2619501
0.17856786
-0.20811029
0.0028963645
0.13026328
0.21122628
-0.112964764
-0.13532725
0.09116077
0.1920877
0.085857615
0.04117315
0.27879363
0.09615732
-0.09561085
0.1714554
-0.1817365
-0.09807019
-0.29898378
-0.017389094
0.35687405
0.27947712
0.3117701
0.29343578
0.1880718
0.04049271
0.034285344
-0.28858474
-0.1631221
0.17400882
0.034175564
0.0943764
-0.21725082
0.13024145
-0.26425883
-0.02439387
0.012514498
-0.111364424
-0.10616551
0.023976224
-0.3755659
-0.17828265
-0.16515736
0.29000363
0.040488966
-0.14573807
-0.14711016
0.22339907
0.03523608
0.4336625
0.40565935
0.023032678
0.27174392
0.22700986
0.23032194
0.2931932
0.20548005
-0.012317931
-0.059405047
-0.24546102
-0.06230003
0.047643732
0.06929297
-0.13989733
-0.3290319
0.2924579
-0.30119237
-0.15282609
-0.0018522457
0.23183866
-0.041394006
0.3136521
-0.17062983
0.013358857
-0.266444
0.09173548
-0.024923977
-0.31420314
-0.1598971
0.17488119
0.021159008
0.26395395
-0.17156106
0.25551915
0.1088738
0.29456562
0.00576849
-0.34695792
0.09227007
0.2762771
-0.31285074
-0.25007194
0.29362524
-0.047106378
0.22544114
0.18152666
0.16437644
-0.30663297
-0.19121023
-0.052456047
-0.047102347
-0.047909435
0.24587938
-0.007889793
-0.22681585
0.32353356
-0.15647876
-0.023448935
0.22467479
-0.2954243
-0.14775956
-0.0031923526
-0.35159177
0.047459185
-0.3177897
-0.30641344
0.03537717
0.1939952
-0.0040049637
0.14306407
-0.18847862
0.18773058
-0.013750253
0.15410201
-0.13289303
-0.03394831
-0.23624192
0.2801642
0.13305344
0.10600671
-0.07098946
-0.06839795
0.033616457
0.2072417
-0.112853475
-0.15057953
0.35521892
-0.30171564
-0.071695484
-0.1349861
0.042114202
-0.12464977
-0.16781501
-0.11935939
0.12342461
-0.20146495
0.062244132
-0.21222784
0.25721163
-0.07263669
-0.2159343
-0.05969036
-0.21479398
0.10943359
0.19989936
-0.20752113
-0.07398434
0.3309095
-0.23604403
0.22850409
0.22716917
-0.3103844
-0.0011545225
0.22440213
0.25483817
-0.07200191
0.25214234
-0.057566926
-0.23812489
0.18395253
0.16466685
0.17449482
0.012521505
-0.12778945
0.25059125
-0.06591427
-0.18227708
0.044571187
-0.20281982
0.121986784
0.062015366
0.18980758
0.30018818
-0.17677525
0.19258289
0.27307656
-0.3014379
-0.0054932903
0.13978234
0.05294753
0.1418681
-0.29741356
-0.34128544
-0.09463962
-0.054031506
-0.117098704
-0.18275271
0.14210978
-0.16910732
-0.073850416
0.23465835
-0.020838471
-0.20159493
-0.35167837
0.071583465
0.16478696
-0.06256654
-0.121508524
0.26653507
-0.14287077
0.25462914
0.09298482
-0.13911246
-0.05520598
0.16280332
0.32352465
0.15081272
-0.11823254
0.36793154
0.1928703
-0.086520374
0.3587391
0.19472423
0.2879713
0.2290531
0.24523956
0.10177048
0.25507998
0.2730968
0.046399303
-0.111549035
0.13118272
-0.28265318
-0.027588531
-0.23557732
0.28877935
-0.11097781
-0.17520523
0.044851817
0.0014114017
0.111968346
0.24155624
0.16435498
0.2146452
0.1851005
-0.06375856
-0.20510444
-0.014792339
-0.16027763
0.3281494
-0.1874441
0.023412287
0.33367342
0.25417805
0.2890043
0.2556844
0.121357925
-0.23012309
-0.16551836
0.3107643
0.20363148
-0.2809157
0.11205019
0.1683887
-0.32230675
0.30083764
0.20541012
-0.21372646
0.12348368
0.021595892
0.20088805
0.2090736
0.22399288
0.28054473
-0.0638528
-0.18421888
0.14840509
-0.02969316
-0.299406
0.100982435
0.08125674
-0.32398146
0.16643295
-0.2343576
0.22890875
0.22135721
0.08507334
-0.3215861
0.016117731
0.012386473
-0.019242818
0.022752805
-0.12256076
0.03362539
-0.15974459
0.069165885
0.09451664
-0.089850895
0.021545505
0.21269335
-0.21606012
-0.2831601
0.1116792
0.25025734
0.24201086
-0.31439734
0.19015427
-0.3165535
0.30741256
-0.19852446
0.28226295
-0.1255801
0.11671577
0.1554679
-0.14221029
0.04550415
-0.0019932813
0.1601906
-0.060758464
-0.29601988
0.20290029
-0.028448308
0.22005573
0.23349285
0.030035438
0.28139517
0.09871719
-0.05783743
-0.14799161
-0.03768821
-0.052907657
-0.040432993
-0.29752484
-0.07924165
0.120599344
-0.30756423
-0.2260271
-0.28577277
0.21941592
0.28961828
0.1427605
-0.2156544
0.39651754
-0.13566266
0.06460826
-0.22645025
-0.13426016
-0.040694956
0.18862022
-0.30603203
0.08356948
-0.053467248
-0.056962922
0.26790446
0.24193996
0.17442495
0.00030570442
-0.07212549
0.104659125
0.04055237
0.068539195
-0.09421838
-0.22506227
0.06318865
-0.1710837
-0.21591307
-0.30044094
-0.29428914
-0.039209858
0.08011663
-0.13558342
-0.22882588
-0.045243908
0.30495176
0.1719003
-0.2943562
0.05307073
0.19556373
-0.013612066
0.11982577
0.003073912
-0.28672898
0.35802186
0.22969776
0.161705
-0.12812705
0.13120121
-0.12830956
0.21551473
0.23710783
-0.20708023
0.04675162
0.22650851
-0.08421051
0.14891797
-0.062448442
-0.018624121
0.25405008
0.28945214
0.26884404
-0.17287889
-0.16236268
-0.09418682
-0.1381588
-0.17075068
0.2950781
0.22429782
0.27983055
-0.10761605
0.31425694
0.28428787
-0.17858927
0.021628253
-0.25235337
0.07829114
-0.24995184
-0.2140233
-0.20055017
-0.04301254
-0.30316815
-0.15073532
-0.1975954
-0.011568965
0.022668177
-0.1473054
-0.30595726
-0.30688867
-0.08071481
0.18043555
-0.103190266
0.10220381
0.29937845
0.13620055
-0.040349666
0.07203299
-0.18710966
0.017353434
-0.087699965
0.14435393
0.17091858
0.09212703
0.29734778
-0.20690516
0.07760611
0.26124102
-0.26982215
-0.32753605
0.2095754
-0.075112045
0.16161187
0.23082323
0.16024433
-0.06462242
-0.30016354
-0.10521332
0.25857687
0.22770554
0.07148739
0.06240254
0.27281728
-0.023075504
-0.112355135
-0.026656168
-0.2995823
0.14646843
0.18024506
-0.13514467
-0.0065200278
-0.27189496
-0.3054431
0.08278379
-0.11270364
-0.24966457
0.08361651
-0.20655242
-0.21437526
0.17304191
0.124700405
-0.18289182
-0.17174797
0.12113653
0.15874738
-0.29753467
-0.25279826
-0.025900489
0.2509965
0.14322549
-0.15727645
-0.21232212
-0.23433156
0.10583969
-0.18661222
-0.2560784
-0.110668756
0.016698357
0.19865961
0.286283
0.25908035
0.05200603
0.39198002
0.18235649
-0.20759591
0.14608489
-0.30551052
0.3998231
0.44601935
0.17510282
0.2588475
0.42084244
0.31484583
0.025120467
0.047523096
0.01903194
0.2631296
-0.25903067
0.085538425
-0.30394548
-0.019699248
0.13912565
0.05236734
-0.15190004
-0.22566703
0.2907857
0.37965456
-0.15303314
0.050486546
0.25301972
0.03010227
0.18004945
0.023698326
-0.33122194
-0.24593957
-0.23443402
0.15833265
-0.22169589
-0.050275158
0.13773493
-0.011555922
0.082285136
0.20320906
-0.2062992
0.19256249
0.0052068126
0.35038114
-0.19916312
0.026859114
-0.25815496
0.08346518
-0.06356679
0.22068602
-0.078536995
-0.17629144
0.25048438
-0.2101092
-0.13857445
0.22013909
-0.036882285
-0.1721295
-0.21445516
-0.060409114
-0.14751312
-0.293107
0.059713475
-0.004255848
-0.32681635
0.13068828
0.37939164
0.16595411
-0.023324516
0.35084412
0.046345796
0.14457612
-0.14439781
-0.2438447
0.24563976
-0.18784216
0.13184659
0.2811068
0.27866372
-0.029985012
-0.14140235
-0.023024015
0.04952426
0.18669935
0.19391793
-0.11665242
0.13562001
0.049468815
-0.23178263
0.22102302
-0.12715048
0.070884414
-0.054765794
0.09700158
0.045596473
-0.22078742
0.148449
-0.0029711484
-0.24580815
0.017689245
-0.23317188
-0.18644036
0.026995312
0.27065527
-0.20823468
0.03779042
0.09485903
0.1308431
-0.18110695
-0.22234417
0.007122581
-0.09358098
0.28983173
0.22987843
0.05783325
-0.2377514
-0.06376271
0.3218956
0.26774436
0.1241376
-0.21529889
0.12914045
0.07003727
0.30125633
0.31810316
0.26204216
-0.009888285
0.27857003
-0.049356453
-0.046980757
-0.19003108
0.27483478
0.10598078
0.14739104
-0.08734367
0.16793892
-0.10520906
0.0062874863
-0.18225853
0.022956809
0.08320968
0.2060827
-0.3179513
-0.06703774
-0.27811927
0.1550838
-0.22252317
0.2889476
0.17726348
0.09167231
-0.25175914
0.011175355
-0.26944068
-0.047695596
0.06743049
-0.1783434
0.0965456
-0.05399715
-0.05097437
-0.10743742
-0.10255731
0.28149933
0.2604708
0.2903583
0.030218432
0.12191826
0.20949979
0.36201775
0.24076192
-0.074707486
0.2495984
-0.061662026
0.16356145
-0.048282564
-0.000111387446
-0.08212657
0.1607475
-0.18489091
-0.037099306
0.008028795
-0.2325428
0.18587366
-0.16985412
-0.20547225
-0.19005403
-0.11566648
0.14488754
-0.19325297
-0.20896491
0.14334667
-0.20888942
0.032264132
0.010054842
-0.28368446
0.13787565
-0.024659637
0.2394181
-0.1520032
0.15745759
0.09809157
-0.27568534
-0.22583668
0.19730504
-0.40591195
-0.019919103
0.01788816
0.10681557
-0.356888
0.04325834
0.1271827
0.23383185
-0.16750063
0.0736103
-0.12490292
-0.30174392
0.26814047
0.070189334
-0.32893983
-0.3365608
0.10862166
-0.34963623
0.14953437
0.2342006
-0.0055777
0.061280943
-0.32289708
-0.23875734
-0.3172703
-0.19970892
0.1114745
0.297507
0.06654612
0.013591303
0.32242522
0.08628968
-0.26561415
0.27594185
0.18205024
0.34540227
-0.09273194
-0.08136678
-0.15194489
0.21230324
0.015442271
0.19789883
-0.07156863
0.15164769
0.23309653
0.19168422
0.057328317
0.19956523
-0.13232766
-0.19638234
0.15848821
0.2026757
0.17131394
-0.12051431
0.3712915
0.27031857
-0.17637178
0.18291987
-0.32251838
0.28847384
-0.03270207
0.176508
-0.23440516
0.124766365
0.3079456
-0.20340255
0.008651413
-0.1302138
-0.21186106
0.13444532
0.039011788
0.29040682
0.19691212
-0.079948515
-0.07157002
-0.11783862
0.023243632
-0.27872303
0.13573559
0.27406695
-0.054498244
-0.25474975
0.27123645
0.35614038
-0.09400637
-0.17676625
0.018210813
-0.21233027
0.19370724
-0.231255
-0.30925125
-0.36167443
-0.18161246
0.2120713
-0.12666287
0.08578039
0.17841995
-0.1729864
0.09332353
0.30421248
-0.15210046
-0.039690275
0.12651703
0.12712301
0.2927816
0.26453385
-0.021285506
-0.06682457
0.34829873
0.04082163
-0.061599545
0.3922441
0.113245554
-0.258645
-0.005059123
-0.19927621
0.098103456
-0.33661082
-0.02949947
0.124710046
0.21430844
0.0020641682
-0.18855833
-0.28711417
0.24542321
0.0987897
0.30757588
-0.16131413
0.18117361
0.06655691
-0.046293743
-0.24072458
0.14902548
-0.24166626
-0.26627547
-0.12228329
-0.14953606
0.30534518
0.19464545
0.17584811
-0.21357657
0.14146315
0.033037286
0.15672657
-0.09173195
-0.3234063
0.13927747
0.27184856
0.1986281
0.1387728
-0.11038072
-0.270313
-0.26645428
-0.2853331
0.23256333
0.21285923
-0.3077406
-0.099855706
0.09484569
0.23868452
-0.27135867
0.30946288
-0.24845733
-0.18041667
0.038401466
0.010547885
0.01616681
-0.016565442
-0.10769478
-0.08348119
0.18776096
0.15386622
0.20679933
0.16135842
0.21410981
0.3502569
0.13493161
-0.16362834
0.2597625
0.26284122
0.25650162
0.05055031
-0.20614691
-0.05662609
-0.21111171
0.16169243
-0.09895741
0.18983878
-0.19825168
0.09984006
-0.026177468
-0.33780462
0.30204755
-0.25523853
-0.1091204
-0.26924065
0.05102503
0.07811976
-0.11840831
-0.2509717
-0.26329154
0.020274526
-0.18581042
0.06328162
-0.21623312
-0.09680377
-0.1050002
-0.031319316
0.0034695028
-0.24050236
-0.32867
0.07653313
-0.084636614
0.016222578
0.12091922
0.1622935
0.11065032
-0.06649516
-0.06364871
-0.25496557
0.24786586
0.17458092
0.32376474
0.08115767
0.3332127
0.18071881
0.0320755
0.008993288
0.008738542
0.16842087
0.28098497
0.269978
0.08334719
0.18060839
-0.021597242
-0.09282788
0.189235
-0.22028877
0.28549266
0.18243343
0.13597795
-0.15805875
-0.103046075
0.28642088
0.13382208
0.234022
-0.23957661
0.18510152
-0.044331107
-0.38990006
0.17199145
-0.06222277
-0.31755722
0.26819253
0.041418135
0.31267574
0.25520602
0.08381638
-0.1687019
0.088880986
-0.17500779
0.29990983
0.13940068
0.27047
0.005500643
0.05183719
0.27445424
-0.20314361
-0.208516
0.07889262
0.16185443
0.021533191
0.15428615
0.12482362
-0.1849197
-0.11014388
-0.15298021
0.12036286
0.21255556
-0.28414854
-0.05241096
-0.3130087
-0.2773014
0.013470587
-0.24152629
-0.01419388
-0.05345633
-0.2915254
-0.30748373
0.32019544
-0.11414522
0.2701462
-0.15337746
0.20938012
-0.17780422
-0.12525125
-0.2467005
-0.2674534
0.20979665
0.14469849
0.035392076
-0.19735275
0.14940926
-0.08159497
-0.3388862
0.19741972
0.2890206
-0.075163975
0.3244403
0.27124906
-0.25340167
-0.26775587
0.24562413
0.05095523
-0.06451622
-0.26746514
0.026452502
0.06666858
-0.26127064
-0.14306593
0.1306366
-0.18676707
0.1386925
-0.056902695
-0.30096382
-0.05021802
-0.003188373
-0.020884586
0.048485488
-0.23085046
-0.22301577
0.29371694
-0.060009185
0.0869704
0.10572969
0.26733908
-0.11290965
0.14392787
-0.17883138
-0.2783867
-0.012794122
0.32014292
-0.23852064
-0.12892625
0.19259095
0.30658656
-0.133404
0.03416436
-0.2790763
-0.07299596
-0.11169919
-0.34466723
-0.0049711294
-0.12189962
0.19507974
0.23413765
-0.2561274
-0.070587
0.2658223
-0.27822635
-0.11556672
0.041339226
0.12158016
-0.08308046
-0.28360665
-0.009399112
0.064782746
0.048404485
-0.2258745
0.14815216
0.13117945
0.0937221
0.12255148
-0.03372675
-0.18262252
0.019419726
-0.30834338
0.004431539
-0.20325951
-0.19952083
-0.16340232
0.05239472
-0.14317515
0.12573418
-0.014323754
0.23857513
0.20906352
-0.2054843
-0.09006539
-0.29836357
0.22327343
0.24198468
0.040427025
-0.2782468
0.026116982
0.28541872
-0.32137856
-0.3341264
-0.15102805
0.18915114
0.08773021
-0.26830485
0.19211389
-0.29117072
-0.03849795
-0.0711771
-0.30262116
0.05716138
-0.25961268
-0.0025401136
0.3082897
-0.25026998
-0.04693843
0.10905573
-0.2277643
-0.071871094
0.03924096
0.12664557
0.049208246
0.13752852
-0.03030759
0.13940166
-0.03748979
-0.118882515
-0.026032925
-0.18300337
-0.28068075
0.22841616
0.07351441
-0.19084255
-0.2309319
0.119450755
-0.14849493
-0.1492811
-0.31498796
-0.13816476
-0.079917654
0.14653172
0.0065568513
-0.04603924
0.15490699
-0.22598082
0.21076053
0.075282216
0.21167217
0.2885893
-0.060075298
-0.24833994
0.012095426
-0.13746826
0.043104224
0.07776423
-0.02231023
0.14817591
-0.28437686
-0.21525246
0.06977328
0.20331712
0.11609067
-0.22129478
-0.10539214
0.29006237
-0.13467515
-0.14924711
0.06074941
0.26103967
0.30740857
-0.23113447
0.24999616
-0.07166612
-0.10954432
0.36118495
-0.010793947
-0.048633974
-0.22452123
0.038501203
0.12121976
0.052501563
-0.039857417
-0.109763384
-0.3070529
0.110171564
-0.019988883
0.115904875
0.2537795
0.25069964
0.37378407
0.11976755
0.31935874
-0.039520856
0.15620333
0.30245104
0.19918531
-0.18736693
0.019634806
-0.121408306
-0.259242
-0.0555799
-0.32251358
-0.011980425
0.014797633
-0.11230493
-0.0038820815
-0.0034081594
-0.06952303
-0.2399896
0.047333356
0.17507358
-0.2222228
0.11010381
-0.005531825
-0.15328771
0.27807796
0.27944326
-0.08520721
0.22717758
0.33786646
0.20141657
-0.26966172
-0.29574063
-0.2095375
-0.34091517
-0.0344134
-0.02266733
0.32646683
0.3411692
0.0017168295
0.13439927
-0.02277778
0.34063044
0.18671636
-0.17410043
0.34115872
0.22134055
-0.043720566
0.11821508
-0.299145
0.108079195
-0.24748714
0.06445473
-0.26865092
-0.20274267
0.009761079
0.2094061
0.23420767
-0.3113076
0.26553515
-0.2610876
0.06246434
0.053734206
-0.37072638
-0.23992547
0.35133243
0.28695408
0.2703711
-0.08763649
0.055424552
0.28083497
0.25239196
-0.22550274
0.25311232
0.17632815
0.000746253
0.31541568
-0.05428804
-0.05412765
-0.18363936
-0.23933835
0.18888831
-0.30600923
-0.22449888
0.12411594
-0.2047529
0.06926139
0.15108404
0.1910053
-0.24697702
-0.068214275
0.22519003
0.054151796
-0.26307732
0.2679677
0.10446765
-0.080647014
-0.2470081
0.104524866
0.026502093
-0.22651798
-0.059905723
-0.33300054
-0.03048449
0.119446225
0.26562735
0.11685402
-0.283595
-0.3084156
0.0458746
-0.2733593
-0.23591058
-0.08569613
0.17244998
-0.25777265
-0.08371446
0.26846752
0.13629252
0.112503454
0.20083423
0.08377847
-0.28287593
-0.17864238
0.26851416
0.3013919
-0.19252591
0.27422383
0.025724072
0.008610382
0.00049456244
0.27629557
0.08050427
0.21933012
-0.24785616
-0.21427628
0.28474447
-0.289188
-0.054904938
0.18610713
-0.22088851
-0.21526057
-0.17088096
0.24518451
-0.26013467
-0.3145633
0.05892714
-0.21361949
0.040386073
0.31567678
-0.03285598
0.004937397
0.013610265
0.09593966
-0.28140202
0.03939484
-0.08444476
-0.13361023
0.21263449
0.23025969
-0.07933433
-0.16050515
-0.17958868
-0.1877078
0.147603
-0.046616215
-0.09440191
0.20317547
0.20017578
-0.08783683
0.26513335
0.22174096
-0.26614168
-0.14416873
-0.035602484
0.27254105
-0.098472275
-0.14089073
-0.2041978
-0.085024185
-0.13987441
-0.32102582
0.20882481
0.023714129
-0.30652937
0.3585291
-0.23766232
-0.29388738
0.33798498
0.18541527
-0.20137559
-0.014094495
-0.3162924
-0.2311239
-0.08184636
-0.12813643
0.14099604
0.106528066
-0.0070203254
0.018574333
0.1032557
0.12870666
0.19943859
-0.16055582
-0.09155121
-0.1356741
-0.099225976
-0.16127823
-0.20771743
-0.03512368
0.009926664
0.018234845
-0.33923674
-0.098134056
0.04400172
-0.14714143
0.30563715
0.1446864
-0.24643406
-0.018193834
-0.056291033
0.2118897
0.21296409
-0.23022503
-0.12487061
0.2500904
-0.08359919
0.10263359
-0.057230625
-0.03966223
0.2788643
-0.11287193
0.27185956
0.31227902
0.26417127
0.12728503
0.14034651
0.24539083
0.2289498
0.16218492
-0.04440869
-0.19749968
0.30474213
0.07701443
-0.03906498
-0.27339068
0.07457667
0.074962586
0.18802494
0.0088094575
-0.31287786
-0.17056327
0.34520823
0.15612106
0.26782468
-0.33425552
-0.17576785
0.23160397
0.12540244
0.00713549
-0.099318705
0.15811454
-0.32140204
0.32796982
0.023596745
-0.15768073
-0.18078037
0.054208655
-0.2382217
-0.26605716
0.12574492
0.31786528
0.3066113
-0.0463558
-0.30009058
0.24643327
0.12108919
0.15589653
0.03178408
0.10467215
-0.04915848
-0.16475876
0.09325543
-0.2858832
0.3072131
-0.18127643
-0.09403542
0.28337407
0.10685235
-0.17098314
-0.23059577
0.15624005
0.0010975195
-0.11910031
-0.23446205
-0.29923767
0.15518723
-0.31548667
-0.34074017
-0.35409445
-0.043321144
-0.21971206
-0.17760451
-0.17547087
-0.30903345
-0.18374127
0.3227352
-0.07635413
0.1967008
0.32016605
0.14358151
-0.16842656
0.21824156
-0.015033712
-0.19348505
-0.06974048
-0.22463594
0.11766652
0.0759391
-0.0066240104
-0.039070606
-0.072011605
-0.2517407
-0.21152908
-0.30875832
-0.40764466
-0.2435312
0.0013258676
0.098542474
0.08257713
-0.109063566
-0.2539412
0.12612385
-0.061257236
0.15888813
-0.116004586
-0.23492599
-0.28908953
-0.06847214
-0.3171206
-0.1276216
0.24113244
0.092023276
0.13602458
0.30304047
0.25754446
-0.052140933
