-0.08670954
-0.082797915
0.37312853
-0.1842757
-0.25913012
0.10466306
0.29747602
0.13901666
-0.22943167
0.053307638
0.18826874
0.23699875
0.18184082
0.3085305
0.12919885
-0.09047145
0.08374576
-0.028378554
-0.24244407
0.28353426
-0.08901662
0.10176647
0.10953233
-0.057592537
0.18675202
-0.34522837
0.3398499
0.15136915
0.22331083
-0.21244505
-0.06397039
-0.09934333
-0.12306116
-0.2040879
0.2889651
0.21117489
-0.2462873
-0.28681502
0.23222488
0.009730126
-0.35940078
-0.1603363
0.25847754
0.061554156
-0.15580249
0.22613457
0.2396586
0.14914975
-0.21191277
0.2334448
-0.19687015
0.07247407
-0.30853438
0.13551003
-0.08713685
-0.015502204
0.069966815
-0.13678025
-0.042065192
-0.12940606
-0.22837503
-0.11237006
-0.2802808
0.18272325
-0.10624929
0.26707467
-0.11094613
-0.21664305
0.27698556
-0.10713611
0.04138116
0.2485977
-0.17494129
0.32071942
0.28565192
-0.29378802
0.15258843
-0.4302844
-0.0025289045
0.018934019
-0.30825907
0.32103825
-0.26286027
-0.3191586
0.13984789
-0.12470858
-0.2713631
-0.2804631
-0.26858908
-0.22456703
0.15530697
0.042364996
0.070022784
-0.11626971
-0.24003091
0.048673972
0.21022972
0.13621484
0.050740115
0.17273587
0.24466027
-0.22912867
0.19247739
0.13579752
0.2820611
0.14887682
-0.0066342084
-0.15080237
0.13757677
-0.31974864
0.28356513
0.21255536
0.09381318
-0.16899703
-0.028380571
-0.14266118
-0.09776644
0.20074797
0.18834843
0.20363176
-0.1323145
0.22722994
-0.04655377
-0.04593232
-0.12780423
-0.23401853
0.31293207
-0.048663255
0.25980645
-0.013294632
-0.229486
0.13949719
-0.06378944
-0.20519495
-0.23028718
0.02182509
-0.058072638
-0.110417314
0.013056914
-0.33650804
-0.11829192
0.08073145
0.16902453
0.065202594
-0.15055025
-0.1695613
0.19910122
0.113222
0.19341572
-0.021000775
0.26341414
-0.11397259
-0.027018178
-0.17410001
0.308975
-0.20858933
-0.041569334
-0.33253458
0.3177976
0.06657844
-0.15090294
-0.10694541
0.019578205
-0.121708415
0.0861101
0.11463864
-0.2700412
0.26767966
0.13972251
0.21203008
-0.049532846
-0.14438489
0.292782
0.0013371772
-0.051775843
-0.1472199
0.16070658
0.29140675
-0.26479504
0.16035324
0.15726608
0.43872708
0.14639415
0.14981928
-0.05748901
-0.028321892
-0.1334004
-0.071876556
-0.14586721
-0.18225347
-0.16070426
-0.22186857
0.1606391
-0.0745181
0.024295608
-0.122695826
0.17263967
0.14457814
-0.22037227
0.22691365
-0.16052549
0.009465541
0.32565615
0.15812993
-0.26556242
-0.22543766
-0.2849916
-0.18441512
0.3088229
-0.044582494
0.2773547
0.090949126
-0.2392988
-0.18976744
0.18809684
-0.27772096
-0.20658833
0.050041266
0.09779224
-0.06577346
-0.28911677
-0.27766773
0.22822149
-0.10798571
-0.13792802
0.044458494
-0.27809742
-0.047808524
-0.30434656
0.17091984
0.09709486
0.20837487
-0.31223154
-0.07442375
0.022667525
-0.20674649
0.32650384
-0.23143253
0.14226586
0.3254849
0.11991528
0.026486998
0.07976353
-0.17136805
0.12575527
0.26000273
0.052666
0.117930345
-0.08748086
0.119364664
-0.0012500565
-0.012398265
0.18385482
-0.047274694
0.09570966
-0.099061646
-0.2352768
-0.052313678
0.14778264
-0.13727531
-0.07853183
0.2805165
0.08614825
-0.13138132
0.18116935
0.1885773
-0.22876535
0.09377558
-0.09615213
0.036901265
0.27494058
-0.21675317
0.1596433
-0.15452662
0.009087662
-0.29561692
0.25598451
0.31000593
0.33099008
-0.108520664
0.029913405
-0.26288715
-0.09262811
0.22336423
-0.24787849
0.27157715
-0.13591188
-0.3451422
0.14605755
-0.28308657
0.19134401
0.004841828
0.15358679
-0.2770266
0.15339155
0.00373048
0.12784712
-0.03446266
0.036452115
-0.15007749
0.254127
-0.28862986
-0.2915609
0.23253265
-0.09471679
0.12971729
0.06380751
-0.23380773
-0.12917997
0.08201077
-0.17368536
-0.15393934
-0.1514999
0.19739236
-0.13848662
0.17488033
-0.15764806
0.060689867
0.08386403
0.13769856
0.19084628
-0.4180533
0.028111214
0.1630924
-0.09689747
0.002998833
-0.11903562
-0.27491236
0.3796422
-0.24732752
0.2213791
0.30156916
-0.17812552
0.3730336
-0.24727017
-0.19330022
0.028983284
-0.17646733
-0.04249577
-0.13186465
0.21786048
-0.14894845
-0.017991541
-0.2509782
-0.10007563
0.097612135
-0.38410813
0.0269257
-0.14787638
0.29840156
0.30604762
-0.2089521
0.24408422
-0.07964263
0.10810534
-0.36707282
0.15194204
0.03803361
0.16453132
0.05998971
0.2534918
-0.08451556
0.1045055
-0.21311276
0.065820165
0.1104583
0.07437748
0.3142022
-0.3526085
0.12155583
-0.17607895
0.0035662435
0.07367635
-0.04294839
-0.14421378
0.086131975
-0.055975456
0.32389167
0.1084307
-0.030803533
0.2987415
-0.06079022
-0.031333946
0.14584659
-0.06882784
-0.24956244
-0.30281076
0.026684113
0.2211632
-0.32451263
0.30978012
0.2692788
0.02656943
-0.008720513
-0.40653697
-0.23133835
-0.021609426
0.07461121
0.087176874
-0.13954905
-0.17195861
-0.16742453
0.12702034
-0.2978266
0.33573347
0.05366346
0.06771915
-0.10757011
0.08515703
-0.34357867
-0.22822249
-0.23593014
0.1555173
0.1469889
-0.26955366
0.16226536
-0.24679688
-0.20820127
-0.26522624
-0.20190328
-0.05638847
-0.36754838
-0.028251244
-0.2604606
-0.20069914
-0.17771643
0.048569683
-0.3518703
0.105458595
-0.19380483
0.21259153
-0.11290112
-0.045780458
0.3210505
0.30489114
-0.2627308
-0.25392625
0.175049
-0.023350082
-0.16947542
-0.27888584
0.24469009
-0.07646558
-0.037277706
-0.03561542
-0.24911982
0.29711953
-0.34240264
0.13198537
0.31303534
-0.11753172
0.20782477
0.1717878
0.30700263
-0.07115917
-0.18119006
-0.14184566
0.058986273
-0.3126885
-0.09744883
-0.26330024
-0.17818367
0.042493258
-0.068896554
-0.06598888
-0.0543149
-0.13125983
-0.2417613
0.18616949
-0.0007518145
0.2695425
0.0110209305
0.13286076
-0.33193067
-0.17362607
-0.08879587
0.30570114
-0.3865137
-0.05665204
0.27407545
0.11901716
0.35295543
-0.05908579
-0.026117524
0.28876507
-0.08200507
0.118253976
-0.11163898
0.06726609
0.2562728
0.043245688
0.014601374
-0.02954916
0.14253072
0.058775544
-0.2240376
-0.1326596
0.23189165
0.2684721
-0.14158392
0.16408257
-0.20399247
0.10227835
-0.2091205
0.28506616
0.044312607
0.31942856
-0.07929189
0.2108877
0.24518362
0.3036554
0.05675371
0.29516482
0.3029197
0.26357487
0.14770833
0.3458939
-0.29075584
-0.24591132
-0.1650904
-0.24387291
-0.08386579
-0.32187122
0.320285
0.33835545
0.15255868
-0.35318106
-0.17458123
-0.19385307
-0.13855623
0.14627114
0.039659426
-0.031624332
0.031439316
0.31241274
0.23255332
-0.36276367
0.28077796
-0.08054291
-0.30759406
-0.31046474
-0.2203025
0.23822185
0.24910785
-0.23590024
-0.3270825
0.16615695
0.106613934
-0.13913408
0.20864524
-0.26016983
-0.039000228
0.090030245
0.09951863
0.15359785
0.048787054
-0.17967522
0.4379686
-0.10340178
0.12668292
-0.21131127
-0.2666549
0.27331764
-0.020219
-0.01675207
0.20497563
0.15828711
0.100619
-0.09441794
-0.17847435
-0.012543485
-0.05658033
0.18728708
0.07109808
0.32254958
-0.047758967
0.023979181
-0.18951751
-0.15468913
-0.16430207
0.16339177
-0.19770849
-0.19655909
-0.029799458
0.15644465
0.058721576
-0.13754292
0.19249497
0.33374184
-0.07659702
-0.1436224
0.14608271
0.07433179
0.14513597
-0.0555102
0.0065024565
0.047973625
0.3806376
0.009320682
-0.30571523
0.091415524
-0.22269239
0.15643343
0.24600103
0.03754487
0.3021817
0.11628199
0.1616805
-0.30112284
-0.0029741344
-0.22914365
-0.1578231
-0.20396711
0.034713093
-0.0929422
-0.22578755
-0.32995057
-0.32840484
-0.028953582
0.3251071
0.08437737
0.19642541
-0.033613857
0.22234891
0.12101242
-0.089490764
-0.26945108
-0.027398454
0.27343878
0.026103793
0.28090462
-0.16241725
-0.026834304
-0.2835391
0.13505124
0.16743393
-0.08000492
0.09863755
-0.04343857
0.06985475
0.020898111
0.22641313
0.31298444
-0.15322292
-0.25758746
0.17473614
0.23016198
0.24573484
-0.032134734
-0.19666323
0.043419972
0.18188049
-0.024489755
0.38555586
-0.24762027
-0.23186137
-0.17857662
-0.25183535
0.28808466
-0.23537451
-0.16498317
0.07373495
-0.15672971
-0.15053876
0.118730456
-0.34016514
0.050338995
0.0005383446
0.08908145
-0.29066902
0.14643003
-0.07041833
0.08383229
0.15101522
0.096529305
-0.2588631
0.18177652
0.06808105
-0.08994625
-0.15839025
-0.19369662
-0.0065388423
0.20790394
-0.23545824
0.19113885
-0.10158212
0.26518086
0.31919667
0.19382754
-0.19193357
0.26925683
-0.029831123
-1.694329e-05
-0.26446328
0.010050762
-0.11569265
-0.06578061
0.22141495
-0.223232
0.008989719
0.117509276
0.22132955
-0.22350693
0.33365208
0.008116138
-0.2635964
-0.036529947
0.32750863
-0.25098595
-0.29200128
-0.1001487
0.0013498168
-0.22792636
-0.21689972
0.15926392
-0.0012685772
0.32906464
-0.32967636
-0.09866777
-0.25608164
0.21322863
0.36481887
0.044474997
0.101703465
0.25614166
0.149798
0.2664098
0.23091963
-0.07621071
0.08210341
0.17026618
0.1079012
0.19431281
-0.28409863
0.019635163
0.0805739
-0.0027900217
0.30537468
0.19942021
0.08514169
-0.3216835
-0.22852927
-0.21400546
0.35604444
0.11919842
0.30074805
-0.2595281
-0.030112049
0.009304114
-0.17669554
-0.278314
-0.22008313
0.106694534
-0.018372355
-0.11231691
0.3259524
0.15061677
0.016851889
-0.12571666
-0.08740467
0.18523163
-0.29887697
-0.055486478
-0.13785723
-0.04504736
0.15801951
-0.061758243
-0.24841565
0.12994218
-0.1500066
0.32207987
-0.02312495
-0.094683334
0.0973401
0.15754768
0.07486308
-0.31158274
-0.24014556
0.29685235
0.025837565
0.27653527
0.18574488
0.0761648
-0.26209044
0.23019283
0.046506066
0.18386187
-0.23607787
-0.21134534
0.32505456
0.019876001
0.3902469
0.1081017
0.14315097
-0.33294952
-0.3771409
0.1405484
-0.13135383
-0.12033725
0.060513068
0.31523547
-0.046244178
0.24383347
-0.34607664
-0.25220793
-0.16342796
-0.29408062
-0.043407384
-0.04620666
-0.02333109
0.029852757
0.06960796
-0.27885896
0.19874652
-0.009732601
-0.08734968
0.30198732
-0.09966355
-0.17538933
0.19109228
-0.18443371
-0.09192651
-0.1258244
0.031033933
0.043146096
-0.2352991
0.4365061
-0.07058582
0.20994176
0.0441426
0.022882162
-0.36454383
0.06820291
-0.29577464
0.29980427
-0.19843987
0.03420321
0.39154884
0.13133556
-0.29810366
-0.13113916
0.027753983
-0.34252322
0.16741419
-0.12652716
0.01661971
-0.1580999
-0.24029715
0.0958077
-0.12470525
-0.028686177
-0.26581004
-0.13436532
-0.14358293
0.2832827
-0.03384678
-0.23407234
0.23618503
0.10020031
-0.38359785
-0.24145037
0.24729657
-0.09605476
0.27600837
0.14591387
-0.25342616
0.07774367
-0.26827928
-0.1140539
0.28849468
0.18529068
-0.002819591
0.22188307
-0.19915836
-0.1366034
0.20433506
-0.04698371
0.16671626
0.25714073
-0.12252378
0.10470694
0.020069398
-0.2327551
-0.06792893
0.1554367
0.010641382
0.0770202
0.34265196
-0.17006455
0.10834418
-0.31925794
0.21999113
0.14559749
-0.14544041
0.31341246
-0.08749578
0.2426532
0.13697204
-0.04159832
0.20295767
0.05415683
-0.19029975
0.1963358
-0.2792284
0.064446054
0.2573201
0.25875625
-0.06609272
0.15596032
-0.4164257
0.25199494
0.17615269
0.19604145
-0.24525428
-0.24105853
0.26879346
-0.19878606
0.04881266
-0.15942672
0.20787196
0.21976946
0.31332842
-0.18224171
-0.07768259
-0.26271313
-0.0026117484
0.2998418
-0.024463108
0.11147712
0.3486125
0.29280543
0.14617488
-0.13695054
-0.038622152
0.18383355
-0.35465652
0.31259558
0.37964642
-0.2688734
0.16918238
0.23087296
-0.15637682
0.32112136
0.26887566
0.12983565
-0.09294354
0.2187515
-0.042999115
0.01198874
-0.08347699
-0.27560464
0.3295249
-0.33360976
-0.094510846
-0.19367725
0.15125093
0.022394199
0.284905
0.2836098
-0.071280435
-0.36128667
0.0007218669
0.15364413
-0.2872488
0.29377198
0.24669847
0.0393047
0.1642406
-0.14076431
-0.2916956
-0.40600097
-0.3717251
-0.2735978
-0.2515057
-0.015561217
0.028484156
0.14268313
0.068106465
-0.07741778
0.022526227
0.026481537
-0.042636894
-0.06171325
0.22624286
-0.17996569
0.35339925
-0.15134123
-0.047496866
0.39959636
-0.3703907
-0.25534043
-0.11595441
0.28430766
0.37456644
0.051919308
0.15166035
-0.031904373
0.19633362
-0.053934034
-0.120787516
-0.26758853
-0.37180445
0.2986324
0.33122674
0.24094601
0.11824377
0.20602056
0.07795759
-0.023673965
0.2967286
-0.31550673
0.16139421
-0.086796045
-0.28940365
-0.10850666
-0.29859492
-0.21588856
0.2373246
0.069214314
-0.090076536
-0.14444669
0.20244625
0.02375257
0.012113358
0.25230858
0.16823536
-0.010790059
0.12329614
-0.2716662
0.15052283
-0.31888118
-0.115562186
-0.31862968
0.06456819
0.15962416
0.22430335
0.33784294
0.085624024
-0.004614818
-0.27873486
-0.27250692
0.21524426
-0.35464838
-0.08816173
-0.11291529
-0.3021774
-0.14673568
0.10923909
0.116926625
0.111388795
0.12651758
-0.25564715
-0.010614214
0.13443074
-0.06258342
0.1086216
0.084709905
-0.12015332
0.27183303
0.2740499
-0.23834574
-0.20093979
-0.12906651
0.22814447
-0.17296912
-0.1614593
-0.2231944
0.19056664
0.058002334
-0.022113567
-0.0685679
-0.24124272
0.08790436
-0.04346714
-0.16262801
-0.034815904
-0.3254002
-0.17571981
-0.09335832
0.27557644
-0.04892787
-0.24531057
0.27978972
-0.21641023
-0.21831533
-0.2821398
-0.3249912
0.07259045
-0.033262454
0.04782541
-0.23227698
0.21804011
-0.13312961
-0.20851128
0.110283434
0.31032324
-0.19291759
0.20678946
0.022474956
-0.097540595
-0.19936234
-0.009592383
-0.10178689
-0.24915694
0.31252947
0.21836893
0.2120389
-0.112376675
-0.08340132
0.29373285
-0.35912853
0.12003592
-0.24647199
-0.3336233
-0.095805265
-0.21372132
0.30954137
-0.28520203
0.020079361
-0.22493993
-0.3511183
0.15532172
-0.21890599
0.040859763
0.069821745
0.023635315
0.27881128
-0.28500086
-0.18266636
0.025924185
-0.13481376
-0.31719822
-0.15025099
0.29800618
0.08938377
-0.02500711
-0.1916594
-0.22312063
-0.23616004
-0.055873282
-0.030094882
0.20904009
0.11245741
-0.3411342
-0.29294598
-0.075363934
-0.21145058
-0.0023256822
-0.0057031885
0.19312549
0.074480824
0.22143319
0.20106
0.01892364
-0.060968764
0.23756547
0.16541438
-0.047430526
-0.3148656
0.020624222
-0.022486363
-0.023074662
-0.2253848
-0.36506483
0.3340739
-0.02404197
-0.18626505
-0.30863684
0.14993176
0.10326984
0.11858612
-0.20089617
0.31828696
-0.064304344
0.0019789438
0.14966059
-0.28406468
-0.32420427
0.17984134
0.13373934
-0.18017422
0.3026419
-0.033519793
0.059587732
-0.27636382
-0.032478053
0.28307712
-0.2583215
0.23871988
-0.16684751
0.15039562
0.27968982
-0.098437555
-0.107012376
-0.14400162
0.33174875
-0.29092976
0.0981207
-0.24597494
0.2580599
-0.19221626
0.15093327
0.3860203
-0.04766037
0.002254918
0.014619482
-0.3183401
0.0328473
-0.34511852
-0.12252576
0.09585557
-0.21013421
0.13696481
-0.26195052
0.2823625
-0.30004725
0.15896718
-0.056091536
0.28116935
0.11823493
0.30672535
0.34362638
0.09972681
0.2526041
0.17874517
0.3197304
0.24302892
-0.27616698
0.22902614
0.12147515
-0.024715353
0.10527677
-0.34456125
0.13504578
-0.061479293
-0.24545984
-0.061879065
-0.04028192
0.18575314
0.19939552
-0.21216327
0.0147832185
0.2918184
-0.006861035
-0.1932554
-0.34486625
-0.30860972
0.22189327
0.25750482
-0.049456563
0.35512102
0.0058449483
0.075257026
-0.022834316
0.0704693
-0.33915243
-0.09570498
0.023485586
-0.23649082
-0.300049
0.22162801
0.07036668
-0.2166358
-0.2170786
-0.27153853
0.12285677
0.17127705
0.15507725
-0.020277845
0.055017665
-0.22562088
-0.123393916
0.11998624
-0.26813188
-0.044443455
0.23326662
-0.02847525
-0.24833481
0.22559434
-0.3253663
0.031417742
-0.32969323
0.28010672
0.262847
0.03832323
0.1348269
0.07912293
-0.05796934
0.032532938
0.14370589
-0.018896418
0.014878099
0.055749293
-0.21579011
-0.27643424
0.30356005
0.25638804
0.3039037
-0.048774235
-0.17843547
-0.13633431
0.17889547
0.111838356
0.3079186
-0.124264635
-0.06368882
-0.09850144
0.24700852
0.08221299
0.46024102
0.36057892
-0.15665093
0.33759102
0.085900895
0.06767066
0.16778186
0.23479742
-0.21871078
0.26719555
0.3847485
-0.17620152
0.102833204
-0.31301767
0.23150508
0.08633563
0.27050135
-0.29711154
0.005759345
-0.16361591
-0.2897259
0.052435365
-0.20653678
0.054935444
-0.26029652
-0.049007375
0.13906866
-0.23357128
0.24537484
0.14588322
-0.06299518
0.21272373
-0.061732702
0.27000663
0.32264474
-0.09318936
0.06800401
-0.13241667
-0.2739106
0.009157055
0.11833324
-0.27948537
-0.11538233
0.17332554
0.3238903
-0.06257281
-0.10789598
-0.08891258
0.06630653
-0.0057601435
0.36537537
0.16875401
-0.28132
-0.2698616
-0.121880494
0.07805036
0.1804445
0.16281721
-0.086033106
0.207242
-0.31151527
-0.37557715
-0.1702365
0.010984842
-0.1860438
-0.028328853
0.099384196
0.22482015
0.08820767
-0.3345793
-0.11993492
-0.003697475
-0.13875982
-0.3382428
-0.03598775
-0.28664792
0.33511838
0.051492702
-0.11751402
-0.1547794
0.2734577
0.27898273
-0.2500232
0.15622713
0.15492567
0.1047699
0.22596647
-0.26513648
0.2278951
0.26640335
0.14494799
0.1391492
0.021116273
0.24322817
0.0702545
-0.026763955
-0.20631695
0.0056618517
0.29027894
-0.1460064
-0.34595314
0.33510634
0.22066852
0.083885014
0.10283597
-0.15694927
0.18650547
0.033540584
-0.19767606
0.078221165
-0.117600374
0.21594904
-0.1184233
0.12406543
-0.26650825
-0.025821956
0.041629784
0.21642584
-0.16841573
-0.2725066
0.36307693
0.13137464
-0.18002461
-0.3081189
-0.22724962
0.07533315
-0.30783814
0.25734705
-0.32748494
-0.2705564
0.14918834
-0.29238477
-0.112481825
-0.14770228
0.19061069
-0.0040517263
0.34415764
0.25131693
0.32180944
-0.06470492
0.27097696
0.0747548
0.25734577
0.14646776
0.04580899
0.23093052
-0.09418108
-0.10259125
0.064918905
0.0074874763
-0.37985045
0.26725885
0.28231832
0.26399386
0.30668253
-0.079894766
-0.32315034
-0.021628145
-0.14905891
0.16244768
0.23584162
-0.43473136
-0.28922728
-0.16062544
0.26898494
0.3745329
-0.063188
-0.21783832
0.20952044
0.21322891
0.11904461
-0.105679676
0.10636971
-0.14975734
-0.2236756
0.114084505
0.15662232
0.02643365
-0.09775324
-0.0028889722
-0.29925418
0.13939987
-0.19671573
0.26304445
0.12568773
-0.21585988
-0.24090269
0.0046369303
0.03349706
0.071293324
-0.048091162
-0.3147665
-0.23650944
0.3635528
-0.055853322
-0.055979837
0.2653912
0.16391441
0.0459897
-0.30337387
0.22976443
-0.049165
0.034457047
0.25583598
0.2907561
0.09501639
0.28018188
-0.26354364
-0.36260852
-0.08311883
0.0054179886
0.09105396
0.31746748
-0.14519212
0.29211915
0.064495265
-0.0010107397
-0.12647788
0.042422216
0.14776544
-0.1966908
0.053266693
-0.04727148
0.24975991
0.07168351
-0.029674726
-0.019170914
0.054287314
0.29889458
-0.1051754
-0.35801253
-0.16264504
-0.15670335
-0.0054585487
-0.016387425
-0.417517
-0.047369324
0.021959191
-0.20432957
-0.22164454
0.10529443
0.08339683
0.20262751
-0.25234586
0.14461891
0.016165534
0.082256116
0.24241038
-0.26460442
-0.2680982
0.22112828
0.2521212
-0.30900684
-0.0038222508
-0.2581866
0.22972217
-0.17264947
-0.21710512
0.37635037
-0.024199542
-0.18102182
0.053973585
-0.39279926
-0.28257912
0.08751062
0.14659543
0.277343
-0.17669903
0.0020452007
0.2216833
0.014157335
0.023212412
0.087152615
-0.08085226
0.317716
0.014001556
0.058170777
-0.16644627
-0.14031588
0.16275069
0.1138561
-0.20980906
-0.08617877
-0.16879229
-0.10253054
-0.22778778
0.16536029
0.13197213
-0.09000409
0.37453574
-0.10547713
0.2723996
0.024700036
0.034270942
0.30641723
0.10940489
-0.18821283
-0.21499506
0.05340148
0.24379013
-0.06381688
-0.19996868
0.21257968
0.17898625
0.35758737
-0.25425676
0.26742578
0.16970526
-0.16919889
-0.21516648
0.09693882
0.10301081
0.2905526
0.027437575
0.060605574
-0.10446661
0.2193719
0.0913984
-0.28369027
-0.054297734
-0.15459482
-0.04801522
0.009741702
0.14330077
-0.19586377
0.18399362
-0.33289808
-0.0912736
0.20544277
-0.20873438
-0.21350017
-0.12481761
0.35425416
-0.22012876
-0.112629354
-0.2362811
0.29142022
0.13780972
0.022418559
-0.16333447
-0.037237547
0.2387244
0.2714588
-0.2385666
-0.25733823
0.17817165
0.06684278
-0.24036917
0.08732912
0.2524822
0.008796119
-0.21622331
0.121783674
0.056830492
-0.23027112
-0.23493384
-0.0049078823
0.013417045
0.08986968
0.31322408
-0.35575294
0.08836667
-0.14424686
0.015221988
0.2982973
-0.2525995
0.18817158
0.20057204
0.17983791
0.10121428
-0.104084335
-0.13285112
-0.05722318
0.20174927
0.22580127
0.19130579
-0.036582913
-0.12485723
0.087011024
0.33732113
0.27379164
-0.35722125
-0.14627767
0.08459242
0.109725714
-0.0042149615
0.25483596
0.32260597
-0.21343745
0.1580307
0.19866282
0.23619616
0.35159275
-0.14414732
-0.37203458
-0.1799576
0.18439683
0.14437935
-0.045892794
-0.036910743
-0.051299702
-0.26930645
-0.026341273
-0.104896955
-0.1180927
-0.35906544
0.13180459
-0.16130866
-0.008418993
0.32138017
-0.28106976
0.036279775
-0.10915267
-0.1343723
0.24191532
-0.21272318
0.055044584
-0.27593157
0.020786664
-0.21707018
0.056179937
-0.26585743
-0.31883183
0.18404053
-0.007588292
0.044814393
0.14043617
-0.038473435
0.15793322
0.008546521
0.13160476
0.094196536
-0.23512311
0.0050835474
0.3111122
-0.13005152
0.21404807
-0.09486129
-0.080199145
-0.13537842
0.16467787
0.3201609
-0.2877982
0.2545035
-0.29063383
0.14332075
-0.19893932
-0.25437957
0.11983053
0.13486418
-0.015834264
-0.40159032
0.28043637
-0.2862489
0.27399433
0.18772753
-0.0149066765
-0.3239646
0.17155978
-0.04356535
-0.28948796
0.039314125
0.21750724
0.03919705
-0.010046655
0.15271541
0.14112203
-0.048020445
0.10137529
-0.30779624
0.020031746
-0.31507695
0.22089477
-0.041150272
0.07486841
-0.014155101
0.16320561
-0.27442256
0.26361206
-0.25637543
-0.08265197
-0.23344913
0.27178973
0.32846612
-0.1965006
0.062489867
-0.32254377
-0.09780742
0.25344226
0.19857258
-0.12812407
0.40177384
0.07770723
0.015592561
-0.2179564
0.44575903
-0.2612248
0.094201624
0.18797402
-0.105056
-0.23399602
-0.18549198
0.035831597
0.30410895
-0.012926507
-0.15453562
-0.10294522
0.0906339
-0.08012871
0.07082631
0.28335223
0.06477892
-0.2195628
0.32667738
0.12368112
-0.0315953
-0.10877912
0.14437556
0.3443994
-0.29465657
-0.10422748
-0.17486756
0.10827128
0.022454254
-0.16020574
0.0066248626
0.16812873
0.26790905
0.22454752
0.14911838
-0.3328597
-0.4138935
0.16539404
-0.13138527
-0.2598969
0.033315636
0.045344718
0.064706236
0.028181132
-0.30853212
0.0001836444
-0.14742294
-0.0007315449
0.00613741
0.045352336
0.31864515
0.221153
-0.35145363
-0.26853186
-0.32862955
0.27993685
-0.16020471
0.043475024
-0.2875618
0.20221996
-0.34254745
0.15349741
-0.27343044
-0.38950455
0.23300147
-0.29774538
0.40546116
0.2582996
-0.07206303
0.19158272
0.100159936
0.24581873
-0.35784644
0.18062806
0.09926479
0.23360234
-0.1888554
0.1279576
-0.03700491
-0.15650038
-0.16297098
-0.26415718
-0.22138111
0.24704729
0.17053567
-0.30262452
0.2456481
0.115128234
-0.0894036
0.26883772
-0.23895235
0.2596683
-0.09743045
0.09695611
0.05494624
0.18331534
0.29056323
0.26035255
-0.1688353
0.28355166
-0.30978101
-0.10387326
0.2926629
0.14049214
0.08932769
-0.06082892
-0.2829043
-0.17646281
0.27820203
0.043568153
-0.21015519
-0.21458085
0.2848367
0.09357577
-0.31861007
0.07704568
0.2162981
-0.013719673
0.18285637
-0.115327016
-0.07787639
0.32796225
0.10546016
-0.3675567
-0.26412314
-0.16581054
-0.010696794
-0.098759346
0.04764014
0.40294904
0.29829982
-0.15408626
0.22670041
-0.036902532
-0.1474835
-0.2904821
-0.073364355
-0.32445043
0.032450885
-0.2611029
0.21840206
0.26381183
-0.27318677
0.16554141
0.15335232
0.31698492
-0.20351462
-0.15230809
-0.13588837
-0.07289123
-0.10623477
0.025838608
0.16734535
-0.10855632
0.0032589263
0.26372352
-0.11762809
-0.30410105
0.21217667
0.3279958
0.28028685
0.06327705
0.34426796
0.21522611
-0.22192258
-0.29681465
-0.124152854
-0.036192007
0.35425928
0.44780445
-0.15389831
0.29941195
0.35689747
0.29299957
-0.05107013
-0.38374028
0.12914118
-0.17552777
0.23059869
-0.081412986
-0.17586115
0.28723776
-0.2841675
-0.07385513
0.12388523
0.24797371
0.24673632
0.29233932
0.14108974
-0.13772117
-0.22270997
0.108246796
-0.16408184
0.08371933
0.019947132
-0.28569373
-0.1586072
0.24743493
0.16110305
0.31440926
0.1250329
0.20172651
-0.12742867
0.20833921
-0.18135333
-0.01579041
0.16931742
-0.2592622
-0.0932072
0.2259528
-0.27019852
-0.21976493
-0.092040524
0.333755
0.32282782
0.055920027
-0.18470547
-0.25489417
0.35239202
0.39352968
-0.20678332
0.28486472
-0.18884422
0.3087048
0.1682253
-0.18046525
-0.23035355
-0.2608267
-0.29142907
0.26296562
0.2320108
-0.1443483
-0.24604331
-0.21956095
0.32131216
-0.19498177
0.14030866
-0.21964994
-0.27560028
-0.3047035
0.29314485
0.04457455
0.28387824
0.0858379
-0.32733858
-0.0038148942
0.078518294
-0.16765003
-0.029682895
-0.17613575
0.2437492
-0.23810408
-0.11445333
0.0034454651
0.15288447
-0.22885565
0.060755406
0.10790057
0.10299934
-0.06834995
0.04112143
-0.13055578
-0.33590925
-0.011478086
0.068420276
0.4162978
-0.27687824
0.44183907
-0.25890106
-0.10384548
0.16301075
0.26762277
0.31308764
-0.24114776
-0.19583012
-0.26390156
0.33602223
-0.3626586
0.08902294
0.14619759
-0.07730437
-0.13364558
-0.18446623
0.16380769
0.11754641
0.28775933
0.2877367
-0.3568452
0.3097631
-0.22377639
0.030184133
0.07451804
-0.15461387
0.005550629
-0.30680263
-0.17185034
-0.12507436
-0.19641264
0.05990698
-0.21193275
0.18254311
0.31892955
-0.03384438
-0.0011068127
-0.009059744
-0.20168741
0.28109053
0.03370182
0.26674238
0.13169411
-0.07556984
-0.25406373
0.23318464
0.18779346
-0.07186139
-0.170445
-0.24581368
-0.15933597
0.044901207
0.008730743
0.1434552
0.15292151
-0.16340694
-0.29372686
0.29468682
-0.38255632
-0.07766537
-0.25120452
-0.26349062
0.1637196
-0.08533076
-0.054069012
-0.111270964
-0.13273601
0.13184623
0.06940092
-0.07435421
0.0031647272
0.1708548
-0.1699384
-0.067047216
0.06314932
-0.2771865
0.2360898
-0.16920872
0.013536236
-0.24179503
0.19915815
0.23973891
-0.03787791
-0.271451
-0.17656238
0.117472045
0.25232765
0.007492513
0.13614675
0.012734555
0.315532
0.034333833
0.17340104
-0.04959906
-0.06195731
-0.046912536
0.11703153
0.09481074
0.2563668
0.018774385
-0.05023731
-0.14865357
-0.3460522
0.31702492
0.30035037
-0.22325133
-0.28729263
0.17138653
-0.17659616
-0.20452055
0.005816962
0.101295464
-0.3232279
-0.069413275
0.11723566
-0.04498268
-0.090487845
-0.169877
0.24670163
-0.22563148
0.16085951
0.31753653
-0.38889945
0.22849321
0.074084826
0.11198047
-0.20575358
-0.055077456
-0.102858394
-0.12492748
-0.18859322
-0.12072103
0.24301952
-0.28251612
-0.0096070655
-0.12632737
0.1689207
0.13384116
-0.022702925
-0.34359515
0.14934479
0.07241845
-0.13250059
0.13921446
-0.16216679
-0.1585978
0.15445244
0.03209972
0.2909255
0.043882135
-0.12838909
-0.22384435
0.0853381
0.18208086
0.1472419
-0.075629175
-0.223782
-0.067292586
-0.23204985
0.18748876
-0.07226209
-0.08078562
0.12900905
0.19960023
0.38904023
0.2335208
-0.14175917
-0.19109577
-0.2832146
0.15403417
0.019945158
0.121448725
-0.049618714
-0.3190266
-0.2680104
-0.107074164
0.24861738
0.098230205
-0.006356458
0.18097256
-0.2896524
0.2694762
-0.1251707
0.13870893
0.28598788
0.05689547
0.2850395
-0.00916167
-0.2472451
0.008176555
-0.08786321
0.3048961
-0.11810421
0.2121649
-0.31841904
-0.12601593
0.18152186
0.15224876
-0.030556008
-0.28194988
0.117388025
-0.16657835
-0.2500742
-0.012879571
-0.09761027
0.039387733
-0.02233263
0.34284124
-0.025850294
-0.29291993
0.037680082
-0.22738703
0.24254653
0.0921067
0.13293795
0.27764976
-0.25018442
-0.099642314
-0.24828564
0.07323497
-0.073150404
0.30990082
0.26124614
0.28641078
-0.047285285
0.27691737
0.33468682
0.4215989
-0.102797836
0.23030783
-0.30673885
-0.34768495
-0.38209304
-0.1767321
-0.16877255
-0.016550627
0.28026515
0.19695999
0.24321054
-0.1317561
-0.15064152
-0.06818749
0.25166783
-0.0024930178
-0.31111732
0.2438197
-0.12061276
0.19780809
0.06552992
-0.25847483
-0.101675965
0.09311987
-0.2845901
0.2856594
-0.22827464
-0.12906265
-0.18989863
0.21185608
-0.16462147
0.023351038
0.09621732
-0.2726352
0.120374374
0.32560182
-0.044947438
-0.30088237
0.31853426
-0.23730896
-0.25427788
0.17225857
0.1303464
-0.17911288
0.24503265
0.30740803
0.08796052
-0.20382603
0.20006104
-0.2513266
-0.1668297
-0.26720592
0.06156732
0.22541423
0.10104727
-0.15716074
0.2607768
0.051700838
-0.26676294
-0.09188771
0.25970903
-0.106433675
-0.06991645
0.059537426
-0.300116
0.04923716
-0.16385959
0.090665884
0.14522363
0.19042821
0.13519725
-0.301821
-0.2228812
0.014901152
0.34275034
0.22612433
-0.27418017
0.11636193
0.024024097
-0.15208793
0.12791158
0.23384994
0.26838902
-0.16491358
-0.25141907
0.30749327
0.16691342
-0.022518048
-0.042916644
0.17668489
-0.27923068
0.30084863
-0.02954874
0.20337644
0.14551231
0.17410655
0.37155265
-0.10318585
-0.052622795
-0.11165488
0.33643723
-0.0304104
-0.3102175
-0.20990787
-0.18604074
0.21135709
-0.009659815
0.29691383
0.17150602
-0.4198058
0.16201201
0.04483669
-0.21451603
-0.17364752
-0.18893453
0.23122644
-0.16853724
0.19268863
-0.1682591
0.29147285
-0.21487617
-0.012266074
-0.16856587
-0.18698259
0.047120493
-0.21015768
0.29861778
-0.22617266
0.19655086
0.24086238
-0.2978246
0.25930604
0.065175265
-0.28951868
0.1752793
0.13945249
-0.0067483857
0.1713187
0.144701
-0.11772782
0.29115322
-0.10836319
-0.28435725
0.34376103
-0.16517241
0.09831883
0.008795542
-0.34305564
0.25359878
0.2860943
-0.19821548
-0.121742055
-0.0016126961
-0.1648323
0.34725133
-0.08745459
0.0033952205
0.33728242
-0.30346027
0.16134761
-0.098893106
0.31365234
0.28531623
-0.07352251
-0.09740327
0.3379637
-0.016084226
-0.23327571
0.096062414
-0.07944304
-0.11531043
0.25076458
-0.09540934
0.003151917
-0.048023634
-0.074962236
0.14623956
0.019191734
-0.078450374
0.2008097
0.38154104
0.22733824
-0.12624802
0.033612445
-0.054578763
-0.078063354
-0.23943563
0.25782126
0.21633859
-0.16752718
-0.1129956
-0.29739195
-0.27554384
0.3242223
0.29564068
-0.17655239
-0.018034106
0.16246888
0.080938555
0.24205662
-0.33965436
-0.10200105
-0.12396588
-0.08538598
-0.06948577
0.31277102
0.17241248
-0.35494608
-0.064234376
0.2667518
-0.026762474
0.26550135
0.16200976
-0.3252449
-0.15761532
0.2630045
0.26373234
0.22721791
-0.32763273
0.024758724
-0.3006313
0.107895724
0.19242793
-0.16579808
-0.22456509
-0.015670033
0.03876327
-0.34760958
-0.024419835
-0.042957142
-0.26053122
0.17793031
-0.15416074
0.047886267
0.20755924
-0.36308497
0.28761172
0.03309314
-0.06929318
-0.26473755
0.27279627
0.13242912
-0.033861678
0.11967313
-0.013884013
-0.26209408
0.029832691
0.1255765
-0.11782363
-0.11292849
-0.24127907
-0.04342633
-0.21986546
0.36863157
0.22674766
0.15839829
0.2093152
0.28533292
0.20257245
0.041073844
-0.29584664
-0.19565243
-0.11732062
0.083583176
0.041267555
-0.20548438
-0.10782748
0.2606022
0.095894605
-0.086319804
0.21252239
-0.30748227
-0.27897695
-0.0004359951
-0.21628596
-0.19054489
-0.018993711
0.028385537
-0.16180933
0.23470259
0.02342221
0.19440517
-0.06037138
-0.15542895
-0.31538063
0.21205628
-0.15235206
-0.17358011
0.085004754
-0.1382225
-0.13685052
0.38181597
0.37576416
0.039456315
-0.14219075
0.20036475
-0.045190714
-0.1500671
-0.1803045
-0.13188556
0.12767085
-0.07710899
-0.28330687
0.26299557
0.31643334
-0.001447585
0.14600182
0.009174558
0.13167138
-0.3305814
-0.09276938
0.09522795
0.36219856
-0.32755393
0.29731137
0.18694817
-0.40759128
-0.29152685
-0.3218676
0.1938034
0.038936693
0.06670294
-0.0011119944
-0.28623104
-0.09167662
-0.05382353
0.06047164
0.019229747
0.10988146
0.027222265
-0.16824032
0.106233224
0.03317303
0.21564546
0.09419895
0.08223025
-0.24452665
-0.1645942
-0.2839961
0.26252118
-0.031713832
0.2820142
0.24521933
0.1652242
0.26015237
0.019879434
-0.3630473
0.031666804
-0.25270772
0.069995195
-0.1792997
0.2773465
0.14045236
-0.056858163
0.21581061
0.1884118
0.071800515
-0.28147003
0.070386924
0.052795123
0.037190292
-0.18173885
-0.2623031
0.33113518
-0.10731704
0.12741752
-0.20696624
-0.14434241
-0.13138394
-0.1375022
0.19688788
-0.08300154
0.13632876
-0.1057574
-0.05355981
0.23109996
0.32220706
-0.28630665
-0.07436917
0.37786373
0.00021716245
-0.027637674
0.04941714
0.012357481
0.02697984
-0.2526792
-0.19750218
-0.017302448
-0.242161
0.1034931
-0.048533116
0.12253629
-0.20333444
0.115856364
-0.092294015
-0.25003698
-0.21807638
-0.18387195
0.085193686
0.22994153
-0.22544996
-0.24988005
-0.10747971
-0.33178565
-0.17983282
0.2913739
-0.29879466
-0.03746199
0.2481331
-0.01934944
0.2323218
-0.24722582
-0.1493393
-0.25660157
-0.24837548
0.21048154
0.2744826
0.31365058
0.3677571
0.19171087
0.11553812
-0.1988058
-0.1284229
-0.08093168
0.092555605
0.18038918
0.22532131
0.20507911
0.24144037
-0.038497478
0.071637034
0.06530501
-0.14891346
-0.0012740091
-0.1509142
0.022329746
0.29658073
-0.07372875
-0.25905207
0.14594626
-0.06945987
-0.05979115
-0.16232175
0.16147022
-0.19723928
0.10065812
0.0722309
-0.23745072
-0.21258019
0.22750811
0.31111524
-0.14814085
0.16025503
0.24792902
0.028761158
0.03579831
0.02146463
-0.1479155
-0.05021657
0.10231152
-0.29962972
0.211731
0.3073448
-0.068443134
0.03758624
0.23779793
0.022020385
0.035949305
-0.07790737
0.018921087
-0.034091573
0.40353322
0.19370179
-0.16081415
0.15414122
-0.27139252
-0.20783767
-0.2795128
0.0058115995
0.2370774
-0.15104333
0.34565005
0.011357104
-0.23556729
-0.15146302
-0.26382175
0.08330366
0.2462982
0.09759151
0.2914618
-0.43567082
0.06073806
0.13428889
0.35892594
-0.048129052
0.13979553
-0.031717602
-0.22544292
-0.21747348
-0.28729472
0.0047531077
0.07044199
0.20581271
-0.13034388
0.2003178
0.06772387
-0.13288185
0.34041107
-0.038802143
-0.102179386
-0.0760483
0.24222085
-0.35098308
-0.23745961
0.13964775
0.067913786
-0.0791513
-0.040480133
-0.230474
-0.124810055
-0.24388294
0.26460838
0.28335223
-0.221476
0.14341018
0.29764003
0.22369257
-0.2855555
0.14797245
-0.23206177
-0.060310476
0.17792618
-0.20289968
0.016272632
0.181263
0.082070336
0.1989305
-0.0050191265
0.28002647
-0.26094946
0.18654338
0.32448852
0.3154053
-0.1717858
-0.027731245
0.11919613
0.15862982
0.06686989
-0.03514342
-0.016935652
0.13656706
-0.065271206
0.059729777
-0.2881147
-0.18517505
-0.014441284
0.30310768
-0.19265124
0.08688579
0.30066463
-0.25556198
0.21465029
0.09088761
-0.28914726
0.12460257
0.21604192
0.015336162
-0.12634636
-0.06068538
0.3071267
0.03571313
0.087574825
-0.35638422
0.0634596
-0.08819882
-0.19208151
0.11957598
-0.08442468
-0.24112684
-0.28875667
0.11123684
0.29703707
-0.023895686
0.29735503
-0.23434357
0.23194681
-0.13623887
0.16390345
-0.12178933
-0.20055737
-0.104065746
0.1706681
0.24383019
-0.091766715
0.08507668
0.071322955
0.24260096
-0.07242617
0.27653262
0.29785877
0.19800755
-0.32349032
-0.087342754
-0.066277884
0.36334628
0.17593002
-0.22195843
-0.08296447
0.22344188
0.14165133
0.23493536
-0.13183199
0.012230911
-0.24052048
-0.26432368
0.19873255
0.14923279
0.11249016
-0.11578852
0.009156997
-0.12397797
-0.21295272
0.15066881
-0.13546571
0.34265837
-0.1848562
-0.32394782
-0.052599315
-0.1115167
-0.08458878
-0.22211613
0.025558077
0.17129685
0.29307863
0.24511352
-0.21438497
-0.31298125
-0.0016439207
0.23635072
-0.068860896
-0.07836278
0.047332432
0.19450188
0.13050953
0.32074243
0.22171882
0.010759961
-0.33560482
0.106181756
0.08963539
-0.25355905
-0.22358215
-0.28097537
0.23607965
-0.033818424
-0.12929384
-0.28135255
-0.10750328
0.3475344
-0.21572107
-0.22742409
0.049154717
-0.2896332
0.17429473
-0.18016158
0.24212444
-0.21015042
0.37332565
-0.20813654
0.33977154
0.09936281
-0.41437173
0.24544214
-0.22717744
0.22883335
-0.18048498
0.24371542
0.11175023
-0.010732451
-0.08857403
-0.17883165
-0.22296312
0.1424407
0.27744284
0.30605924
0.103325605
0.15128005
0.07346029
-0.03403276
-0.2289736
0.027217219
-0.03766606
0.0005916896
-0.27892837
0.059386063
0.055022605
0.13304777
-0.16347472
0.15231524
-0.35322416
-0.37941882
-0.25390813
-0.06750599
0.011694651
0.07407436
0.2416874
0.27439108
0.24804583
-0.20379397
0.3226529
0.31103623
0.01973447
-0.045033786
0.037415337
-0.16380218
-0.18467565
0.18968624
-0.085941084
0.06361199
0.24396406
-0.12560646
-0.050844867
0.2630687
-0.1495703
0.15709302
-0.253149
0.35731834
0.19468825
-0.24993093
-0.12865786
0.36895475
0.1751364
-0.1302691
0.092839845
0.17412551
-0.1095373
-0.07429066
-0.05348802
-0.26319653
0.27203053
0.2357319
0.073336706
0.29600337
0.3686021
0.22749598
0.3415004
0.346365
0.32878542
0.028421119
0.118358746
0.013124819
0.22532348
0.23590925
-0.06428986
0.16373806
0.08062011
-0.08099762
0.1684585
0.17292693
-0.07532447
0.14243008
0.004726705
0.12950817
0.09247222
-0.29524642
-0.05283552
-0.16495396
0.2604862
0.050287385
0.32561222
0.0039349096
0.06476569
0.19026807
0.3142788
-0.062422123
-0.18754414
0.06945043
0.12998508
-0.0784442
0.33450568
-0.34012896
-0.2595842
0.21328947
-0.030561715
-0.2962943
0.2014497
0.1443938
-0.18367763
0.002596288
0.058614902
0.12661149
-0.012193566
0.29988623
-0.14260413
-0.024465704
0.31574693
0.01172816
0.4058966
-0.23596069
-0.2823625
-0.29548752
-0.12055091
0.12078058
0.17830113
-0.20110637
0.15381837
-0.19031556
-0.15807489
0.07377142
-0.19680087
0.12484845
-0.059397977
-0.30872783
0.05965322
0.12479962
0.17983793
-0.085287005
-0.17805003
-0.27141392
0.28538242
-0.43245098
0.248424
-0.22919786
0.37136805
0.04310848
0.03982953
0.055284884
-0.3629302
-0.118848905
0.14612177
0.035614196
-0.15660925
0.18326275
-0.25954014
-0.19877392
0.33662465
-0.12556368
0.29286835
-0.283742
-0.26783022
0.20086475
-0.14662421
-0.15953654
0.108276345
-0.34871244
0.09932016
-0.053582937
-0.032771267
0.28430885
-0.24496534
0.043103267
0.21271025
0.18634099
-0.28528392
-0.21111718
-0.10253049
0.21774094
0.032916415
-0.21299118
0.24434127
-0.009859436
-0.3432085
-0.3307805
-0.062841505
0.28374097
-0.09467638
0.04548584
0.287833
-0.26661465
0.2863887
0.03657534
0.16233692
-0.10929402
-0.16568767
0.24808572
0.19339147
0.02006921
-0.11517436
-0.11578839
-0.24453354
0.17795241
-0.07457377
0.025739424
-0.013040852
0.05664136
0.17995869
0.30519596
0.16659649
0.29964325
-0.18769759
-0.38857982
-0.065100074
-0.08042768
0.18522766
0.3192741
-0.23106338
-0.3235487
0.121744595
-0.30587694
0.16613457
0.021534067
0.22869928
0.0867936
0.25475076
-0.16046599
-0.009247406
0.2406888
0.26628825
0.08706751
0.13729466
-0.10351995
0.24737462
-0.19472113
0.22297338
0.119203106
-0.03560307
-0.23017517
-0.32170808
-0.22521907
-0.22530982
-0.16171521
0.064915866
0.3120425
0.09974445
-0.15169993
0.0012408164
0.03604198
-0.075131446
-0.27305466
-0.20977385
0.42680073
0.16667011
0.24655347
-0.054189
0.07225214
-0.33202747
0.24831297
-0.048089366
0.2764724
-0.117181376
-0.075168796
0.26404247
0.28088576
-0.29922497
0.1930249
0.32875195
0.04465887
-0.28071
-0.24073538
0.09220865
-0.07166956
0.00059604977
-0.25062254
-0.3149189
-0.10104385
0.07319611
-0.14741817
0.029697008
-0.40240794
-0.15392867
-0.22211638
-0.11824678
0.29938847
-0.058918197
-0.26756585
0.27313337
-0.06678642
-0.051806003
-0.14433435
0.28628945
-0.011493306
0.13585103
-0.25157616
0.2707486
-0.17315196
0.32660657
-0.17671624
0.26358986
0.2671291
0.24371004
-0.19799171
-0.1795341
0.053919997
0.10458418
0.2645259
0.26842973
0.046945445
0.21990377
0.058805346
0.29216233
0.25883576
-0.28725
-0.1939639
-0.18664102
0.19588625
0.2713067
0.12849039
0.12108722
-0.1572743
-0.053440332
-0.18455534
-0.00775649
0.19148347
-0.08567776
-0.312235
-0.26356682
-0.004364122
-0.22779004
0.2701333
0.19166842
0.04770348
-0.13923736
0.29961643
-0.092144474
0.045943283
0.1827064
-0.07965825
0.2955751
0.3321943
0.41293672
0.0898169
0.22031504
-0.025182562
0.07783762
0.1774055
-0.06120446
0.15191242
0.17823079
-0.40164575
0.10907191
0.22907382
0.026793925
0.3666688
0.03645468
-0.003972127
-0.12200745
-0.18861698
0.3471486
-0.06782031
-0.16837691
-0.037894532
0.21758175
-0.2950232
-0.048436653
0.05089154
0.19895738
0.20402904
0.0071690665
0.31478053
0.26649585
0.11194845
0.20570563
0.25565386
-0.16282368
-0.3265073
0.053868987
-0.07089612
-0.119713426
-0.0014463932
-0.3749571
0.1680613
0.19188231
-0.0015450948
0.28722256
0.21304657
-0.21495937
-0.07395389
-0.03546026
-0.31254938
0.2892441
-0.18340132
-0.14867501
-0.11476904
0.11387153
-0.20785172
0.3579909
0.25766823
-0.014290994
-0.1033788
0.24789317
0.36233962
0.0962545
-0.32195976
0.23874193
-0.24683847
0.27880386
0.38107562
-0.10356817
0.2046886
0.12399041
0.2606777
-0.28183374
-0.3485527
-0.2863267
0.2692401
-0.13977423
-0.10870766
0.23165882
0.09209374
-0.1458793
0.0619857
-0.23772992
-0.27704984
-0.28539807
0.20283951
-0.042168982
0.25371334
-0.11454129
0.09673166
0.21995819
-0.23156884
-0.15614583
0.22308502
-0.048756603
0.03790394
0.03539299
-0.20261505
-0.10481484
0.02561563
-0.026183402
-0.14309047
0.04729769
-0.017825639
-0.09773516
0.0007342108
-0.17325962
-0.14431491
-0.17622404
0.0026735293
-0.28957897
-0.23139653
0.060843598
-0.29970184
-0.014359006
0.044893973
-0.29717228
-0.16214623
0.02232061
0.17789145
0.032384768
-0.14160818
0.12980993
-0.23343872
0.035745498
0.027349995
0.30702907
0.026247835
0.07301948
0.15686405
0.044299595
0.30197954
0.058967005
-0.32054204
-0.28623015
0.1678942
-0.34941188
-0.10289355
-0.031666923
0.30563134
0.18279427
-0.29503787
-0.09817216
-0.33784994
-0.02181563
0.00699939
0.231418
0.036849912
-0.23387381
0.22512293
-0.14444545
-0.0452848
-0.35002384
-0.19438115
0.26409245
-0.059669822
-0.23863116
-0.32819906
0.16204132
-0.22846505
-0.1261935
0.09105511
0.38979998
0.384619
0.26314792
0.03868265
0.00022583314
0.09564616
0.27054492
-0.35968462
0.12073496
0.25563744
-0.080293074
-0.17611471
0.27002993
0.05911465
0.08360957
0.28188598
0.02473137
0.10260469
-0.07719903
-0.23340061
-0.38843092
0.18636575
0.06702982
-0.122266404
-0.06685851
-0.060212858
0.038916957
-0.13861653
0.3007154
0.039630257
0.103087544
-0.28717682
0.085741356
0.25748914
-0.18245734
0.33414352
0.24027447
-0.3214137
0.2190857
0.2867413
0.2919114
0.0003396831
-0.38467342
-0.2145191
0.27118242
0.1121148
0.010604644
0.13140151
0.20154771
0.31612659
0.250918
-0.09869422
0.37765893
0.016018476
-0.21949883
-0.112200946
0.016919
-0.14088617
0.04688539
-0.32922345
0.057062835
-0.108183734
-0.1283052
0.069369145
-0.15506893
-0.17917788
-0.10814613
0.28028908
0.18995361
-0.1657179
0.105315484
0.19631694
0.18339951
0.067937106
0.1470795
-0.15362327
0.056709763
0.2341111
0.106333524
-0.10403878
0.060301617
0.3227641
-0.29843673
0.11425442
0.05862458
-0.12477783
0.057422683
-0.016846318
0.15694869
0.17483641
-0.26801637
-0.06286871
0.121066585
-0.25775996
0.19282721
0.11276313
0.31890973
-0.21126202
0.21308978
-0.18958344
-0.15795769
-0.31994194
-0.073685706
-0.25904924
-0.11864802
0.0316304
0.20135936
0.32312214
0.036332954
0.3251912
0.017892363
-0.10099104
-0.08262761
-0.17802243
-0.23751728
0.08741066
-0.2827167
-0.152813
0.2655719
-0.17998703
-0.20353381
0.07009299
-0.25915858
-0.24259578
0.027296836
0.117410064
0.023035621
0.104370184
0.14463335
-0.30437863
0.068888396
0.16931278
0.18813074
-0.103439994
-0.240226
-0.27096754
0.25484994
0.32350448
0.22767761
0.30906332
0.2258434
-0.07162434
0.1657278
-0.26708832
-0.17584756
-0.23961543
-0.013594764
0.105094224
-0.24587546
0.21566227
0.2801342
-0.020356564
0.041707177
-0.25889197
0.0023953754
-0.337418
0.2259228
-0.113062434
-0.18918449
-0.28140932
-0.25471747
-0.09050285
0.04567475
0.19281997
0.18078959
0.03592448
-0.035327725
-0.15088649
0.32162
0.124312535
-0.20576245
-0.27637947
-0.32146135
-0.05905739
-0.13217016
0.09239535
-0.11164862
0.11880276
0.011641872
-0.09803623
0.24444579
-0.3000956
-0.2621008
0.22347595
0.2072507
-0.07730439
0.1599137
-0.3406316
0.14414746
-0.32196686
-0.17364581
0.14774847
-0.2907241
0.11232491
0.2336813
-0.34299508
0.22778441
-0.06795615
0.029941129
-0.043512948
0.11518257
0.23767461
-0.14814894
0.21624337
0.2911242
0.23087646
-0.27135873
0.31760377
-0.22297177
-0.031096881
-0.19060421
-0.12243712
0.14885436
0.1609731
0.055203058
-0.042874515
0.14561735
0.348085
-0.108359575
-0.035599712
0.27456418
0.1540422
0.11439195
0.22953133
0.0132091055
-0.08665777
-0.18124893
-0.09525135
0.28623655
-0.0021998894
-0.085239284
-0.043336548
-0.00627332
-0.20713659
-0.2571628
0.33585015
-0.05353221
0.0031113399
0.27281615
-0.27895328
0.04680831
-0.07726047
0.07241675
-0.25379756
0.3283577
-0.26102468
-0.03415282
-0.08191486
-0.075583376
-0.23311983
0.34737125
-0.13358168
-0.0014255459
0.0058800476
0.18121248
0.27870718
0.33014768
-0.19826141
-0.17451754
-0.20195866
-0.24082762
-0.07485797
-0.25759277
0.42765164
0.3127014
0.3433642
-0.23814748
-0.124129474
-0.30770567
-0.015207913
0.057717957
-0.22351962
0.2894458
0.0051833037
0.062493756
-0.08978608
0.14130805
-0.17946054
0.067199625
0.14452185
0.023516146
-0.19531924
-0.25724638
0.098305605
-0.20100696
0.035219587
-0.17597152
0.009848505
-0.08258919
-0.3786415
-0.18251504
0.2669997
0.12643372
0.05306543
-0.44008735
0.0007444882
0.20038965
-0.2966412
-0.2086254
0.14705853
-0.08647988
-0.19791354
-0.009099302
-0.085553624
-0.024052875
-0.2364843
-0.01860091
-0.070562035
0.13729653
0.12312416
0.36912847
0.25117052
-0.19034398
-0.1371578
0.08069312
0.37461886
0.04988069
-0.27680752
-0.020091057
-0.03939648
0.045045033
-0.12743448
0.2516036
0.061167207
-0.09325029
0.23779507
0.25909737
0.023653688
-0.08422717
-0.18464346
0.28623998
-0.052138302
-0.34005135
0.17744893
-0.13737904
-0.06588659
-0.14479965
-0.07127923
0.32969227
0.30765003
0.016614456
-0.3071574
-0.24389225
-0.0944169
0.34039927
0.07540983
-0.20238793
-0.19857574
-0.36536554
-0.3872773
0.30903623
-0.36482587
0.089201614
0.1994779
-0.0489092
-0.27683592
0.21023576
0.30647114
-0.15794203
-0.12501049
-0.23627594
-0.10840312
-0.23086388
-0.3542584
-0.29568374
-0.3396033
0.10516324
0.3404317
0.1087395
0.14019772
-0.010875967
-0.18511756
-0.24080335
-0.06905912
0.31935933
-0.08527659
-0.1122661
-0.035757836
0.043908168
0.3638955
-0.17572495
0.027166849
0.09437395
-0.37318078
0.039855726
0.15180801
-0.30829075
-0.09130036
-0.0071585877
0.3233381
0.0092494
0.32996866
0.28119734
-0.27249524
0.23211703
0.3170191
0.0635794
0.16753556
0.1174278
-0.11730146
-0.14871654
-0.11014965
-0.3696796
0.09789609
-0.35337105
0.32193598
0.0123738395
0.0165873
0.22711901
0.18354125
-0.2765591
0.02157734
-0.22073264
0.1009844
0.088293605
0.0258527
0.2193871
0.049401373
0.23878044
-0.09357318
-0.08519391
-0.06273821
-0.13615443
-0.172596
0.046235632
0.11231517
0.16653395
-0.11392576
-0.11741844
-0.2722536
0.22024354
0.09906195
0.1702925
-0.087690175
-0.2991801
0.021153634
-0.1717544
-0.19590206
0.028324574
-0.17850113
0.217866
0.026574764
0.20528382
-0.2586798
0.1206359
-0.13270374
0.202656
0.29557186
0.24961416
0.3238646
0.21236877
0.1489001
-0.036316935
-0.183084
-0.0060880254
-0.17227505
-0.37004283
0.091403164
0.06174536
0.24978848
0.0031028588
-0.14775887
-0.006399945
0.33862707
0.08771921
0.14072667
-0.25046968
0.18625757
-0.20756638
-0.24150713
-0.3478765
0.08273329
0.08313197
-0.117205076
0.16113041
-0.16303468
-0.082744256
0.1414374
0.16307487
0.26052985
0.11701867
0.23928286
-0.22826391
0.008194893
-0.1568165
0.005415468
0.08362951
0.21577452
0.31290305
-0.36258203
0.16134313
-0.27162856
-0.27495852
0.040309828
-0.07143274
0.35158876
-0.14424643
-0.019486656
-0.21621872
0.18384543
-0.22388817
-0.32541257
0.021405589
0.32379282
0.25777206
0.184896
-0.17501388
0.09557262
-0.073641
-0.26182467
-0.37581137
-0.46932495
-0.37809747
-0.20996521
0.01893864
-0.05903713
-0.013928555
0.06767364
-0.043438762
-0.117309846
0.2455185
-0.077813
-0.34979236
-0.29467815
0.35844204
-0.14923649
-0.1493714
-0.20869827
0.26659447
-0.14723676
-0.027092503
-0.1955052
0.2601579
0.15735336
0.33835676
-0.1417112
-0.18824086
-0.03401619
0.31868568
-0.32878038
-0.32318634
0.20442383
-0.00481162
-0.2503372
-0.106300026
0.34971446
0.0113290325
0.2650112
0.04928136
0.088711746
0.30104825
-0.4093603
0.06558983
-0.025107251
0.23625143
0.16904189
-0.1713859
-0.20359766
-0.06817453
0.12386968
0.16650505
-0.17759518
-0.18482606
-0.27120367
0.27779073
-0.29316628
0.028396469
-0.17995621
0.3341222
0.14199713
-0.22402532
0.21742083
0.07737861
-0.03000064
-0.03786518
0.36208364
-0.31819344
-0.31295562
0.30406648
-0.18313113
-0.037005045
-0.011251227
0.27883038
-0.08114453
-0.19956893
0.2516552
-0.1689101
-0.116501436
-0.1439927
-0.13521315
-0.34976214
0.031028915
0.0072379434
-0.3382572
-0.109820716
0.14487092
0.3270308
-0.022658324
0.30172843
-0.18314634
0.039466478
0.319634
0.2926179
-0.25622803
-0.03045181
-0.2122924
0.027681002
-0.16572803
0.026591443
0.21605511
-0.4543529
0.10083748
0.13847344
0.015898025
-0.21211255
-0.12811187
-0.08505567
0.0721098
-0.21025291
0.1758203
-0.09024272
0.3395737
-0.21188347
0.09673452
-0.032266624
-0.14819068
-0.08094678
0.08117455
0.070941634
0.17343166
0.1574928
0.20647146
-0.19063285
0.24638729
-0.12760931
-0.13357647
-0.21826914
0.14075884
0.09300598
-0.25676122
0.2578189
0.15111622
-0.29767153
-0.2691752
-0.23590991
0.20908582
0.12397125
0.16981354
-0.072034806
0.09119951
0.028201664
0.10536094
-0.18447101
0.08506372
0.01473992
-0.10167932
0.37765357
-0.16093563
-0.2517687
-0.011640231
0.30983058
-0.051837977
-0.15606587
-0.24047777
-0.15388136
-0.3174498
-0.036058817
0.11692342
0.14004873
-0.12255281
-0.27187085
0.17266801
-0.07217982
0.019355193
0.33756706
-0.07514712
-0.12395524
0.21894653
-0.22787565
0.18293868
0.08794399
-0.22068565
0.2063326
0.3263237
0.18547666
-0.16285579
-0.06826254
0.041344274
-0.25764927
-0.009587234
-0.057574302
0.03747614
0.31511593
-0.2839405
-0.2920581
-0.20591342
0.14399035
-0.2715665
0.22531094
-0.1041322
-0.048471253
0.05342595
-0.076904014
0.22105694
-0.11338524
0.15219426
-0.07593909
-0.3539287
-0.26048744
-0.30369255
0.05570137
-0.06659735
-0.26050067
-0.32165688
0.02003328
-0.37505448
-0.35887578
-0.09279876
-0.22579212
0.3260901
-0.14450562
-0.088316366
0.031463437
0.0556208
-0.23493893
0.050345037
0.10262255
-0.039873835
0.22175178
-0.03109071
-0.18901429
-0.1167006
-0.06416517
0.15107441
0.26557723
0.25743958
0.05276585
-0.3377817
-0.31690007
0.028814007
0.1757705
-0.15695341
0.029590646
-0.24911448
0.053871967
0.32352307
0.10265688
0.2926473
0.22011271
-0.34318
0.011728983
-0.122453384
0.13533677
0.22616783
0.03411831
0.18323676
-0.0040660803
-0.11458352
-0.19624908
0.08720556
-0.007988882
0.023882324
-0.25794026
-0.19196247
0.16354689
0.33694875
-0.16260807
-0.17731094
0.047007002
0.19397995
-0.2482831
-0.18196824
0.12105765
-0.22911245
-0.12012986
-0.12467592
0.1804148
0.16496888
0.0164928
0.3015157
0.01668534
0.35334504
0.3081573
-0.0054344554
0.32289255
-0.35985819
0.2084288
0.04657553
-0.19436993
-0.21690947
-0.14020887
0.10588762
-0.22895817
-0.12144601
0.16314766
-0.027513336
-0.1631192
0.14097422
0.13668968
0.12729803
0.25987306
-0.22414593
-0.26240677
0.15357047
0.2680687
-0.2680144
0.21621503
-0.0009502756
-0.16697219
0.22761808
0.020741792
0.12042278
-0.16954559
-0.23923351
-0.19624168
0.02334689
-0.21855651
-0.22844969
-0.11501293
0.27307588
0.32454646
-0.053880323
0.021291597
-0.0037469575
-0.13867043
-0.2627946
0.16276446
-0.20886597
0.10083379
-0.17009856
-0.06241487
0.19633079
0.12080643
-0.3044555
-0.3417789
0.14029132
-0.18351519
-0.2673303
0.27233985
-0.042866427
0.22695532
0.12799114
-0.18827114
-0.15803204
0.27970225
-0.25955182
0.20174785
0.09268372
-0.13599999
0.19923937
-0.002944623
-0.22340843
-0.13736063
0.18710013
-0.1865798
0.22842106
0.105779834
0.20235802
-0.22209485
0.16494848
0.23542237
0.1494506
0.17262688
0.06480242
-0.1919732
0.29765084
-0.34117925
-0.16380319
0.07162826
0.006677371
-0.16276415
-0.4100749
0.39182872
-0.2850166
0.22928019
-0.049179662
0.30871698
-0.16338624
0.13579787
0.17956817
-0.0941192
0.16150048
-0.036935154
0.3110374
-0.29378402
0.07823818
-0.1448814
-0.069299005
0.012540767
-0.026672417
0.31968176
-0.19272473
0.3957282
-0.3998617
-0.23792769
0.13139364
0.05047976
-0.07024748
0.13044809
-0.28009096
-0.06144147
0.13737491
0.23841329
-0.26487467
0.15582368
-0.09788991
-0.29266542
-0.1740549
-0.115399584
-0.22944377
-0.37319314
-0.097751915
-0.027181488
-0.13940732
-0.19908358
0.11673254
-0.19482115
0.17114946
0.2240471
0.26412216
0.06260448
-0.13148896
0.049116828
-0.019719144
-0.1697745
0.2401387
0.10103184
0.19064166
-0.15648293
-0.12903313
-0.27323395
0.3455812
0.3739885
-0.17255843
0.19565603
0.15839824
-0.29755142
0.02476869
0.09390482
0.37178323
-0.09219869
0.24379003
0.32703823
-0.05759452
-0.075802416
0.32034558
-0.083935216
-0.20608857
0.28234968
0.2966905
-0.21865013
-0.13707304
-0.19692217
0.2659437
-0.0082597835
-0.040323693
0.08609696
-0.14412042
0.18736991
-0.004866827
-0.2932257
-0.096834965
0.16182333
-0.15618335
-0.2611865
0.24728967
0.3243328
0.02763485
-0.05911254
-0.02079483
-0.060108528
0.097144745
-0.29563564
0.27720836
0.1747385
-0.3233001
-0.14023192
0.3704785
0.10509049
0.044071667
0.20822251
0.31033343
-0.12598145
0.09200175
0.0010952596
0.12505732
-0.13448231
-0.11381487
0.19534478
-0.079858966
-0.34063852
0.30926722
-0.015275154
-0.1334863
0.10781057
-0.08660544
0.26948434
0.2838654
-0.26154277
0.071965
-0.32046455
-0.09918778
0.043146536
-0.03423331
-0.044718616
0.25250688
-0.13036898
-0.2710341
0.20448732
0.3072443
0.13079382
-0.28137347
0.1225815
-0.06329845
0.0669794
0.086565405
0.29255882
-0.20556083
-0.37453547
0.022609735
0.11056082
-0.24152967
-0.00497786
0.0063791694
0.2740253
-0.15391648
-0.04617788
-0.06279058
-0.158819
0.29557708
-0.13484928
0.15608768
-0.059156775
0.17732374
0.23226622
0.17903048
0.24863386
0.17320894
0.1695263
-0.10578039
0.014501044
0.14336212
0.24567364
0.24025236
-0.1541317
-0.17952411
-0.008670532
-0.25589344
0.26368782
-0.027977802
-0.08180774
0.28672665
-0.21317306
-0.2057681
0.27946442
-0.26997203
-0.13321479
-0.19925384
0.09715337
-0.18556651
-0.28837356
0.33952677
0.06173173
-0.30173388
-0.19936736
0.15008387
-0.025694376
-0.12736696
0.11955507
-0.35715222
0.18762907
-0.18508627
-0.009319259
0.4007486
-0.18801363
-0.23278281
0.45862404
-0.075258166
0.14534566
-0.2863147
0.13987301
0.106755644
-0.13251445
0.09900255
-0.14735416
-0.14027348
0.041585106
0.13250986
-0.25695166
0.20354512
-0.059280455
-0.16166148
-0.3024541
-0.024017066
-0.109361954
0.36746675
0.24249452
-0.15542251
-0.19107342
0.22851124
-0.17064014
-0.22829676
0.26204208
-0.03630276
-0.19507374
-0.109429576
-0.27547657
0.21057157
0.26637968
-0.31293207
-0.21498694
0.06153843
-0.2728129
-0.13658622
0.25465235
0.09552333
-0.3570826
-0.36024833
0.27915066
0.110765845
-0.3288735
0.29242942
-0.31585976
-0.009227082
0.34961447
0.13185188
0.15703644
-0.20352441
