0.26577303
-0.3003226
-0.053044267
-0.17890836
0.20691474
0.18245052
0.04252699
-0.26676273
-0.13494436
-0.05642746
0.17800523
-0.22993718
-0.19936627
0.06687852
0.37399045
-0.25984994
0.3109929
-0.1481739
-0.07317477
-0.13908108
-0.1709149
0.03048953
0.26779926
0.15044552
0.09259487
0.14970307
-0.28524566
-0.20684063
0.34569296
0.1888202
-0.12255756
0.18945841
-0.17877461
0.15180036
0.21888879
0.20218845
-0.10600045
-0.10314967
0.20396166
-0.010273706
0.18988234
-0.035911087
0.3244189
0.25302398
0.053503007
0.17330344
-0.1269961
-0.06551872
-0.15161392
0.04716346
-0.12660368
0.08691233
-0.021304414
-0.22929515
-0.2553239
-0.2652079
-0.09567254
0.052380417
-0.19345601
0.13510251
-0.028135117
0.26221994
0.019107636
0.052121993
-0.21907975
0.2931263
0.08616649
-0.083001845
0.22791974
-0.22022635
-0.021913137
-0.26315057
0.03953621
-0.054369673
0.10518495
-0.034662325
-0.046913978
-0.017004326
-0.048225287
0.17751834
0.0959104
-0.1171043
-0.14634654
0.04795587
0.068767875
0.20219244
0.24963671
-0.16605964
0.19389269
-0.12738173
0.057386044
0.2084863
0.13151416
0.17280978
0.29636878
0.0018974489
0.31070423
-0.31629404
0.2578579
0.052140623
0.049348
0.15337177
-0.12751581
0.12052396
-0.3567799
-0.20100173
-0.1194907
0.24808644
0.10844881
0.03630143
-0.0033854353
0.2057553
0.2940467
-0.2483511
0.22493888
0.16412981
0.08309103
0.18159157
0.17589585
-0.24167615
-0.039842866
0.07000099
-0.089211434
0.24296157
-0.2080409
-0.09585435
-0.27821344
-0.24034138
-0.033593
-0.092097014
0.022992924
-0.31626737
-0.299608
-0.26227042
-0.0017821697
-0.122391365
-0.060532868
-0.3484337
-0.28594467
0.22800484
-0.0987908
0.24720842
-0.26725033
0.083649576
0.070146084
0.19943699
-0.28414428
-0.038783155
-0.2719839
-0.08134446
0.11108593
0.049377333
0.27753055
-0.09404456
-0.24623469
0.061098207
0.196413
-0.1773507
-0.100249745
-0.015728101
-0.024032282
0.27821425
0.29061192
0.24493957
0.28824002
0.1570491
-0.2844165
0.21329229
-0.27612618
0.18747823
-0.33026433
-0.11438226
-0.2076617
0.31324652
0.12080398
-0.02674532
-0.14664723
-0.16737707
-0.24518101
0.17408025
-0.16189402
0.026729656
-0.1926224
0.055964183
0.044370666
-0.01826292
-0.3043737
0.13830447
0.15226841
0.12758318
0.36837894
0.3663296
0.10543542
0.12539878
0.005812871
-0.12157805
0.030300975
-0.19936107
-0.36914983
0.32522753
-0.0422826
-0.12950316
0.10876012
-0.34571716
0.20336935
-0.1090674
0.0674078
0.043735575
-0.11769438
0.18179992
-0.20600654
-0.2885629
0.27697188
0.29440066
0.36875424
0.36297217
-0.43741775
0.06583606
0.058940627
0.33086768
0.21646044
-0.11394678
0.30160707
0.12679328
0.009409644
0.2772792
-0.18021971
-0.20888403
-0.1721868
-0.24837258
0.2772163
0.04624915
-0.17981131
-0.11081272
-0.3039326
-0.22795649
0.111099094
0.28039068
-0.1724091
0.31494892
0.017577328
-0.07307471
-0.34107187
-0.15470771
0.29996997
0.18819395
0.2382663
-0.08475555
0.27681798
-0.25638425
0.37049982
-0.35008457
-0.1617316
0.025940929
-0.05983691
0.300669
-0.27779433
0.21529387
-0.2549395
0.2879853
0.26257035
0.025910249
-0.017918134
0.069749266
0.0691854
-0.053289168
-0.25771365
0.10838106
-0.23989919
-0.120541014
0.09084992
-0.079258904
0.10544925
0.0001826649
0.04459401
-0.15865101
-0.25098115
-0.24989752
0.08569388
0.16254842
0.106248215
-0.0060302024
-0.02824801
-0.23993349
0.07786113
-0.021469893
-0.13520949
-0.24884437
0.20404837
-0.3262088
-0.03698956
0.27173558
-0.12365054
0.12839037
-0.23480389
0.09368924
0.05875745
-0.28461885
-0.1867495
-0.19737661
0.06779506
-0.17689294
0.012700816
0.0174046
0.04356607
-0.19391559
-0.3114271
-0.018978093
0.038014527
0.25945306
0.3160984
-0.18763751
0.081928454
-0.07831094
-0.14508492
0.2439908
-0.112130426
0.15592772
-0.27869165
-0.16509126
-0.3552526
-0.33750248
0.3406617
-0.026142338
0.040032998
-0.2084867
-0.09097266
0.2864144
0.2898393
-0.057570435
-0.097950354
0.33034253
0.32301304
-0.24987045
-0.3216239
-0.0226322
-0.13795055
-0.028045641
0.115977846
0.32807752
-0.12351578
0.35337567
0.04419171
-0.32586497
-0.24142423
0.325047
-0.17093016
-0.28056994
0.09269039
-0.14737664
0.07565998
0.38351226
0.28156483
-0.024395203
0.32712734
0.117754124
0.13425729
-0.10999031
-0.082022175
0.09648302
0.033344727
0.048893485
0.3023707
-0.25937003
-0.1712066
-0.14132322
0.2518513
0.12088999
-0.003321924
0.10881752
-0.3803079
-0.38255203
-0.24069457
-0.021434903
-0.26663488
-0.018456215
-0.27823684
0.11902383
0.23138277
0.3462141
-0.3075601
0.0020933656
0.23135245
-0.37023565
0.31246918
-0.030537836
0.16410416
0.24066746
-0.13016352
-0.28910127
0.106771946
0.01115502
0.32049212
0.21083088
0.27773556
0.12512948
-0.39499706
0.12565376
-0.15246502
0.2782771
0.18210632
0.33098435
-0.10464154
-0.25726426
0.21082224
-0.0063697924
0.30884647
-0.0850961
-0.20931104
-0.13767104
-0.3323537
-0.11560386
-0.17804727
-0.24369232
-0.13923483
0.28166458
-0.056649446
-0.15483917
0.0051741176
-0.2955875
-0.22977032
0.09562977
0.22271368
-0.113185346
-0.2841352
0.29475126
0.28011075
0.28675085
-0.22859733
-0.2875357
-0.30648863
-0.10927637
-0.25208557
0.10050128
0.06541324
0.13355452
0.18075077
-0.21539049
-0.32407206
-0.2472062
0.20972668
0.17342733
0.1442303
-0.09236594
0.2577443
-0.06852585
0.20950863
0.036521073
-0.2911566
-0.09113137
-0.20359015
0.34806046
0.31865686
0.22217433
0.038918104
0.15543827
0.2897806
0.19874933
0.101409875
0.010089029
0.2456264
-0.23736343
0.30431882
-0.083904624
0.32258853
0.22091176
-0.042351488
-0.23796526
-0.21861018
0.057210278
0.2983868
-0.34165567
-0.20906545
0.33853284
0.09216892
-0.112537995
0.16386719
0.024689145
-0.35435006
0.07706727
-0.32907712
0.18121035
-0.04240275
-0.117497616
0.22135888
0.2840059
-0.20346959
0.2165474
0.09157669
0.28478006
0.38133356
0.11242479
0.043659605
0.2018273
-0.21886888
-0.24016859
0.19168532
-0.07222947
-0.13085489
-0.12420373
-0.052942198
0.07602054
-0.028716968
-0.08078582
0.17214738
0.22872247
0.02663914
0.18201987
0.3659388
-0.06952861
0.053740047
-0.049063094
-0.27145094
0.0069898446
-0.2068375
0.12729646
-0.3502489
-0.31453553
0.17998843
0.26589257
-0.037461374
0.12271843
-0.31581986
0.050184198
0.051348872
0.27196702
0.064911455
0.15773049
-0.052130494
0.1900408
-0.26536772
-0.2949708
0.12560406
-0.25492936
0.11292831
0.14056976
-0.223465
0.28597468
-0.27099675
-0.20963533
-0.04687052
-0.2524639
-0.020024898
0.10251274
0.059157327
-0.15835384
0.28565413
0.30623215
0.059650764
0.17599455
0.1455426
-0.0053840196
-0.21961102
0.02019972
-0.0073527503
-0.17707263
-0.30214664
0.016468048
0.049899057
0.043708533
0.07226502
0.20409578
0.16637702
0.081163615
0.30297312
-0.08550405
-0.28405893
0.06559572
0.044017192
-0.22252068
-0.35662454
-0.1473908
0.25097415
-0.16449982
0.015517434
-0.22972941
-0.009914243
0.013562087
0.25531062
-0.08701438
0.047017355
-0.2646632
-0.220673
-0.2126445
-0.07833275
-0.2170349
0.26936767
-0.18312211
0.103108056
0.22219737
0.21661939
0.33866394
0.04262615
-0.24322605
-0.30114803
0.21084097
-0.09123133
-0.0064143264
-0.09374658
0.29456973
-0.16628113
-0.22821333
0.09810021
0.1817224
-0.15793145
0.13049026
0.06804733
-0.24916305
-0.3018347
-0.024696765
-0.24237052
0.047042336
0.1882113
0.03130561
0.0071297367
0.20775016
-0.0010380587
-0.15371886
0.059706338
-0.1015857
-0.08339076
0.16957937
-0.19800366
0.0068751476
-0.16564813
-0.09686373
-0.30547407
0.16969061
0.24503781
0.2606304
0.3178088
0.16283326
0.04499706
-0.38741106
-0.18611649
0.0022786474
-0.18917966
-0.34507382
0.31652454
-0.011469005
-0.2227213
-0.05232178
0.09845431
-0.054376557
0.21570802
-0.25254297
0.27387482
-0.27461562
-0.18421939
0.06419144
0.22545615
-0.044491354
0.19222523
0.16000366
0.17732614
0.26776809
0.29580808
0.06671317
0.07097425
-0.2108009
-0.31437227
-0.034848746
-0.14806974
-0.030582396
-0.1874707
0.25037795
0.32798377
0.3728527
0.3495074
0.080702096
-0.018672673
0.25737795
-0.1209778
0.032392055
0.16767415
0.109466024
0.11466361
-0.2581172
0.12940495
0.2295825
-0.051665522
-0.31846908
-0.24051882
0.18226553
-0.07749454
-0.26297456
-0.1961777
-0.17885491
0.17340618
0.2643058
0.30311203
0.14207964
0.00017008999
-0.05940537
-0.031653382
-0.0554207
0.24150573
0.3036913
0.26578054
-0.17570856
-0.27144223
0.29793558
-0.16270053
0.13645814
-0.29107168
0.24534489
-0.3379531
-0.020902349
0.16872694
0.15288681
-0.1749718
-0.0035908096
-0.20141831
0.12380006
0.091628484
-0.3128036
-0.29238465
-0.108115554
0.25544757
-0.13035677
0.25238782
0.10364327
0.11300477
0.21727973
0.109997146
0.085935265
0.2079546
0.1896797
-0.013480283
0.09559125
0.1882236
-0.19620287
-0.24996954
0.25198498
-0.3164015
0.11867192
0.21964547
-0.29107404
0.06533533
-0.10957811
-0.26430222
-0.19473054
0.2482044
-0.07046044
0.0035313547
0.20560683
-0.057353247
-0.2627828
0.25159633
-0.038418807
0.13444369
0.019069733
0.059249245
0.12542665
-0.44311157
0.13619325
0.2510604
0.021020954
0.21803962
0.1512812
0.046691533
-0.09530051
0.099452175
-0.29948017
-0.23951408
-0.09506604
-0.2553121
0.15347856
0.39639702
0.3542124
-0.100806236
0.38438556
0.33094493
0.09222449
0.28889197
-0.13100477
-0.09660424
0.014557278
0.20447955
0.06946437
0.22759564
0.21331868
-0.054825455
0.098992266
-0.2633377
0.25062293
0.28024486
-0.17394903
0.250615
0.05320287
-0.018863026
-0.31068954
-0.14977914
-0.12996396
0.047026116
0.04942973
0.19585569
-0.2581758
0.09403172
0.11520466
-0.16599628
0.040842276
-0.29069254
-0.15060611
-0.30352262
0.048756965
-0.103146665
0.17202835
0.32356492
-0.1160095
0.045506354
-0.124886155
0.11409743
0.20611158
0.023370434
-0.08709969
-0.10254723
-0.0008229842
0.027591413
-0.11945171
-0.084365726
0.037815362
-0.1619241
-0.10399861
0.16803034
-0.23005052
-0.053708166
-0.1525452
-0.16192459
0.34083956
0.14099704
-0.21163702
-0.21311535
-0.031306554
0.20426106
-0.1593511
0.23677413
-0.1377963
0.16679113
0.22706345
-0.29749054
0.07993576
-0.2532157
0.083071545
-0.13056587
-0.15082076
-0.36418298
-0.1923138
-0.19027369
0.0604368
0.0027620785
-0.007355571
0.24615358
0.022985196
-0.1368505
-0.1891693
-0.06452353
-0.005102085
0.10261533
-0.3993626
0.34149355
0.19730258
-0.044397306
-0.09533211
0.20964675
-0.040022876
-0.15450333
0.19531728
0.3480682
0.33135968
0.116445914
0.24674061
0.07530696
0.29141775
-0.25819147
0.20236906
-0.29520714
-0.24802506
-0.17554176
-0.09931731
0.32395616
0.063034706
-0.16384208
0.023712886
0.19697426
-0.25519943
0.16648893
-0.22911043
-0.22973686
0.32109994
-0.057109393
-0.21364874
0.071012996
-0.20662741
-0.12903993
0.24525414
0.055128638
-0.012965823
0.14323545
-0.116609596
0.1225534
0.15391868
-0.0398727
-0.10902765
-0.33055222
0.16779532
0.29473442
-0.07242005
-0.3083041
-0.094294064
0.23883218
0.08696204
-0.011048715
0.08892075
-0.2944943
-0.2654663
-0.3071818
0.025190625
-0.026063941
-0.2548317
0.16515665
-0.23073027
0.18036649
-0.10406304
-0.28040403
-0.15117376
0.25740322
-0.08951373
-0.30865198
0.26638395
-0.3483437
-0.1491654
0.14672384
0.04935512
0.27353624
-0.28566107
0.34603706
-0.116162255
0.1893547
0.33401996
-0.27047542
-0.33932513
-0.29861704
0.29711244
-0.06281197
0.16311887
0.26062918
-0.11050797
0.14801237
0.16092819
0.2703438
0.13420872
0.19690883
-0.20678836
0.03964777
-0.14014766
0.24309781
-0.050151605
-0.04309909
0.14747283
0.0329315
0.23650536
0.1614587
-0.045966897
0.35077885
0.11188686
-0.2838446
0.35201368
0.4287784
0.18944547
0.21291932
-0.09751509
0.2161013
0.042273283
-0.1972167
0.31164446
-0.1785163
-0.10731102
-0.1391311
0.39745247
-0.031620525
0.019616604
0.18755998
0.026584933
0.2793399
-0.24419723
-0.3379848
-0.010484515
0.2860039
0.27708134
0.21094735
0.19130382
-0.21009429
0.21878648
-0.15646371
0.1462196
0.09554817
0.08855242
0.015901402
0.00050491863
0.13760301
-0.21323244
0.07283059
0.16770202
-0.043431334
0.2587643
-0.26818946
0.17000121
-0.0100710485
0.12173781
-0.1981683
-0.2759894
-0.058371373
-0.23162158
0.13725752
0.007960188
0.05767655
0.024623947
0.26746303
-0.13855305
-0.0056592287
0.3678564
-0.20525594
-0.19320492
-0.14625421
-1.1755343e-05
-0.17456667
-0.119192585
0.23817222
0.095114164
-0.17841
-0.2341733
0.018708229
-0.12587853
0.30048513
0.2660774
0.2776185
0.09518272
-0.19766293
-0.18848523
-0.030204969
-0.28120512
-0.3941456
-0.32714126
0.07969515
-0.26458088
-0.034527548
-0.25996983
0.14666711
0.026853101
0.2566296
-0.0760958
-0.22016963
0.13412388
-0.058954008
-0.28502154
-0.25690383
-0.15025055
-0.21266627
0.3120957
-0.06064624
0.19566591
-0.11135233
0.2676503
-0.08608598
0.38246804
-0.31650662
-0.2029389
-0.23645408
0.029285654
-0.03629841
-0.1491802
0.1936813
-0.10852732
0.35320446
0.33731893
0.10940526
0.17898718
-0.14850691
0.28362677
0.11868811
0.30557203
0.17989105
0.09811865
-0.32544303
0.07548138
0.3363366
-0.33661383
0.09321212
-0.19060022
0.047607705
0.3356661
-0.13876198
0.1018947
-0.31241935
0.4046048
0.14612155
0.1657948
-0.009283129
0.17526475
-0.027121268
-0.064864516
-0.017638752
-0.25017938
0.2828408
-0.18612336
0.025220873
-0.29814464
0.052739482
-0.28405485
0.16783933
0.22600166
-0.08751212
0.3034463
0.008642071
0.051142205
0.08924532
0.20589733
-0.1945783
-0.17930256
-0.29035532
-0.06461033
0.06818452
0.025776302
-0.083865486
-0.24845377
-0.18632296
-0.24268398
-0.34953323
-0.1100475
-0.26543927
0.12380378
-0.09556411
-0.13777596
0.28335178
-0.27029225
0.0570765
0.23025486
-0.076170385
0.0448693
0.25830528
-0.18029323
0.13282232
0.25247076
0.35218373
-0.079340346
0.07350128
0.27102727
-0.2669303
-0.2538542
-0.3744427
0.1354017
0.14321907
0.0421551
0.12189091
-0.3936084
-0.33809224
-0.16710173
-0.15807144
-0.012994562
-0.17895189
0.13974726
-0.3131946
0.15394907
0.27675378
0.26526836
-0.3675189
-0.22344668
-0.09412587
-0.020683436
0.07367364
-0.15195413
-0.24275438
-0.07249444
-0.18897587
0.21703039
-0.106868125
-0.19017144
-0.22032487
-0.094697624
0.16886194
-0.29642043
0.20843357
-0.09907288
0.17903495
-0.24753323
0.21397434
0.15243255
0.16107333
-0.061631292
-0.26847836
-0.13578172
-0.14064986
0.1727601
-0.06143386
0.18855938
-0.39923963
0.34110478
-0.25221157
0.28146428
-0.18448375
-0.23535527
0.22702171
0.09519244
0.16960578
0.15610768
-0.28015825
-0.33402225
-0.21285152
-0.3289808
0.24187568
0.33477935
-0.15324882
0.32591313
0.08665923
0.14385656
0.09199669
-0.09456033
0.2573063
0.08715594
0.30427936
0.106862865
0.14426315
-0.33920878
-0.17342693
0.30452788
0.19725543
-0.3042107
0.24912584
-0.02441348
-0.11305762
0.1334628
0.12954983
0.0688396
-0.16589132
0.12490193
0.21859054
0.1499791
0.328765
0.04647218
-0.20228446
0.058916483
0.04415801
-0.20189485
-0.023228625
-0.16535856
0.22926264
-0.13494332
0.022967784
-0.104853824
-0.09261936
0.068768784
0.16057426
0.0015552181
0.06961334
-0.21373114
0.2008061
-0.16816579
0.15018196
-0.0773316
-0.26870093
0.026645876
-0.02343365
-0.2865492
-0.05815112
-0.293643
0.11045359
-0.09745832
0.3770005
0.038517606
-0.2639828
-0.11215847
0.3171883
0.01698527
-0.07933654
-0.24785787
0.20834637
0.18630062
0.0040112264
-0.29786345
0.25554508
-0.2925928
0.06094191
0.17040214
0.3128528
-0.041270424
-0.12128775
0.16098014
-0.13063927
0.026381971
-0.077825874
0.027061611
0.0057961177
-0.27121887
0.34810793
-0.21516299
-0.09592994
-0.31150955
-0.020217601
-0.2182492
0.2717796
-0.14828078
-0.10854164
0.36221617
-0.18782856
0.3238163
0.20228481
0.23775935
0.05924478
0.20713872
0.21264781
-0.24577393
0.2759953
-0.03956189
0.063233726
0.29901302
-0.34900877
-0.11032641
-0.406859
-0.30465695
-0.20810406
0.12739855
0.42226902
0.23305836
-0.071711056
0.024965126
0.05556153
-0.21459636
-0.20084354
-0.15011154
0.0283954
-0.26427028
-0.22478525
-0.26387644
0.00278241
-0.09956283
0.3103774
0.16597049
-0.2728557
0.14353523
0.31665334
-0.22517093
0.28311625
-0.012862678
0.048780233
0.16891925
0.20203479
-0.1401064
0.049255095
-0.1072886
0.0041819494
0.048234425
-0.09368759
-0.0006466083
-0.17429332
0.09430069
0.33186802
0.20080839
-0.34757122
-0.16921791
0.12404964
0.042856377
0.24934232
0.11084774
-0.3735655
-0.06431357
-0.022356465
-0.22914729
-0.05040093
0.18641707
-0.16074587
0.07652024
0.2637048
0.3996021
0.11284931
-0.016973756
0.104293
-0.1703111
-0.13036115
0.103007786
-0.27054194
-0.092174895
-0.29240942
0.2459598
0.26685023
0.26437557
-0.351468
0.18054469
-0.13884501
0.089425154
0.15081918
-0.27033803
0.25959563
-0.2866759
0.23761797
-0.05392001
0.03890989
-0.20694259
0.3179816
0.06451859
-0.22920813
-0.25452745
-0.24218382
-0.0147651555
0.07025168
-0.15142833
0.18811138
-0.024543298
-0.19222091
0.18653883
0.09905749
0.2758409
0.2748762
-0.08872553
0.12395559
0.15618615
0.3221247
-0.28988978
0.14408568
-0.29005164
0.1920465
0.377504
-0.13955842
-0.12944181
-0.24914472
0.27182126
-0.001585007
0.12115669
0.16336456
-0.1259848
0.118213385
0.22307082
0.07868391
-0.2347253
0.23561466
0.19389506
-0.26751247
-0.22985005
0.018964536
-0.21551026
0.27786112
-0.2411945
0.021853894
0.21215628
-0.22200753
0.0228587
0.15697189
0.18185283
0.36385334
0.18477446
-0.117210925
-0.15460186
-0.32132515
-0.224746
-0.19694181
0.33536354
0.05946864
0.22618227
-0.10215122
-0.22986595
0.17920738
-0.11821313
0.26755443
-0.2548705
0.07355776
-0.17231776
-0.10580314
-0.2891123
0.019762663
-0.265157
-0.22019607
-0.26507175
0.021120185
0.011725109
-0.047633894
-0.22666271
0.19611129
-0.17558017
0.073572
0.06965507
-0.29059216
-0.24291748
0.2302698
-0.047779303
0.05150114
0.26167145
-0.23702396
0.017897865
0.14890748
-0.058390863
0.11372529
0.034871466
0.2944336
0.26630867
-0.1822831
0.10933469
-0.26053628
0.022909598
0.24119279
0.013998416
-0.23430698
0.28614476
0.13755693
-0.28979278
-0.012899992
-0.14941156
-0.16464467
0.1301139
0.15847942
-0.2589968
-0.3298751
0.19830544
-0.16380557
0.30774227
-0.008173008
0.2106759
-0.30842328
-0.29183233
-0.29223064
0.06306046
-0.3183023
0.2408847
0.31002894
-0.054255676
-0.02747957
-0.08342925
0.11564927
-0.0689062
0.011813559
-0.05437953
-0.25723416
-0.08600076
-0.20943604
0.26303676
0.39334327
-0.26767075
0.120663516
0.091262475
0.004683515
-0.3092703
-0.22198494
0.19350487
0.14219996
-0.033856887
-0.040061284
0.03829617
-0.28188744
0.35507545
-0.25294223
0.10364757
0.06120617
-0.037681803
-0.18586773
0.07759628
-0.1850226
0.08236886
-0.25047827
0.1445108
-0.25251737
0.106445
0.26585823
-0.2549998
0.11598448
0.23050745
0.14393921
-0.2370598
-0.2088438
-0.052939225
-0.057078883
0.22468294
0.2710808
-0.29065558
-0.30700636
0.23691553
-0.016766803
0.2397299
-0.03169208
-0.03959518
-0.12637807
-0.31874046
-0.115406156
-0.30445912
-0.36262313
0.022309288
0.097868495
0.2643598
0.11092995
-0.24837196
-0.18977351
-0.21015987
-0.2799972
-0.26602742
-0.21545278
0.2814064
-0.23494178
-0.3620524
-0.14108646
-0.34275237
-0.15546988
-0.31813154
0.29672194
-0.23750228
0.1025556
-0.20221275
0.21307811
-0.1788199
-0.093549356
0.023492169
0.1097671
0.18484998
0.14479429
-0.31725702
0.28894776
0.22058074
0.14464962
-0.08153581
-0.06926344
0.079151
-0.2674825
-0.04765847
0.07108026
0.12405155
-0.06955659
-0.17733085
-0.0318753
0.119092084
0.1732713
-0.06387926
-0.2214676
0.22307134
-0.2437417
0.25600022
0.0815318
0.36464995
0.32447338
0.12942638
0.20050958
-0.061519157
0.101358585
-0.09688451
-0.08214699
0.28855056
-0.015576746
-0.166787
-0.15615278
-0.04186626
-0.015241683
0.16862388
0.317415
0.3164551
0.22078292
0.159202
-0.25944573
-0.20203638
0.2077127
0.2499267
0.06851677
0.41010794
0.4564648
0.27832863
0.21631767
0.008910727
-0.20146741
-0.0947053
-0.31213295
-0.07165212
-0.008517233
-0.25211397
-0.3143565
-0.34892243
-0.029028932
0.24823448
-0.157084
-0.050781965
-0.34617665
-0.13235168
-0.06518904
-0.1262294
0.24576609
0.280128
0.28572237
-0.18328314
0.20877522
0.007657189
0.054493565
0.14601196
0.06777983
-0.3567524
-0.35355142
0.012298645
0.0034741405
0.099089235
-0.23465912
0.3096143
-0.3387949
-0.21887152
0.14227629
0.21830219
0.20294704
-0.22136258
-0.2702415
-0.27776977
-0.19418173
-0.22454296
0.27230078
0.18343163
-0.12925331
0.19071162
0.043049593
0.23730703
0.067302376
-0.19021222
0.023255693
0.086482644
0.28753826
-0.098958366
-0.17256139
-0.04550741
-0.05005467
-0.093197264
0.1913225
-0.231744
-0.0130929295
-0.25841036
-0.10775022
-0.009692141
-0.07697258
0.06673374
0.33380476
-0.33128563
0.020255825
0.102350295
0.07815243
-0.033471376
0.19948001
-0.24622884
-0.074239455
0.21607135
0.09691328
-0.21544471
0.08708909
-0.17810751
-0.19505584
0.15182588
0.29564846
0.032047994
-0.029305786
0.21847124
0.26119098
0.10289447
0.14540203
-0.14483702
0.03452888
0.24243437
-0.18726836
-0.16542636
-0.06251916
0.018042257
0.120143585
0.19433412
-0.21191765
-0.012479821
-0.23319462
-0.058397904
-0.21208383
-0.3134026
0.031318188
0.0647174
0.023136025
-0.067151934
0.279612
-0.01787687
0.30943593
-0.14943679
-0.1525657
-0.3213134
0.01942858
-0.3411997
0.3108311
-0.033742074
0.27611142
-0.2751089
-0.05730608
-0.22516124
-0.22226913
-0.013773369
0.178253
-0.14267585
0.31336027
0.2574849
-0.007698088
-0.25599298
0.20383495
0.098553665
-0.17505005
0.09270615
0.32999754
0.2437817
0.10983848
-0.124459684
-0.0063618063
0.094987065
0.105129555
-0.28439093
0.21974544
0.33809844
0.23045008
0.14511125
0.14146762
0.22567515
-0.13235155
0.15236281
-0.32100055
0.2860797
-0.10030952
-0.2732059
-0.33130714
-0.06751254
0.18816409
0.29466224
-0.076891884
0.190047
0.13264878
-0.18421324
-0.13055351
-0.31961012
-0.20461477
-0.38075802
0.012881148
-0.020920984
-0.30505934
-0.029798016
-0.25523743
0.114870846
-0.1909852
-0.27740356
-0.2857078
-0.30006164
-0.15638171
-0.08823979
0.053178713
0.38864627
-0.2662503
0.25362977
0.32668927
0.19248714
-0.20388848
0.059822854
-0.0690307
-0.14373408
0.008153101
0.16939381
-0.1880319
-0.1935532
-0.10028888
-0.1056395
-0.08259627
-0.036765955
-0.3346185
-0.3506931
-0.095025
-0.19354656
-0.089748815
-0.32099357
0.14452414
-0.1079974
0.20890072
-0.3120201
-0.08304801
0.036105987
0.23440693
0.010344334
0.025063174
-0.29501632
0.1389586
0.28342327
0.32602286
-0.030766103
-0.288066
-0.2601639
0.031393453
0.2981978
0.2722468
-0.26655564
-0.14234816
-0.032113947
0.19436228
-0.26253232
-0.09854605
0.3015458
-0.14292783
0.008654507
-0.31149846
-0.101251744
0.24089773
-0.032842256
0.05315222
0.21708187
-0.024704384
-0.02604748
0.085210346
-0.23911102
-0.2166057
0.08420928
-0.3224091
0.27683133
0.15835306
0.108586214
0.13141452
-0.182203
-0.13562779
-0.26419097
-0.17549393
-0.11047825
0.045687016
-0.28999782
-0.114210464
0.008624965
-0.14056921
0.040847853
-0.32261348
0.10338894
0.17191698
0.02793269
0.25533566
-0.19473925
-0.10899244
0.011805936
0.21008524
-0.32652706
0.23586833
-0.02541789
0.020711593
-0.09355663
0.2634461
0.31374618
0.09079475
-0.27122277
0.14083943
-0.1344971
0.29777825
-0.23672321
0.09741123
-0.19482823
-0.3322479
0.09835595
-0.12882794
-0.27462092
-0.19383247
0.2626884
0.2213219
-0.071378395
0.2063795
0.09840065
0.14841509
-0.33015195
0.29458642
0.15950485
-0.13214862
0.3113372
0.22823748
0.02717194
0.33187258
-0.21867122
-0.03262054
0.03750915
-0.010139778
0.3048059
-0.17975573
0.13006842
-0.2759599
0.21433435
-0.060474038
0.04820705
-0.27557558
-0.19497137
-0.30453074
0.25945947
-0.027250458
0.064198986
0.11095346
-0.07155868
-0.21885516
0.01776088
0.16660444
0.05068262
0.3130916
0.26577625
-0.11606733
-0.1078323
0.14094262
-0.16807267
0.036249947
0.10299003
0.21682172
0.2860493
-0.23558298
0.27123296
0.04693857
-0.012823167
0.04826649
0.048638627
-0.08423515
-0.19433875
-0.15755858
-0.31463268
0.15180357
0.18986286
0.20268872
-0.28027278
-0.15694967
-0.18112694
-0.118624754
-0.2951915
-0.28233188
0.21452606
-0.14196382
0.17376721
-0.025348634
-0.30987865
0.09660902
-0.04613804
0.25908968
0.11677759
-0.1788676
-0.29189107
0.29752135
0.21364082
0.024276827
0.01926745
-0.016381742
0.25484768
-0.34738094
-0.26834813
-0.25426713
-0.22136658
-0.21520875
0.15851872
-0.04103991
0.17594181
0.35796797
-0.18071823
0.060388576
0.3452358
0.34360817
0.16520754
-0.3525044
0.002622264
-0.1682035
-0.08215256
0.14375865
-0.021535547
-0.05499611
0.109997034
-0.056710742
0.1943563
-0.275027
0.0008343524
-0.06276252
-0.25819144
0.28530148
0.045433458
-0.15203878
0.3144886
-0.12010589
0.025754206
0.008570778
-0.0279426
0.1596295
0.07271841
-0.033422887
-0.1103661
-0.21230264
0.3021507
0.27606314
0.16113086
0.057504732
-0.095130324
0.30092695
0.12154801
-0.18609445
-0.15722536
-0.23062414
0.26117128
-0.14210233
-0.116931185
-0.02335944
-0.21878
0.3326773
0.06496985
-0.026143545
-0.031670157
0.037452083
0.11204267
0.14250173
-0.14070816
-0.27647915
0.12835906
-0.094194405
0.04309606
0.27351508
-0.04500402
-0.046307147
-0.0802626
-0.06894936
0.17444399
-0.16783409
-0.22721058
0.090165436
-0.12602974
-0.18359494
0.2718007
-0.114956155
0.21215858
-0.17061512
-0.13023826
0.11939213
0.1014692
-0.36446735
-0.1160387
-0.3121178
-0.3740185
-0.22272405
-0.22784957
-0.3272838
-0.011656098
0.3598827
0.24887857
0.28643712
0.17487285
0.0018038962
-0.3368734
-0.19002971
-0.28080207
0.24265355
-0.102232955
-0.18116266
-0.12703338
0.20896158
-0.043177534
-0.14932075
0.30485553
-0.17041528
0.14125286
0.19172534
0.08948589
-0.014432507
-0.33382532
-0.2591043
0.1868449
0.027086068
-0.28120434
0.1911856
-0.20322284
0.15097345
0.10073162
-0.13419381
-0.007476555
-0.023703525
0.27286607
-0.35122478
-0.14857225
0.21703072
0.3226881
-0.1408192
0.10674686
0.091328
0.21390365
-0.30995727
-0.026545698
-0.18206988
0.029237142
-0.14818911
-0.34644976
-0.37420976
0.31112117
0.07987764
0.29418886
0.21430625
0.101027824
-0.2904085
0.19462533
-0.22495149
-0.16387892
-0.16542715
0.21642174
-0.20466387
-0.107938886
0.3640051
-0.27921483
-0.37139067
0.29494956
-0.33392853
-0.18069145
-0.009515561
-0.3450083
-0.10212827
0.1837671
0.15531199
0.04240957
-0.12712526
0.017426828
-0.27773863
0.32322475
0.29983422
-0.36315337
-0.21376406
-0.3651781
-0.28159922
-0.3535531
-0.19117531
-0.15102059
-0.21672027
0.032211628
0.024013465
-0.26686177
0.093778364
0.27460024
0.19116221
-0.29559138
-0.16681193
-0.088560335
-0.08914662
0.054535583
0.15149145
0.2807415
0.24257562
-0.15818428
0.3338411
0.06767581
0.19534636
-0.06617981
0.035124205
0.078406475
0.103101455
-0.1733321
0.21238789
-0.22260632
-0.16117026
0.0051691015
0.186623
-0.16484796
0.19351155
0.25244355
-0.22009386
-0.03038614
-0.19363129
0.26403457
-0.18038414
-0.16256851
-0.25703603
0.22190885
0.07336909
-0.28062716
0.20945534
-0.28759354
0.25985497
-0.2475654
-0.2504647
0.3243847
-0.085315004
-0.07016015
-0.14383122
-0.05769126
-0.26457432
0.39314002
0.41968614
0.024069715
0.1853786
0.020781213
-0.06922648
0.37427762
0.30784565
-0.2857471
0.15392086
0.068943575
0.17997053
-0.29752755
0.085179746
-0.023659837
0.17851962
-0.22358371
-0.1408031
0.11688192
0.058681242
-0.16444033
0.22217798
0.027199846
0.15898047
0.29967067
0.12207957
-0.16881308
-0.3626122
0.0867493
-0.081708595
-0.24600835
-0.005644406
0.109256096
0.28793567
0.23398529
0.04895256
-0.124001086
0.20735672
-0.29481792
-0.14622015
0.1626761
0.03883139
0.061115045
-0.21192941
-0.22187111
-0.1202848
-0.23153585
0.09019494
0.31513014
0.14346263
-0.17825857
0.20580575
-0.2222894
-0.1475632
-0.08614731
-0.06177756
0.23989348
0.20268793
-0.08453131
0.011403093
-0.1408329
0.06454704
0.16081285
-0.19246052
0.22335744
-0.1574249
-0.32684043
-0.2976959
-0.19269744
0.31426206
-0.24643408
-0.092376746
-0.17176026
-0.15933919
-0.16600825
0.32692426
0.21565227
0.086520754
0.15682577
-0.07676033
0.27787557
0.20674346
0.27340913
0.28318584
0.2931004
0.03761414
-0.19205219
-0.12426608
-0.33460793
0.09596255
0.06728376
-0.013146487
-0.21972969
0.10374081
0.0784971
0.34632695
0.096042596
0.10805223
-0.10008733
-0.045719225
-0.30282232
0.10240535
0.060340907
-0.32312143
0.25787395
-0.19490571
0.242174
-0.2970182
-0.03239459
0.024174541
-0.06750792
0.21579672
0.2712699
-0.31866968
0.15501498
0.20299992
-0.19148451
-0.06155268
0.13739376
0.33322623
-0.2548179
-0.1385916
0.15311475
0.09162627
0.36978987
-0.21504386
0.19451971
-0.2084021
-0.11869852
0.29913178
0.08029789
-0.298688
0.18356794
-0.16106044
0.18551373
0.105093844
0.29697984
0.25989375
-0.2021801
0.11714878
-0.051863942
-0.04543499
0.21818562
-0.11884248
-0.15376584
0.021551033
0.20670319
0.1522587
0.28759095
0.12870316
-0.24439982
0.3036284
0.055839833
0.04952731
-0.19761425
-0.18374941
0.07058519
-0.2123983
0.12673448
0.24012606
-0.14305519
0.21958044
-0.14023535
-0.19226852
-0.049257617
-0.31656763
-0.15891466
0.31691578
-0.19293284
0.3438235
0.46798053
0.12255771
-0.10266491
-0.16702002
0.14103091
0.24889417
0.0868201
0.34319857
0.19187573
0.061564058
0.06745027
0.3427288
0.14359316
0.22400181
0.113196135
-0.08524929
0.09212299
0.34208283
-0.06822179
-0.06566463
-0.18066321
-0.115058675
0.18773597
0.2525134
-0.29306555
0.31664792
-0.0607957
0.11035244
-0.2297703
0.3619936
0.10616553
0.050061762
0.2753242
0.1999754
0.11719737
-0.30215454
0.06331372
0.11548979
-0.08603602
0.005009606
0.3194058
0.21241204
-0.12771954
-0.26470637
-0.037796874
-0.16633624
0.32056132
-0.08136753
-0.0884147
0.29878977
0.049196027
0.21999705
0.2270024
-0.07878027
-0.21283515
-0.18412341
0.04592626
-0.003924322
0.21282439
-0.3890256
0.08684062
-0.15639211
0.33938918
-0.0707509
-0.2684951
0.32995605
0.03720565
-0.06552457
0.15060876
-0.29656464
0.1342604
-0.042847328
-0.29723325
0.21183331
-0.24297717
0.19985697
-0.10645677
0.12816934
0.07918122
0.11836882
0.34648937
-0.109126106
0.22662646
-0.23571694
-0.22430131
0.08282732
0.2926111
-0.25591764
0.26624113
0.25535884
0.05453956
0.14956851
-0.15020868
0.01896701
-0.10664609
-0.064773284
0.2933827
-0.20945042
-0.19418398
-0.030290311
-0.20737475
-0.3399246
-0.20278119
0.24825732
0.13757361
-0.06888299
0.25788602
0.34380096
0.3033114
0.044349626
0.027815444
0.18042068
-0.3464332
-0.12082462
0.31462726
0.08439683
-0.089403085
0.19816142
0.09555451
-0.11944169
0.09653725
-0.24095501
-0.12271602
0.12746216
0.060258795
0.13829179
0.19898438
0.2782476
0.36598912
0.09174653
-0.080930114
-0.20627238
0.16076522
0.17336372
-0.14910741
-0.2038841
0.25889704
0.021525398
0.099508554
-0.033148658
-0.29316264
-0.11780832
-0.33463758
0.18560952
-0.30836466
0.17095783
0.2627634
0.21451354
0.059511345
0.13239343
0.16666432
0.32095385
-0.08455932
0.29049337
-0.29621544
-0.13059172
-0.12515663
-0.021045566
-0.040809475
0.030236058
0.22770809
0.10424341
-0.16218364
-0.18812054
0.04975618
0.07822352
-0.026255613
0.13704598
-0.21799296
0.15985392
-0.101788275
0.06327736
-0.2977081
0.21403977
-0.0003586434
0.35400805
-0.2552219
-0.07199364
-0.03641935
-0.17281482
0.250999
0.14396086
0.07354066
-0.06546763
0.40151763
-0.3160842
0.024795739
0.16183288
0.20166852
-0.31943232
-0.23943162
-0.21457899
-0.07372239
0.13881104
0.1453917
0.17359747
0.23316053
0.021985622
0.22902235
0.12044666
0.25723892
0.02135432
0.04772852
-0.15404537
0.24282876
-0.01797715
-0.07393553
-0.25580463
-0.014182544
0.16294919
-0.19212379
-0.2958377
0.33932683
-0.052247148
-0.37268502
0.17023024
0.23117714
-0.13882464
-0.22213869
0.30012664
0.2982739
0.023030171
0.20801422
0.18699299
0.30713713
-0.13497199
0.33589298
0.12989247
0.31860846
0.015965201
0.2360014
0.110793926
-0.07362321
-0.13338275
0.07118497
0.29064775
-0.02536779
-0.1648842
-0.30778474
-0.17422529
-0.08110623
-0.09203852
0.31213492
0.2718154
0.113084145
0.025407467
-0.19093813
-0.058122464
-0.29673517
0.35037553
-0.2511299
0.23776859
-0.15304032
-0.23708254
-0.33836567
-0.11926222
-0.07336536
0.1158332
0.062327858
0.16881134
0.26523015
0.0045634243
-0.26517037
-0.013548567
0.219721
0.14307234
-0.012422894
-0.22407177
-0.20377907
-0.038319055
-0.22293063
0.34768295
0.19968133
0.29178193
-0.108647436
-0.10433276
0.13361542
0.1343692
-0.22035147
-0.25315422
-0.21688825
-0.060222026
0.20582362
-0.1532403
-0.26994488
-0.14118208
0.33319893
-0.102245085
0.27984092
0.04040329
0.3850855
0.027496291
-0.1941485
0.044149503
-0.09649215
0.030205166
-0.0007991228
0.11246245
-0.23118007
0.28875542
-0.27529615
-0.13207375
0.19643356
0.2004069
0.2725999
-0.25247812
0.055187836
0.07301365
-0.1580877
-0.2781761
-0.08576738
0.23599182
-0.07931637
-0.055434007
-0.33277434
0.14375997
-0.09003233
-0.0022178793
0.29655278
-0.20218138
-0.07527892
-0.04986008
-0.036723662
0.21372221
-0.06779421
-0.10493
-0.15177996
-0.21594809
0.075276695
0.1418269
0.13300523
0.1511871
0.14695981
0.10499159
-0.15390573
-0.08561496
0.2809854
-0.29791355
0.017627567
0.009622952
0.3602768
0.17136611
0.28905585
-0.2890798
0.17734435
0.19004148
0.027623247
0.325617
-0.2016537
0.12669119
0.25087562
-0.017228818
-0.08261271
0.32831758
0.4267512
-0.107002296
0.013774341
0.117772974
-0.098993324
0.01009085
0.07419172
0.09671301
0.13137859
-0.17138392
-0.118898004
-0.0839599
0.08416004
-0.13583343
0.029706856
-0.32406375
-0.15389927
0.12244179
-0.020262867
0.29234678
0.26698825
-0.26017126
0.102287404
0.19105946
-0.15416852
0.08686597
0.15753318
-0.18371506
-0.3499272
-0.019621473
0.21872476
-0.37728003
-0.15601179
-0.32276082
-0.29027018
0.17112985
-0.23483956
-0.00633691
-0.018426545
0.0057789953
0.08334345
-0.005226146
0.20587662
0.00030126618
-0.26069283
-0.2690264
-0.20412405
0.15834858
0.04106987
-0.0879285
0.19537352
-0.283909
-0.035246965
0.23893495
-0.34463704
-0.13069819
0.356363
0.2872098
0.32492
0.120893404
0.29566553
0.26916733
0.05302573
-0.026353687
0.009288778
0.22382356
0.05084054
0.1199838
0.2164855
0.27979612
-0.088834554
-0.10688366
-0.14994425
0.3426338
-0.2568201
0.026348718
0.1671515
-0.13080823
-0.15131769
0.23210129
-0.09762368
0.12113154
0.00713209
-0.27313733
-0.13771395
-0.056328658
-0.26570112
0.034974057
0.13025692
0.056822184
-0.29251295
0.0682047
-0.13612568
0.11943657
-0.2060005
0.17958216
0.022642173
-0.05729916
-0.100291304
0.31790298
0.26864806
-0.3014846
-0.13834566
-0.09014422
0.08654124
0.17470972
-0.104769796
0.081312194
-0.25101292
0.35309938
0.15716843
-0.20052472
-0.32541844
-0.0020978637
-0.21387242
-0.08671781
0.21786375
-0.03964936
0.19186215
-0.05945773
0.049350616
0.21911192
0.3179486
-0.10221089
-0.3482326
-0.26770848
0.32195553
-0.30710194
0.042525012
0.23877403
0.32075188
-0.17549355
-0.30504158
0.2353428
-0.038556572
-0.3005699
-0.02362546
0.04017916
0.061610498
0.30902293
0.38021097
0.060753096
0.052382596
0.1601548
0.14541988
-0.1517035
0.10368493
-0.3265124
0.25249183
-0.056957383
-0.30985
-0.035625074
-0.23587427
-0.0063777124
-0.24082506
-0.002102117
-0.16864425
0.22798312
-0.22252828
-0.12337695
0.23455437
0.08718271
-0.0898419
-0.29530028
0.19632776
-0.061051995
-0.12930582
0.17611046
0.062383167
-0.019102817
-0.091642015
0.101939745
-0.14498597
0.34061506
-0.05190121
0.044304404
-0.1670278
0.14590241
-0.016195731
-0.20705687
-0.019033436
-0.24930404
-0.09283848
-0.15342776
-0.29965812
-0.18372299
0.23548153
0.060955398
0.10605899
0.32592452
0.014597358
-0.18040638
-0.120583065
0.06582524
-0.15797198
-0.04445737
-0.0665085
0.01280258
-0.1746899
0.036828846
0.23112288
0.3304429
-0.23210326
0.036975734
0.14498775
-0.043438334
-0.07257157
0.39252833
-0.10891514
-0.034249697
0.04562761
-0.06976845
0.115466386
-0.06588262
0.011226852
0.22933786
0.25587988
-0.1689397
0.27025855
-0.23079462
0.17471021
0.2851168
-0.252866
-0.031288978
0.026939709
-0.26800656
-0.16303852
0.32155117
0.009151921
0.016437184
-0.036500264
0.2395876
0.083644666
0.07077697
-0.011473989
-0.21625838
0.22805692
0.19098006
0.0537279
-0.22250368
0.13873789
0.1820243
0.22256154
-0.22706771
0.2716303
-0.28104535
-0.12975876
0.3135399
-0.10339166
-0.29105437
-0.30747145
-0.102607824
-0.30484784
-0.273529
0.041622397
-0.3130015
-0.26849553
-0.27648577
0.19967222
0.07276141
-0.06919034
-0.13612689
-0.20800094
0.050404996
0.30022538
-0.15380743
-0.16175394
-0.15268399
0.19854632
0.21008143
0.18147764
-0.13203141
-0.29847988
0.17427959
-0.16569673
-0.026178386
0.16959968
0.012915931
0.1543028
-0.35868436
-0.27859282
-0.014537495
-0.10258298
-0.23782764
-0.32321355
0.22000332
0.3626507
0.24346119
-0.24590044
0.048566222
0.385109
-0.11294614
0.27205852
0.08093269
-0.15722707
-0.28317717
-0.01461016
-0.33091724
-0.30555844
0.043151595
-0.26780528
0.21388139
0.12062645
0.12728183
0.27532053
-0.24690054
0.07267445
-0.13586028
0.156672
-0.03814866
0.048154827
0.1301816
0.39407843
-0.26888132
-0.06513657
0.12901
0.2264547
0.104578085
0.1850405
-0.18763527
-0.2814079
0.029073056
-0.20111063
0.2648752
-0.07283653
0.2384693
-0.04366353
0.02833368
-0.3574942
0.19892156
0.30167705
-0.021514762
-0.061612405
0.1731917
0.19102848
-0.06679617
0.2977851
-0.08618331
-0.3368326
0.010849286
0.43275648
-0.1596439
-0.31323597
0.28120896
0.07491875
0.024317738
0.14007783
0.29290816
0.12757686
0.037587192
-0.21336648
0.08004828
-0.009440411
0.093279615
-0.045223102
0.023487387
-0.23863846
0.3163743
-0.108787194
0.054736506
0.31752217
-0.12512937
0.2447278
-0.16275309
0.11034031
-0.25579503
0.00018987586
-0.13308987
-0.19791879
-0.05305548
-0.33641887
0.23775615
-0.18857981
-0.31150457
-0.02045833
-0.2439223
-0.20425305
-0.17128363
-0.11227869
0.28009328
0.23314261
-0.08829285
0.31277692
-0.048220105
0.22323042
-0.19824924
-0.009639603
0.08205552
-0.15378013
-0.11595208
-0.31833473
0.13877071
0.23672237
-0.09875824
-0.118535995
0.020587984
-0.13230418
-0.07567157
-0.056052
0.16225016
-0.06370033
-0.112382926
0.015912924
0.26665515
0.11166321
0.21617782
0.13967164
-0.14231128
0.2173375
-0.1559082
0.36361688
0.031662405
-0.023406787
-0.09312925
0.1852718
-0.011530812
-0.21742679
-0.26428723
-0.1359549
0.13224958
-0.26655498
-0.04026325
0.17923723
0.12930399
0.14483725
0.13436353
0.25255635
0.26796034
0.16992863
0.2761684
0.07451019
-0.2641224
-0.04711314
0.036588386
0.16379197
-0.08685061
0.030299619
-0.35694882
0.24981555
-0.2852045
0.2658639
-0.08476833
0.23032975
0.14310014
-0.27607086
-0.2542126
-0.3435589
0.11037416
0.29240182
-0.26541176
-0.22924222
0.26855522
0.016630143
-0.33287477
-0.05791551
-0.22017272
-0.28320625
0.07622213
0.06201572
-0.11284015
-0.055108868
0.20246315
-0.3049063
-0.15281287
-0.25381443
0.29848307
0.28610802
-0.055506423
0.19650428
-0.16440563
0.1529057
-0.2816344
0.121952765
-0.001716579
0.34673187
-0.3899503
-0.088044345
-5.9097452e-05
0.3083559
0.06982728
-0.2754676
-0.10314921
-0.36854666
-0.2175434
-0.21977347
-0.2535868
0.04582054
0.03933075
0.07755057
0.1977453
0.2689032
0.12654479
-0.21414343
0.2989194
-0.084878385
-0.0427712
0.28950402
-0.16069946
-0.20701109
-0.21439819
0.3693719
-0.2730571
0.20922941
0.12301296
0.07520849
0.029641919
-0.24542177
0.33539054
0.08171959
-0.04321595
0.0045629386
-0.23076163
-0.2843516
0.1553414
0.17841066
-0.1907743
-0.077589825
-0.24597278
-0.124067165
-0.2499141
-0.16936794
-0.29357076
0.07968981
0.02829018
-0.002625751
0.07536891
-0.16030762
0.13589124
0.33767328
0.2457773
-0.10918467
-0.0640416
0.29820183
-0.2815019
-0.16075905
-0.20512459
0.2779257
-0.05301784
-0.28688455
0.28147334
-0.2529928
0.0153010255
-0.124954544
-0.027150987
0.18815124
0.16478536
-0.018867869
-0.19633725
-0.09001626
0.07240532
-0.026161917
0.25850257
-0.27169332
0.36781305
-0.14167354
-0.08777793
0.2442273
-0.080770835
-0.2692133
-0.1904095
0.10239559
-0.2027367
-0.254291
-0.036891896
0.0013146462
-0.12665245
0.1507467
0.24474007
0.36074367
-0.32643086
-0.015158453
0.1339376
-0.12527926
0.05066665
-0.10465606
0.26487985
-0.2514019
0.1620285
-0.06504492
0.20994222
-0.035775147
0.107357986
0.18171015
-0.12860353
0.13894853
-0.19045234
-0.22262539
0.112698905
-0.15879178
-0.21087548
-0.20469852
-0.0699327
0.14672178
0.34928557
-0.25732386
0.21873821
0.06765193
-0.072494045
0.033342496
0.24283299
-0.2737925
0.17506503
-0.03289475
0.27867013
-0.20744693
0.17698829
-0.015880499
0.10044994
-0.040892985
0.035961144
-0.26609474
-0.0081772
0.07805344
-0.2939581
0.1217979
-0.23694988
-0.23213494
0.13677463
0.30541018
-0.08680883
-0.20990102
-0.057172682
-0.07312405
-0.19698578
-0.260869
0.16953036
0.15401132
-0.068176605
0.08613252
-0.3371316
-0.013463632
0.23690914
-0.2368039
0.05099479
0.18391465
0.062693864
0.08536432
-0.023628479
-0.106360614
-0.28824615
-0.34361875
-0.14854683
0.11962309
0.32485223
0.10941281
0.3960336
-0.22198819
-0.13969205
0.20875727
-0.15592438
0.3435417
-0.19096582
0.041185953
-0.2700389
0.1105153
0.053714156
-0.22501479
0.16372976
-0.01092357
0.14956984
0.3167324
-0.34787014
-0.09360449
-0.2151159
0.34084666
0.2949037
0.2583793
0.24494335
0.0055511766
-0.16724135
0.16355062
-0.28468668
-0.0452406
0.16471127
-0.36326826
0.26390234
-0.10199579
0.031149488
-0.27855006
-0.08451973
-0.306736
0.066296525
-0.33120787
-0.30945075
0.113815166
-0.31774896
-0.07842686
-0.3437421
-0.1917064
-0.18710144
-0.29648313
-0.075111225
-0.1690899
0.1559173
-0.2562046
-0.2462121
-0.23106244
-0.01072009
0.16975185
0.28753996
0.050499734
0.096693456
0.23910391
0.013012221
0.05161705
0.11510423
0.2428539
0.09242041
-0.17710626
-0.19514194
0.027824856
-0.1585198
-0.016897053
-0.094065875
0.056543395
0.15529642
0.37950453
0.041573722
0.17156087
0.015550343
0.22700976
-0.04966654
-0.31252065
0.2496666
0.09826929
-0.1464515
-0.35512584
0.27306816
0.38147122
0.38413236
0.110005006
-0.2840408
-0.27903527
0.40490922
-0.0029399367
0.050193906
0.12523602
0.061629158
0.16588098
-0.19600685
0.2515737
-0.29903522
-0.1550662
0.24333748
-0.08119938
-0.20868838
0.2155296
-0.2979535
0.057372775
-0.08525175
-0.028711693
-0.08487134
0.0073692733
-0.22438276
-0.25736216
0.11840587
0.25719193
-0.039567687
0.21421514
0.05144987
-0.3988312
0.22759898
-0.19292288
0.11776105
-0.2690611
-0.02920403
0.04595172
0.350132
-0.24245751
0.18614753
-0.070320204
-0.20826665
-0.31607714
-0.16576546
0.31318194
0.25385475
0.13059428
-0.0906299
0.17939565
0.18272609
0.31920394
-0.08274898
-0.049778476
-0.05979101
-0.2566208
0.10886037
0.16633934
0.104891814
0.13509016
0.26670402
-0.12418221
-0.037069842
0.09808357
-0.20888877
-0.24478543
0.03355826
-0.18355225
0.16054703
0.21014172
-0.14872228
-0.0690947
0.08095823
0.31448483
-0.007825639
0.18512422
-0.26853028
-0.06007443
-0.32258442
-0.078233756
-0.066896066
0.302442
0.21335892
0.04722186
0.25917676
-0.18263584
-0.30008984
-0.123793684
-0.3729955
-0.10494584
-0.011908825
-0.1481818
-0.20646451
-0.09321422
-0.17229433
-0.2629138
0.3421819
-0.033352174
0.25319418
0.06485953
0.37711033
-0.026038872
0.4098097
-0.20665544
0.14290974
-0.40179652
-0.19072592
-0.10236132
0.08749975
-0.035598274
0.24657446
0.29129234
-0.10892424
0.020903125
0.117453545
0.069651075
-0.0004030368
0.031332035
-0.21803823
0.23634267
-0.1262311
-0.14729066
-0.21695068
-0.05523048
-0.101610444
0.096263915
-0.17742574
-0.31882548
0.104137406
-0.052422766
0.2210047
0.0030382723
0.19250923
0.09969153
-0.23111692
-0.32488918
0.044696122
-0.23655806
0.13653712
-0.11378559
0.25980687
-0.052536134
-0.21742998
0.26043049
0.30359733
-0.29384908
0.076599635
0.0650841
0.13315286
-0.009979859
0.10359609
-0.1330352
-0.25029707
0.25917968
0.2781129
-0.25269768
0.32236075
-0.18098517
0.32184052
0.010257913
-0.022403551
0.054598704
0.109002136
-0.13053104
0.3043142
-0.21955964
-0.28139842
-0.30313253
0.18473567
0.033745088
0.0997486
0.25011104
0.3545354
0.21514182
-0.27718
0.10546689
0.09990701
0.20710894
0.28629246
-0.18121643
0.22735752
-0.19579667
0.069137864
-0.2834893
0.2983904
0.2042535
-0.2483281
-0.0845783
0.050589107
0.17941678
-0.29112405
-0.25179294
-0.06996431
0.015767843
0.01199775
0.22882009
0.26032388
0.06232914
-0.08629887
-0.2085523
0.33159694
-0.10498959
0.0710946
-0.20723219
-0.09128491
0.046283077
-0.07544419
-0.07455748
0.3372765
-0.04330698
0.095245846
-0.26114717
0.15521945
-0.17145842
-0.123044476
0.1747099
-0.07976868
0.015080148
-0.08852176
0.3494255
-0.34184167
-0.27531683
0.28673804
0.08832797
-0.19873263
0.32934272
-0.3057884
0.06990565
-0.11249113
0.014372536
-0.07799789
0.30705753
0.22394319
0.22162308
0.15972026
-0.18757138
0.17164822
-0.27486143
0.2517174
0.16826212
0.23629197
0.2718588
0.18984395
-0.29934508
0.22100846
-0.06637799
0.2541271
0.14137019
0.029539116
0.1626888
0.092108324
0.16736126
-0.23400804
-0.30767003
-0.16263159
-0.2213268
0.12641914
-0.18356705
-0.23178135
-0.16117372
0.05861479
-0.14390858
-0.22459789
-0.25899
-0.29949057
0.1807251
-0.006009221
0.27179742
0.07515669
0.36994016
0.23898596
-0.13611338
-0.09791229
0.18137605
0.2973583
0.35652122
-0.14796723
-0.24812418
-0.27215406
0.27450845
0.12755616
-0.14691947
-0.28688902
0.17968646
-0.0567961
-0.28976482
0.21997839
-0.10836256
-0.19081937
0.27803308
0.0547328
-0.06860206
-0.14516655
0.2631351
0.2309722
0.27505556
-0.18776752
0.16444664
0.097020894
-0.19166748
0.14553191
-0.26772836
-0.10980045
-0.20121753
-0.22563812
-0.27339435
0.09373899
-0.3010298
0.10637552
-0.37642005
-0.26255694
0.13230163
-0.22516508
-0.107487015
-0.20029485
-0.07910235
0.05718157
0.19352566
-0.012581257
0.1442016
-0.06032197
0.37593564
-0.32405403
0.050451163
0.09039569
0.17588091
-0.28199908
0.004082332
-0.09924209
-0.2502715
-0.3361291
0.2348334
0.21773997
-0.3756502
-0.10608358
0.0035643775
-0.15962002
0.008524448
0.11960233
0.012803769
-0.027089894
-0.19721891
-0.13352053
-0.26762834
0.32012656
-0.123341486
0.1261938
0.23642635
-0.1558083
-0.033738647
-0.11393935
0.05884249
0.19199024
0.2782678
-0.076536804
-0.20230743
0.15071465
0.23285986
-0.00502119
-0.06456519
-0.16428997
0.014566305
-0.21885383
0.27101743
0.37464947
0.050599713
-0.07143805
-0.26625264
0.20337805
-0.010171703
0.17638679
-0.20185344
0.14060254
-0.19606797
0.27079827
-0.14085428
0.29130727
0.27247003
0.22906432
0.10697213
0.01753198
0.018885417
0.23358166
0.01859528
-0.31683353
0.118214354
-0.20386955
-0.19019803
0.14315793
0.09549163
0.2135468
-0.098677754
-0.092129655
-0.10913854
0.050316334
-0.13791217
0.09334865
0.010333485
0.18109311
0.12046882
-0.28292546
-0.10102361
-0.041481264
0.082226105
0.09118077
-0.20134044
-0.099663354
-0.15850301
0.022907307
0.09341842
0.073721826
-0.24766217
0.10563075
0.30498254
0.28602868
0.23449905
0.13663524
-0.11444073
0.09782296
0.22683528
-0.19283324
-0.109057166
0.23496738
-0.111766845
-0.1840565
0.29098248
-0.10222604
-0.23404527
0.2732056
-0.15353602
-0.048228454
-0.19208634
-0.29943967
-0.14827035
-0.25528857
0.35063887
0.020037606
0.26850894
-0.13375033
0.17806354
0.23179589
-0.16460475
-0.063427426
0.22871545
0.14456081
-0.2007004
-0.01825025
-0.16077639
0.22314891
0.14929564
-0.08919829
-0.14454243
0.17333165
-0.30781478
-0.30834705
0.29322797
-0.102401026
-0.054047912
0.15698628
-0.008694243
0.23006211
0.023275757
-0.30717218
-0.009740738
-0.20394658
-0.33071607
0.12601796
-0.039475806
0.22283854
0.00603872
-0.045688637
-0.023796542
-0.0788525
-0.10312629
0.15936376
-0.24120939
-0.1080309
0.10253265
0.08005357
0.18195973
-0.14187549
0.3208697
-0.058944877
-0.1743375
-6.305381e-05
0.24586874
0.047174126
-0.25606814
-0.06661299
-0.04464249
0.16312
0.1255555
-0.27600715
0.08529191
-0.08142937
-0.21925141
-0.34618816
-0.17362817
0.19179435
-0.1810494
-0.23416136
-0.0064066728
0.0008542304
0.25218183
-0.20340563
0.053175386
0.038891744
0.15928759
0.33622172
0.3161117
0.0035917843
0.24563743
0.36028904
0.07835126
-0.1862039
0.39190724
-0.26950473
0.33999762
0.33757424
0.19091384
0.28301337
0.09560815
0.008213022
-0.18903276
-0.29750475
0.19673674
0.17676279
0.10185402
0.029745866
0.2899604
0.32073238
0.16076064
0.076286964
-0.18127927
0.21383306
-0.3347331
0.29960316
0.27161488
0.15681699
0.06778111
-0.28472492
-0.17091416
-0.20331682
0.12170437
0.20171449
-0.044204306
-0.28079718
-0.08152761
-0.33927593
0.13697915
0.04174233
-0.0152134625
-0.20956479
0.33849084
0.20292893
0.06374791
-0.15134798
0.09559966
0.28278658
-0.3185694
0.016154982
-0.09477774
-0.3392853
-0.15812568
0.1970655
-0.018978328
0.35966614
-0.1949466
-0.28876588
-0.075534515
0.21584088
0.2899823
-0.25685745
-0.31270334
0.12429911
0.29907906
0.18028288
-0.05731962
-0.08852065
-0.18744649
-0.22255485
-0.24276613
-0.20120752
-0.07458132
0.15894751
0.120558456
-0.10606778
-0.2752986
0.018705886
-0.18069407
0.22863983
-0.3668037
-0.01063557
0.17789692
-0.14830498
-0.0596037
-0.11842181
-0.06797017
0.15490007
-0.23565362
0.08653973
-0.24266107
0.2891098
-0.30849454
-0.33108386
0.05974187
0.19841515
-0.2592609
0.3302724
-0.0021918227
0.18596572
-0.1774854
0.0823695
-0.09438673
-0.22012438
-0.067756355
0.26550215
-0.048896614
-0.31658244
-0.29120374
0.2478417
0.30094483
0.29295844
0.21529496
-0.042661697
0.16962092
0.35205236
0.10650606
0.0040361206
-0.28170404
-0.2963678
0.18573844
-0.16748771
-0.12805021
-0.11107136
0.060928207
0.23425816
-0.10550206
0.32693598
-0.350258
-0.17125054
0.23082918
-0.09554761
0.24413253
-0.071665615
-0.12703678
-0.0813602
0.051124454
0.028982153
0.03651119
0.20924443
0.30907753
-0.15394095
-0.17472342
0.15674257
-0.20599887
0.2858208
-0.2625244
0.1634874
-0.036866967
-0.2506841
-0.17632185
0.19086263
-0.21790262
0.09836229
0.17911285
-0.25954804
-0.38750145
-0.23257205
0.29584798
0.025893683
0.31298205
-0.32087016
0.30471128
-0.18358043
-0.11066439
0.039813563
0.24310389
-0.09413526
-0.23192896
0.16754118
0.24188885
0.21970668
0.21821944
0.031913567
-0.14785287
-0.30040392
0.39940387
-0.28963354
-0.07142606
0.03575733
-0.23305851
0.21634147
-0.38073188
-0.006060871
-0.18493204
0.21186136
-0.18945245
-0.33529514
0.024526134
-0.20940465
0.1558444
0.23011853
0.06758789
0.31677854
0.11220759
-0.11432575
0.21363345
-0.28300923
-0.070379764
0.3105224
-0.09413624
0.053130616
-0.22628449
-0.31750217
-0.15439886
0.17257068
0.16966558
0.2887855
0.02490708
-0.061645918
-0.07527735
0.25405797
0.050253667
0.21510853
-0.034885153
0.040894203
-0.35484406
-0.2784266
-0.07640433
0.22711931
-0.04309758
-0.25064328
-0.40264055
-0.14614901
0.12721081
0.008780479
-0.016109852
0.23160745
-0.22140369
-0.2961841
-0.035345305
-0.027477352
-0.02287989
0.37142956
-0.06825793
0.06877845
-0.103653744
0.07069543
0.19311194
0.0005276889
-0.06703724
-0.30404344
-0.06256035
0.011263414
-0.25256166
-0.21823777
0.0016611418
0.1338574
-0.23695825
0.2171883
0.09906115
0.03397189
-0.14506471
0.016055318
-0.15238352
-0.014052844
-0.3038165
-0.118161224
0.012054177
-0.27736428
-0.19972979
0.091045976
-0.0150144985
0.31918928
0.09185445
0.11840958
-0.015852643
0.27391407
0.34303704
0.013188042
0.0122923255
-0.27803814
-0.18750964
-0.21464117
-0.32284024
-0.29053175
-0.3021122
0.0023219588
0.19828223
0.1010781
-0.16943447
0.20836876
0.06605245
-0.35790294
-0.10554629
-0.08798505
-0.35367322
0.22879705
0.2675262
0.28784382
-0.2994521
0.024783863
-0.22982128
0.037066065
0.04550844
0.04231828
-0.29554537
-0.19081081
0.032474097
0.10594014
0.07156832
-0.1403071
0.30151236
0.060758278
0.0045353733
-0.33416885
0.16372016
0.009551635
-0.07198227
-0.30383998
-0.12547185
-0.22193156
0.2733341
0.2205091
0.1487715
-0.027379287
-0.13482493
0.008346945
0.08608266
0.2869172
0.12849191
-0.12909986
0.3403106
-0.00749951
-0.15695898
0.08008537
0.1806973
-0.15675832
0.0569056
0.05185847
-0.16906531
-0.20693499
0.1505189
-0.23204605
-0.18568492
0.14727561
0.20390584
0.012204792
-0.116450176
0.11902779
-0.25196725
0.21536529
0.006131198
-0.048048716
-0.05667386
-0.101157874
-0.10300846
-0.02941076
-0.16145796
-0.25071272
-0.1637323
0.3651926
0.3266018
0.10837898
0.10442168
0.3381461
0.020236596
0.13021864
0.16874711
-0.3302795
0.3302731
-0.23227791
-0.06940144
-0.11246389
-0.03187712
0.2712519
0.08026755
-0.06523123
0.15705495
0.012057714
-0.31695563
-0.07091964
0.22712989
-0.32293823
-0.02903014
0.26961792
0.14683767
0.30098435
-0.35312915
0.17571856
-0.019067971
-0.10530459
0.07446453
-0.12730335
-0.19616155
0.034290794
-0.12750918
0.07435388
0.033238273
-0.10216331
0.22102582
0.2916687
-0.19734766
-0.3184106
0.036919735
0.08554708
-0.02096525
-0.109168924
-0.19877614
0.27606997
0.015756618
-0.01970837
0.00513207
-0.11787639
-0.21286099
0.00798996
-0.17210297
0.18023324
-0.27595568
-0.037683044
0.10464517
0.1026253
-0.05753981
-0.10746105
-0.1239578
-0.25097114
0.07699805
-0.08774657
-0.23230807
0.02518482
0.09935243
0.19157562
-0.02071212
0.08488778
0.17408654
0.15596487
-0.087788075
-0.22864217
0.09150163
-0.0010206937
0.40882307
-0.098276846
0.09358598
-0.28769517
0.0907467
0.23472537
0.2342662
0.06405046
0.06370106
0.20277375
0.2069616
0.15678468
0.09842935
-0.22566484
0.01714326
0.23780783
0.036808927
-0.20420913
0.029299825
-0.21786791
-0.29381055
0.34012213
0.40682402
0.25668013
-0.0986309
-0.08394879
-0.21368936
-0.285269
0.010531489
-0.05854439
-0.10462032
0.23589016
-0.0864539
0.107983924
-0.15986258
-0.20771745
-0.23154889
0.21730639
-0.22710614
-0.25742906
0.19622102
-0.23485157
0.10753346
-0.030480998
0.33075115
-0.26175863
0.1979417
0.0014310777
0.041014433
-0.13739462
-0.05946683
-0.0007988765
0.22087404
0.008105891
-0.32650393
0.20729253
0.07929925
-0.3061471
0.07497475
0.0153634725
0.09054412
-0.06770994
-0.26046214
0.10948853
0.2530841
0.18594047
0.26030895
-0.21020485
0.09077669
0.24303484
0.37587813
-0.032816265
-0.044781584
-0.14668569
0.055384554
-0.1321249
-0.13936657
0.33290166
-0.030350761
-0.13167843
0.2695667
0.23926075
0.16190556
-0.18749748
0.28748426
0.09387151
-0.057020843
-0.22878085
-0.2917747
0.11738846
0.37322155
0.009957675
0.26632875
0.2594657
0.22643769
-0.12299153
-0.2293758
0.28153026
0.17671192
0.010870858
-0.33292457
-0.3444377
-0.087967284
0.17675541
-0.15466008
-0.06410056
0.28699097
0.30266252
-0.11118143
-0.067354485
-0.05608583
-0.13882819
0.10817338
-0.2993901
0.036930695
-0.011590633
0.15481775
0.030803021
-0.16225012
0.26942214
0.23743363
-0.119016886
0.42177713
-0.3594366
-0.38984695
0.11743897
-0.15729526
0.23711799
-0.16809365
0.31511775
-0.13988772
0.1762932
0.18986145
-0.25699016
0.20831232
-0.013076746
-0.099946864
0.08900927
-0.23416446
0.2853232
-0.19157597
-0.0023601071
-0.026460363
-0.05284987
0.049447063
-0.051294282
-0.10307494
-0.25372946
0.1673006
